{"config":{"head":null,"layers":[{"gated":false,"channels":16,"dilations":[1,2,4,8,16,32,64,128,256,512],"head_bias":false,"head_size":8,"activation":"Tanh","input_size":1,"kernel_size":3,"condition_size":1},{"gated":false,"channels":8,"dilations":[1,2,4,8,16,32,64,128,256,512],"head_bias":true,"head_size":1,"activation":"Tanh","input_size":16,"kernel_size":3,"condition_size":1}],"head_scale":0.02},"version":"0.5.4","weights":[0.0022798976860940456,0.3572889566421509,-0.7616508603096008,-0.660737156867981,-0.2212437242269516,0.0011687384685501456,-0.008834335952997208,0.5733413696289062,0.011758439242839813,0.2296820431947708,-0.16817708313465118,-0.05467094108462334,-0.8348857760429382,-0.504729688167572,-0.25195351243019104,0.02049822174012661,0.2081778645515442,0.1264878511428833,-0.15330812335014343,-0.20241954922676086,-0.1249111220240593,0.2704166769981384,0.11896693706512451,0.28775355219841003,-0.19004608690738678,0.16391988098621368,0.30777573585510254,-0.30476412177085876,0.0492386519908905,0.13134363293647766,-0.23535767197608948,-0.0005932849599048495,-0.22234094142913818,0.1501884013414383,-0.264697790145874,-0.18379062414169312,-0.1333233118057251,-0.027999915182590485,-0.11734863370656967,0.23034511506557465,0.1663951873779297,-0.004159924574196339,-0.15262708067893982,-0.2641947865486145,-0.267360657453537,0.11046259105205536,0.2209937423467636,0.24726292490959167,-0.2176065295934677,0.11944866925477982,0.2202260047197342,-0.053379420191049576,0.20534612238407135,0.19897712767124176,-0.06669452786445618,0.05414271354675293,0.19933092594146729,-0.27503177523612976,0.04969024658203125,0.10574497282505035,-0.09533389657735825,0.3111928403377533,0.12206658720970154,-0.10086272656917572,-0.023639554157853127,-0.04446299001574516,-0.002434649970382452,0.11277608573436737,0.36371105909347534,0.13356900215148926,-0.19658251106739044,-0.32639646530151367,0.07883559912443161,0.03248092904686928,-0.14746034145355225,0.15258130431175232,-0.048581916838884354,-0.3852149546146393,0.053434211760759354,-0.02091592736542225,0.08821574598550797,0.04984124004840851,0.09499778598546982,-0.28988760709762573,-0.11699992418289185,0.0644424632191658,0.2519594132900238,-0.0860295295715332,0.01893465593457222,-0.18928155303001404,0.10289014875888824,0.1381557285785675,0.3569629192352295,0.011797509156167507,-0.20889241993427277,-0.3520328104496002,0.0815945714712143,-0.034878358244895935,-0.33626052737236023,-0.027034945785999298,0.049164269119501114,-0.17760378122329712,-0.04316437616944313,-0.11455763131380081,-0.40548229217529297,0.017725365236401558,-0.1939341127872467,-0.3834439814090729,0.013506465591490269,0.005171813070774078,-0.16963917016983032,0.1476866453886032,-0.14554321765899658,0.01906992308795452,0.12860742211341858,-0.22828516364097595,0.10140511393547058,-0.1166144609451294,0.12663039565086365,-0.09991369396448135,0.202361062169075,0.11104739457368851,-0.20859520137310028,0.21297214925289154,-0.033048246055841446,-0.20825104415416718,0.12029273062944412,-0.15176920592784882,0.0578581877052784,-0.285969614982605,-0.0451011136174202,0.059370338916778564,-0.19667626917362213,-0.11109443008899689,0.2342779040336609,-0.1588726043701172,0.03518226370215416,0.081407330930233,0.17995144426822662,-0.025859644636511803,0.25309282541275024,-0.07187573611736298,0.24853084981441498,-0.12941627204418182,-0.002339416416361928,0.03855757787823677,-0.008688108995556831,0.1606946587562561,0.033164117485284805,-0.24411135911941528,0.007061968557536602,-0.010649600066244602,-0.15654143691062927,0.2187621146440506,0.18398445844650269,-0.2639278173446655,0.2377503365278244,0.003119984408840537,-0.09669425338506699,0.14376109838485718,-0.08314135670661926,-0.03708137571811676,-0.20026399195194244,-0.045165661722421646,-0.15123909711837769,0.12255125492811203,-0.1456761211156845,0.1798771321773529,-0.2717384994029999,-0.08590852469205856,0.25605085492134094,-0.19707603752613068,0.04590678587555885,0.16364659368991852,-0.2829798758029938,0.1500367969274521,-0.12170673161745071,0.08502285182476044,0.09408768266439438,-0.17370323836803436,0.034762319177389145,0.048287369310855865,-0.020388610661029816,0.17890256643295288,0.05215019732713699,0.052404001355171204,-0.0753731057047844,0.06535536795854568,-0.22457431256771088,0.23907721042633057,0.027074726298451424,0.20965804159641266,-0.22949162125587463,-0.07281690835952759,0.00014314621512312442,-0.2235744595527649,-0.16383007168769836,0.17404432594776154,-0.22460660338401794,-0.08888447284698486,0.1244993582367897,-0.04454318806529045,-0.18900549411773682,0.020373661071062088,-0.22236311435699463,-0.0038281045854091644,0.006206076126545668,-0.05429638922214508,-0.04904768243432045,-0.05376521497964859,-0.14569763839244843,0.08648949861526489,-0.15703551471233368,-0.013160239905118942,-0.11109252274036407,0.19260555505752563,-0.15467840433120728,-0.18417540192604065,0.293549507856369,-0.1579967737197876,-0.11796680837869644,0.30827146768569946,-0.001165937166661024,0.0796368271112442,-0.28171366453170776,0.13637952506542206,-0.10283727943897247,-0.05717108026146889,0.0553484708070755,0.08588375151157379,-0.17082780599594116,0.16122157871723175,-0.019465520977973938,0.06920945644378662,0.0217579435557127,0.028441425412893295,-0.09445428848266602,-0.046058155596256256,-0.1749785989522934,0.20562277734279633,0.030743246898055077,-0.003251471323892474,0.09926421195268631,-0.05718008801341057,-0.034669287502765656,0.034991391003131866,0.06512097269296646,-0.23389148712158203,0.17087900638580322,-0.059927284717559814,-0.1844373345375061,0.18651102483272552,0.07671859115362167,-0.16340966522693634,0.006641784682869911,-0.14848552644252777,-0.06693486124277115,0.05446334555745125,0.08418302983045578,-0.2528817653656006,-0.11301300674676895,0.055082518607378006,0.23141703009605408,0.13834801316261292,0.07892841845750809,0.10861118137836456,-0.013240194879472256,0.06775731593370438,0.2603052258491516,0.05891432985663414,-0.05060817673802376,-0.16460619866847992,-0.11683251708745956,0.041978850960731506,-0.03560638800263405,0.017815986648201942,0.03209643438458443,-0.2533295154571533,-0.052594367414712906,0.0078157689422369,0.010999893769621849,-0.08898933976888657,-0.07230827212333679,-0.02417149767279625,0.006644758861511946,0.10206899791955948,0.097664013504982,0.06738264858722687,-0.011478430591523647,0.13725581765174866,-0.06528759747743607,0.07738039642572403,0.2020256519317627,0.02803392894566059,-0.004462033044546843,0.06367115676403046,0.1279064118862152,-0.0824659913778305,0.21859188377857208,-0.010330839082598686,-0.03284437581896782,0.12041202932596207,-0.12727119028568268,0.047769755125045776,0.03846791386604309,-0.15604449808597565,0.08853942155838013,-0.07792732864618301,0.14757125079631805,-0.1570204794406891,0.014126435853540897,-0.11539014428853989,0.21178697049617767,0.07814683765172958,-0.04120052605867386,0.2583427131175995,0.05156101658940315,-0.0879128947854042,0.2268773764371872,-0.0981907844543457,0.08358867466449738,-0.16039493680000305,-0.13368017971515656,-0.04284375533461571,-0.09228377044200897,-0.0006335267098620534,0.17420829832553864,-0.14471177756786346,0.13836796581745148,-0.0007649317267350852,-0.0056573799811303616,-0.26054760813713074,0.23024873435497284,-0.07675506919622421,0.03667249530553818,-0.026898764073848724,0.24098794162273407,0.2717508375644684,0.054012853652238846,0.2855888605117798,0.09832682460546494,-0.1437487155199051,0.27740833163261414,0.21695958077907562,-0.1762668788433075,0.28124943375587463,0.2006545066833496,-0.006865915842354298,0.07405293732881546,0.07947644591331482,-0.21582207083702087,0.1729261428117752,0.16052918136119843,0.2685895264148712,0.15077096223831177,-0.05413403362035751,0.07456526905298233,0.1625032275915146,0.008542878553271294,-0.09442536532878876,-0.1792624592781067,-0.03268043324351311,-0.24210628867149353,0.03304148092865944,0.18669773638248444,0.014757106080651283,0.04603906348347664,-0.22318650782108307,-0.0002664115163497627,0.020357362926006317,-0.1519000232219696,-0.025605568662285805,-0.17447203397750854,-0.17456157505512238,-0.009441673755645752,0.0009149071993306279,0.16212280094623566,0.11092426627874374,0.08126788586378098,-0.006693858653306961,0.24581147730350494,0.03410586714744568,0.18115773797035217,0.01249918807297945,-0.044336240738630295,0.25273481011390686,-0.024494923651218414,0.027008047327399254,0.05562722310423851,-0.060979072004556656,-0.06848018616437912,0.07612056285142899,-0.20685553550720215,-0.16635112464427948,-0.006602145731449127,-0.030347084626555443,0.02031662128865719,0.07814250886440277,-0.13448351621627808,0.06422151625156403,0.04263573884963989,-0.07740992307662964,-0.047715216875076294,-0.090659961104393,0.23891636729240417,-0.126154363155365,0.35974204540252686,-0.06945013999938965,-0.011600448749959469,0.29871878027915955,-0.2652343213558197,0.015896936878561974,0.3375997245311737,-0.16861259937286377,-0.05381917580962181,-0.22070294618606567,0.13669732213020325,-0.07882224023342133,0.011629501357674599,0.17716841399669647,-0.0818876177072525,-0.3086879551410675,0.18126492202281952,0.02485169842839241,0.18284378945827484,-0.07681305706501007,0.02697751671075821,-0.3345041871070862,0.10901464521884918,0.001798819750547409,0.12061932682991028,-0.1163736954331398,0.1332438588142395,0.2215343862771988,-0.2468787580728531,0.005592490080744028,0.2510785162448883,-0.28842079639434814,0.11110344529151917,0.09427755326032639,-0.3106263279914856,-0.10479944199323654,0.19471172988414764,-0.06892885267734528,-0.0883234292268753,0.33693090081214905,-0.20426137745380402,0.07306776940822601,0.06091656908392906,-0.1147954910993576,0.10226741433143616,0.15849760174751282,-0.062122318893671036,0.10255956649780273,-0.17790214717388153,0.32396599650382996,-0.049173466861248016,-0.006291150115430355,0.09053017944097519,-0.09577251225709915,-0.22634366154670715,0.13585799932479858,-0.040571849793195724,-0.04606258496642113,-0.12402456253767014,0.18052640557289124,0.06388051062822342,-0.005509561859071255,0.08762311190366745,0.033483583480119705,-0.13894835114479065,0.1980869024991989,0.08798209577798843,0.008114793337881565,-0.012261634692549706,-0.04149532690644264,-0.3106784224510193,0.140371173620224,-0.17243459820747375,0.25603023171424866,-0.13252867758274078,-0.13673044741153717,0.054132238030433655,0.010376001708209515,-0.09486919641494751,0.31511977314949036,0.036079198122024536,-0.007425935473293066,0.20143365859985352,-0.09533605724573135,-0.11130394041538239,0.21739502251148224,0.01534490566700697,-0.15435852110385895,0.29219740629196167,-0.09533323347568512,-0.2095414251089096,-0.19249719381332397,-0.10970679670572281,0.28035157918930054,-0.30056232213974,0.1745559722185135,-0.07189886271953583,0.25345736742019653,0.02657860703766346,-0.21682310104370117,0.2168079912662506,-0.035122793167829514,-0.1774672567844391,0.21719235181808472,-0.1414361298084259,0.19615976512432098,-0.21283356845378876,0.04823847860097885,0.1345609873533249,0.05930224061012268,0.1084819808602333,0.15217261016368866,-0.08292323350906372,0.08404088020324707,0.007564413361251354,-0.00959597248584032,-0.019338008016347885,0.040456388145685196,-0.250583678483963,0.024517975747585297,-0.005637137684971094,0.1267688274383545,-0.06101929023861885,-0.19349004328250885,0.2952892780303955,0.03685293346643448,-0.24917088449001312,0.05303533747792244,-0.20249998569488525,-0.14710132777690887,0.12777899205684662,-0.1817139834165573,-0.19251221418380737,0.18862579762935638,-0.17559094727039337,-0.08509133756160736,0.15167920291423798,-0.10855929553508759,-0.02040269784629345,0.16434091329574585,-0.23880448937416077,-0.04775569215416908,-0.08927827328443527,0.19067785143852234,-0.07905509322881699,-0.10576942563056946,0.08025147765874863,-0.03097270056605339,0.06423496454954147,-0.07357775419950485,0.020615458488464355,-0.0036276394966989756,0.01910380832850933,-0.0323236845433712,-0.1753869652748108,0.010576753877103329,-0.05005522444844246,0.006091174203902483,0.006916912738233805,0.07951314002275467,-0.06274378299713135,0.03479106351733208,0.09012852609157562,0.0717620998620987,-0.021728692576289177,0.03636016696691513,-0.06789752840995789,-0.021126780658960342,0.03443900868296623,0.13902878761291504,-0.10147807747125626,-0.07903943955898285,0.10031735897064209,0.0768318921327591,0.0169309601187706,-0.08796053379774094,-0.18955743312835693,0.0888781026005745,0.01939801312983036,-0.13008716702461243,0.0825982615351677,0.08668291568756104,0.05148366093635559,0.06844741851091385,-0.01117180660367012,-0.3126879632472992,-0.17913714051246643,0.060379162430763245,-0.06617499887943268,0.1356281042098999,-0.24541538953781128,0.07979310303926468,0.06804661452770233,0.2531197965145111,-0.08629625290632248,-0.11848673224449158,0.02544904127717018,0.17211857438087463,-0.12738755345344543,0.055027108639478683,0.10348011553287506,-0.018584594130516052,-0.18133555352687836,-0.02140447497367859,-0.0763404592871666,-0.18662472069263458,0.1269715577363968,0.0019293260993435979,-0.07070905715227127,0.09312853217124939,0.020512336865067482,-0.010354351252317429,0.08691538870334625,0.0951412096619606,-0.18392029404640198,0.10551444441080093,-0.037333667278289795,-0.02535076066851616,0.020168982446193695,-0.1457759588956833,0.23093751072883606,-0.0033782129175961018,-0.19815316796302795,0.11485633254051208,0.12792757153511047,-0.03558647260069847,0.1636362075805664,0.05424121022224426,-0.01524682343006134,0.07982467859983444,-0.029430711641907692,-0.18557283282279968,-0.023290012031793594,0.07729434221982956,0.0015853813383728266,0.11816747486591339,0.0677347183227539,0.32805585861206055,-0.21517057716846466,0.10302922129631042,-0.4005945920944214,0.2410104125738144,-0.10131199657917023,-0.347374826669693,0.2026076316833496,-0.04415955767035484,-0.18690794706344604,0.020211106166243553,-0.1162298321723938,0.18947719037532806,-0.10928133875131607,0.1321854144334793,-0.0302200298756361,0.09315669536590576,0.15430136024951935,0.28437525033950806,-0.009454566054046154,-0.11965490877628326,-0.1099478155374527,0.1056557148694992,-0.05944142863154411,0.4315549433231354,-0.16120119392871857,0.11146913468837738,-0.45640501379966736,0.09417755901813507,0.015831423923373222,-0.25748562812805176,0.14564016461372375,0.09850013256072998,-0.3368018567562103,0.11488397419452667,0.11282649636268616,-0.35821235179901123,0.24249610304832458,-0.07822553813457489,-0.33454999327659607,0.10044794529676437,0.06791265308856964,-0.16073498129844666,0.09503306448459625,-0.10793459415435791,-0.052734993398189545,-0.043382126837968826,-0.030357463285326958,-0.061039432883262634,0.04454818740487099,0.14297759532928467,-0.003835148410871625,-0.08272971957921982,0.0829104483127594,-0.12628988921642303,0.08401558548212051,0.001577131450176239,-0.08127208054065704,0.10118499398231506,-0.15293361246585846,0.02794450707733631,-0.14333637058734894,0.014180773869156837,-0.028988970443606377,0.08420124650001526,-0.14334940910339355,0.10587906837463379,-0.0700211301445961,-0.05058661103248596,-0.1404866725206375,-0.14519308507442474,0.10532769560813904,-0.013052785769104958,-0.041276201605796814,0.06337659060955048,0.07259871065616608,0.1706913709640503,0.11695259064435959,-0.12388814240694046,0.01863252930343151,-0.10796161741018295,-0.0975944772362709,0.0868426188826561,0.12008661031723022,-0.1345125287771225,0.13780148327350616,-0.08693872392177582,-0.043204598128795624,0.16588948667049408,-0.05065303295850754,0.08458035439252853,0.06749821454286575,0.20501716434955597,0.00024517715792171657,-0.012516292743384838,0.07856377959251404,-0.05659475550055504,-0.21017074584960938,0.05876775085926056,0.06462930142879486,0.04770530387759209,-0.0013952397275716066,0.07993543148040771,0.1912393420934677,-0.1410321444272995,-0.07443608343601227,0.028148207813501358,-0.1991499811410904,0.05869413912296295,0.059387024492025375,0.22993388772010803,0.194053053855896,0.175946906208992,0.05715234950184822,0.15294967591762543,-0.15269075334072113,-0.03769134730100632,-0.031393468379974365,0.03503270074725151,-0.2278028428554535,0.20275989174842834,-0.012485765852034092,-0.012200270779430866,-0.09257334470748901,0.1937398910522461,-0.1742287278175354,-0.0850919783115387,0.13719357550144196,-0.1869623363018036,0.03081558831036091,0.165376216173172,0.024049576371908188,-0.146565243601799,0.22719734907150269,-0.15131333470344543,0.10025748610496521,-0.046134620904922485,-0.18907228112220764,-0.011766809970140457,0.020495174452662468,-0.1633937656879425,-0.2901599407196045,-0.4183216989040375,-0.1417912095785141,-0.01934557966887951,0.10713226348161697,0.11957855522632599,-0.020601436495780945,-0.042702753096818924,0.3082340955734253,0.010814765468239784,0.017180293798446655,-0.0008574574021622539,0.03756963089108467,-0.46864843368530273,0.012573665007948875,-0.08924505859613419,0.5991051197052002,-0.4366615414619446,0.665521502494812,-0.5725919604301453,0.03271902725100517,0.8691809177398682,0.841759204864502,-0.48863962292671204,0.14702826738357544,0.16133011877536774,-0.38011258840560913,-0.29354608058929443,0.22861512005329132,-0.718356728553772,0.17650572955608368,0.4884911775588989,-0.062054622918367386,0.08269956707954407,-0.12397324293851852,0.2224162518978119,0.37548527121543884,-0.2509172260761261,0.0258652176707983,-0.04493497312068939,-0.22984066605567932,0.2071579545736313,0.25580278038978577,-0.010121412575244904,0.08581631630659103,0.24186745285987854,-0.05694624036550522,0.05337445065379143,0.24894578754901886,-0.2813814580440521,-0.17696137726306915,0.07511598616838455,0.023751189932227135,-0.07514986395835876,0.05666406452655792,0.03804303705692291,-0.07168816775083542,0.19298900663852692,-0.050339508801698685,0.07599753141403198,0.060918502509593964,0.0017441099043935537,0.11799056828022003,0.10149302333593369,0.10035127401351929,0.022053683176636696,-0.0673946738243103,0.15356531739234924,0.029060831293463707,-0.13147826492786407,-0.019984200596809387,-0.14859899878501892,-0.11963319033384323,0.01966213807463646,0.36686599254608154,-0.08065590262413025,0.18993408977985382,0.4317653477191925,0.08012773841619492,-0.02184409089386463,0.3223370611667633,-0.3843139111995697,-0.13692991435527802,-0.10734561085700989,0.13476693630218506,0.1197308674454689,-0.008156332187354565,-0.0851920023560524,-0.26758745312690735,0.1889180690050125,0.0647483542561531,-0.04749258607625961,0.21333126723766327,0.2896431088447571,-0.0179453082382679,-0.047366682440042496,-0.013174815103411674,-0.4433745741844177,-0.19989395141601562,0.18829204142093658,0.16872413456439972,0.21612964570522308,0.1976633071899414,-0.04177141189575195,0.034324824810028076,0.31300070881843567,-0.17736251652240753,0.033701274544000626,0.012675713747739792,0.18778042495250702,-0.11058395355939865,0.11716262251138687,-0.23703598976135254,0.11026968061923981,0.13306498527526855,0.037445150315761566,0.16238677501678467,0.3379122316837311,0.17438793182373047,0.09508593380451202,0.35140395164489746,-0.020496755838394165,-0.2908113896846771,-0.019387872889637947,-0.06766316294670105,-0.35439741611480713,0.02383575774729252,0.1760166436433792,-0.054571423679590225,0.22087368369102478,0.30368557572364807,0.024839812889695168,-0.3472329378128052,-0.1445804238319397,0.09106077998876572,0.0412561297416687,0.27428489923477173,-0.37617477774620056,-0.41388624906539917,0.117640420794487,0.05649702623486519,-0.4103425443172455,0.0682198628783226,-0.2008640021085739,0.18000169098377228,0.08700661361217499,0.2718021869659424,-0.23315569758415222,-0.2255771905183792,0.19542913138866425,0.18819034099578857,0.11112087965011597,0.2865825891494751,-0.20297349989414215,0.07047488540410995,-0.15117335319519043,0.05900677293539047,-0.3263658285140991,-0.21177475154399872,0.09299944341182709,0.11059305816888809,-0.049906015396118164,-0.09332317858934402,-0.29817619919776917,0.10879465937614441,-0.1351316124200821,-0.04252391681075096,-0.05183897167444229,-0.3499003052711487,0.0934709757566452,0.27831169962882996,0.09053826332092285,0.08737684041261673,0.09331536293029785,-0.06851625442504883,0.12536472082138062,-0.4308624565601349,0.17187441885471344,0.26231831312179565,-0.24376970529556274,-0.34172409772872925,-0.09589405357837677,0.27930861711502075,-0.07972029596567154,0.06026739627122879,-0.09862278401851654,0.08454692363739014,0.05147485062479973,0.14598514139652252,0.14128561317920685,-0.23693516850471497,-0.088450588285923,0.07511737197637558,0.387712687253952,-0.12202657014131546,0.009380258619785309,-0.21913264691829681,-0.15143322944641113,0.18171937763690948,-0.05244935303926468,0.09620405733585358,-0.2378663718700409,-0.21289877593517303,-0.0022410289384424686,-0.11004369705915451,0.08273570984601974,0.00043937607551924884,0.025762978941202164,-0.204013854265213,0.04867244511842728,0.13740769028663635,-0.03377532213926315,-0.020840270444750786,-0.09042765945196152,-0.027695871889591217,-0.05572140961885452,0.00009005895117297769,-0.3844812214374542,-0.048525672405958176,-0.08067993819713593,-0.18061982095241547,0.11731136590242386,0.036671701818704605,-0.2637176215648651,-0.10036103427410126,0.13143925368785858,0.21371497213840485,-0.06678830832242966,-0.12642163038253784,-0.051678065210580826,0.11797383427619934,0.09447211027145386,0.19111447036266327,-0.1249413788318634,-0.14549601078033447,0.03908303752541542,0.02839578129351139,-0.12217628210783005,-0.12540435791015625,0.11918394267559052,0.1962445080280304,-0.20028440654277802,0.15948480367660522,-0.13183081150054932,-0.361977756023407,0.2138514369726181,0.2662757337093353,0.1699429750442505,0.05050625652074814,-0.09338951110839844,-0.07926415652036667,-0.031760599464178085,-0.16988231241703033,-0.13424590229988098,-0.23924076557159424,0.17935845255851746,-0.47589051723480225,0.5278151035308838,-0.006016551051288843,-0.21195952594280243,-0.06194985657930374,-0.10098641365766525,0.10867603123188019,0.05360865220427513,-0.34406861662864685,-0.15959347784519196,0.11276870965957642,0.001504966290667653,0.0784798264503479,0.33836743235588074,-0.06664474308490753,-0.12471457570791245,-0.041082724928855896,0.12519952654838562,0.08019323647022247,-0.03762732446193695,-0.11334893852472305,-0.08945155888795853,0.10119592398405075,0.25048571825027466,-0.40746116638183594,-0.2935830056667328,0.24236546456813812,-0.017635297030210495,-0.11208906769752502,0.5992228388786316,-0.015072966925799847,-0.12311635166406631,0.1522279530763626,-0.24742752313613892,0.4301714599132538,-0.054878491908311844,-0.119038425385952,-0.0318821482360363,0.001573439920321107,-0.1109001561999321,0.15625660121440887,-0.25727421045303345,0.09774598479270935,0.01145949400961399,0.10527992993593216,0.09472014009952545,0.1479097604751587,0.10933168232440948,0.07822172343730927,0.29625457525253296,-0.11481422185897827,-0.1780783236026764,-0.3752736449241638,-0.15929634869098663,0.01770450919866562,0.22498992085456848,0.29736125469207764,-0.35939911007881165,-0.12476714700460434,0.07807336002588272,-0.2994930148124695,-0.214860737323761,0.26835867762565613,0.10647502541542053,-0.11403648555278778,0.10438121110200882,0.04858536273241043,0.00249579269438982,0.017285555601119995,0.0826178565621376,-0.12286713719367981,-0.34018847346305847,0.024936959147453308,0.29761743545532227,-0.19534339010715485,-0.1454889476299286,0.019052032381296158,-0.4293157160282135,0.002817947417497635,0.10677611082792282,0.11955862492322922,0.018509970977902412,0.12317746132612228,0.12517043948173523,-0.15481393039226532,0.1457938849925995,0.272665798664093,-0.29687929153442383,0.0013427197700366378,0.20975489914417267,0.2921697795391083,0.4736497402191162,0.07027873396873474,0.122376449406147,0.06788982450962067,-0.40733104944229126,-0.7035149931907654,0.11085575073957443,0.1837780773639679,0.058956194669008255,0.11871923506259918,0.13244116306304932,-0.43232250213623047,-0.05215192213654518,0.06850064545869827,-0.09240657091140747,0.06113111227750778,-0.13929234445095062,0.20008455216884613,-0.08404553681612015,0.09197380393743515,0.26010772585868835,-0.21678735315799713,-0.017728103324770927,0.30081379413604736,-0.2339569628238678,-0.07459630072116852,0.377376914024353,-0.09488490968942642,0.05314090475440025,-0.5959444046020508,0.0074022323824465275,-0.04028776288032532,0.010934073477983475,0.09522660821676254,-0.05182337760925293,-0.06160028651356697,0.09964749962091446,0.18347935378551483,-0.539984941482544,0.01694611646234989,0.10739579051733017,-0.004565291106700897,-0.05999910458922386,0.044783227145671844,0.3451440930366516,0.0006209483253769577,-0.009176570922136307,-0.8773574233055115,0.10589585453271866,0.20673006772994995,-0.557900607585907,0.2612815499305725,-0.014690864831209183,-0.13057498633861542,-0.07393887639045715,0.11691991984844208,0.03978492692112923,0.27131354808807373,-0.1217021644115448,-0.009400274604558945,0.12447626143693924,0.02914378046989441,0.16095848381519318,0.13740737736225128,-0.16124370694160461,0.09922558069229126,0.050399601459503174,-0.03319910168647766,0.037891194224357605,-0.0053129480220377445,0.1352355033159256,0.10390355437994003,-0.3278644382953644,-0.09791544079780579,-0.07451888173818588,-0.18680362403392792,0.1650373935699463,-0.0653790608048439,-0.12233587354421616,-0.002801493974402547,-0.04342837259173393,-0.017855694517493248,-0.03905097395181656,-0.14067788422107697,-0.16858047246932983,-0.04779782518744469,0.17331182956695557,-0.04621422290802002,0.12918215990066528,0.10688439011573792,0.04383150488138199,-0.061271414160728455,-0.0008996946853585541,0.014934518374502659,-0.05785337835550308,-0.10193713009357452,-0.05393039062619209,0.11112778633832932,-0.047349270433187485,0.163828045129776,0.3305771052837372,-0.017498906701803207,-0.24630998075008392,-0.03138553351163864,-0.008484212681651115,0.014500225894153118,0.08552950620651245,0.14456215500831604,-0.25541284680366516,-0.18927162885665894,0.13293813169002533,0.032249048352241516,-0.05633220076560974,-0.03930440917611122,-0.14065471291542053,-0.08326563984155655,-0.29480844736099243,0.14061354100704193,-0.1553085297346115,0.02185969427227974,0.24836541712284088,0.06526723504066467,-0.20652815699577332,0.1525520235300064,0.07725581526756287,0.11872382462024689,-0.3185137212276459,0.007966016419231892,0.12812988460063934,-0.02349902130663395,0.06699865311384201,0.2716182470321655,-0.04002690315246582,0.049098338931798935,0.08168650418519974,0.11337910592556,0.28502482175827026,0.07817123830318451,0.06709111481904984,-0.09726843237876892,0.1047983467578888,-0.12396280467510223,-0.07937820255756378,0.15002606809139252,-0.07673078775405884,0.07550057023763657,0.22794105112552643,0.041933223605155945,0.1469331979751587,-0.08212815225124359,-0.13646286725997925,-0.0013266559690237045,0.21959392726421356,0.26339802145957947,0.1713947057723999,-0.18369315564632416,0.010267935693264008,-0.18647168576717377,-0.1263280063867569,0.1322418749332428,0.030990956351161003,-0.09276403486728668,-0.008232979103922844,-0.15164782106876373,-0.1391148567199707,-0.06363371759653091,-0.13960270583629608,0.04357314854860306,-0.2007492631673813,-0.05834628641605377,0.06405264139175415,0.09430359303951263,0.19071732461452484,0.12743225693702698,-0.01952936127781868,-0.023749373853206635,0.10434505343437195,-0.02930612675845623,0.1493244618177414,0.10981842875480652,0.13548213243484497,-0.05952196195721626,-0.20265354216098785,0.09355580061674118,-0.0018034032545983791,-0.3295306861400604,-0.154714435338974,-0.0360276959836483,-0.11736029386520386,-0.05628885328769684,-0.0889047309756279,0.04795384407043457,-0.011175797320902348,-0.10589686036109924,0.27608615159988403,0.14709874987602234,0.16379603743553162,-0.06377196311950684,-0.15139320492744446,0.01234972383826971,-0.13878627121448517,-0.0059355199337005615,0.11909478902816772,-0.03384425491094589,-0.18544037640094757,-0.054560862481594086,0.01714053563773632,-0.052628759294748306,0.03459995985031128,-0.06601589918136597,-0.10597269982099533,0.018416840583086014,0.02875431254506111,0.038407351821660995,-0.0016182286199182272,0.09356573969125748,0.03723175451159477,-0.07276235520839691,0.0902799442410469,0.1143709197640419,0.20287011563777924,0.19549284875392914,0.06861709803342819,0.06802257895469666,0.10047854483127594,0.10449263453483582,-0.043942809104919434,0.03753063827753067,0.13111531734466553,0.1459764540195465,0.224294975399971,-0.025846565142273903,-0.15733300149440765,0.10181097686290741,-0.05003361031413078,-0.09922652691602707,-0.055469974875450134,-0.1523372381925583,0.030845463275909424,-0.0501336008310318,0.11203453689813614,-0.2393055558204651,0.007343486417084932,0.11236561089754105,-0.15623418986797333,-0.11406151950359344,-0.006213546264916658,0.11084453016519547,-0.010105479508638382,0.09928449988365173,-0.0522906519472599,0.006446579936891794,-0.09054899960756302,0.04722405970096588,0.2401035577058792,0.03086441196501255,-0.06162208318710327,-0.024481480941176414,0.07485132664442062,-0.10939983278512955,0.106437087059021,0.04375059902667999,0.10586664080619812,0.11338207870721817,-0.10254481434822083,0.019866399466991425,-0.13798484206199646,0.08730097115039825,0.014294184744358063,-0.066043920814991,-0.18958987295627594,-0.032490167766809464,0.058389756828546524,0.18117663264274597,0.08841933310031891,0.1494799554347992,0.0093071348965168,0.025143619626760483,0.03936260938644409,0.24673886597156525,-0.12519381940364838,0.3007996082305908,0.12310304492712021,0.05576641485095024,0.04138365387916565,0.04006372392177582,-0.3748696446418762,-0.04289679229259491,0.1330123096704483,-0.0021173981949687004,-0.08301816880702972,0.16904720664024353,-0.02711125649511814,-0.3028753697872162,-0.18972539901733398,-0.046548012644052505,0.24500930309295654,-0.21460379660129547,0.3074187934398651,-0.29055845737457275,-0.20860406756401062,0.026125527918338776,0.019245019182562828,-0.1955285221338272,0.20358286798000336,0.05668502673506737,-0.3131217062473297,0.17514920234680176,0.04860822483897209,-0.00249340757727623,-0.1557660549879074,-0.04367362707853317,0.13669610023498535,-0.31725525856018066,0.09740466624498367,0.0872175320982933,-0.08737408369779587,-0.09123092144727707,-0.3314201831817627,0.15197400748729706,0.2364506870508194,0.4541516900062561,-0.11660517007112503,0.22365887463092804,0.2729853391647339,0.01327903475612402,-0.030603311955928802,0.05227518454194069,-0.40112656354904175,-0.14320240914821625,0.03862189128994942,-0.21842697262763977,-0.20191484689712524,-0.14658062160015106,-0.019671566784381866,0.0037075977306813,0.3200578987598419,-0.19512146711349487,-0.01853545568883419,0.19983968138694763,-0.1484614610671997,-0.025520626455545425,-0.05064559727907181,0.04296640306711197,-0.22192390263080597,0.13763189315795898,0.03382251784205437,0.21474546194076538,-0.0003939212765544653,0.13952893018722534,0.20508944988250732,0.19378922879695892,-0.16517867147922516,0.21179665625095367,0.34883952140808105,-0.07663977146148682,-0.09233461320400238,0.03559274226427078,-0.16126985847949982,0.04274330660700798,-0.2123277187347412,-0.03805876150727272,-0.25115084648132324,-0.14848962426185608,0.10448164492845535,-0.10871190577745438,-0.11455664038658142,0.29215767979621887,-0.08884525299072266,-0.11153710633516312,-0.04260746017098427,0.2553349435329437,-0.2515801191329956,-0.21054460108280182,-0.05585407093167305,-0.2251569628715515,0.007019095588475466,0.2417474389076233,0.03862903267145157,-0.07021849602460861,0.20192109048366547,0.12246216833591461,-0.2921607792377472,0.0819898173213005,-0.48481544852256775,0.1609179973602295,-0.06296344846487045,-0.2956923842430115,0.11059825122356415,0.09252744168043137,0.1828693449497223,-0.010822901502251625,-0.2345239818096161,0.3846909999847412,0.019435560330748558,-0.033645037561655045,-0.008555430918931961,-0.23955701291561127,0.01071119960397482,0.2890380620956421,-0.27114608883857727,0.15067045390605927,0.17722362279891968,-0.35127630829811096,-0.1451205313205719,-0.21795746684074402,0.12755179405212402,0.0650169625878334,-0.34530922770500183,0.3400883376598358,-0.2060653567314148,-0.014086835086345673,0.4042626917362213,-0.0018308248836547136,0.3121846616268158,-0.07243017107248306,-0.13538023829460144,-0.20769226551055908,0.24772295355796814,0.039117831736803055,-0.3231614828109741,0.1386910080909729,0.17797031998634338,-0.44091686606407166,0.13339759409427643,0.014997250400483608,-0.28884777426719666,-0.3061831295490265,-0.05474497005343437,0.10838091373443604,-0.2056678831577301,0.15321169793605804,-0.5092636942863464,0.18429455161094666,-0.023540034890174866,-0.03657098114490509,0.01826109178364277,-0.10375116020441055,0.024628283455967903,-0.24396464228630066,-0.008914866484701633,0.10782639682292938,-0.15998922288417816,-0.16642378270626068,-0.19189736247062683,0.09428250044584274,-0.1883506178855896,-0.18295550346374512,-0.013615192845463753,-0.024154717102646828,-0.0980960950255394,-0.11691209673881531,0.2015906721353531,0.26952484250068665,0.08137092739343643,-0.06738965958356857,0.21034184098243713,0.22404098510742188,0.07276619225740433,0.22986067831516266,0.04337463900446892,-0.17264357209205627,-0.07525424659252167,-0.05024325102567673,0.003877357579767704,-0.043272715061903,-0.07653956860303879,-0.03715384006500244,-0.21585136651992798,0.23775920271873474,-0.02493288926780224,-0.17137089371681213,0.13586783409118652,0.005480745807290077,-0.13624204695224762,0.16767461597919464,-0.02919788472354412,-0.25695258378982544,0.08592237532138824,-0.19471631944179535,-0.14173226058483124,0.03577221930027008,-0.09091547131538391,-0.2921719253063202,-0.10584348440170288,0.32448285818099976,0.0372479148209095,0.13365992903709412,0.09057572484016418,-0.4328053593635559,-0.2644471228122711,-0.13043101131916046,0.007275645155459642,0.2778683006763458,-0.0894295796751976,-0.3316796123981476,0.03691649064421654,-0.04808812215924263,-0.33995914459228516,-0.05038629099726677,0.15290245413780212,0.5733141899108887,0.09793370217084885,-0.13925842940807343,0.3526372015476227,0.011644914746284485,0.2594304382801056,0.3846721649169922,-0.03633061796426773,0.23236562311649323,-0.25795578956604004,0.13818944990634918,-0.2786356508731842,0.2052890956401825,-0.1933111548423767,-0.47537854313850403,0.0011657830327749252,-0.29923635721206665,-0.40296563506126404,0.360662043094635,0.016003195196390152,-0.2557806670665741,-0.11595728993415833,0.05594821646809578,0.03812991827726364,-0.16938062012195587,-0.028349366039037704,-0.43253326416015625,0.08212926983833313,-0.244429349899292,-0.33168327808380127,-0.14375214278697968,-0.0526670403778553,-0.06755471229553223,0.15820035338401794,-0.14000436663627625,0.027018191292881966,0.2503027617931366,-0.11433549225330353,0.07802943140268326,0.16823814809322357,-0.1925302892923355,0.04231452941894531,0.21282579004764557,-0.2438730001449585,0.139238178730011,0.08650217205286026,-0.31916630268096924,0.05983029305934906,-0.2868984639644623,0.2148771733045578,-0.06841985136270523,-0.33416548371315,0.2532370090484619,-0.09518037736415863,-0.1680118441581726,0.2060314565896988,-0.163014754652977,0.12663467228412628,-0.01568075641989708,0.03653903678059578,-0.04897737875580788,-0.004401993006467819,-0.03371468931436539,-0.07171277701854706,0.21062134206295013,0.21699202060699463,-0.16679216921329498,0.14467878639698029,0.06180005520582199,-0.15861797332763672,0.18623760342597961,-0.007138802204281092,0.04864110052585602,-0.11873863637447357,0.047299373894929886,-0.24176643788814545,0.09582120925188065,0.10688813775777817,0.2687811553478241,0.12299741059541702,-0.06161196902394295,-0.13313798606395721,0.15243443846702576,0.009964942000806332,0.0111279571428895,0.027913082391023636,0.14791950583457947,-0.25371357798576355,0.24422967433929443,-0.13802486658096313,-0.20437589287757874,0.07879793643951416,-0.0662636011838913,-0.0688951313495636,0.18227848410606384,-0.1211935505270958,0.3060501217842102,-0.15878437459468842,0.0862751379609108,0.25101184844970703,-0.004906864836812019,0.13774414360523224,0.19386546313762665,-0.10429297387599945,-0.03638676926493645,-0.1180986538529396,0.17478613555431366,-0.03878321871161461,-0.10299543291330338,0.04142928123474121,0.10432440042495728,-0.08706852048635483,-0.20812711119651794,0.01356920413672924,-0.0902697816491127,-0.011263844557106495,-0.09334555268287659,-0.13850988447666168,-0.0707039088010788,0.13437511026859283,0.035622671246528625,-0.08247533440589905,0.03516126796603203,-0.20005637407302856,-0.12635177373886108,-0.1277463585138321,-0.39202597737312317,0.008756701834499836,-0.3310035467147827,0.045144177973270416,-0.07226952910423279,-0.12789186835289001,0.20025217533111572,-0.12908844649791718,-0.04162268713116646,0.2752511203289032,0.027904948219656944,0.04207373410463333,0.13729135692119598,-0.056041911244392395,0.06293607503175735,0.24092134833335876,-0.07646641135215759,0.2800881266593933,-0.23821060359477997,-0.002273866441100836,0.06667070835828781,-0.11508170515298843,0.19045722484588623,0.027759432792663574,-0.11761116236448288,-0.04098585247993469,-0.17357802391052246,-0.056402161717414856,-0.05038725212216377,-0.1024247407913208,-0.21275551617145538,0.1542191356420517,0.015439795330166817,0.07465258240699768,0.21867622435092926,0.25445646047592163,0.06214220076799393,0.15714973211288452,0.2266339510679245,0.11940551549196243,0.13315202295780182,0.11819810420274734,0.07697395980358124,-0.06856498122215271,-0.2508215308189392,-0.030138272792100906,-0.0013875827426090837,0.0293270256370306,0.0911782830953598,0.10004417598247528,0.04943341761827469,0.20748752355575562,-0.15339452028274536,0.052589718252420425,0.04587079584598541,0.09653256088495255,0.10436368733644485,0.04123598337173462,-0.05786232277750969,0.018051089718937874,-0.00657116761431098,-0.22190837562084198,-0.04433712735772133,-0.0479639433324337,-0.12048578262329102,-0.10723967850208282,-0.0874856486916542,0.060451675206422806,-0.013992109335958958,0.08266237378120422,-0.0971008837223053,0.02062343806028366,-0.1212928369641304,0.02824593149125576,0.03281006962060928,-0.030613651499152184,-0.09025464951992035,-0.20472468435764313,0.03839469701051712,0.24767988920211792,-0.1102323904633522,0.13545739650726318,-0.2391447275876999,-0.16436415910720825,-0.20112204551696777,-0.059817127883434296,-0.19345180690288544,-0.08796626329421997,-0.1271703988313675,0.007782123051583767,0.12765257060527802,-0.11290252208709717,0.05714154243469238,-0.13449274003505707,-0.14292311668395996,-0.024102400988340378,-0.0043143401853740215,0.09818302094936371,0.27609163522720337,-0.02055315487086773,0.03584866598248482,0.0453968420624733,-0.14017224311828613,0.07306290417909622,0.04905528575181961,-0.14259666204452515,0.00008140011050272733,-0.06491722911596298,0.010917259380221367,0.27073490619659424,0.11590622365474701,0.12153781950473785,0.08079049736261368,0.04773079231381416,-0.6724718809127808,0.3042670488357544,0.37943392992019653,-0.5809314846992493,0.29174891114234924,-0.7423306107521057,-0.2642866373062134,-0.5017474293708801,1.0720962285995483,-0.6583231091499329,-0.6030400395393372,-0.9371252059936523,0.3326895236968994,-0.8092881441116333,0.25910791754722595,-0.5372617244720459,0.10420485585927963,-0.16002756357192993,0.20555199682712555,0.21616236865520477,0.2720412015914917,-0.36923709511756897,-0.571456253528595,-0.17372287809848785,0.01601211540400982,0.08165695518255234,-0.07279164344072342,0.1328422725200653,0.10445133596658707,0.34260955452919006,-0.30158719420433044,0.20580460131168365,0.028739674016833305,-0.31634649634361267,-0.03821177035570145,-0.0844426229596138,-0.1187809407711029,0.12351587414741516,0.15056224167346954,-0.06889310479164124,0.016757560893893242,-0.17495034635066986,0.12137430906295776,0.3812420070171356,-0.25640398263931274,0.08419813215732574,0.10943218320608139,0.1754610389471054,-0.3616713285446167,-0.10285122692584991,0.15722955763339996,0.1497001051902771,-0.035209864377975464,-0.04799706116318703,-0.05945698544383049,0.2333727478981018,-0.05015808343887329,0.0874386802315712,-0.3978649079799652,-0.16610334813594818,-0.010533121414482594,0.16812600195407867,0.21250274777412415,0.13367056846618652,0.2079455405473709,0.062170110642910004,-0.07725930958986282,-0.34528177976608276,-0.05394378677010536,-0.05208945274353027,-0.12881037592887878,0.03469276800751686,-0.025325194001197815,0.10942857712507248,0.06745845079421997,0.2532716989517212,0.25823500752449036,-0.0637480616569519,0.21217063069343567,0.09014133363962173,0.34552299976348877,-0.19680005311965942,0.026216713711619377,-0.3630185127258301,0.3692147731781006,-0.0742160901427269,-0.1746360808610916,0.19388067722320557,0.04602210968732834,-0.021139541640877724,-0.117012158036232,0.39625924825668335,0.03684316202998161,-0.12809383869171143,0.003913483116775751,0.019217221066355705,-0.27300360798835754,-0.17582763731479645,-0.3770259618759155,0.15298593044281006,-0.15655550360679626,-0.02582813799381256,0.1030864417552948,-0.08503768593072891,0.1695682853460312,0.20399156212806702,-0.01956297643482685,-0.2587833106517792,-0.15737442672252655,-0.09057027101516724,-0.10239379107952118,-0.01089431531727314,-0.003464327659457922,-0.1181781142950058,0.38453930616378784,-0.2645273804664612,0.07588428258895874,0.1224876418709755,-0.18919581174850464,-0.3515186011791229,0.3752725124359131,0.24516236782073975,-0.15411463379859924,-0.002042615320533514,0.2575680613517761,-0.12391224503517151,0.023373950272798538,0.1501879245042801,0.10029997676610947,-0.13661393523216248,0.06850915402173996,0.11357071250677109,-0.06870831549167633,-0.09553080052137375,0.13656866550445557,-0.05464322865009308,0.07845082134008408,0.3543512225151062,-0.14419059455394745,-0.05014301836490631,-0.12083360552787781,0.11233919858932495,0.20804454386234283,-0.051390256732702255,0.18656763434410095,0.06952683627605438,-0.10862551629543304,0.002525310032069683,0.04296684265136719,-0.2872425615787506,-0.1360296905040741,0.04656737297773361,0.24119043350219727,0.04517755284905434,-0.07363193482160568,-0.19412370026111603,-0.10926883667707443,0.10265794396400452,-0.15995599329471588,0.24942386150360107,0.06918971985578537,0.024860315024852753,-0.16517895460128784,-0.10936668515205383,0.22255553305149078,-0.09158127009868622,0.12815487384796143,-0.22922872006893158,-0.12483780086040497,-0.041937895119190216,0.34951677918434143,0.395169734954834,0.37752071022987366,0.02556590922176838,0.04252602532505989,-0.19170422852039337,0.028638936579227448,-0.27649539709091187,-0.1023394986987114,0.026339612901210785,0.17372830212116241,-0.20757994055747986,-0.0883750319480896,-0.17765304446220398,0.16697461903095245,0.03984038904309273,-0.03560775890946388,0.1862475425004959,0.07720315456390381,-0.13488894701004028,-0.022590894252061844,0.03869087994098663,-0.01938702166080475,0.344271719455719,-0.4959903657436371,0.09922213852405548,-0.6948019862174988,0.37063267827033997,0.5709578394889832,0.03018510527908802,-0.06043723225593567,0.3420461118221283,0.2127324789762497,-0.1623823195695877,-0.11150331795215607,-0.10738354176282883,0.0831076055765152,-0.3625296354293823,-0.21450237929821014,-0.13637712597846985,-0.1698690503835678,0.06222699210047722,-0.2410162091255188,-0.10901959240436554,-0.29566267132759094,0.38981908559799194,-0.3633219301700592,-0.04792894050478935,-0.3048924505710602,-0.09257544577121735,0.1197352334856987,-0.36709660291671753,-0.08800036460161209,0.10783818364143372,0.06522275507450104,-0.3641594350337982,-0.023130683228373528,0.4187290370464325,-0.4022506773471832,-0.027880653738975525,0.3014898896217346,-0.13891810178756714,0.14238552749156952,0.3070312738418579,0.18170179426670074,-0.06618788093328476,0.12738198041915894,0.13252262771129608,0.13056153059005737,-0.21683825552463531,0.09738703072071075,0.06689698249101639,0.29198822379112244,-0.050239503383636475,0.018778780475258827,-0.5109469294548035,-0.3436509370803833,-0.049097977578639984,0.11923827975988388,0.06761542707681656,-0.22410151362419128,0.06774876266717911,-0.14400364458560944,0.2511487603187561,0.33648401498794556,0.44643494486808777,0.37692394852638245,-0.3542887270450592,-0.18122263252735138,0.10498515516519547,-0.2702096402645111,0.17246966063976288,0.11128770560026169,0.16731218993663788,0.01407754234969616,-0.24816985428333282,0.20478743314743042,0.24986028671264648,-0.4039239287376404,0.3927084505558014,-0.28576257824897766,-0.10523850470781326,-0.16141602396965027,-0.1698761135339737,0.34936854243278503,-0.047053270041942596,-0.19966554641723633,0.10753742605447769,0.14752759039402008,0.01743313856422901,0.11121183633804321,-0.17879937589168549,0.058202315121889114,-0.12099763005971909,0.3955831229686737,-0.351843923330307,-0.08828859776258469,-0.18301032483577728,0.05638803169131279,-0.06697891652584076,-0.07891163975000381,-0.17851446568965912,-0.3450183868408203,-0.07857882976531982,0.2620075047016144,-0.04697106033563614,0.07033316791057587,0.03312521055340767,-0.1907176673412323,-0.1442219614982605,0.08593856543302536,-0.1044396236538887,-0.03273985534906387,0.09598193317651749,0.220071479678154,-0.07902005314826965,0.009041818790137768,0.35061725974082947,0.10489242523908615,-0.036684103310108185,0.192182719707489,-0.04448782280087471,0.10592196136713028,-0.06683032214641571,0.12920083105564117,-0.15133324265480042,0.2191438227891922,-0.0635237991809845,-0.16981551051139832,0.2727901041507721,0.05577594414353371,-0.3667662739753723,0.005020448472350836,-0.08087337762117386,0.09660955518484116,0.15358570218086243,-0.060832127928733826,-0.18520629405975342,0.08475319296121597,-0.06317994743585587,0.17787247896194458,0.27109605073928833,-0.06536214053630829,-0.12864071130752563,-0.40605628490448,-0.011850322596728802,-0.3820348083972931,-0.18115679919719696,0.062193796038627625,-0.022435765713453293,0.011891037225723267,-0.1448042243719101,0.12486342340707779,-0.014465545304119587,0.3540097177028656,0.14472343027591705,-0.17168310284614563,-0.12652720510959625,0.039099521934986115,-0.1798536330461502,-0.11412031948566437,0.13113512098789215,0.0033026786986738443,0.016008207574486732,0.13163959980010986,-0.15673650801181793,0.08386632800102234,-0.11295079439878464,0.008967523463070393,0.06126413494348526,-0.008190872147679329,-0.06089092791080475,-0.1861833930015564,-0.009046434424817562,0.25256383419036865,-0.03779220953583717,0.0010859707836061716,0.0733448714017868,-0.05916846543550491,0.32824522256851196,-0.06480579078197479,-0.1680639088153839,-0.06510427594184875,0.14411689341068268,0.15746085345745087,0.13131077587604523,-0.09208564460277557,-0.14969639480113983,0.06820640712976456,0.006782993208616972,-0.18026617169380188,0.13807933032512665,0.12447886168956757,-0.07324637472629547,0.29501375555992126,-0.20728608965873718,-0.30795782804489136,0.059591054916381836,-0.10637177526950836,-0.08222172409296036,0.2705128490924835,-0.16899149119853973,0.12398047745227814,0.008468062616884708,0.09119169414043427,0.19832375645637512,0.0909385085105896,-0.2322920560836792,0.10356424003839493,-0.11466829478740692,0.1815704107284546,-0.20406347513198853,-0.009900054894387722,0.403845876455307,0.009454644285142422,-0.19375087320804596,0.18731504678726196,-0.008947965689003468,0.14990532398223877,-0.3970559537410736,-0.022028343752026558,-0.1047704815864563,0.2225494086742401,-0.15391384065151215,-0.1447240710258484,0.13663119077682495,-0.08423638343811035,-0.26542869210243225,0.12494520843029022,-0.007896322757005692,0.06808925420045853,0.22534577548503876,-0.15033361315727234,-0.07479774951934814,0.07433027774095535,0.013066505081951618,0.19850464165210724,-0.2045188695192337,0.3500513434410095,-0.24845486879348755,-0.38650238513946533,-0.037080779671669006,-0.18644027411937714,-0.21962609887123108,0.5023020505905151,0.07013550400733948,0.1324337124824524,0.16501538455486298,0.06438153982162476,0.08989589661359787,-0.2844869792461395,0.061281416565179825,0.0431952066719532,-0.3679634928703308,0.004459785297513008,-0.04429200291633606,-0.4091571867465973,-0.060779690742492676,0.23217663168907166,0.2540874481201172,-0.05927698314189911,0.04851638153195381,-0.22528506815433502,-0.13974860310554504,0.08250070363283157,0.11569226533174515,-0.2164221853017807,0.1264045089483261,-0.09927881509065628,-0.03483935818076134,-0.29576435685157776,0.13781657814979553,0.18687978386878967,-0.29038602113723755,0.3495117127895355,0.5909406542778015,-0.19330823421478271,-0.11608492583036423,0.2017737329006195,-0.1247570738196373,-0.06540626287460327,0.36656078696250916,-0.07258541882038116,-0.0027434800285845995,0.11241362243890762,-0.6656026840209961,0.2404591143131256,0.395496666431427,-0.3278293013572693,0.24341236054897308,0.17234666645526886,-0.42486372590065,0.0008293825667351484,-0.12036226689815521,0.2939864695072174,0.2130676954984665,-0.05242007225751877,0.19051292538642883,-0.1405470371246338,-0.09428883343935013,0.3076143264770508,-0.11314272880554199,-0.16964779794216156,0.33468127250671387,0.01705908216536045,0.013560730963945389,0.002351827220991254,-0.015174861997365952,-0.126759335398674,-0.43355607986450195,0.07556390762329102,-0.03483894094824791,-0.24425649642944336,0.17546436190605164,-0.1243421733379364,-0.27763423323631287,0.025190625339746475,0.3203994333744049,-0.1128854900598526,0.10458683967590332,0.055434875190258026,-0.28298911452293396,-0.012780684046447277,0.17656198143959045,0.0018149904208257794,-0.11987897753715515,-0.04993871971964836,0.4922887086868286,-0.16693513095378876,-0.16664014756679535,-0.10344391316175461,0.08104437589645386,0.029916372150182724,-0.5413457155227661,0.11094024777412415,0.19053305685520172,0.09035561233758926,0.04350947216153145,0.0070288823917508125,0.07216040045022964,-0.09904201328754425,0.2907055914402008,-0.027181187644600868,-0.024381445720791817,-0.09654085338115692,-0.2821919322013855,-0.009770895354449749,0.12176617980003357,-0.2098160833120346,0.28349122405052185,0.23127780854701996,-0.2749996781349182,0.16096378862857819,-0.18198935687541962,0.2631968855857849,-0.06578531116247177,-0.0665443018078804,0.30064526200294495,0.09756242483854294,-0.10027728974819183,0.13947497308254242,-0.0032473003957420588,-0.038874268531799316,-0.04305046796798706,0.040576085448265076,-0.06670350581407547,0.21045979857444763,0.00959212426096201,0.32600948214530945,0.10766111314296722,-0.039573803544044495,0.07894668728113174,0.28087159991264343,0.1780138909816742,0.19405965507030487,-0.30366837978363037,0.022583261132240295,0.16801677644252777,0.00012730623711831868,-0.0484878309071064,-0.3368246257305145,-0.1761516034603119,0.21429868042469025,0.3411037027835846,-0.07584057748317719,-0.025207456201314926,0.0564306303858757,-0.16605745255947113,0.034534018486738205,0.13095103204250336,0.014543131925165653,0.029496818780899048,0.20979952812194824,-0.004991298541426659,-0.130830317735672,-0.07854536920785904,0.2855398952960968,-0.0629982203245163,-0.13504934310913086,0.09418284147977829,-0.07990621775388718,-0.04699816182255745,0.05734458938241005,-0.002785468241199851,-0.02631221152842045,0.16863365471363068,-0.10959938913583755,0.2744830548763275,0.048693109303712845,-0.18906979262828827,-0.2291003167629242,-0.02623783051967621,0.16829079389572144,-0.01648617535829544,0.04294770583510399,-0.051617883145809174,-0.1536773443222046,0.2584490180015564,0.10445113480091095,-0.17777220904827118,0.05425919219851494,-0.05948343873023987,-0.2824549674987793,0.15758273005485535,0.241660013794899,-0.04107547178864479,0.2146531343460083,0.19116614758968353,-0.26732757687568665,0.005032400134950876,-0.11807692050933838,-0.03165927156805992,-0.19786328077316284,-0.06511176377534866,0.10522041469812393,-0.12764963507652283,-0.15716102719306946,-0.06441672891378403,0.128215953707695,0.11258256435394287,-0.08460456132888794,0.2050628662109375,0.12353774905204773,-0.18163952231407166,-0.009453222155570984,-0.017522206529974937,-0.15092787146568298,-0.09915762394666672,-0.07321739941835403,0.04742042347788811,0.45121634006500244,0.0008326696115545928,-0.11390981823205948,0.0786205381155014,0.15336549282073975,0.0920027494430542,0.05900707095861435,0.009270375594496727,0.13641346991062164,-0.2965070605278015,0.043855220079422,-0.15098577737808228,0.07671798765659332,-0.25125524401664734,-0.012450185604393482,-0.1532423496246338,0.3664090633392334,-0.21015675365924835,0.2474219799041748,-0.2961457669734955,0.1075131967663765,0.470855176448822,0.32362601161003113,-0.33158066868782043,0.060595057904720306,0.2764630615711212,-0.01602516509592533,-0.3494897484779358,0.037342146039009094,-0.12312836945056915,-0.11109455674886703,0.13974282145500183,-0.1753596067428589,-0.12231124192476273,-0.00025872336118482053,0.058436233550310135,-0.14458966255187988,0.31297600269317627,0.12688294053077698,0.5078522562980652,-0.014237873256206512,0.14467041194438934,0.23928368091583252,0.2730560302734375,-0.13653309643268585,0.01892099156975746,0.20107831060886383,-0.10544532537460327,-0.3140633702278137,-0.054550573229789734,0.21470294892787933,0.011379126459360123,0.22752180695533752,-0.09274304658174515,-0.33168935775756836,0.07494412362575531,0.2460208237171173,0.29966413974761963,-0.04351594299077988,0.02901393733918667,-0.03279145807027817,0.1504335105419159,0.08490880578756332,0.10171837359666824,-0.1846449226140976,0.41522759199142456,-0.09831482172012329,-0.016193604096770287,0.2680903673171997,0.3282931447029114,-0.07966108620166779,-0.041977036744356155,-0.12720155715942383,0.2779552638530731,0.2181781828403473,0.4877716600894928,-0.06165647506713867,0.3031153976917267,0.09408003091812134,0.1268191784620285,-0.21294771134853363,0.2784718871116638,-0.2436114102602005,0.13006122410297394,0.15447315573692322,-0.07547801733016968,0.09480821341276169,0.20203609764575958,-0.14322920143604279,-0.05623439699411392,-0.03920309245586395,-0.11815929412841797,-0.21136018633842468,-0.04730894789099693,0.009765353985130787,0.11907809227705002,-0.1800156682729721,0.04932558536529541,-0.10156877338886261,-0.1329052746295929,-0.06721290946006775,0.01344008557498455,-0.2700973451137543,0.020278923213481903,-0.06377588212490082,0.14056548476219177,-0.23527592420578003,0.0029231994412839413,-0.04163731634616852,0.16659435629844666,-0.004433751106262207,0.17592884600162506,-0.1540028303861618,0.06913164258003235,0.05271285027265549,0.06522607058286667,-0.07740086317062378,-0.27733686566352844,-0.16772471368312836,-0.013065791688859463,-0.2504674792289734,-0.16995318233966827,0.04241006821393967,0.399557888507843,-0.2738695740699768,0.04261981323361397,0.10910346359014511,-0.25222936272621155,-0.3593628406524658,0.012533633969724178,0.038916949182748795,-0.0068704416044056416,-0.03337791562080383,0.08397071808576584,0.24700550734996796,0.023087216541171074,0.10455941408872604,0.19270218908786774,0.05122091621160507,0.03570079803466797,0.2036391943693161,-0.13628685474395752,0.035456154495477676,-0.09362079203128815,0.17417208850383759,-0.0763377994298935,0.11817061901092529,0.48600804805755615,-0.08630131185054779,-0.04750636965036392,0.2009245902299881,-0.05154303461313248,0.11986485123634338,0.14672009646892548,0.011548076756298542,-0.2681359350681305,-0.017142361029982567,0.088386170566082,0.008890029042959213,0.22556649148464203,0.2819103002548218,0.13552755117416382,-0.26219019293785095,0.05883915349841118,0.047377511858940125,-0.08964641392230988,0.15654057264328003,0.3387541174888611,0.0079418383538723,-0.048718035221099854,0.3001651167869568,0.11373426765203476,-0.05539080500602722,-0.048376891762018204,-0.40957942605018616,-0.005924353376030922,0.30136266350746155,-0.08618256449699402,-0.11374101042747498,-0.27359244227409363,-0.35548725724220276,-0.07987523078918457,0.2456548660993576,0.3361774682998657,0.14284928143024445,-0.24222296476364136,-0.09354434907436371,-0.0034639262594282627,-0.09123343229293823,-0.3156406283378601,-0.015248484909534454,-0.07648210227489471,0.07249777764081955,-0.10673783719539642,-0.2534617781639099,-0.144073948264122,-0.030273737385869026,0.06981003284454346,-0.21515361964702606,-0.1624809056520462,0.19567851722240448,0.44596582651138306,-0.06368505209684372,-0.3296562731266022,-0.42354509234428406,-0.2844523787498474,0.12723591923713684,-0.5154574513435364,-0.08861460536718369,-0.10249529033899307,0.137864887714386,0.11266835033893585,0.19534865021705627,0.23803456127643585,0.12103492021560669,-0.2367948442697525,-0.1491650491952896,0.22735464572906494,0.0441284105181694,-0.3070063889026642,-0.20010261237621307,-0.2570657432079315,-0.36284878849983215,-0.12698976695537567,-0.05573393404483795,-0.043516337871551514,0.17292658984661102,-0.10735085606575012,-0.15184752643108368,-0.17115317285060883,-0.26811483502388,-0.2799146771430969,-0.06645175069570541,-0.2637996971607208,0.17242100834846497,-0.08425985276699066,-0.11782696843147278,0.1436149626970291,0.1192331612110138,-0.095842644572258,0.08750050514936447,0.009905955754220486,-0.13530132174491882,0.2577860355377197,-0.03715703263878822,0.18211519718170166,-0.06887205690145493,-0.0661153718829155,0.011994426138699055,-0.05365881696343422,0.17724905908107758,0.2088545560836792,0.04296201094985008,-0.05855953320860863,0.037237267941236496,0.03356732800602913,0.1307414472103119,-0.04353220388293266,0.057453274726867676,-0.16180260479450226,-0.33416375517845154,-0.04690144583582878,0.01786387711763382,-0.06402544677257538,0.1522086262702942,0.03591199964284897,0.06541882455348969,-0.016220055520534515,-0.10918405652046204,0.024172065779566765,-0.4360363781452179,-0.05019409582018852,-0.11054796725511551,-0.4411766231060028,0.014471381902694702,0.10964586585760117,0.16977070271968842,-0.007547799497842789,0.25390446186065674,-0.001163177890703082,-0.3563346266746521,-0.01576351374387741,0.09624343365430832,0.031847015023231506,-0.08151692152023315,0.1445944756269455,-0.08188146352767944,-0.057965390384197235,0.3538092374801636,-0.31092390418052673,-0.0633130744099617,-0.03969264402985573,0.010639230720698833,-0.08843538910150528,0.03599492833018303,-0.08300033956766129,-0.06693176925182343,-0.20982582867145538,0.06066334992647171,-0.10295532643795013,-0.33069610595703125,0.2979004383087158,-0.020095786079764366,-0.4182685613632202,-0.2825299799442291,-0.02328001707792282,0.2312135249376297,-0.07673943787813187,0.178730770945549,0.13921457529067993,-0.2683064341545105,0.12742984294891357,0.1955467015504837,-0.3512133061885834,0.08367211371660233,-1.0068036317825317,0.11796946823596954,-0.05656624957919121,-0.2647644579410553,-0.05651230365037918,-0.09365421533584595,-0.12339518964290619,0.12937434017658234,0.20407220721244812,0.12569676339626312,0.09606190770864487,0.029551727697253227,-0.4116447865962982,0.016893742606043816,-0.028518041595816612,-0.05535813793540001,0.03271666541695595,0.0879291296005249,-0.0007104670512489974,-0.0089169442653656,0.021100496873259544,0.02199123054742813,-0.33229321241378784,-0.08475129306316376,-0.04822318255901337,-0.14811861515045166,-0.056780558079481125,0.10763698816299438,0.11819205433130264,0.30873745679855347,-0.314021497964859,0.056573763489723206,-0.04296054318547249,0.03690002113580704,0.07451208680868149,-0.05844645947217941,-0.330963671207428,0.1584828644990921,-0.2081395536661148,0.37820199131965637,-0.1922181248664856,-0.16672669351100922,-0.1697518676519394,-0.03024166077375412,0.0803212821483612,-0.12688463926315308,0.055107228457927704,-0.026301216334104538,-0.5538540482521057,0.18503327667713165,0.008620097301900387,0.049301233142614365,0.0452619232237339,0.3476022779941559,-0.5443287491798401,-0.09879142791032791,-0.03691061958670616,0.12054885178804398,0.3464977741241455,-0.1551550030708313,0.12365226447582245,0.04764002934098244,-0.1882816106081009,0.3460557460784912,0.10205986350774765,0.028193527832627296,0.4317730665206909,-0.08427596837282181,0.17121522128582,-0.24648842215538025,-0.002815257990732789,0.13207893073558807,-0.12132668495178223,0.15780042111873627,0.10890477895736694,-0.1750248223543167,0.24665045738220215,0.23969674110412598,-0.2875402569770813,-0.20212571322917938,-0.016629233956336975,-0.19785787165164948,0.05111093074083328,-0.09447629749774933,-0.6242383718490601,-0.014610535465180874,-0.5032855868339539,0.11051938682794571,0.07583650946617126,-0.2635725736618042,0.5537434220314026,-0.3440869450569153,-0.34377792477607727,-0.015358553268015385,-0.030819419771432877,0.03311020880937576,-0.37109124660491943,0.041914328932762146,-0.09634910523891449,0.059329476207494736,0.1592341810464859,0.15812288224697113,-0.01086498238146305,0.09313978999853134,-0.0601448155939579,0.0543060339987278,0.04844814911484718,-0.03907153010368347,0.04537763446569443,0.3381466567516327,0.02957591786980629,0.16934870183467865,0.07495822012424469,-0.21470898389816284,0.2296779602766037,-0.045052289962768555,0.07335139065980911,-0.25203266739845276,-0.41419702768325806,0.6769908666610718,0.4711591303348541,-0.2926429510116577,-0.009032669477164745,-0.40672382712364197,-0.28442147374153137,0.35080432891845703,-0.6531557440757751,0.7901498079299927,0.5076920986175537,0.022903939709067345,-0.31144416332244873,0.2761314809322357,-0.5010112524032593,0.20141518115997314,-0.6943823099136353,0.2281225621700287,-0.019330283626914024,0.0383036769926548,0.11358493566513062,0.496995210647583,-0.046490684151649475,0.12230075895786285,0.08989538997411728,0.3519391417503357,0.3516416549682617,-0.2155514657497406,0.2259662002325058,-0.649186909198761,-0.10017859935760498,-0.00008826175326248631,-0.41053444147109985,-0.16134490072727203,-0.05508054420351982,0.3111567497253418,0.11709368973970413,-0.06069350987672806,-0.33643093705177307,-0.13368572294712067,-0.011967173777520657,0.006668759044259787,-0.20053821802139282,0.10105378180742264,0.3467230796813965,0.5031123757362366,0.017989052459597588,-0.24412094056606293,-0.266725093126297,-0.06308687478303909,-0.094663605093956,0.06259774416685104,-0.13562245666980743,-0.12519003450870514,-0.09077519178390503,-0.2987423539161682,0.22265490889549255,-0.35576605796813965,0.3162623345851898,0.011207027360796928,-0.2286650538444519,-0.08234827220439911,0.12350056320428848,0.45306840538978577,0.004590852186083794,0.22783267498016357,0.10984966158866882,-0.14995242655277252,-0.3890116214752197,-0.1747935712337494,0.5326900482177734,-0.020431388169527054,-0.2583111822605133,0.10085684061050415,0.47631216049194336,0.11350038647651672,0.46784135699272156,0.25756457448005676,-0.016998615115880966,0.08814337104558945,-0.6828410029411316,0.07938752323389053,0.14700187742710114,0.15314705669879913,-0.033245984464883804,0.11697545647621155,-0.20937618613243103,0.162649005651474,-0.19215679168701172,-0.05740455165505409,0.23322702944278717,0.02820197306573391,0.14583100378513336,0.042999785393476486,-0.0814138799905777,0.024967987090349197,-0.2686702609062195,0.2295064479112625,-0.06684054434299469,-0.2878436744213104,-0.39034175872802734,0.12474937736988068,0.38477420806884766,-0.2677604854106903,-0.05378766357898712,-0.18994392454624176,0.452730655670166,0.07704202085733414,0.2911328971385956,-0.05342189222574234,-0.06097619608044624,0.18035142123699188,-0.3141474425792694,-0.33388081192970276,0.1761963963508606,0.2548668682575226,-0.11044413596391678,-0.009791872464120388,0.08573851734399796,0.0683947503566742,-0.1147925928235054,0.2175787389278412,0.01216410007327795,0.015288447961211205,0.31097611784935,0.04537026956677437,-0.007930661551654339,-0.30894899368286133,-0.3189684748649597,-0.2834993898868561,-0.006888656411319971,-0.19728268682956696,-0.2258046269416809,0.20563551783561707,-0.5662704706192017,0.19208553433418274,-0.07639895379543304,0.029773253947496414,0.18716473877429962,0.12477020174264908,0.26176121830940247,0.10866003483533859,0.012859500013291836,-0.2856627404689789,0.2336036115884781,-0.15598759055137634,-0.016572633758187294,0.17249830067157745,0.06356889754533768,-0.3790520131587982,0.03356060013175011,0.019556185230612755,0.10702205449342728,-0.11788953840732574,0.19438152015209198,-0.42658379673957825,-0.12749631702899933,0.1502380073070526,0.21615198254585266,0.3104182183742523,-0.11150600016117096,-0.1113506630063057,0.12514859437942505,0.028634462505578995,0.0912553146481514,-0.27950319647789,-0.47587111592292786,-0.11732261627912521,0.23030135035514832,0.21252474188804626,-0.388564795255661,0.22658851742744446,0.0881151407957077,0.34151655435562134,-0.15050609409809113,-0.11657512933015823,0.0157180018723011,-0.37531089782714844,-0.2788901925086975,0.40288040041923523,-0.23539142310619354,0.0688154473900795,-0.13231174647808075,0.3115350902080536,0.035469699651002884,-0.32990819215774536,-0.04395313188433647,-0.015592744573950768,-0.4050719439983368,0.08693505078554153,0.36832359433174133,0.18344487249851227,0.3917926251888275,0.2356790006160736,0.2524838447570801,-0.07371459901332855,0.08615761250257492,0.3332892060279846,0.34196728467941284,-0.3109492361545563,-0.23268631100654602,-0.12425781786441803,0.3773323595523834,-0.2499898374080658,0.05607590451836586,-0.06651569157838821,0.022270208224654198,-0.4903288781642914,0.08865261822938919,-0.23221363127231598,0.02808847464621067,0.20128901302814484,0.1263950914144516,-0.5984746217727661,-0.22556909918785095,0.04256324842572212,0.025011014193296432,-0.2298252135515213,0.08867741376161575,-0.25031453371047974,-0.05547352135181427,0.25660625100135803,-0.2033882737159729,-0.34476935863494873,0.13074418902397156,-0.3380829095840454,-0.03440437093377113,0.15829402208328247,-0.12864626944065094,0.19308961927890778,-0.02956824004650116,0.12257320433855057,0.00949110183864832,-0.018639832735061646,-0.16179700195789337,-0.03443737328052521,0.05696120858192444,-0.022741345688700676,0.14391501247882843,-0.07406020164489746,-0.06327322125434875,-0.3518564999103546,0.2177305817604065,-0.1626468151807785,-0.06438082456588745,0.23091787099838257,-0.23819908499717712,0.17645643651485443,0.6360052824020386,0.221806600689888,0.4290023446083069,-0.20355796813964844,0.2612398862838745,-0.17636580765247345,-0.18614034354686737,-0.08095420151948929,0.354480504989624,-0.17814360558986664,0.2911963164806366,-0.4178328514099121,0.1863846629858017,0.02084525302052498,-0.24650876224040985,0.040731437504291534,0.6697737574577332,0.5212657451629639,0.3123931586742401,-0.13568828999996185,-0.038186512887477875,-0.44018039107322693,-0.3606805205345154,0.07660050690174103,-0.10892028361558914,0.29834699630737305,0.295672208070755,-0.24241088330745697,0.450913667678833,0.3588223457336426,0.04643015190958977,-0.21932797133922577,-0.303478866815567,0.06802604347467422,0.22388699650764465,0.24653509259223938,-0.15403498709201813,0.06357879936695099,0.054080039262771606,0.1519705206155777,-0.44053250551223755,0.21517547965049744,0.05631795898079872,-0.047317396849393845,-0.15379416942596436,-0.07383523881435394,0.053437329828739166,0.10298355668783188,-0.04892765358090401,0.0258053969591856,0.16344544291496277,0.15877996385097504,-0.14749576151371002,0.030948476865887642,-0.16739536821842194,-0.0918203741312027,0.10195214301347733,0.07274068146944046,-0.027880772948265076,-0.08927866816520691,-0.17764541506767273,-0.28751450777053833,0.11096257716417313,-0.0030444429721683264,0.142273411154747,-0.23646946251392365,0.0321693979203701,-0.1313927322626114,-0.13245908915996552,0.12210425734519958,-0.05965575575828552,0.1811434030532837,-0.07580601423978806,-0.08629744499921799,0.19041337072849274,-0.12508276104927063,0.012047888711094856,0.02008684165775776,0.0023273269180208445,0.085108183324337,-0.0690312385559082,-0.19104208052158356,-0.18367494642734528,0.052805010229349136,0.040241364389657974,0.008087939582765102,0.05852620676159859,-0.4869042634963989,-0.048909034579992294,-0.01084253191947937,0.4960503876209259,-0.026396330446004868,0.013983308337628841,0.09541236609220505,-0.10747883468866348,-0.02694106101989746,0.06519029289484024,0.1965055912733078,0.09104282408952713,-0.03829122707247734,-0.09806501120328903,-0.007553377188742161,0.3366882801055908,0.010827871970832348,-0.11700314283370972,-0.08310952037572861,-0.06915117055177689,0.012532412074506283,0.39579495787620544,-0.1372787356376648,-0.06826678663492203,-0.08384284377098083,0.13987821340560913,-0.07709287106990814,0.051450107246637344,0.0855887308716774,-0.02881947159767151,-0.19291938841342926,0.0960380807518959,0.13434527814388275,0.3347742557525635,0.00707204407081008,-0.12936338782310486,0.17655883729457855,0.008752821944653988,-0.10788993537425995,-0.0966736376285553,0.14716210961341858,0.015106922015547752,0.48844167590141296,-0.08383449167013168,-0.08742829412221909,-0.08254006505012512,0.06033424660563469,-0.03756619617342949,-0.3823785185813904,-0.00022493225696962327,0.043133512139320374,0.23541708290576935,-0.10232172161340714,-0.19829939305782318,-0.033797986805438995,-0.14098653197288513,-0.017191581428050995,-0.19761969149112701,0.10911575704813004,0.12795358896255493,0.24567608535289764,-0.0008292621932923794,0.07420466095209122,-0.6234333515167236,-0.41898080706596375,-0.44415557384490967,-0.044262707233428955,0.11644577980041504,-0.10290198028087616,-0.07655272632837296,-0.02121022157371044,0.061859678477048874,0.607960045337677,0.030608417466282845,-0.049791283905506134,0.017403682693839073,-0.16261911392211914,-0.10250972956418991,0.3806294798851013,0.09557678550481796,0.049939922988414764,-0.2279551774263382,0.056558094918727875,0.16935908794403076,0.5539601445198059,-0.15977030992507935,-0.006378080230206251,0.05796566605567932,-0.08486852794885635,0.08397248387336731,0.3761356770992279,0.0915936604142189,0.16879910230636597,0.0653076320886612,-0.01025520171970129,0.09831678122282028,0.47192153334617615,0.09639783203601837,0.03658238425850868,0.4090205132961273,0.14006125926971436,0.20089246332645416,0.055515605956315994,0.026921935379505157,0.019077671691775322,-0.04328382760286331,0.1626722812652588,0.11998525261878967,0.04671677201986313,-0.20582063496112823,-0.30473166704177856,-0.06586527079343796,-0.2560538053512573,-0.20326054096221924,0.4645901322364807,0.1962783932685852,0.21832481026649475,0.20600944757461548,0.13155217468738556,0.4135596454143524,0.08254663646221161,-0.09264568984508514,-0.059874508529901505,-0.5700976252555847,-0.15684159100055695,0.03801952302455902,0.4229024350643158,0.026581045240163803,0.11890900880098343,-0.14811183512210846,0.02598153054714203,-0.1338159739971161,0.21719034016132355,0.058614954352378845,-0.04853902757167816,0.7461535334587097,-0.03676808625459671,-0.24272489547729492,-0.2560109496116638,-0.1699557602405548,-0.27890318632125854,0.2892477214336395,0.1355687379837036,0.12610206007957458,0.09437116235494614,0.1284584403038025,-0.30782580375671387,0.11602331697940826,-0.29107239842414856,0.03564397618174553,0.07738272845745087,0.17113853991031647,-0.035542167723178864,0.03655300289392471,0.040503837168216705,-0.12588085234165192,0.14263927936553955,0.11738767474889755,-0.27264603972435,-0.07490170001983643,-0.20061805844306946,-0.0871732234954834,-0.019412368535995483,-0.09177223592996597,0.05693521723151207,0.2266158014535904,0.13972485065460205,-0.09236354380846024,-0.1552271544933319,-0.015919016674160957,-0.039360497146844864,-0.11455263942480087,-0.18010786175727844,0.15567927062511444,-0.06907974928617477,-0.02102479338645935,-0.04109722375869751,-0.06320753693580627,-0.11912721395492554,-0.07373720407485962,0.01502575445920229,0.09253784269094467,0.02133200503885746,-0.07698892802000046,-0.11740303784608841,-0.018234705552458763,0.10213153809309006,0.000057766184909269214,0.06583324074745178,0.022779449820518494,-0.11860183626413345,0.011104544624686241,-0.06941382586956024,-0.1536511331796646,-0.26854753494262695,-0.001882885117083788,0.045868873596191406,0.09050007164478302,-0.1344260573387146,-0.06950236111879349,-0.02596387267112732,-0.11458862572908401,-0.04163837805390358,-0.06033909693360329,0.11697223782539368,-0.14991894364356995,-0.008458003401756287,-0.5725100040435791,-0.3854462206363678,-0.38478830456733704,-0.0646536722779274,0.1351957470178604,0.12417346984148026,0.1328362226486206,0.17722997069358826,0.07544559985399246,-0.3790130615234375,-0.08095993846654892,-0.007507356349378824,0.29829657077789307,0.16320845484733582,-0.04774024337530136,-0.06680263578891754,0.02381330356001854,-0.012084647081792355,-0.17427842319011688,-0.27912068367004395,0.07849985361099243,-0.15586890280246735,0.00931617058813572,-0.2525577247142792,-0.14477743208408356,0.052383583039045334,0.05449579283595085,-0.27353906631469727,-0.19021843373775482,0.03016948141157627,0.060260042548179626,0.08275146037340164,0.09141212701797485,0.023565175011754036,0.3449515700340271,-0.42480283975601196,-0.5698612928390503,0.008049574680626392,0.3456576466560364,0.47637245059013367,0.2974359691143036,-0.0766342282295227,-0.1994340568780899,0.14061936736106873,-0.18482565879821777,0.05315912142395973,0.41918104887008667,0.10017259418964386,0.3998001217842102,0.6725435853004456,-0.1610068678855896,-0.27590346336364746,-0.12078256160020828,-0.1438526064157486,-0.03151101619005203,0.17523851990699768,0.12171052396297455,-0.13979658484458923,0.22212593257427216,-0.17143861949443817,0.059709418565034866,-0.20895826816558838,0.14346669614315033,0.07867222279310226,-0.11068591475486755,0.07211624085903168,0.4938901960849762,0.1039634570479393,-0.024740051478147507,0.32705265283584595,-0.1705406755208969,-0.14679987728595734,-0.10079076886177063,0.3392180800437927,0.040420930832624435,-0.2579326033592224,0.13383273780345917,-0.2064833641052246,0.10200253874063492,0.08218894898891449,-0.14830203354358673,-0.04808845743536949,-0.2511020004749298,0.20472858846187592,0.23572921752929688,-0.2753467559814453,-0.2768106460571289,-0.3223784863948822,-0.09819816052913666,0.502012312412262,-0.23579294979572296,-0.2836208641529083,0.22635872662067413,-0.0408027283847332,-0.2602916657924652,0.1668890416622162,0.07183398306369781,-0.0737319365143776,0.5311893224716187,0.032074786722660065,-0.3450956344604492,-0.1033572256565094,0.0908871665596962,-0.10025924444198608,-0.04079515486955643,0.0733543336391449,-0.06878437101840973,0.2619398236274719,0.0002791905135381967,0.23409761488437653,-0.10093078017234802,-0.16062946617603302,0.03167102113366127,-0.23715844750404358,-0.44099879264831543,0.1904202699661255,0.5095134973526001,-0.06835504621267319,0.16521118581295013,0.1915377974510193,0.2200629860162735,-0.23912322521209717,0.008610989898443222,-0.213185653090477,-0.10046978294849396,0.10386818647384644,0.05580003932118416,-0.016291320323944092,0.09858982264995575,-0.22064441442489624,0.05786224827170372,0.3094624876976013,0.198740616440773,-0.03486974909901619,0.06956612318754196,-0.12000997364521027,-0.16398368775844574,0.31514543294906616,-0.0018846065504476428,-0.11180653423070908,-0.03795453906059265,-0.1612870693206787,-0.11636248230934143,0.031276851892471313,-0.15547527372837067,-0.008101455867290497,0.1271749585866928,-0.020015036687254906,0.018269957974553108,-0.2143489420413971,0.3227435350418091,-0.08135424554347992,0.07213271409273148,-0.16152364015579224,0.02405376359820366,-0.03728725388646126,0.1199425533413887,0.21304824948310852,-0.2232103943824768,-0.07913549989461899,-0.15450230240821838,0.0817650631070137,0.0013441870687529445,-0.24698129296302795,0.05383030325174332,0.24519534409046173,0.07354185730218887,-0.005782303400337696,-0.11442503333091736,-0.061259541660547256,0.12313829362392426,0.106508769094944,0.06155622750520706,0.12677638232707977,0.16691383719444275,-0.19448553025722504,0.3805015981197357,-0.5409777760505676,-0.067451111972332,0.01674211584031582,0.05877528339624405,-0.06293167173862457,-0.10712389647960663,0.05515950918197632,-0.09854277223348618,-0.10272938758134842,0.04344518482685089,-0.13782581686973572,-0.12780338525772095,-0.044241707772016525,-0.060797955840826035,0.027191516011953354,-0.2000405490398407,0.15631334483623505,-0.1088610589504242,-0.05770212411880493,-0.1674915850162506,0.1470082551240921,0.03688155487179756,0.02853461168706417,-0.020008962601423264,0.414523720741272,0.06304491311311722,-0.14431419968605042,-0.22007040679454803,0.024338699877262115,0.02728983387351036,0.03446036949753761,0.03128254413604736,0.11012773215770721,-0.03312143310904503,-0.06462591141462326,-0.1298765242099762,0.38341644406318665,-0.07557053118944168,-0.041933733969926834,0.07153279334306717,0.04730912670493126,-0.12488150596618652,0.2961697578430176,-0.049944303929805756,-0.04142787680029869,0.032470304518938065,0.021554186940193176,-0.17800980806350708,0.2046559900045395,0.148489311337471,0.11183683574199677,0.5798229575157166,0.27919235825538635,-0.021525857970118523,-0.30135807394981384,-0.20624838769435883,0.3011637032032013,0.21469329297542572,-0.1918228417634964,-0.08381473273038864,-0.1322508305311203,-0.23781321942806244,-0.24867454171180725,-0.11292079091072083,-0.2831534445285797,0.5292305946350098,0.2121516466140747,0.3253004848957062,0.09290655702352524,0.13284458220005035,0.11001470685005188,-0.20215897262096405,0.025285564363002777,-0.10920178890228271,-0.2175428420305252,0.015372672118246555,0.025864630937576294,-0.12900632619857788,0.19234898686408997,0.15407197177410126,-0.09929009526968002,-0.48725277185440063,-0.5399503111839294,0.5107131004333496,-0.13309189677238464,-0.37073686718940735,0.3446583151817322,-0.07980489730834961,-0.018484173342585564,-0.05034823343157768,-0.05922061577439308,-0.16819535195827484,0.16463854908943176,-0.04048486053943634,0.04989897087216377,0.008944544941186905,-0.3241795301437378,0.06881099194288254,0.022893572226166725,-0.103281170129776,0.029298940673470497,-0.136881485581398,0.15605969727039337,0.12544561922550201,0.1452862024307251,-0.4623086750507355,-0.13576538860797882,-0.024851439520716667,-0.15676672756671906,-0.00993655901402235,0.1900773048400879,-0.637596845626831,0.08386772125959396,-0.09887278079986572,-0.15552771091461182,-0.06898799538612366,-0.11147859692573547,-0.029441939666867256,-0.0033134357072412968,0.11060534417629242,0.4393145740032196,-0.21761208772659302,-0.0666264146566391,-0.009394826367497444,0.06423041224479675,0.10490190237760544,0.2504948377609253,0.15798905491828918,-0.005774256773293018,-0.2893133759498596,0.10845469683408737,-0.02429632470011711,0.6015769839286804,0.0650257021188736,-0.1646205633878708,0.07165990024805069,0.05592106655240059,0.13126122951507568,0.13609109818935394,0.06408965587615967,-0.03885152190923691,-0.10936301946640015,-0.06870649755001068,-0.05280732735991478,0.26392096281051636,-0.0907539650797844,-0.48510971665382385,-0.21280772984027863,0.2773037254810333,-0.20499801635742188,0.1978808492422104,-0.45857349038124084,0.028308918699622154,0.09059668332338333,-0.13362354040145874,-0.46996647119522095,0.24365414679050446,-0.04291078448295593,-0.23970165848731995,0.12154175341129303,-0.3583028316497803,-0.5646389126777649,-0.15187320113182068,0.17879724502563477,-0.2794731557369232,-0.22328880429267883,0.4461188316345215,-0.34712329506874084,0.062435049563646317,0.026210999116301537,-0.06376878917217255,-0.36487704515457153,0.23676958680152893,0.20872461795806885,-0.10760150849819183,0.17325475811958313,-0.08207195997238159,0.18647724390029907,-0.42406100034713745,-0.15953753888607025,-0.03531805798411369,-0.21583683788776398,-0.004081352148205042,0.35491466522216797,0.10317236185073853,-0.1163003146648407,0.16200141608715057,-0.003290077904239297,-0.21380068361759186,0.3286844789981842,-0.0010660048574209213,-0.14737755060195923,-0.35317718982696533,0.10644061118364334,-0.08791300654411316,-0.10163740813732147,0.03859712928533554,-0.10506657510995865,-0.1277376264333725,0.05298202484846115,-0.013898205012083054,0.018367888405919075,0.004777998197823763,0.003573650261387229,-0.015719180926680565,-0.04041494056582451,0.012412477284669876,-0.10321782529354095,0.25287169218063354,-0.034512799233198166,-0.10741271823644638,0.18735453486442566,0.13405340909957886,-0.30459344387054443,0.39003098011016846,-0.1616925448179245,0.3557838797569275,-0.03320169076323509,0.06603208184242249,-0.18350985646247864,-0.09101157635450363,0.16958916187286377,0.17065975069999695,-0.051256515085697174,0.09424647688865662,0.11677459627389908,-0.36969658732414246,-0.08567792177200317,0.14921297132968903,-0.15729418396949768,-0.19070546329021454,-0.02116743102669716,-0.10388986021280289,0.020009789615869522,-0.12571009993553162,0.10784093290567398,-0.21051093935966492,-0.20026952028274536,-0.14450667798519135,-0.03825676441192627,0.238460510969162,-0.08775626122951508,0.11041141301393509,-0.1713883876800537,-0.03282703831791878,-0.08569160103797913,-0.0038397370371967554,-0.07578064501285553,-0.029030704870820045,0.12570855021476746,0.055309370160102844,0.1634998321533203,0.13607721030712128,-0.20130565762519836,0.05185982584953308,-0.016423828899860382,-0.03154861554503441,0.07629857212305069,0.11765751987695694,-0.040532056242227554,0.1372321993112564,-0.520171046257019,-0.09728329628705978,0.02642468363046646,-0.27598580718040466,0.10086239874362946,-0.022851090878248215,-0.16767504811286926,0.1808127760887146,-0.003033033572137356,-0.10516364872455597,-0.1736074537038803,0.045351382344961166,0.09726907312870026,-0.19865523278713226,-0.02680152840912342,-0.39368000626564026,0.004872295074164867,0.03943635895848274,-0.1656368374824524,0.20859426259994507,-0.023517649620771408,-0.19040550291538239,-0.060332514345645905,-0.12106021493673325,-0.054298143833875656,0.026971913874149323,0.1652592271566391,-0.01127974595874548,0.1693265587091446,0.22413334250450134,-0.2519725263118744,0.42801806330680847,-0.16703951358795166,-0.05881533399224281,-0.4465646743774414,0.0961536318063736,0.3793202340602875,-0.07641883939504623,0.05736975371837616,0.0750168040394783,-0.048245444893836975,-0.15299946069717407,0.30334603786468506,-0.7145349383354187,0.24712106585502625,0.2414950281381607,0.1568399965763092,-0.018990401178598404,-0.2608376145362854,0.021510258316993713,-0.13336972892284393,-0.029596252366900444,-0.2323756366968155,-0.15133674442768097,-0.6988862752914429,0.20070883631706238,-0.09512338042259216,-0.12218683212995529,0.289678692817688,0.15072868764400482,-0.054398562759160995,-0.4279731214046478,0.13418583571910858,0.5129517316818237,-0.06073397397994995,0.47044068574905396,-0.15554405748844147,-0.2454758882522583,-0.09170941263437271,0.05302523449063301,0.17319948971271515,-0.4480229318141937,-0.026490220800042152,-0.04205295071005821,0.031950902193784714,0.014329573139548302,0.014677572064101696,0.06025759130716324,0.18463349342346191,0.09960141777992249,0.12176942080259323,-0.1293112188577652,-0.12100033462047577,0.14025072753429413,0.09618263691663742,0.05163047835230827,-0.17414730787277222,0.04587732255458832,0.08046188205480576,-0.004293201025575399,0.29195868968963623,0.45355409383773804,0.32876771688461304,0.35990577936172485,-0.841320812702179,-0.424235075712204,-0.13020288944244385,0.10640928149223328,-0.20392070710659027,0.31944212317466736,0.2768215239048004,-0.7901720404624939,0.27224263548851013,0.1543550044298172,-0.6014116406440735,-0.11726245284080505,0.17289674282073975,-0.17230677604675293,-0.15821249783039093,0.07890204340219498,-0.49466070532798767,0.2307692915201187,0.33446869254112244,-0.0785425528883934,-0.1285463124513626,-0.1771669089794159,-0.14615556597709656,-0.09509901702404022,-0.20241887867450714,0.061965614557266235,-0.0740080252289772,0.2905784547328949,-0.11815589666366577,-0.1830098032951355,-0.2180791199207306,0.21960477530956268,-0.10419770330190659,-0.32546332478523254,-0.13695727288722992,0.0846048966050148,0.06864766776561737,-0.23985515534877777,0.20367945730686188,-0.1934928596019745,0.13496877253055573,0.09354136139154434,0.129557803273201,0.03131981939077377,0.08767304569482803,0.03209511563181877,0.5520486831665039,-0.029686585068702698,-0.37353870272636414,0.11276936531066895,-0.15894365310668945,-0.03689955547451973,-0.05372069776058197,-0.010044911876320839,-0.09074248373508453,0.0029663722962141037,-0.36768969893455505,0.005138775333762169,0.04114948958158493,0.057505324482917786,0.2493571639060974,-0.2726714313030243,-0.151763916015625,-0.25163501501083374,0.2263650894165039,0.19413422048091888,0.129526287317276,0.380016028881073,0.14767169952392578,-0.10129760205745697,-0.24910904467105865,-0.20244315266609192,-0.21926267445087433,0.38031572103500366,0.028999846428632736,0.15887945890426636,-0.2791942358016968,-0.3147251009941101,0.326002836227417,-0.10051950067281723,0.05322375148534775,0.3710896372795105,-0.11171937733888626,-0.007363459095358849,-0.5120829939842224,0.09338356554508209,0.10187430679798126,0.22683897614479065,0.117729552090168,-0.31441113352775574,-0.1063273623585701,-0.07522167265415192,-0.15940545499324799,-0.26873499155044556,0.4802866280078888,0.38107484579086304,0.09604944288730621,0.020960833877325058,-0.01714032143354416,-0.032941751182079315,0.2757788300514221,0.21314072608947754,0.4176943600177765,-0.27673983573913574,0.12031381577253342,0.14913198351860046,0.17024116218090057,-0.5035662055015564,-0.004780504386872053,-0.24548983573913574,-0.12958158552646637,0.0018374943174421787,0.03632548078894615,-0.06931297481060028,-0.2160695493221283,0.3657267689704895,0.41113072633743286,-0.17735996842384338,-0.031119005754590034,-0.15874242782592773,0.0891650915145874,0.23625943064689636,-0.36552858352661133,-0.07465660572052002,-0.34843680262565613,-0.16951408982276917,0.5338869094848633,-0.3235302269458771,-0.12877775728702545,0.1956987828016281,-0.03994099050760269,-0.04391615465283394,0.21056008338928223,0.17736244201660156,-0.0608537420630455,0.016613252460956573,-0.2854878008365631,0.12274636328220367,-0.19820116460323334,0.32133162021636963,-0.2291179597377777,-0.271695613861084,0.27191248536109924,-0.18402095139026642,0.05625426396727562,0.06474330276250839,0.004180536139756441,-0.2315390557050705,-0.07546300441026688,0.04822107404470444,-0.0714343935251236,0.09901828318834305,-0.037335943430662155,0.21198733150959015,0.21590185165405273,-0.03504927456378937,0.2475171983242035,-0.07513915002346039,0.5031030178070068,0.0386793315410614,-0.02345842681825161,-0.4377377927303314,0.07106654345989227,-0.22366788983345032,0.06606247276067734,-0.020452866330742836,0.0030429507605731487,-0.07294955849647522,-0.07368350774049759,-0.0684860497713089,-0.1824723780155182,0.10358703881502151,-0.03660860285162926,-0.1333891600370407,-0.007547280285507441,-0.23098869621753693,-0.18744666874408722,-0.2481258362531662,-0.026211310178041458,0.04884209483861923,-0.06854112446308136,0.13519790768623352,-0.09946553409099579,-0.06937937438488007,0.12634053826332092,-0.09782792627811432,-0.028788361698389053,0.15922541916370392,-0.09547538310289383,-0.5057214498519897,0.7712126970291138,-0.27942368388175964,-0.3051057457923889,-0.07397749274969101,-0.033452488481998444,-0.06036355718970299,-0.1595952957868576,-0.013409344479441643,0.05063607916235924,0.10986505448818207,0.02993837557733059,-0.10730254650115967,0.1724294275045395,0.11121769994497299,-0.009192351251840591,0.3401812016963959,0.4638827443122864,0.22355154156684875,-0.02191072329878807,-0.24173647165298462,0.48011937737464905,-0.047488875687122345,0.1376185566186905,0.18109075725078583,0.05208728462457657,-0.32702818512916565,-0.11308623105287552,-0.20825421810150146,0.010556234046816826,-0.08403170108795166,-0.346626877784729,-0.027961157262325287,0.09158769249916077,-0.05351150408387184,0.08674177527427673,-0.057942867279052734,0.1905144602060318,-0.07780458778142929,-0.04471370577812195,-0.016143037006258965,-0.045587580651044846,0.2288999855518341,-0.12897108495235443,0.04297666624188423,-0.2946663498878479,0.19894713163375854,-0.06587111204862595,0.1793559342622757,0.11245599389076233,0.08960334956645966,0.46769073605537415,-0.3693760931491852,-0.40014076232910156,0.10867001116275787,0.26930755376815796,-0.18116889894008636,0.09892331808805466,-0.27219194173812866,0.17896433174610138,0.10113315284252167,0.028314562514424324,-0.14676357805728912,0.14700190722942352,0.18166297674179077,0.3896736800670624,-0.2778247594833374,0.037464842200279236,-0.1950765997171402,-0.2784012258052826,0.10627531260251999,-0.012406443245708942,-0.14995968341827393,0.1611485481262207,-0.3695904612541199,-0.09054922312498093,0.34986311197280884,0.17049290239810944,0.11121982336044312,-0.0026331800036132336,-0.10776084661483765,0.0835663229227066,0.18430067598819733,0.21728137135505676,-0.1378907561302185,0.3465524911880493,0.342205673456192,0.18839852511882782,-0.3752783238887787,-0.0784376934170723,0.1474480777978897,0.11279422789812088,0.12126544862985611,-0.43181824684143066,0.0229636263102293,0.21398736536502838,-0.10633080452680588,-0.07836420834064484,0.258648157119751,0.03762850910425186,0.4377548396587372,0.01957438699901104,0.24800565838813782,0.214335098862648,0.13462139666080475,-0.03274417668581009,0.40615320205688477,0.379351407289505,-0.050170350819826126,-0.2875088155269623,-0.04826320707798004,-0.02929620072245598,0.2173871546983719,0.02850331924855709,-0.14469459652900696,0.5667814016342163,0.3817766308784485,0.1410861760377884,0.17690858244895935,0.1211862862110138,0.028922874480485916,0.050194669514894485,-0.12795951962471008,0.28914961218833923,-0.11306876689195633,-0.1752409189939499,-0.07931824028491974,0.33554592728614807,-0.002521540503948927,-0.15943950414657593,-0.2494337409734726,-0.16523614525794983,-0.02697906643152237,0.31520310044288635,0.24594919383525848,-0.4282465875148773,-0.1528194695711136,0.14692559838294983,-0.03571378439664841,0.08456310629844666,0.034433264285326004,-0.2537025511264801,0.08850400894880295,0.1823527216911316,0.021467678248882294,-0.010261342860758305,0.07749377936124802,-0.09825359284877777,-0.27659568190574646,0.02582750841975212,0.032306935638189316,-0.1449403464794159,-0.21026775240898132,0.008945667184889317,0.24018779397010803,0.025053497403860092,0.11867482215166092,0.12055638432502747,-0.013630703091621399,-0.09519952535629272,0.028912559151649475,0.20096835494041443,-0.12928511202335358,-0.12376698851585388,0.1576179713010788,-0.026856714859604836,-0.1385771483182907,-0.2929312586784363,0.003255463670939207,-0.040781281888484955,0.07961344718933105,-0.05785989388823509,0.3230929672718048,-0.14069977402687073,0.024355772882699966,-0.29181304574012756,0.008682049810886383,-0.1345600038766861,0.3086152970790863,-0.036279261112213135,-0.05518689379096031,-0.5028707981109619,0.01502567995339632,-0.05898117646574974,-0.5062267184257507,-0.04078628122806549,0.14083127677440643,-0.18207845091819763,0.05614698678255081,-0.07308700680732727,-0.1875559240579605,0.0965159609913826,0.09236601740121841,-0.23594984412193298,0.16359767317771912,-0.062038104981184006,0.288512259721756,-0.053909625858068466,-0.1520802527666092,0.2006039321422577,0.08187244832515717,-0.26659709215164185,0.04159905016422272,-0.011065742000937462,0.21651120483875275,0.025106335058808327,0.08787653595209122,-0.14268384873867035,-0.024567700922489166,-0.10959647595882416,-0.14963214099407196,-0.13530704379081726,-0.29580941796302795,-0.07441899180412292,-0.01657460629940033,0.10585656017065048,0.09275240451097488,0.17833854258060455,-0.01581421121954918,0.0029385490342974663,-0.14896181225776672,0.11718180775642395,-0.004846898373216391,0.4568864107131958,0.013951792381703854,-0.2319045215845108,0.1658356636762619,0.09224402159452438,-0.10859337449073792,-0.13086849451065063,0.07715869694948196,0.14637650549411774,0.256590873003006,0.10247186571359634,-0.11142886430025101,-0.0486488863825798,-0.1647481620311737,-0.17382250726222992,-0.5088629126548767,-0.1971254050731659,0.12905515730381012,-0.3976792097091675,0.12314082682132721,-0.221272274851799,0.2324240505695343,-0.20639987289905548,0.09210722148418427,0.34551718831062317,0.010109334252774715,-0.11865951120853424,-0.08970025181770325,0.06870444864034653,0.36756256222724915,-0.1271737813949585,0.2433990240097046,-0.020935416221618652,-0.1985432505607605,-0.008126704953610897,0.029385143890976906,-0.07498478889465332,0.007862496189773083,-0.010320193134248257,-0.0529935248196125,0.05361853167414665,0.031215105205774307,0.22675049304962158,-0.03792125731706619,-0.2296881377696991,0.01694076880812645,0.029074089601635933,-0.020707564428448677,0.29850655794143677,0.09398352354764938,-0.2290489375591278,-0.01614823006093502,0.16805632412433624,-0.2525899112224579,0.3686023950576782,0.07679691910743713,-0.051700033247470856,0.20039601624011993,-0.01699257455766201,0.09489207714796066,0.021393220871686935,-0.1126784011721611,-0.04201880842447281,-0.19913771748542786,0.06839662790298462,-0.30113905668258667,0.3014904856681824,0.22596174478530884,0.009436295367777348,0.5043280720710754,-0.062364980578422546,0.07083948701620102,-0.07318665087223053,0.261577844619751,0.017770765349268913,-0.0490533709526062,-0.008293750695884228,-0.0048573254607617855,0.11065620929002762,0.10783541202545166,-0.05342212691903114,0.14169549942016602,-0.2515881359577179,0.24977955222129822,0.6258473992347717,-0.10302545130252838,0.19127978384494781,0.2483287900686264,-0.011250252835452557,-0.032140910625457764,-0.04991840943694115,0.04876025393605232,0.08807116746902466,0.2665710747241974,0.12177086621522903,-0.1074870377779007,0.1074768453836441,-0.03823775798082352,-0.014318273402750492,-0.2590728998184204,-0.1330443173646927,-0.12857984006404877,0.19707216322422028,-0.024342741817235947,-0.14135688543319702,0.07787755131721497,0.02253483422100544,0.035101234912872314,0.16129231452941895,0.15505532920360565,-0.024814261123538017,0.03453441336750984,0.21055848896503448,-0.27951860427856445,0.25272876024246216,-0.19586417078971863,0.012949873693287373,-0.28378966450691223,0.06963091343641281,-0.07459697127342224,-0.24348008632659912,-0.11730128526687622,0.013367168605327606,0.00456621777266264,-0.11979199945926666,-0.11709292978048325,-0.2381802648305893,-0.021148327738046646,-0.1577308475971222,-0.049279604107141495,0.09255778044462204,0.13432756066322327,0.0676807388663292,-0.0178211759775877,0.004898179788142443,0.18129988014698029,-0.1425308883190155,-0.05363579839468002,-0.32763370871543884,-0.044795602560043335,0.025365712121129036,0.2889452278614044,-0.1498696208000183,0.10235363990068436,-0.2090184986591339,-0.14559626579284668,0.21953876316547394,-0.14206843078136444,0.01318497583270073,0.2399412989616394,0.0647415965795517,0.04749113693833351,0.03264209255576134,-0.2546137273311615,0.06618382036685944,-0.02950863353908062,0.09404608607292175,0.07412901520729065,0.08326129615306854,0.5397477149963379,-0.06214822083711624,-0.088070347905159,0.2976073622703552,0.05982289835810661,0.0596824549138546,-0.08582121133804321,0.09608004987239838,0.13631568849086761,-0.30768001079559326,0.06563666462898254,0.20408350229263306,0.005278556142002344,-0.06073274835944176,-0.1747603416442871,0.07148689031600952,-0.1294647455215454,0.1324896514415741,0.07061325013637543,0.1334010511636734,0.21871380507946014,0.12065001577138901,-0.10929020494222641,0.001663603587076068,0.052626919001340866,-0.17540715634822845,0.12252022325992584,-0.4997148811817169,-0.011711408384144306,0.10533932596445084,0.2542163133621216,-0.018253715708851814,-0.1237175241112709,-0.18500109016895294,-0.24826395511627197,0.14896872639656067,-0.010279688984155655,0.05954350158572197,-0.0588926263153553,-0.137595072388649,0.18889953196048737,0.07687179744243622,0.0626048743724823,0.04608944058418274,0.03334486484527588,-0.08220929652452469,0.0792909637093544,0.042633943259716034,0.013253009878098965,-0.23359723389148712,-0.25351840257644653,0.33835142850875854,0.03650204464793205,0.12039259076118469,0.046247489750385284,0.14910466969013214,0.05234943702816963,-0.15936709940433502,0.13482949137687683,0.15962570905685425,0.15980419516563416,-0.21758915483951569,-0.23797759413719177,-0.08355891704559326,0.07941656559705734,-0.0825648158788681,-0.05595756322145462,-0.36704620718955994,0.154826357960701,0.33251914381980896,-0.2441301941871643,0.11890187859535217,-0.11207988858222961,-0.15722130239009857,0.0786595270037651,0.15706667304039001,0.26414886116981506,0.13437016308307648,0.18873614072799683,0.0501662977039814,0.21993018686771393,0.29769062995910645,-0.07112288475036621,0.14316390454769135,0.04105180874466896,0.23223380744457245,0.15622182190418243,0.06378702819347382,-0.08398055285215378,-0.26455870270729065,0.05859698727726936,0.003354789223521948,-0.055143844336271286,-0.03452659398317337,0.0712764710187912,0.26643630862236023,0.2972266376018524,-0.20719130337238312,-0.031081609427928925,0.44769832491874695,0.07727400958538055,0.052344392985105515,0.5691727995872498,-0.009366633370518684,-0.14194615185260773,-0.3522971570491791,0.08090509474277496,0.024202901870012283,-0.09138675034046173,0.16656839847564697,0.015778083354234695,0.3157929480075836,-0.23887678980827332,0.007306450977921486,-0.3347300589084625,-0.1541581004858017,0.0785180926322937,0.2897537648677826,-0.024414636194705963,0.22610749304294586,-0.0904746726155281,0.17896591126918793,0.30068832635879517,-0.04742185026407242,0.031944628804922104,0.13113266229629517,0.16381171345710754,0.2276327908039093,0.13591130077838898,-0.05392703041434288,0.04757450148463249,-0.17304186522960663,0.373538076877594,0.04882574826478958,0.03290508687496185,0.32260799407958984,-0.03894281014800072,-0.22326388955116272,0.2870412766933441,0.017457228153944016,0.028210727497935295,0.1962425708770752,-0.265347957611084,0.043960560113191605,0.16140760481357574,-0.07574579864740372,-0.10020889341831207,0.028814610093832016,0.08227550983428955,-0.01654568314552307,-0.28867295384407043,-0.07147201895713806,-0.07966304570436478,0.0571788065135479,-0.08018770068883896,-0.04831910505890846,-0.320042222738266,0.06908205151557922,-0.16107065975666046,-0.17795641720294952,-0.07463734596967697,0.023042449727654457,0.2146102488040924,-0.26662343740463257,0.044377703219652176,-0.09258704632520676,-0.09056033194065094,0.017981404438614845,0.022376568987965584,0.19101865589618683,-0.07441437989473343,0.09100797772407532,-0.02402549423277378,-0.11369381844997406,-0.35786494612693787,-0.036569733172655106,0.0550190806388855,0.30818894505500793,-0.012522502802312374,0.2759997844696045,0.043363962322473526,-0.17122024297714233,0.06361347436904907,-0.1776965856552124,-0.1192672848701477,0.1644268035888672,0.27499958872795105,0.0770375207066536,0.021235397085547447,-0.08247572928667068,-0.10926921665668488,0.15224520862102509,0.08278629928827286,-0.1097392663359642,-0.041723158210515976,-0.09568135440349579,-0.1184438094496727,0.07464680820703506,-0.16799050569534302,0.2221493124961853,0.06903668493032455,0.13560104370117188,-0.02503623068332672,0.18384574353694916,0.5386773347854614,0.0715785101056099,0.12147151678800583,-0.3045177161693573,-0.2378733903169632,0.1598101705312729,0.31047528982162476,-0.001636562286876142,0.26214367151260376,0.19330079853534698,0.30749544501304626,0.14803823828697205,0.3077601492404938,-0.18125440180301666,0.025993432849645615,-0.16933733224868774,-0.1654883623123169,-0.005174955818802118,0.04495161026716232,-0.06504634767770767,0.026170646771788597,0.26567623019218445,0.018213793635368347,-0.17661209404468536,-0.00811990350484848,-0.18529513478279114,-0.0029818229377269745,0.2598428726196289,0.16822892427444458,0.0685037299990654,-0.4373559057712555,0.032110776752233505,-0.011023067869246006,-0.10204809159040451,0.043106935918331146,-0.03508869931101799,0.1921633630990982,-0.058018770068883896,-0.40824490785598755,-0.20521149039268494,0.06811270862817764,-0.1183488667011261,-0.2345757633447647,-0.3559083938598633,0.0071284035220742226,0.25695544481277466,0.14158982038497925,-0.3677328824996948,-0.5777937769889832,0.31604158878326416,-0.26739704608917236,0.17498961091041565,0.025995535776019096,-0.2440977841615677,-0.31890395283699036,0.025452813133597374,-0.22087115049362183,-0.08589807152748108,0.21170271933078766,0.0032140901312232018,0.02335680089890957,0.28245633840560913,-0.14497733116149902,0.12551699578762054,-0.12255647033452988,-0.14989785850048065,-0.12536019086837769,-0.09695641696453094,0.0022036375012248755,0.21981751918792725,0.025343729183077812,-0.05442938208580017,-0.37429356575012207,0.1705692857503891,0.09634290635585785,0.1950616091489792,0.19777332246303558,0.0635005310177803,0.3694336414337158,0.1352112740278244,-0.09620537608861923,-0.07692483812570572,-0.005466722883284092,-0.07623645663261414,0.0023981898557394743,