{"version":"0.5.4","metadata":{"date":{"year":2025,"month":7,"day":22,"hour":16,"minute":23,"second":26},"loudness":-21.296539306640625,"gain":0.8200766593617599,"name":"SLAMMIN_MARSHALL_J45_V5_BALANCED_P5_S","modeled_by":"slamminmofo","gear_type":"amp","gear_make":"tz-make","gear_model":"tz-model","tone_type":"overdrive","input_level_dbu":12.2418,"output_level_dbu":12.2418,"training":{"settings":{"ignore_checks":true},"data":{"latency":{"manual":0,"calibration":{"algorithm_version":1,"delays":[1],"safety_factor":1,"recommended":0,"warnings":{"matches_lookahead":false,"disagreement_too_high":false}}},"checks":{"version":4,"passed":false}},"validation_esr":0.007409446501481623}},"architecture":"WaveNet","config":{"layers":[{"input_size":1,"condition_size":1,"head_size":8,"channels":16,"kernel_size":3,"dilations":[1,2,4,8,16,32,64,128,256,512],"activation":"Tanh","gated":false,"head_bias":false},{"input_size":16,"condition_size":1,"head_size":1,"channels":8,"kernel_size":3,"dilations":[1,2,4,8,16,32,64,128,256,512],"activation":"Tanh","gated":false,"head_bias":true}],"head":null,"head_scale":0.02},"weights":[0.00039977251435630023,0.47446271777153015,-0.6089057922363281,-0.8637937903404236,-0.00238773669116199,0.47207459807395935,-0.2392217367887497,0.25977036356925964,0.00013685815792996436,0.21265752613544464,0.000532533333171159,-0.00045612669782713056,-0.4365087151527405,-0.22312092781066895,-0.17815521359443665,0.0008105895249173045,0.04574762284755707,0.08558660000562668,-0.0978882759809494,-0.4253872036933899,-0.013765002600848675,0.45297718048095703,0.29623374342918396,0.14069335162639618,-0.38356828689575195,0.35509613156318665,0.17571985721588135,-0.4868309795856476,0.17532068490982056,0.18043889105319977,-0.3301345705986023,-0.16807197034358978,-0.09616275876760483,0.33999836444854736,0.07732437551021576,-0.1406233161687851,-0.4731099307537079,-0.22335956990718842,0.008146693930029869,0.40349438786506653,0.2702673077583313,-0.11884938925504684,0.19325320422649384,-0.5495049953460693,-0.21039876341819763,0.21324869990348816,0.18220844864845276,0.001204119180329144,-0.29741358757019043,-0.07510973513126373,0.25717008113861084,0.2875848412513733,0.41480061411857605,0.08051861822605133,-0.2311820387840271,0.2608518898487091,0.10212715715169907,-0.4230387508869171,0.22678425908088684,-0.03293590620160103,-0.3025529086589813,-0.09916660934686661,-0.01836085133254528,0.04578859731554985,-0.18181602656841278,0.13978588581085205,-0.6164685487747192,-0.43777307868003845,0.30067768692970276,0.3092082142829895,0.3623509407043457,-0.27107158303260803,-0.14110763370990753,0.5943933725357056,-0.08803805708885193,-0.04379278048872948,0.47822821140289307,-0.4077593982219696,-0.10377027839422226,-0.5503262877464294,0.13626305758953094,0.36772701144218445,0.5427049994468689,-0.37291237711906433,-0.127360999584198,-0.46660614013671875,0.2024829238653183,0.12466146796941757,0.30557772517204285,-0.141660675406456,-0.33795443177223206,-0.37594836950302124,0.30854764580726624,0.19455070793628693,0.3149312734603882,-0.16195368766784668,-0.5042677521705627,0.26026442646980286,-0.00001961577800102532,0.24994657933712006,0.60029137134552,-0.10673389583826065,-0.2190149426460266,0.4008600413799286,-0.350458562374115,-0.1766856610774994,0.33111709356307983,-0.37412261962890625,-0.24283850193023682,-0.40275558829307556,0.12245985865592957,-0.17587389051914215,0.18719540536403656,-0.19003720581531525,-0.43996167182922363,-0.14612236618995667,0.13074910640716553,-0.09675014764070511,0.020233165472745895,-0.15542615950107574,0.14735762774944305,0.013474910520017147,-0.24907055497169495,0.15602406859397888,0.031415507197380066,-0.03166193887591362,0.026738805696368217,-0.04505837336182594,0.15302415192127228,-0.20372876524925232,-0.17108896374702454,-0.07703062146902084,-0.022747918963432312,-0.04133671522140503,0.2582939863204956,-0.13711445033550262,-0.035994548350572586,-0.1303405463695526,-0.031209981068968773,0.005054188426584005,0.26578494906425476,-0.07849939912557602,0.14755599200725555,-0.020161950960755348,0.5813543200492859,0.27049654722213745,0.1105756163597107,0.20520472526550293,-0.04546833038330078,-0.277962863445282,-0.042535629123449326,-0.06639866530895233,-0.16515187919139862,0.20061948895454407,0.09596781432628632,-0.3028936982154846,0.20210552215576172,0.14777114987373352,0.020832393318414688,0.4037097692489624,-0.07036521285772324,0.06886380910873413,-0.11903280019760132,0.13504880666732788,-0.42186203598976135,-0.06989852339029312,-0.2900134325027466,0.4815676212310791,-0.034123510122299194,-0.25019410252571106,0.54702228307724,0.03940608724951744,-0.15063875913619995,0.2311708629131317,-0.1189781203866005,0.28618186712265015,-0.46823522448539734,-0.20279453694820404,-0.15314356982707977,0.21725896000862122,0.12424226850271225,0.22057750821113586,-0.2938137352466583,-0.023547213524580002,0.07946901023387909,-0.10088623315095901,0.11845654994249344,0.2860090434551239,-0.46874842047691345,0.0758645161986351,-0.190717414021492,-0.01603144034743309,-0.10500064492225647,0.04206925258040428,0.06306499987840652,-0.14861081540584564,-0.3359701931476593,0.44900161027908325,-0.009353759698569775,-0.25210893154144287,0.37926581501960754,0.12128826230764389,-0.33815303444862366,0.32015594840049744,0.016096118837594986,0.024006472900509834,-0.017292095348238945,0.147781103849411,0.1459319293498993,0.0476168654859066,-0.37526586651802063,0.5491060018539429,0.21316391229629517,-0.2752774655818939,-0.5456157326698303,-0.14822246134281158,0.15546654164791107,-0.6425321102142334,-0.07712867110967636,0.1372610628604889,-0.35054874420166016,-0.12449178844690323,0.29764923453330994,0.5033785104751587,0.002641175640746951,-0.25129324197769165,-0.48731598258018494,-0.2387544959783554,0.36011579632759094,0.5314152240753174,0.17818473279476166,-0.13017188012599945,-0.09625693410634995,-0.23529784381389618,-0.1330520063638687,0.5391530990600586,0.29397037625312805,-0.2878536581993103,-0.23169180750846863,-0.20729123055934906,0.2106623500585556,0.04610826075077057,0.1316787749528885,-0.03155416622757912,-0.5000986456871033,-0.33716297149658203,0.33446550369262695,-0.6472405195236206,-0.1777702122926712,0.2191556692123413,-0.6051099300384521,-0.14510925114154816,0.4073777496814728,0.20919066667556763,-0.005047045182436705,0.10421226918697357,-0.10274661332368851,0.2575809955596924,-0.017350981011986732,0.2079806923866272,-0.8363069891929626,0.26016488671302795,-0.24142824113368988,0.8639532327651978,-0.09921082109212875,-0.3528538942337036,0.7233818173408508,-0.10772334039211273,-0.1680947095155716,0.6490088701248169,-0.25616469979286194,0.250440776348114,-0.9541251063346863,0.12193036079406738,-0.4698774218559265,0.43002671003341675,0.22217795252799988,0.20587976276874542,-0.7691648602485657,0.19109110534191132,-0.04237482696771622,-0.03383950889110565,0.05971081927418709,0.4048575758934021,-0.7148590087890625,0.33839669823646545,-0.3029569387435913,0.4238531291484833,-0.14955168962478638,-0.1498805284500122,0.3762982189655304,0.3067874014377594,-0.2458411157131195,0.741605281829834,-0.20239226520061493,-0.37773072719573975,0.8349246978759766,-0.26666978001594543,-0.24355469644069672,0.7506796717643738,-0.1901792287826538,0.06199461221694946,-0.35078299045562744,-0.023829789832234383,-0.10471158474683762,0.0313357375562191,0.20959697663784027,0.013880444690585136,0.03759035840630531,-0.1637485772371292,-0.08142758160829544,-0.006625434849411249,0.2044413983821869,-0.017403773963451385,0.06609116494655609,0.26689568161964417,-0.021760130301117897,0.033586837351322174,0.13836175203323364,-0.044051624834537506,-0.029129700735211372,-0.1494821459054947,-0.03257390484213829,0.034536752849817276,0.39522600173950195,0.09144899249076843,0.05955412983894348,-0.1457757204771042,0.42432406544685364,0.2367895394563675,0.6176730990409851,-0.17508955299854279,0.11528190970420837,-0.06199171394109726,-0.07241575419902802,0.10609012842178345,0.11419063806533813,0.051305245608091354,-0.0063978140242397785,-0.1456342190504074,0.0040384442545473576,-0.042178746312856674,0.27468857169151306,0.10290604084730148,-0.07494931668043137,0.25215908885002136,0.11209122836589813,0.1020677387714386,0.058505721390247345,0.2874760031700134,0.18377649784088135,0.28952860832214355,0.045772455632686615,-0.031195424497127533,0.04456811025738716,0.19460457563400269,-0.35599783062934875,0.18306691944599152,-0.24085955321788788,0.34896209836006165,-0.18620708584785461,-0.27070456743240356,0.20533345639705658,0.019466709345579147,-0.23097993433475494,0.3230019211769104,0.10620037466287613,0.011626336723566055,-0.4251023828983307,0.0690557062625885,-0.23590363562107086,0.1973237246274948,-0.19568954408168793,0.0681639313697815,-0.43355005979537964,0.02973601408302784,0.08826452493667603,-0.03652231767773628,0.15333238244056702,0.2333834171295166,-0.16500575840473175,0.11314230412244797,-0.1644657701253891,0.2675032913684845,0.02579655684530735,0.1817578375339508,0.1404396891593933,-0.35612601041793823,-0.17418979108333588,0.38250839710235596,-0.08820802718400955,-0.16677601635456085,0.20821736752986908,-0.19977235794067383,-0.2564416527748108,0.39634042978286743,-0.012283792719244957,-0.04461952671408653,-0.12280523777008057,0.1305091232061386,-0.09776312857866287,0.11286783218383789,0.10057645291090012,0.053919028490781784,-0.6065260171890259,0.22170670330524445,0.20109239220619202,0.7730587124824524,-0.36083582043647766,0.1704186052083969,0.6090983152389526,-0.32229506969451904,0.1307917833328247,0.38874274492263794,-0.4125306308269501,-0.10331296175718307,-0.7474622130393982,0.2319333255290985,-0.05994082987308502,0.6049262285232544,-0.23645704984664917,-0.16389133036136627,-0.6577979922294617,0.36804673075675964,0.17906592786312103,0.0863480493426323,0.12420714646577835,-0.20173779129981995,-0.7116522192955017,0.4165717363357544,-0.005774066783487797,0.305283784866333,-0.14524859189987183,-0.08283660560846329,0.07082607597112656,-0.14816297590732574,0.11902808398008347,0.5532273054122925,-0.24596938490867615,-0.06623879075050354,0.491609662771225,-0.4520377516746521,0.0402815118432045,0.8084039092063904,-0.40881872177124023,0.14757105708122253,0.08894165605306625,0.0852673351764679,-0.03887384012341499,-0.0019606188870966434,0.22913672029972076,0.26089975237846375,0.1859806478023529,-0.009254409931600094,-0.2929975688457489,0.06276160478591919,0.09391719102859497,-0.14338281750679016,-0.19255442917346954,0.02643907442688942,-0.2428516000509262,0.11760912835597992,-0.21928876638412476,0.08117257803678513,0.07918071001768112,-0.03450775891542435,-0.09427884221076965,-0.06202322989702225,0.238550066947937,0.12767139077186584,0.08920542895793915,0.0338548980653286,0.06137871742248535,-0.026489153504371643,0.38137203454971313,0.00338845606893301,-0.10860301554203033,-0.035651642829179764,-0.03415735810995102,0.06603719294071198,0.2890596091747284,-0.08352381736040115,0.2729831635951996,-0.11690787971019745,-0.2079576700925827,0.04500557482242584,0.14898879826068878,-0.08262528479099274,0.0003687358694151044,0.060332849621772766,-0.20252393186092377,-0.021294809877872467,0.16256488859653473,0.2787725627422333,0.04268717020750046,0.1432913988828659,-0.0967055931687355,0.06995243579149246,0.1513577252626419,0.06541287899017334,-0.2706994414329529,0.2994149923324585,0.16569508612155914,0.24759945273399353,-0.05394865199923515,0.021157199516892433,0.20622661709785461,-0.11742278933525085,-0.06584930419921875,0.08802519738674164,0.2708277106285095,-0.03336139768362045,-0.2011035680770874,0.1333005726337433,0.2693949341773987,0.19843177497386932,-0.20669043064117432,-0.050081852823495865,-0.04896817356348038,0.18727025389671326,0.15923281013965607,0.10223312675952911,-0.057625651359558105,-0.11142516881227493,-0.18494439125061035,0.17825856804847717,0.1311844438314438,0.06725423783063889,-0.0325392484664917,0.2523963153362274,0.27439582347869873,-0.17220212519168854,-0.036085184663534164,0.03608229011297226,-0.2845957577228546,0.04494268819689751,0.07526988536119461,-0.30077654123306274,0.028104690834879875,0.1575348675251007,-0.27783578634262085,0.08506473153829575,0.10617751628160477,0.4290286898612976,0.052141472697257996,0.09319889545440674,-0.21313029527664185,-0.047227777540683746,-0.04760787636041641,0.20871463418006897,-0.07780881226062775,-0.13861097395420074,0.07147104293107986,-0.03361057862639427,0.024235686287283897,-0.07981863617897034,0.008852304890751839,-0.041281141340732574,0.028276141732931137,-0.059636399149894714,-0.14247067272663116,-0.005310678854584694,0.07345342636108398,0.043347135186195374,-0.15127915143966675,0.08528845012187958,-0.02279958315193653,0.05193343013525009,0.18743778765201569,0.045860905200242996,-0.013307271525263786,0.04355568811297417,-0.030153751373291016,-0.018482858315110207,0.06088611111044884,0.14916963875293732,-0.08506370335817337,-0.04078307002782822,0.07774723321199417,0.08404850214719772,0.011393114924430847,-0.12456207722425461,-0.19908198714256287,0.08348288387060165,-0.019403943791985512,-0.15210232138633728,0.08824450522661209,0.04962087422609329,0.04100494831800461,0.009668365120887756,-0.040280457586050034,0.016119083389639854,0.06186778470873833,-0.11688970774412155,0.12134265154600143,-0.3028418719768524,0.1272280514240265,0.3576802909374237,0.4660329222679138,-0.1529434770345688,-0.37490329146385193,0.28895020484924316,-0.3687274158000946,-0.11858745664358139,0.22254624962806702,-0.19267886877059937,-0.03318379819393158,-0.3629571199417114,0.2390931099653244,0.2820720970630646,0.3086155951023102,-0.26352396607398987,-0.26608920097351074,-0.4214189946651459,0.3036256730556488,0.3447725176811218,-0.01713550090789795,-0.011644319631159306,-0.11632607132196426,-0.41148146986961365,0.137297585606575,0.29244911670684814,0.17536687850952148,-0.18233154714107513,-0.004614016506820917,0.1270984709262848,-0.2047976404428482,0.25005844235420227,0.22830818593502045,-0.2586410939693451,-0.1403987556695938,0.399771124124527,-0.18211370706558228,-0.17657524347305298,0.38189759850502014,-0.30994901061058044,-0.3161959648132324,-0.15608234703540802,0.010682627558708191,-0.19616328179836273,-0.06294573098421097,-0.0922473818063736,-0.1420523077249527,0.20663711428642273,0.3277975618839264,-0.1602589190006256,-0.2535661458969116,-0.2867111563682556,0.18601620197296143,-0.22389699518680573,-0.35413414239883423,0.22952038049697876,-0.0796155035495758,-0.27629968523979187,0.2649494409561157,0.08514456450939178,0.429080069065094,-0.16861088573932648,-0.02250148169696331,-0.21958722174167633,0.38723236322402954,0.15063214302062988,0.5090288519859314,-0.4066436290740967,0.03665489703416824,0.25079914927482605,-0.02681909315288067,0.346860408782959,0.39383015036582947,-0.16564659774303436,0.05544762685894966,-0.1719978153705597,0.1872754693031311,0.07013861835002899,-0.498872846364975,0.026353580877184868,-0.21804064512252808,-0.423035204410553,0.3883548974990845,-0.22012385725975037,-0.2772761285305023,0.17839066684246063,-0.19758617877960205,-0.44072383642196655,0.3393224775791168,0.08049825578927994,0.0403912290930748,0.04768310859799385,0.025116700679063797,0.08905613422393799,-0.09579905867576599,0.06924570351839066,-0.4882182776927948,0.10365884006023407,-0.11462884396314621,0.4739730656147003,0.16092132031917572,-0.24722029268741608,0.6373680830001831,0.07844776660203934,-0.24644041061401367,0.3526898920536041,-0.18321645259857178,0.12841621041297913,-0.7450398206710815,-0.1325894594192505,-0.20963439345359802,0.5360528230667114,0.026451751589775085,0.23738111555576324,-0.5995497107505798,-0.10459364205598831,-0.1438264697790146,0.09375368803739548,0.0936536118388176,0.1654684692621231,-0.5264294147491455,0.07060112804174423,-0.2191733866930008,0.2330997884273529,0.14105769991874695,-0.20828402042388916,0.1756896823644638,-0.004998047836124897,-0.22865648567676544,0.6155501008033752,0.1690492033958435,-0.24801678955554962,0.6475743055343628,-0.05777151882648468,-0.15741634368896484,0.7307183146476746,0.042988892644643784,-0.050552286207675934,-0.19731418788433075,0.06747071444988251,0.15613923966884613,0.1297130286693573,-0.1693546622991562,0.35370105504989624,-0.4293481707572937,0.07374949008226395,-0.34992218017578125,0.262433797121048,0.007067778147757053,-0.34215834736824036,0.39181625843048096,-0.17304818332195282,-0.3739493489265442,0.29692336916923523,-0.08846989274024963,0.4416891634464264,-0.22219884395599365,0.1657581925392151,-0.2664783298969269,0.5253568291664124,-0.010081731714308262,0.549229085445404,-0.38118621706962585,-0.05828435719013214,0.011170717887580395,0.1929590404033661,0.39940494298934937,0.5592341423034668,-0.2941070795059204,-0.04061773791909218,-0.3415372967720032,0.2157200127840042,-0.30769065022468567,-0.28456220030784607,-0.007044748403131962,0.0649302750825882,-0.3840341866016388,0.3647458851337433,-0.004012193065136671,-0.5270557999610901,0.45321908593177795,-0.14809659123420715,-0.28663763403892517,0.18792112171649933,-0.17898426949977875,0.11557459086179733,-0.12319178134202957,-0.10966203361749649,0.003731231903657317,0.006398869678378105,-0.02240454964339733,-0.01883731223642826,0.006625551730394363,0.01945401541888714,-0.00014237459981814027,-0.011598029173910618,0.0020789774134755135,0.04655022174119949,-0.01984613761305809,-0.0000011594478337428882,0.014332314021885395,-0.0020519376266747713,-0.020964590832591057,-0.06605169177055359,0.7857839465141296,-0.2501860558986664,0.7241147756576538,-0.8063089847564697,-0.23731070756912231,1.0595204830169678,0.835417628288269,-0.5204988718032837,0.4755646586418152,0.09635166823863983,-0.325152188539505,-0.2811397314071655,0.5246615409851074,-0.9749030470848083,0.10726099461317062,0.5421797633171082,-0.18292050063610077,0.2415444552898407,0.40665221214294434,0.2334074229001999,0.09115862101316452,0.08564947545528412,-0.0008150488138198853,-0.21699738502502441,-0.0941830649971962,-0.20773348212242126,-0.15245069563388824,0.00013089725689496845,-0.08577544242143631,0.0975760743021965,0.30602583289146423,-0.09670593589544296,-0.15971660614013672,0.06220678612589836,-0.06250958144664764,0.16694244742393494,-0.023470310494303703,-0.035647399723529816,-0.0010978899663314223,-0.2300274670124054,-0.026723606511950493,-0.11555533856153488,-0.19459033012390137,0.0008197472197934985,0.05909578502178192,0.0867290273308754,0.21241509914398193,0.07432006299495697,0.01401983667165041,0.08024901896715164,-0.07151737064123154,0.02858559601008892,-0.08402848988771439,-0.07251808047294617,0.0005951527273282409,-0.07751542329788208,-0.08248533308506012,-0.4788367450237274,0.4295791983604431,-0.00034910227986983955,-0.02279578149318695,0.06712935864925385,0.11933758854866028,-0.12326277792453766,0.051395948976278305,-0.25470301508903503,-0.05073784291744232,-0.30372923612594604,0.08883237093687057,0.10037138313055038,-0.0007918492192402482,0.5725874304771423,-0.07891630381345749,-0.3374231159687042,0.20444099605083466,-0.00007568715227534994,0.25402581691741943,0.056456390768289566,-0.25002098083496094,0.08554437756538391,0.029742106795310974,0.039823826402425766,0.14949412643909454,0.2382771223783493,-0.06734577566385269,0.013655080460011959,0.0003753581549972296,-0.44854164123535156,0.1428273320198059,0.38809365034103394,-0.6865962147712708,0.0002765109238680452,-0.08811460435390472,-0.16108888387680054,0.1841946393251419,0.007585072424262762,-0.12859666347503662,0.04833903908729553,0.0673646330833435,0.08923648297786713,0.08157174289226532,0.3831905722618103,0.00010354471305618063,0.09122882783412933,0.08353595435619354,0.1098269373178482,0.011941778473556042,0.0001347714860457927,-0.10491065680980682,-0.029849175363779068,0.1825566589832306,-0.07205033302307129,0.2717081606388092,-0.02722904644906521,0.27257195115089417,-0.13452251255512238,-0.183280348777771,0.12234533578157425,-0.001416806480847299,0.05284377187490463,0.23396141827106476,-0.160975843667984,-0.2513854205608368,0.0003614628512877971,0.2193993479013443,-0.29843655228614807,-0.05266189947724342,-0.2049240618944168,-0.08348438888788223,-0.1806352436542511,0.14818210899829865,-0.12618249654769897,-0.19303235411643982,0.13867497444152832,-0.001551667577587068,0.2644822895526886,0.05573568865656853,0.009225391782820225,0.09568171203136444,0.0007219439721666276,0.048735689371824265,0.06940174102783203,-0.16353604197502136,0.22555769979953766,-0.1839047223329544,0.03592992201447487,0.04085778445005417,-0.22280089557170868,0.1939491182565689,0.12016487866640091,-0.00044274606625549495,0.029257342219352722,0.043326616287231445,-0.47283416986465454,0.16130317747592926,0.00011455579078756273,-0.005694511812180281,0.050525251775979996,-0.09387920796871185,-0.2006041407585144,-0.04899439960718155,-0.11268030107021332,0.22909827530384064,-0.312264084815979,-0.13590377569198608,-0.05363129824399948,0.0002453282359056175,-0.07401449978351593,-0.05222128704190254,0.20747989416122437,-0.16682003438472748,0.0000802477661636658,0.2626156806945801,0.003325053723528981,-0.37504807114601135,0.26275432109832764,-0.00020432192832231522,0.2849056124687195,-0.3919028341770172,-0.05190574750304222,-0.04218752309679985,-0.10634254664182663,-0.000014620688489230815,0.13309837877750397,0.025967169553041458,-0.1739661693572998,0.12590213119983673,-0.00022699266264680773,-0.27599090337753296,-0.054503217339515686,-0.4879647493362427,0.23507797718048096,-0.005738441366702318,-0.19132931530475616,0.016179284080863,0.26257872581481934,0.09552644938230515,-0.3815378248691559,0.0001839697069954127,0.2362179160118103,-0.23609206080436707,-0.06391242146492004,0.16815465688705444,0.0005909663159400225,-0.213552787899971,0.12649577856063843,-0.008082181215286255,-0.058466412127017975,-0.014009810984134674,-0.05029679462313652,0.046664949506521225,-0.22904327511787415,0.0452546663582325,0.007841270416975021,0.0005743283545598388,0.2759467661380768,0.15529559552669525,-0.15505023300647736,-0.09675898402929306,0.00017722412303555757,0.04125509038567543,-0.07410876452922821,-0.12971392273902893,-0.005516159348189831,-0.03727387264370918,0.041981667280197144,0.04420258104801178,-0.01261136680841446,-0.08996551483869553,0.0686354860663414,0.0000441473675891757,0.061386678367853165,-0.018130378797650337,-0.2713504135608673,-0.05638864263892174,-0.0003466001071501523,-0.053090278059244156,-0.011880784295499325,-0.22534537315368652,0.39673471450805664,-0.2183813750743866,0.23924313485622406,-0.16673026978969574,-0.16420184075832367,-0.33455613255500793,-0.09893014281988144,0.00040753473876975477,0.2940416932106018,-0.1440434455871582,0.2676602005958557,0.02806359902024269,-0.0001718113198876381,0.06281868368387222,0.11516524106264114,-0.2796759605407715,-0.007571075111627579,0.1882757693529129,0.3729230761528015,-0.35456711053848267,-0.12403792142868042,-0.16077488660812378,-0.0019004491623491049,0.0005253267590887845,-0.013184796087443829,-0.04325610399246216,-0.0298988688737154,-0.08632554858922958,0.00019683249411173165,0.21061861515045166,-0.08050623536109924,-0.04717465490102768,0.06273627281188965,0.02109980769455433,0.006801028270274401,0.05459349602460861,0.019009677693247795,-0.02813609130680561,-0.00970857497304678,-0.013359845615923405,0.015711462125182152,0.011018236167728901,-0.08115293830633163,0.01641400344669819,0.03051956556737423,0.004623290617018938,0.034506358206272125,-0.01775285415351391,-0.02089918591082096,-0.15197376906871796,0.331627756357193,-0.3911667466163635,-0.05426328629255295,0.4542699456214905,0.1683318167924881,0.00476264301687479,-0.03304186835885048,-0.20506659150123596,0.043968141078948975,-0.19271475076675415,0.09246128052473068,0.11922474205493927,0.4768156111240387,-0.10273460298776627,0.3814002573490143,-0.29228612780570984,-0.5556609630584717,0.03769178315997124,-0.803135097026825,0.013052142225205898,-0.19059264659881592,-0.12939606606960297,0.11846530437469482,-0.3881063163280487,-1.0515148639678955,0.1620756983757019,-0.3311561048030853,0.028763113543391228,0.46833744645118713,-0.23636509478092194,-0.05613662302494049,0.21013608574867249,-0.10568208247423172,0.5793508291244507,-0.2765786647796631,0.2833947241306305,-0.9092832207679749,0.5728623867034912,-0.1544954776763916,0.911767840385437,0.014543584547936916,-0.6372202038764954,0.12123509496450424,0.21562229096889496,0.10440994054079056,-0.21700026094913483,0.18992097675800323,0.2010761797428131,0.5532703995704651,-0.188100203871727,-0.2832864820957184,0.08190272003412247,0.3665904104709625,-0.004644452128559351,0.017403312027454376,-0.0240478552877903,-0.13582627475261688,-0.03744442015886307,0.22704096138477325,0.1002241000533104,-0.07256556302309036,-0.23077648878097534,-0.7929707169532776,0.09877482056617737,-0.5972216725349426,0.16359922289848328,-0.6328461170196533,0.13397139310836792,0.009686768986284733,-0.39289283752441406,0.323603093624115,0.3852958083152771,0.2208171933889389,-0.1574782282114029,0.3180626332759857,-0.08178234100341797,0.2578617036342621,-0.039169955998659134,-0.3922589123249054,0.11914744228124619,-0.05542689934372902,0.036807429045438766,-0.18719619512557983,-0.5003491044044495,0.19360306859016418,0.4139402210712433,-0.15777063369750977,-0.42935213446617126,0.07399407774209976,0.05501289665699005,-0.5168450474739075,-0.07770727574825287,0.11452846229076385,-0.003561723278835416,0.15953285992145538,-0.4187077581882477,0.3096802830696106,0.3046761155128479,-0.23259545862674713,0.34651052951812744,-0.007624177262187004,-0.310762882232666,0.0003026706399396062,0.32491475343704224,0.779742419719696,-0.0010072625009343028,-0.4761153757572174,-0.5400719046592712,0.18941010534763336,0.18130306899547577,0.029078707098960876,0.4610177278518677,0.4502680003643036,0.3248055875301361,-0.8285534381866455,-0.2512074112892151,0.19538062810897827,-0.04975654184818268,-0.21034814417362213,-0.4635634422302246,-0.26225388050079346,0.3626420795917511,-0.0763341411948204,0.05827096477150917,-0.3849683403968811,-0.4271824359893799,0.05107477307319641,0.5933353304862976,0.07671047002077103,0.33735787868499756,0.2114393562078476,0.45881035923957825,0.20817656815052032,0.17237454652786255,0.19578330218791962,0.3204115033149719,0.17488957941532135,-0.4324497580528259,0.3845519721508026,0.3341104984283447,0.02712523378431797,-0.4080866873264313,-0.03731324151158333,0.1618049144744873,-0.23953059315681458,-0.2021566480398178,0.3448020815849304,0.15080465376377106,-0.0309915654361248,0.08937335759401321,-0.30210307240486145,-0.3145979046821594,-0.24322015047073364,0.12277355790138245,-0.01838543824851513,-0.13291311264038086,-0.10041822493076324,-0.20826441049575806,-0.1649899035692215,0.7884106040000916,-0.05863763019442558,0.19784986972808838,0.7388870120048523,-0.020040275529026985,-0.09330293536186218,0.4559100270271301,0.4722324311733246,0.191231369972229,-0.4735032916069031,-0.0030377423390746117,0.32423269748687744,0.05591646581888199,0.13096238672733307,0.04804191738367081,-0.3416157066822052,-0.2070758044719696,0.12077149003744125,-1.0494240522384644,-0.1334455907344818,-0.49913227558135986,-0.34221240878105164,-0.03361271694302559,-0.1635037511587143,0.32190051674842834,0.38706961274147034,0.03238978981971741,-0.1352180689573288,-0.27684539556503296,0.2316794991493225,0.6613151431083679,-0.05047781765460968,0.16526298224925995,-0.35030409693717957,0.1463920772075653,0.1316230446100235,-0.10855674743652344,0.5367143154144287,0.012262111529707909,-0.09470608830451965,-0.00444284500554204,-0.3064970374107361,0.49524402618408203,0.48289400339126587,0.5882822275161743,-0.6644366979598999,-0.12450981885194778,0.23706813156604767,-0.27545279264450073,0.17123742401599884,0.21869122982025146,-0.22781112790107727,-0.08213654160499573,-0.34045955538749695,0.41202810406684875,-0.2921407222747803,-0.22940346598625183,-0.18641595542430878,0.03219174966216087,-0.5041255950927734,0.31328698992729187,-0.14003115892410278,-0.2864014506340027,-0.01037540752440691,0.06414240598678589,-0.36947745084762573,0.16151291131973267,0.27220797538757324,0.4621434807777405,-0.378329873085022,0.37601399421691895,0.23827233910560608,0.05037696659564972,0.3265651762485504,-0.6599838137626648,0.1257297545671463,-0.22451721131801605,0.06653802841901779,0.09085442870855331,-0.3214154839515686,-0.11982461810112,0.1519259363412857,0.14800040423870087,-0.5665493011474609,0.053955256938934326,-0.12450268119573593,0.190809428691864,0.06425723433494568,-0.14166036248207092,0.3690560460090637,0.6147733926773071,0.24846161901950836,0.3610300123691559,-0.3582865297794342,-0.6012669801712036,-0.39346152544021606,-0.46048325300216675,0.26099297404289246,0.4248921573162079,-0.25151872634887695,-0.22783352434635162,-0.1808389127254486,-0.22976979613304138,0.36419233679771423,0.19947105646133423,0.5127217173576355,-0.2572290599346161,-0.02336852252483368,0.10589837282896042,0.017499778419733047,0.07837989926338196,-0.16392934322357178,0.28263819217681885,-0.26791059970855713,-0.20403379201889038,-0.09533627331256866,0.5924239754676819,0.33273354172706604,-0.11670520156621933,-0.15371377766132355,-0.14223980903625488,-0.08591222018003464,-0.017323695123195648,0.6521624326705933,-0.1719365417957306,0.15784762799739838,0.11093602329492569,0.5088407397270203,-0.010464875027537346,0.23690754175186157,0.0929420068860054,-0.03439953923225403,-0.003603704273700714,0.500637412071228,-0.07744482904672623,-0.26270702481269836,0.1960880309343338,-0.0614728108048439,0.1575624644756317,0.12434562295675278,0.23369160294532776,0.34033718705177307,-0.4352089762687683,0.16034536063671112,1.0677798986434937,-0.10790855437517166,0.18422682583332062,-0.3286101222038269,-0.04927091673016548,0.06902849674224854,-0.06106096878647804,-0.1439160853624344,0.054535962641239166,-0.1612168848514557,0.39628612995147705,0.02826564386487007,-0.34124496579170227,0.03276253864169121,0.04647644981741905,-0.05257323756814003,0.5868715643882751,-0.15934976935386658,-0.04034985974431038,0.02925632894039154,-0.04159299284219742,-0.010579890571534634,0.027087481692433357,0.0130624920129776,0.10114557296037674,-0.11552291363477707,-0.24872785806655884,-0.3029968738555908,-0.022939911112189293,-0.14550122618675232,-0.1359550654888153,-0.024513855576515198,-0.3850008547306061,-0.21213498711585999,0.5788745284080505,-0.3228031396865845,-0.24315953254699707,0.4529901444911957,-0.23382660746574402,-0.07740524411201477,0.05112316459417343,0.36151763796806335,0.6182379722595215,0.41515180468559265,0.4843326508998871,-0.301505446434021,-0.5886260271072388,0.47789159417152405,-0.19383321702480316,1.0901185274124146,0.37027302384376526,0.1258506178855896,-0.49078866839408875,0.06109396740794182,-0.03290094435214996,-0.04175924137234688,-0.5898733139038086,-0.39727866649627686,0.22208362817764282,-0.011520789004862309,0.14032244682312012,-0.4512670040130615,-0.2495746612548828,-0.31116780638694763,-0.9551476836204529,-0.2730615735054016,0.01619206741452217,-0.07484796643257141,0.19559019804000854,0.004544547758996487,-0.15256178379058838,0.4310610890388489,-0.1554933488368988,0.08146092295646667,-0.3009934723377228,-0.33825138211250305,-0.2230519950389862,0.20762239396572113,0.1515277922153473,-0.6985185742378235,0.3480098843574524,-0.16059942543506622,0.14492842555046082,-0.11969849467277527,-0.3120343089103699,-0.6784066557884216,0.2239222675561905,-0.05155787616968155,0.2150997370481491,-0.20339100062847137,-0.20524951815605164,-0.052129752933979034,0.01504451222717762,-0.04039117693901062,0.34131699800491333,-0.2245756834745407,0.09578631818294525,0.24390000104904175,-0.4405049681663513,0.20062313973903656,-0.1612023115158081,-0.3396587669849396,0.10263127833604813,-0.014621204696595669,-0.07877975702285767,0.40721333026885986,0.15722309052944183,-0.2236883044242859,0.15549452602863312,-0.3077220916748047,0.2793284058570862,0.35325273871421814,-0.23885416984558105,0.2823839485645294,-0.49993273615837097,0.2239203155040741,-0.21199579536914825,0.526885986328125,0.15438446402549744,-0.14322908222675323,0.09980525076389313,0.1340351104736328,-0.13900816440582275,-0.47427934408187866,0.09851186722517014,-0.09936044365167618,0.02996242232620716,-0.34612250328063965,-0.017229871824383736,-0.10762613266706467,0.21155795454978943,-0.08612877130508423,-0.19000092148780823,0.5355385541915894,-0.3909343481063843,0.04570269212126732,0.15637008845806122,-0.27155545353889465,-0.22863219678401947,-0.36575543880462646,0.6623126864433289,-0.16222776472568512,-0.3717014193534851,0.42280784249305725,0.21692310273647308,-0.5447561144828796,-0.3986087143421173,0.051074858754873276,0.31646841764450073,0.013643268495798111,0.3130061626434326,0.05808178335428238,-0.22806859016418457,-0.6422886848449707,0.13732436299324036,-0.4254317581653595,-0.5384668707847595,0.2083081752061844,-0.02223918028175831,-0.27299603819847107,-0.38487058877944946,0.05077526345849037,-0.06968715786933899,-0.09082970023155212,0.7615763545036316,-0.3870019316673279,0.186643585562706,0.07360446453094482,0.24620677530765533,-0.37900620698928833,-0.6035919785499573,-0.03781677410006523,0.3610818088054657,-0.06999175250530243,0.14693817496299744,0.6476026177406311,0.306763231754303,-0.007024177350103855,0.08459353446960449,-0.22540178894996643,-0.18259039521217346,-0.046060118824243546,0.16379013657569885,0.2560999393463135,0.5161349177360535,-0.1321052759885788,-0.03812199831008911,-0.3120887875556946,0.1267872452735901,-0.014415312558412552,-0.501359224319458,-0.0861838310956955,0.002528494456782937,-0.2542257010936737,-0.13949993252754211,-0.10321246832609177,0.10835392773151398,0.06741596758365631,0.09767316281795502,0.2914556860923767,-0.050946034491062164,0.010214107111096382,0.1754501760005951,-0.2168295830488205,-0.6007147431373596,-0.5776572823524475,-0.04619462043046951,0.1201387271285057,-0.1165659949183464,-0.17716552317142487,-0.16884787380695343,-0.10980100929737091,0.14055287837982178,-0.04026024043560028,-0.025490840896964073,0.148895263671875,0.004418965894728899,-0.17018385231494904,0.23924806714057922,0.40221142768859863,-0.18891064822673798,-0.15202395617961884,-0.32242587208747864,-0.3912031650543213,0.03064204566180706,0.39964544773101807,-0.1648651510477066,-0.27742862701416016,0.09881764650344849,-0.061117518693208694,-0.016581576317548752,0.16545836627483368,0.3918612599372864,0.6916703581809998,0.15423257648944855,-0.35591885447502136,-0.34515395760536194,0.5271028876304626,-0.422419011592865,-0.24131694436073303,0.004850464407354593,0.11359579861164093,-0.413177490234375,-0.16551519930362701,0.10459677875041962,-0.3072395920753479,-0.3075712323188782,-0.07724196463823318,0.04860612004995346,-0.0749385803937912,-0.1444423794746399,-0.22655344009399414,0.08898169547319412,-0.283766508102417,0.33999693393707275,-0.18974769115447998,0.026194021105766296,0.35029861330986023,-0.0535394623875618,-0.12500140070915222,0.4867297410964966,0.1887214481830597,-0.12558859586715698,0.06554293632507324,0.06206865981221199,0.08144071698188782,0.1612093448638916,-0.03533356264233589,-0.21920081973075867,-0.0029745125211775303,0.03131979703903198,0.5086287260055542,-0.22765503823757172,0.12869903445243835,-0.07377859950065613,0.02745066024363041,0.06613218039274216,-0.719246506690979,0.10513782501220703,0.13411609828472137,-0.023387297987937927,0.3241991102695465,0.024234510958194733,-0.18827655911445618,0.45061489939689636,-0.04850529506802559,-0.25324690341949463,-0.8404421210289001,-0.4016493856906891,-0.4373199939727783,-0.350504606962204,0.05695103481411934,-0.08501239120960236,-0.46052664518356323,-0.23866891860961914,0.09224555641412735,-0.43437129259109497,-0.04230036213994026,0.20235520601272583,-0.07486427575349808,0.2124699503183365,0.11477158963680267,-0.13533642888069153,-0.2224963903427124,-0.15571264922618866,1.0731167793273926,-0.2915218472480774,0.19233150780200958,0.12539976835250854,-0.01893702708184719,0.22543436288833618,-0.1372380554676056,-0.042820364236831665,-0.1224125400185585,0.08619806915521622,0.10804912447929382,0.37969672679901123,-0.19264523684978485,0.29162031412124634,0.2572382688522339,-0.38541340827941895,0.09280620515346527,0.2832115590572357,-0.2709929347038269,0.07431657612323761,0.44753292202949524,-0.02560877986252308,-0.2055002897977829,0.05625655874609947,0.33124592900276184,0.11832420527935028,-0.4452984929084778,0.20199356973171234,0.2653431296348572,-0.028239531442523003,-0.15579302608966827,0.09016624093055725,0.13382378220558167,0.4085427522659302,-0.36454054713249207,-0.3688879609107971,0.1589324027299881,0.15087151527404785,-0.27608343958854675,-0.23309695720672607,0.8355587720870972,0.7029279470443726,0.1730332225561142,-0.016852492466568947,-0.1559928059577942,-0.1176590844988823,0.28673169016838074,-0.755440354347229,-0.28134286403656006,0.34624922275543213,0.4802103042602539,0.23490867018699646,0.6827333569526672,0.13170257210731506,-0.2753860056400299,0.4619464576244354,-1.0784636735916138,-0.11623992770910263,0.23105508089065552,-0.6452832818031311,0.3185613453388214,-0.7153821587562561,-0.6583498120307922,-0.08879713714122772,0.11302105337381363,-0.557256817817688,-0.24911217391490936,0.34617045521736145,-0.5920535922050476,-0.05607547610998154,0.14995047450065613,-0.11580165475606918,0.016785502433776855,-0.31545576453208923,0.280583918094635,0.4219122529029846,-0.1036229357123375,0.0007597419898957014,0.6116781234741211,0.21263357996940613,0.12112049758434296,-0.09711465239524841,-0.17825740575790405,0.5170634984970093,-0.02349245361983776,-0.1310979127883911,0.14664670825004578,-0.05282125249505043,0.10009606927633286,0.3924143314361572,-0.20616847276687622,-0.30956581234931946,0.35184144973754883,0.1655028909444809,0.1835823655128479,0.32525625824928284,0.26329365372657776,0.41326001286506653,-0.7618471384048462,0.11045189946889877,0.0415264330804348,0.9728429317474365,0.008677794598042965,0.379770964384079,0.13235339522361755,-0.11890573799610138,-0.32762041687965393,-0.34183844923973083,-0.0745263546705246,-0.2574763596057892,0.11191947758197784,0.05660530924797058,0.48811519145965576,-0.2959303557872772,0.1215602308511734,-0.06493796408176422,-0.25296351313591003,-0.06010611355304718,0.36550477147102356,0.15027520060539246,-0.021236509084701538,0.23649118840694427,-0.8370519876480103,0.032904382795095444,0.20868997275829315,-0.25522711873054504,0.04242250323295593,-0.23764842748641968,-0.08758188784122467,-0.11844976991415024,0.10781071335077286,-0.1337820589542389,-0.005343900993466377,-0.5738165974617004,0.011694032698869705,-0.27646130323410034,0.11053761839866638,0.16399744153022766,-0.29447460174560547,-0.05694564804434776,0.028259865939617157,-0.09971164166927338,0.1363896131515503,0.13752694427967072,0.16181020438671112,-0.02768278308212757,0.13626734912395477,-0.22733701765537262,0.2664262652397156,-0.17543111741542816,0.10831521451473236,0.1635347157716751,-0.018159838393330574,0.13147053122520447,0.5190534591674805,0.17855966091156006,-0.0819891095161438,0.17074237763881683,0.3760046660900116,-0.10595318675041199,0.00543769309297204,-0.05927850306034088,0.13103419542312622,-0.10464515537023544,0.0035493536852300167,0.0013101632939651608,0.0441775918006897,-0.020081661641597748,-0.014697879552841187,0.9285591840744019,-0.05360700935125351,-0.011501386761665344,0.08003941178321838,-0.05587295442819595,-0.06341410428285599,-0.3653275668621063,0.2886023223400116,-0.4490462839603424,-0.18006911873817444,-0.1836692988872528,-0.9703094363212585,-0.3936535716056824,-0.5903019905090332,0.8217930197715759,-0.8818384408950806,-0.1399316042661667,-0.9907216429710388,0.32963797450065613,-0.8472527265548706,0.3511142134666443,-0.6798882484436035,0.1786634773015976,-0.03849051147699356,-0.03132620081305504,-0.06567797064781189,0.14118073880672455,-0.2515752911567688,-0.12530675530433655,-0.021490860730409622,0.10838748514652252,0.04384195804595947,0.10642220824956894,0.03762670233845711,0.07979945093393326,-0.12143148481845856,-0.024265136569738388,-0.04260094091296196,-0.06502150744199753,-0.28597187995910645,-0.07633698731660843,0.17114736139774323,-0.17815734446048737,0.07555701583623886,-0.22148388624191284,-0.00047642146819271147,0.31767067313194275,-0.07546743005514145,0.11899295449256897,0.20316514372825623,0.2134624868631363,0.09890813380479813,-0.07532268017530441,0.18706947565078735,-0.009494497440755367,-0.043013181537389755,-0.09056086838245392,0.08408579230308533,-0.11157990247011185,0.3058153986930847,-0.07189470529556274,0.022530263289809227,-0.020432116463780403,0.05233645439147949,-0.6154157519340515,-0.20693068206310272,0.06643445789813995,0.07618588954210281,-0.0162587258964777,0.058222781866788864,0.19642780721187592,0.09927193820476532,-0.2641121447086334,-0.13131605088710785,0.1009903997182846,-0.1273936629295349,-0.3690420091152191,-0.13135939836502075,-0.004341775085777044,0.11222982406616211,0.24565227329730988,0.0634179562330246,0.06699350476264954,-0.1306292861700058,0.20671825110912323,0.22603154182434082,-0.047221872955560684,-0.008346198126673698,-0.009528670459985733,-0.0666029304265976,-0.03974602743983269,0.12038233131170273,-0.0026018377393484116,-0.012383860535919666,-0.09709382057189941,0.013906526379287243,0.011493210680782795,0.08379253000020981,-0.15400159358978271,-0.13167640566825867,-0.0552300326526165,-0.1261855810880661,-0.038484230637550354,0.10008364170789719,-0.25210729241371155,0.012925718910992146,0.07130657136440277,-0.3683542311191559,0.11717924475669861,-0.07776995748281479,0.09045381098985672,0.2697390913963318,-0.19638200104236603,0.23347683250904083,-0.24273547530174255,-0.158585786819458,0.14555008709430695,-0.24504433572292328,0.04450102522969246,0.11362900584936142,-0.009421958588063717,-0.3958633244037628,-0.018892453983426094,0.02994614467024803,-0.255925714969635,-0.08818350732326508,-0.1505323201417923,-0.0008753516594879329,-0.10101957619190216,0.1176203116774559,0.09681301563978195,-0.11502024531364441,0.08136560022830963,0.26454371213912964,0.038982465863227844,0.12559139728546143,0.06058406084775925,-0.098016656935215,0.14474739134311676,-0.13137701153755188,-0.20889338850975037,0.1729864478111267,-0.015923576429486275,0.23515385389328003,-0.3512318730354309,0.08113721013069153,-0.06102859228849411,0.007212173193693161,0.12493731081485748,0.02789361961185932,-0.16008473932743073,0.24914546310901642,-0.08554619550704956,0.06050274148583412,0.18158891797065735,0.01343877799808979,-0.052523113787174225,0.27527403831481934,-0.16081666946411133,-0.0637211799621582,0.24617497622966766,0.11797159165143967,0.09590428322553635,0.0016296000685542822,-0.1274646669626236,0.10738133639097214,0.08144599944353104,0.03472089394927025,0.08641204982995987,-0.0740952268242836,-0.16884098947048187,0.19448645412921906,0.12060200423002243,0.07694631814956665,0.05727868899703026,-0.12041786313056946,0.27974390983581543,0.05346931144595146,0.2641942501068115,0.1820298284292221,-0.011919592507183552,0.07347209751605988,-0.2227504402399063,-0.16857501864433289,0.023057719692587852,0.1386311799287796,-0.06802891939878464,-0.02611340582370758,0.034166838973760605,0.30097126960754395,0.1912357658147812,0.12212170660495758,-0.19922353327274323,-0.006761586293578148,0.23817750811576843,0.04092920199036598,-0.1753818541765213,-0.05206619203090668,0.0676395446062088,0.22412319481372833,-0.19942031800746918,0.04483625665307045,-0.1522272229194641,0.1734020859003067,0.04708670452237129,-0.21412713825702667,-0.31922149658203125,0.048597145825624466,0.565815269947052,0.026729214936494827,-0.04222192242741585,-0.2893204092979431,0.22182220220565796,-0.23359578847885132,-0.23337961733341217,-0.010953743010759354,-0.3197333514690399,0.016083912923932076,-0.0042754230089485645,-0.03529879078269005,-0.20745740830898285,0.021237928420305252,-0.16619762778282166,-0.2428898960351944,-0.370638906955719,-0.05631369352340698,0.05034290999174118,-0.11133813858032227,0.0788164734840393,0.08058281242847443,-0.07900583744049072,0.07579305022954941,0.09627816826105118,0.17567047476768494,-0.2829090654850006,0.006529159378260374,0.02452026680111885,0.13425646722316742,0.04075814411044121,0.0996306985616684,0.07030774652957916,-0.00205266778357327,0.152317613363266,0.22402125597000122,-0.10078483819961548,0.045011844485998154,-0.20656725764274597,0.04387842118740082,-0.07325220108032227,-0.050801247358322144,-0.10804320126771927,0.04639654606580734,0.352032870054245,-0.068067766726017,-0.16919246315956116,0.11622068285942078,0.13811920583248138,0.08133707195520401,0.00902101956307888,-0.0034077251330018044,-0.025107914581894875,-0.11360935866832733,0.004101652652025223,-0.26001352071762085,-0.053512685000896454,0.11485066264867783,0.18034769594669342,-0.09900868684053421,-0.06884778290987015,0.13564062118530273,0.12114299833774567,-0.0871363952755928,0.5818944573402405,-0.15072903037071228,-0.20278610289096832,0.055310651659965515,-0.15222112834453583,-0.16497190296649933,-0.04909127205610275,-0.15251371264457703,0.4195723235607147,-0.12167271971702576,-0.005730845965445042,0.16025421023368835,0.12079424411058426,0.2882229685783386,-0.19079703092575073,-0.13880763947963715,0.07325305789709091,-0.41442999243736267,0.25199374556541443,-0.11865859478712082,-0.12769578397274017,-0.46024957299232483,0.19915133714675903,-0.21355906128883362,0.12801530957221985,0.012641078792512417,-0.5950504541397095,0.04702962934970856,-0.053878121078014374,1.1523919105529785,-0.1383933126926422,-0.06061204522848129,-0.055880866944789886,-0.21415239572525024,0.3379514515399933,0.1409284621477127,-0.1021803617477417,0.1655990183353424,-0.1918887346982956,-0.08275559544563293,-0.16253788769245148,0.038097962737083435,0.21800026297569275,0.2850300669670105,0.1931258738040924,0.044360797852277756,-0.14372561872005463,0.202516570687294,0.32903555035591125,0.1284516304731369,-0.7609388828277588,-0.6857497096061707,-0.0516192764043808,0.13824735581874847,-0.12371734529733658,-0.10182637721300125,-0.5969695448875427,-0.23397384583950043,0.12542541325092316,-0.17700597643852234,-0.19045498967170715,-0.11610856652259827,0.12193354964256287,0.005696721840649843,0.24595381319522858,0.2573965787887573,-0.0761295035481453,-0.09237546473741531,-0.24947130680084229,0.047936368733644485,0.23519717156887054,0.3950662612915039,-0.4308042526245117,-0.08214778453111649,0.35713961720466614,-0.23006872832775116,0.3803690969944,-0.005191863048821688,-0.3772806227207184,-0.2664375603199005,-0.37693145871162415,-0.3374180197715759,0.04765916243195534,0.13165389001369476,-0.10447613894939423,0.01686769910156727,0.43060174584388733,0.20197249948978424,0.2623213529586792,0.5263612866401672,-0.09639845043420792,-0.22672317922115326,-0.16475307941436768,0.5193057656288147,-0.032105207443237305,0.10080437362194061,-0.9322226047515869,-0.06045757606625557,0.10047050565481186,0.09527981281280518,0.07216120511293411,0.07220973819494247,0.06587092578411102,-0.04599374160170555,-0.19463926553726196,-0.21365870535373688,0.11102920770645142,-0.182681605219841,-0.548738956451416,0.05583841726183891,0.06623682379722595,0.45396876335144043,0.26436296105384827,0.10714543610811234,0.13347283005714417,-0.22748708724975586,-0.3288756012916565,-0.8158714771270752,0.36295178532600403,0.04313036799430847,0.2834530174732208,-0.18773625791072845,-0.2952337861061096,-0.24309775233268738,0.442950040102005,0.7360788583755493,0.3734894394874573,-0.0005598291754722595,-0.3106515407562256,-0.018580446019768715,0.004935554228723049,-0.02094193361699581,-0.11047734320163727,-0.23435357213020325,0.19744738936424255,-0.3119567632675171,0.0634397342801094,0.4195120632648468,-0.020212870091199875,-0.24484951794147491,0.005857360549271107,0.6144528985023499,0.2437303364276886,0.14688873291015625,-0.11914675682783127,-0.5003477334976196,-0.7560732364654541,-0.10138010233640671,0.00977320782840252,-0.14374488592147827,-0.14722023904323578,0.0550948865711689,-0.3503480851650238,-0.23897498846054077,0.10216213017702103,0.09979072958230972,0.09865560382604599,0.15891331434249878,0.13263030350208282,-0.19717805087566376,0.3858514130115509,-0.3322727382183075,-0.6316593289375305,-0.4387865364551544,-0.5104420185089111,0.14980274438858032,0.0012331027537584305,-0.07863599807024002,0.016743239015340805,-0.17516417801380157,0.3637312650680542,0.022971967235207558,0.3211652934551239,0.3064882159233093,0.08456290513277054,-0.027832450345158577,-0.043396901339292526,-0.07261588424444199,0.026968538761138916,0.03533615544438362,0.01130505371838808,-0.2814877927303314,0.14767861366271973,0.18174414336681366,0.20141170918941498,-0.2612901031970978,-0.2673110365867615,0.01731216534972191,0.376862496137619,0.40527093410491943,0.24938426911830902,0.15158219635486603,-0.21788886189460754,-0.3309571146965027,-0.34231770038604736,-0.14800769090652466,-0.014607381075620651,0.08683997392654419,0.011174422688782215,0.053449053317308426,-0.3434971570968628,-0.0069352490827441216,0.03254840523004532,0.3032427132129669,0.06850367039442062,0.0170423723757267,0.04129897058010101,0.23414048552513123,0.21245723962783813,-0.6533150672912598,0.17194430530071259,-0.29639795422554016,0.2687510550022125,-0.08196273446083069,-0.16813147068023682,-0.1240713968873024,-0.28694528341293335,-0.023154888302087784,0.38552093505859375,-0.0403314046561718,-0.1851475089788437,0.0031685009598731995,-0.06747591495513916,-0.13259223103523254,0.13296984136104584,-0.04679509252309799,-0.22280164062976837,0.23247641324996948,0.2065182626247406,0.18281275033950806,-0.6967997550964355,-0.13022153079509735,-0.4743231534957886,-0.15671983361244202,0.4344840347766876,-0.11870480328798294,-0.5901789665222168,-0.1668679416179657,-0.1300153285264969,0.4462003707885742,-0.26575082540512085,0.12731003761291504,0.14743539690971375,0.09122136980295181,0.5757154226303101,0.41339829564094543,-0.009018827229738235,0.2664872407913208,0.113204725086689,0.057619042694568634,-0.23140430450439453,0.019892796874046326,-0.11595838516950607,0.09944765269756317,0.5608124136924744,-0.2637236714363098,-0.05030623823404312,-0.25116845965385437,0.2791292667388916,0.2684820294380188,0.21208733320236206,0.13070814311504364,0.02394150197505951,0.5935102105140686,-0.051355957984924316,-0.03373836725950241,-0.27017995715141296,-0.4784022569656372,-0.1595027595758438,0.20048199594020844,-0.2003849893808365,-0.05865834280848503,0.06146719306707382,-0.02837361767888069,-0.14670945703983307,-0.4249054491519928,0.5452759265899658,-0.0415237732231617,-0.2094307243824005,0.5762474536895752,-0.33062905073165894,-0.2957336902618408,0.3171173930168152,0.1268712878227234,-0.7537189722061157,0.6094786524772644,-0.053895678371191025,0.6532358527183533,-0.23833012580871582,-0.32243064045906067,-0.5613564848899841,-0.2222684919834137,-0.1647750437259674,0.8856602907180786,-0.12986014783382416,0.1845439076423645,0.18652577698230743,-0.01732921041548252,0.41555091738700867,0.1128479391336441,-0.5211729407310486,0.06724279373884201,-0.07574573159217834,-0.06671565771102905,-0.17521962523460388,-0.12913784384727478,0.39647212624549866,0.0672006905078888,0.6290552616119385,-0.08985301852226257,0.16377860307693481,-0.4383029341697693,-0.22842703759670258,-0.07250075042247772,-0.04212610796093941,-0.11474689096212387,0.28800269961357117,-0.25291404128074646,-0.18440447747707367,-0.08661960810422897,0.13065221905708313,-0.18539582192897797,0.400587797164917,0.23635926842689514,-0.18665596842765808,-0.10348595678806305,0.3366978168487549,0.1420709788799286,-0.07109753787517548,0.5017781257629395,-0.2593815326690674,0.14696939289569855,0.10603852570056915,0.12997588515281677,0.19555221498012543,0.36859330534935,0.03027646243572235,0.3682042956352234,0.25980475544929504,-0.31885772943496704,-0.39416372776031494,-0.38813677430152893,-0.04635990411043167,-0.27061089873313904,-0.17965121567249298,-0.09814757853746414,0.021902967244386673,-0.17476287484169006,-0.060264479368925095,-0.0815475806593895,-0.03676183149218559,0.2716952860355377,0.056941136717796326,0.11920354515314102,-0.05471590533852577,0.1799677163362503,-0.1546378880739212,-0.047453589737415314,-0.07780598849058151,0.042343348264694214,0.022411322221159935,0.09842588007450104,0.2909242510795593,0.11746733635663986,0.04647696390748024,0.44341346621513367,0.16540472209453583,0.020466286689043045,-0.5439345836639404,-0.04778231307864189,0.16149698197841644,0.10614391416311264,0.4552193880081177,0.14209379255771637,-0.11446245014667511,-0.2781108021736145,0.4226208031177521,-0.19674815237522125,-0.0383315272629261,0.026788955554366112,0.10376501083374023,0.4224051833152771,0.14771929383277893,-0.46823644638061523,0.040156859904527664,-0.4260444641113281,-0.3675791919231415,-0.3195812702178955,0.12977170944213867,0.005802821833640337,-0.3131227195262909,-0.08055640012025833,-1.142336368560791,-0.30640700459480286,0.14873935282230377,0.2784866988658905,0.2565986216068268,-0.6128866672515869,-0.9241006374359131,-0.12932810187339783,0.15429197251796722,-0.5833649039268494,-0.4078322947025299,-0.5331292748451233,0.01258323434740305,0.13166268169879913,0.24680684506893158,-0.07960782945156097,0.0409381277859211,0.051889002323150635,-0.18830230832099915,0.4134533107280731,0.03654414415359497,0.017543166875839233,-0.2356787621974945,-0.053173065185546875,0.11665521562099457,0.017240336164832115,-0.30515095591545105,0.34654876589775085,0.06857134401798248,-0.0332573764026165,-0.2995268702507019,0.30670642852783203,0.31351539492607117,0.24841447174549103,0.07143222540616989,-0.10366866737604141,-0.07247345894575119,-0.11971942335367203,0.04994627460837364,0.04301952198147774,-0.2711983025074005,0.02669350802898407,0.2814042270183563,0.21781933307647705,-0.019688820466399193,0.14714933931827545,-0.3529437482357025,0.16089512407779694,-0.46082982420921326,0.1006322130560875,0.2097354382276535,-0.25921180844306946,-0.45464056730270386,0.32184767723083496,0.03800483047962189,0.10804146528244019,0.19219209253787994,0.20109277963638306,-0.49796661734580994,0.15507112443447113,-0.14500990509986877,0.000845705100800842,-0.054047390818595886,-0.04608047753572464,-0.20169372856616974,-0.012346922419965267,0.08256769180297852,0.3675070106983185,-0.45092546939849854,0.05274718999862671,-0.337261825799942,0.10567347705364227,0.2349209040403366,-0.23027914762496948,-0.24604329466819763,0.09484467655420303,0.13569451868534088,-0.028459850698709488,-0.07667718082666397,0.23788650333881378,-0.2118198275566101,0.25354668498039246,-0.19864584505558014,0.3005264401435852,-0.41225436329841614,-0.2906023859977722,-0.2177436500787735,0.07957250624895096,0.21595202386379242,0.5892823338508606,-0.14468590915203094,0.24164597690105438,-0.21430301666259766,-0.597549557685852,-0.10767437517642975,0.3015148937702179,0.43993857502937317,0.33650505542755127,0.008897514082491398,-0.38889726996421814,-0.20143619179725647,-0.11101260781288147,0.032715167850255966,-0.15751640498638153,-0.08676549792289734,0.43837326765060425,-0.09836826473474503,-0.08541744202375412,0.1961050033569336,-0.08074759691953659,0.13821101188659668,-0.0407913513481617,-0.0297345370054245,0.0960887148976326,0.06436628848314285,-0.6252913475036621,-0.09598329663276672,-0.2550898492336273,-0.019282015040516853,0.2934580445289612,0.38721343874931335,0.07106200605630875,-0.028844788670539856,0.23474790155887604,0.17635086178779602,-0.32033511996269226,0.15886889398097992,-0.02101573348045349,0.01629956066608429,0.5862668752670288,-0.42998525500297546,-0.0670531615614891,0.10864893347024918,0.43843936920166016,0.10415101051330566,0.3791942894458771,0.036033038049936295,-0.16082370281219482,0.017215820029377937,0.21464990079402924,0.1362522393465042,-0.2263101190328598,0.08923844993114471,-0.19719450175762177,0.1445980966091156,-0.08215223997831345,0.07039885967969894,0.0027229839470237494,0.6058164834976196,-0.06291486322879791,-0.39098167419433594,-0.6091254353523254,0.010762514546513557,-0.03223863244056702,-0.24033920466899872,0.10731850564479828,-0.45406708121299744,0.8267606496810913,0.10333874076604843,0.4204937815666199,0.18366709351539612,0.026122722774744034,0.07278825342655182,-0.05485326796770096,-0.06354448199272156,0.5560505986213684,0.11859330534934998,-0.4037722647190094,0.49572277069091797,-0.15974479913711548,0.36917567253112793,-0.3505236804485321,0.16128422319889069,-0.11720450222492218,-0.47832465171813965,-0.2890845537185669,0.15995103120803833,0.40258166193962097,0.19145148992538452,0.2941235899925232,-0.045356377959251404,0.06572607159614563,0.050502993166446686,-0.11723651736974716,-0.06781022250652313,-0.2064642310142517,-0.33240628242492676,0.2302856594324112,0.020217113196849823,-0.16407644748687744,-0.01946152374148369,-0.03904692456126213,-0.33953601121902466,-0.19455741345882416,-0.1951785534620285,0.023267537355422974,-0.14445503056049347,-0.39543792605400085,-0.3777293264865875,0.2868506610393524,0.046320609748363495,-0.427272230386734,-0.10021667927503586,-0.21029441058635712,-0.10644779354333878,-0.5241916179656982,-0.1556570827960968,0.10969306528568268,0.3051973581314087,-0.1472051441669464,0.09690922498703003,-0.18359039723873138,-0.39833134412765503,-0.1269233673810959,0.008606990799307823,0.12742255628108978,0.24284283816814423,0.05753566324710846,-0.19177739322185516,-0.17856945097446442,0.08828017860651016,-0.1810092031955719,0.29259684681892395,-0.004944478161633015,0.17484529316425323,-0.4891541600227356,0.20565347373485565,-0.16426196694374084,0.009868835099041462,0.04521622508764267,-0.06418347358703613,-0.0701466053724289,0.39776062965393066,-0.061621058732271194,-0.09811116755008698,0.12356282770633698,0.048123735934495926,-0.04077701270580292,0.11214900016784668,0.05618035048246384,0.2950661778450012,0.13298580050468445,-0.45184147357940674,-0.4131932854652405,-0.3718922734260559,0.4801517724990845,0.13411295413970947,0.022698072716593742,0.005454100668430328,0.4536970257759094,0.11353287845849991,0.11689561605453491,0.37298914790153503,0.29851940274238586,-0.777014970779419,0.03473198413848877,-0.7677507996559143,0.03434525057673454,0.1971278190612793,-0.21896888315677643,-0.02207401767373085,0.7233084440231323,0.6109266877174377,-0.4052600562572479,-0.1428999900817871,-0.14642085134983063,0.37555527687072754,0.24386456608772278,-0.009217898361384869,-0.16138556599617004,0.13179516792297363,0.3998640179634094,0.569019615650177,-0.24202033877372742,0.22923412919044495,-0.5215741991996765,-0.061601344496011734,-0.4281955659389496,-0.1058688834309578,-0.35199740529060364,0.07585549354553223,0.09938674420118332,-0.4873269498348236,-0.1173933669924736,-0.206707164645195,-0.06392896920442581,0.48979833722114563,-0.29657018184661865,0.39141541719436646,-0.17029111087322235,-0.04581138864159584,0.7715418934822083,0.2997811436653137,-0.5735617876052856,0.47666144371032715,-0.7637560963630676,-0.27839571237564087,-0.02702893130481243,-0.14229267835617065,0.1343524008989334,-0.11852779239416122,0.5463264584541321,0.03687708079814911,-0.06635961681604385,-0.04837460443377495,-0.285038024187088,0.14347408711910248,0.17758461833000183,0.3946099579334259,-0.5479391813278198,0.05408807471394539,-0.13689406216144562,-0.8997233510017395,0.4592757523059845,-0.19934549927711487,-0.11585921049118042,-0.513418972492218,-0.11979788541793823,0.009462597779929638,-0.36010900139808655,0.09632305055856705,-0.3607397675514221,0.0698150098323822,0.10801176726818085,-0.2559847831726074,-0.25380557775497437,-0.11632634699344635,-0.011395402252674103,-0.01955818012356758,-0.04241734743118286,0.029910793527960777,-0.09811047464609146,-0.18523438274860382,-0.3729546070098877,0.7977012395858765,0.2332274466753006,-0.7704737186431885,0.02329087071120739,-0.17189575731754303,-0.30833354592323303,-0.3585107922554016,-0.3227381110191345,0.3296756446361542,0.25646692514419556,0.04884183779358864,-0.09722644090652466,0.2489742636680603,0.14353524148464203,0.2142815738916397,-0.19762682914733887,-0.006883957888931036,-0.30466634035110474,0.6403657793998718,-0.1327526569366455,-0.4368630051612854,0.35212481021881104,0.14872147142887115,-0.7260208129882812,0.5835756659507751,-0.0906759724020958,-0.4080101549625397,0.5051196217536926,0.05134410783648491,0.672353208065033,-0.6300647854804993,0.09504920244216919,-0.46410927176475525,-0.29646897315979004,0.06996750831604004,-0.1105179488658905,0.07892841845750809,0.14199067652225494,0.5516948699951172,-0.11275896430015564,-0.22067348659038544,0.48367831110954285,0.23287025094032288,-0.01960182562470436,-0.012092054821550846,0.02162802964448929,-0.03373229131102562,0.005173698533326387,0.6716201901435852,0.1293565034866333,-0.334216833114624,-0.09981808066368103,-0.3148048222064972,-0.14148592948913574,0.13604672253131866,-0.2987097501754761,-0.2937889099121094,0.18941649794578552,-0.042687077075242996,-0.040566444396972656,-0.265425443649292,0.22207948565483093,0.39614567160606384,0.24974265694618225,0.2392296940088272,0.11202449351549149,0.0027634459547698498,0.10420722514390945,0.0882873460650444,-0.04573669284582138,-0.017679112032055855,0.10561604797840118,-0.05247476324439049,-0.1186455562710762,-0.07807264477014542,-0.045602232217788696,-0.1050623208284378,0.1804414838552475,0.03250036761164665,0.0070425583980977535,-0.1553083211183548,-0.487118124961853,0.6343403458595276,0.24438458681106567,-0.22759269177913666,0.3828282356262207,-0.4145159423351288,0.17448632419109344,0.0750909075140953,-0.5434938073158264,0.9927470088005066,0.21411657333374023,-0.09882820397615433,-0.2339780479669571,-0.3498936891555786,-0.6587534546852112,0.021709375083446503,0.13876798748970032,-0.09164468199014664,-0.06777194142341614,0.08272520452737808,0.08532052487134933,-0.03595796972513199,0.025460295379161835,0.06389307975769043,0.010256126523017883,0.053725965321063995,-0.021287063136696815,-0.556640625,0.10407020151615143,0.05040321499109268,0.22105266153812408,0.2825217545032501,0.12146073579788208,-0.3022882044315338,0.17144453525543213,0.19579969346523285,0.00505339540541172,-0.1221790537238121,0.14590130746364594,-0.13766524195671082,-0.31819215416908264,-0.10822911560535431,-0.27282869815826416,0.004824445582926273,0.12249431014060974,0.11913133412599564,0.24620072543621063,0.12450726330280304,0.028965454548597336,0.0360882431268692,-0.0423714779317379,-0.1246635690331459,-0.028454110026359558,0.14402446150779724,0.06780195981264114,-0.14936120808124542,-0.018551910296082497,-0.032355137169361115,-0.10843351483345032,0.05703258141875267,-0.05014299973845482,0.007101006340235472,-0.025719599798321724,-0.019256385043263435,-0.14797087013721466,-0.13031518459320068,0.04867655411362648,-0.03355635330080986,0.1313684582710266,-0.17024856805801392,0.16524940729141235,0.0020250037778168917,-0.060269296169281006,-0.06864549219608307,-0.00754744466394186,0.11611292511224747,-0.1725311130285263,0.029751362279057503,0.16728581488132477,-0.040017176419496536,0.01203030627220869,-0.026363877579569817,-0.07478747516870499,-0.01855679228901863,-0.01132973749190569,0.0127397570759058,-0.019486499950289726,0.14751240611076355,-0.0027202714700251818,-0.026336723938584328,-0.15385115146636963,-0.12845148146152496,-0.04476557672023773,0.03576352074742317,0.09674011170864105,-0.14834079146385193,-0.3166836202144623,0.0798821896314621,-0.15926766395568848,-0.039045918732881546,0.08628182113170624,-0.33775195479393005,-0.0706489309668541,-0.1311120092868805,0.2308942824602127,-0.18494491279125214,0.19834759831428528,-0.20114174485206604,-0.18134193122386932,0.007519587408751249,0.008492907509207726,-0.2499544620513916,0.17985334992408752,-0.09634501487016678,0.19561325013637543,-0.08596184104681015,0.11321313679218292,0.1883356273174286,0.10351091623306274,0.07962273806333542,0.12294243276119232,-0.08290077745914459,-0.0973164364695549,-0.20306387543678284,-0.09660954028367996,0.054747574031353,-0.03475422412157059,0.051528893411159515,0.13420501351356506,-0.2968708872795105,-0.05245974287390709,-0.07383614778518677,-0.10102377831935883,0.1617327779531479,-0.06510453671216965,0.027071837335824966,0.07977871596813202,-0.197816863656044,0.004628523252904415,0.0519876666367054,-0.054870206862688065,-0.05507466197013855,-0.11726798117160797,-0.1605686992406845,0.307853102684021,-0.12259361147880554,-0.028979700058698654,0.13608050346374512,0.21651028096675873,-0.25923284888267517,-0.08759932965040207,0.3954935073852539,-0.09857895970344543,-0.21810589730739594,0.2361689954996109,-0.4091609716415405,-0.05346984788775444,-0.009828443638980389,-0.04228009656071663,0.2912536561489105,0.21226201951503754,-0.3201448917388916,0.13955263793468475,0.2410528063774109,0.15487869083881378,-0.01878933236002922,0.12104889750480652,0.09722541272640228,-0.18648651242256165,-0.1375645399093628,-0.24108238518238068,-0.08956494927406311,0.12537790834903717,0.10743696242570877,0.03516661375761032,0.04534686729311943,-0.09939740598201752,-0.06981328129768372,-0.12982286512851715,-0.007499053608626127,-0.23757360875606537,-0.04272063076496124,-0.034399598836898804,0.448297381401062,-0.010906810872256756,-0.24474184215068817,0.06783996522426605,0.04915251210331917,-0.22128145396709442,0.05969090014696121,0.018765075132250786,0.21884648501873016,0.03151456639170647,-0.020193420350551605,0.18979112803936005,-0.011119800619781017,0.20804928243160248,0.1299547255039215,0.09567147493362427,-0.046096060425043106,-0.006850042380392551,0.029733097180724144,-0.2271403670310974,-0.22971610724925995,-0.1524387001991272,0.08783525973558426,-0.08904746919870377,-0.07852660119533539,-0.046605173498392105,0.019365720450878143,-0.01449576485902071,0.019771071150898933,-0.13270936906337738,-0.18411022424697876,0.007264763116836548,0.38615888357162476,-0.023778049275279045,-0.08987891674041748,0.13598546385765076,-0.23905228078365326,-0.05223139002919197,0.07235971838235855,0.05947244539856911,0.06623224914073944,0.1194668561220169,-0.26308032870292664,-0.010354139842092991,0.11460669338703156,-0.35439378023147583,-0.1551455706357956,-0.12232426553964615,0.009880712255835533,-0.14898353815078735,0.04561777785420418,-0.2534053325653076,0.06677418947219849,0.3116573095321655,-0.09394802898168564,-0.09940285980701447,0.13140399754047394,0.32890453934669495,0.28816431760787964,-0.13434088230133057,0.04600190371274948,0.04431654140353203,0.19944974780082703,-0.10457269847393036,0.4711417853832245,0.29415208101272583,-0.05379200726747513,-0.0395897701382637,-0.3738745450973511,0.10361271351575851,-0.025942601263523102,-0.025122668594121933,-0.10862094163894653,-0.17263372242450714,0.11284878104925156,-0.3518763780593872,-0.024663541465997696,-0.16884393990039825,0.06966427713632584,-0.10473541170358658,-0.12635591626167297,0.139853373169899,0.1088152825832367,0.2769480347633362,-0.2635688781738281,0.0011966172605752945,-0.07595250010490417,0.1505032628774643,-0.051609694957733154,-0.15629942715168,-0.043868400156497955,0.01663045398890972,0.018969081342220306,0.11708340793848038,0.023918820545077324,-0.012336677871644497,-0.03992118313908577,-0.19428712129592896,0.05809315666556358,-0.06499002873897552,0.037658147513866425,-0.0365733802318573,-0.045259375125169754,0.11864101886749268,0.1275433748960495,0.10549434274435043,0.33549174666404724,-0.012778081931173801,0.28505364060401917,0.08327300101518631,0.31195199489593506,0.8193192481994629,0.5242088437080383,-0.183572918176651,-0.24338427186012268,0.305187463760376,-0.28984129428863525,-0.17790080606937408,0.16897882521152496,0.24537143111228943,0.3145761787891388,0.20366841554641724,-0.06724730879068375,0.2001369744539261,0.5414971113204956,-0.0025358994025737047,-0.4282539486885071,0.18415839970111847,-0.16501018404960632,0.2895921766757965,0.37871867418289185,0.05514492839574814,-0.5299610495567322,-0.8611358404159546,-0.18913882970809937,0.32472750544548035,0.7606717348098755,0.12327785789966583,-0.7260591387748718,-0.32796260714530945,0.1919035017490387,-0.47194743156433105,-0.2088603377342224,-0.2080574482679367,-0.2638292610645294,-0.8496770262718201,-0.13847671449184418,0.10941720008850098,0.2776780128479004,-0.06620213389396667,-0.29396453499794006,-0.011045165359973907,0.1053578183054924,-0.036692820489406586,0.4496738612651825,0.056540507823228836,-0.20536154508590698,0.47412097454071045,-0.21274857223033905,-0.19845888018608093,-0.2876603901386261,-0.21707817912101746,-0.3609313666820526,0.35691702365875244,-0.10978373885154724,0.6040140986442566,0.33114197850227356,-0.01558922603726387,0.09817276895046234,-0.3974683880805969,0.031244618818163872,-0.009695799089968204,-0.13051806390285492,0.24227294325828552,-0.07169963419437408,-0.0680212453007698,-0.1624457985162735,-0.4830377995967865,0.12516768276691437,-0.3126758933067322,0.048335809260606766,-0.13840296864509583,-0.2340933233499527,-0.12872521579265594,0.2694234251976013,0.17728708684444427,0.146652951836586,-0.16310274600982666,0.21573546528816223,-0.057603321969509125,0.24721838533878326,-0.051518503576517105,-0.16386304795742035,-0.0735475942492485,-0.06514576077461243,-0.38564544916152954,-0.10359382629394531,0.03817153722047806,-0.011661672964692116,-0.23435312509536743,0.11153824627399445,-0.04654430225491524,-0.05745460465550423,-0.11220536381006241,-0.15809817612171173,-0.6130805611610413,-0.13082823157310486,0.0497492291033268,0.2658768594264984,-0.05976897105574608,0.3054395914077759,-0.30579638481140137,-0.15686723589897156,-0.05783534795045853,-0.1658780425786972,0.03671750798821449,-0.1625755876302719,-0.0299457386136055,0.003377882530912757,-0.10442657768726349,-0.26197606325149536,-0.1255289912223816,0.18452498316764832,0.3050059974193573,-0.0067949374206364155,0.08624916523694992,0.16313503682613373,0.1355743110179901,0.18932272493839264,-0.25442299246788025,0.1986539363861084,0.0014929714379832149,-0.17830520868301392,0.01694580353796482,0.043585024774074554,0.0008486854494549334,-0.09291116893291473,0.07184688001871109,0.30936378240585327,0.10354818403720856,-0.07829151302576065,-0.0003491647948976606,-0.03530678153038025,-0.011737794615328312,0.46685513854026794,-0.049244605004787445,0.04542291909456253,0.09629831463098526,0.2826300263404846,0.5195049047470093,-0.17133931815624237,0.10804454237222672,0.21560783684253693,0.38049402832984924,0.2469133585691452,-0.2907746434211731,0.1772107630968094,-0.029548674821853638,-0.050887830555438995,-0.4420613646507263,-0.2318134605884552,-0.01261123176664114,0.6056017875671387,-0.10813520848751068,-0.11874490976333618,0.5343766808509827,0.17795687913894653,0.003397934138774872,0.16307872533798218,-0.02303251251578331,0.4000086784362793,-0.38539692759513855,0.25578469038009644,-0.0779537558555603,-0.26820436120033264,-0.059066519141197205,-0.11703796684741974,0.75401771068573,0.3294019103050232,0.011421347968280315,-0.2719981372356415,-0.05779886990785599,0.7711005210876465,0.1955324113368988,-0.4112160801887512,0.5935654044151306,-0.32492196559906006,0.0857730358839035,0.004792153835296631,-0.552629292011261,0.21810194849967957,0.43893784284591675,-0.3483133614063263,0.21687020361423492,0.08266779780387878,0.2870871424674988,0.11264668405056,0.31168243288993835,0.016849607229232788,-0.01812698505818844,0.40867727994918823,0.20317290723323822,0.24002937972545624,0.35828113555908203,0.381988525390625,0.010690302588045597,0.19571417570114136,-0.3005851209163666,-0.10439245402812958,-0.2982257306575775,-0.301654577255249,-0.17969641089439392,-0.392718642950058,0.048479560762643814,-0.1011829748749733,0.06825587153434753,0.2043035626411438,0.12560343742370605,-0.2175702154636383,-0.39515793323516846,0.28314274549484253,0.5029122829437256,-0.1759415864944458,0.11672160029411316,-0.34142592549324036,0.23155708611011505,0.20923097431659698,0.18534763157367706,-0.8517383337020874,-0.06033360958099365,-0.1355016678571701,0.12088219076395035,-0.06594942510128021,-0.20163017511367798,-0.30689916014671326,0.012118170037865639,0.31084075570106506,-0.3161323666572571,-0.059843581169843674,0.19685636460781097,0.2857716679573059,0.00879067275673151,0.1518879383802414,-0.33265867829322815,0.18883126974105835,0.2242957204580307,0.0573774129152298,0.13398760557174683,0.19082006812095642,0.32357126474380493,0.13506698608398438,0.3258580267429352,0.22529904544353485,-0.04719353839755058,-0.2482580989599228,-0.04039100185036659,-0.13312788307666779,0.1523102968931198,0.03237852826714516,-0.1643727570772171,-0.2640889883041382,-0.6741939783096313,0.006557832006365061,0.029484150931239128,0.10650423914194107,0.16097944974899292,0.18543191254138947,-0.012951130047440529,0.047483596950769424,0.2614819407463074,-0.09252668172121048,-0.4323376715183258,-0.1654200553894043,0.19873599708080292,-0.22370897233486176,0.10533775389194489,0.4560188353061676,0.2132347822189331,-0.006736820563673973,0.14208124577999115,0.23433271050453186,-0.016703521832823753,-0.10614627599716187,0.047665324062108994,0.32456907629966736,-0.11961851269006729,-0.07762333750724792,0.014864698052406311,0.12093523144721985,-0.18650655448436737,-0.25523409247398376,-0.21702279150485992,0.029097631573677063,-0.3289710283279419,0.5497068762779236,-0.08741181343793869,0.10656948387622833,0.06893862038850784,-0.15481768548488617,-0.053218767046928406,-0.026163628324866295,-0.018503393977880478,0.30201467871665955,-0.40961915254592896,0.3978765606880188,0.1302974820137024,-0.9167113304138184,-0.20960840582847595,-0.1378355771303177,0.04022998362779617,-0.10794415324926376,0.05605236440896988,0.07255721092224121,-0.023042993620038033,0.2113143354654312,0.3653881549835205,0.11392078548669815,-0.2600204050540924,-0.002759991679340601,-0.1391265094280243,-0.2674298584461212,0.48128142952919006,-0.0787530466914177,0.17991012334823608,-0.15400263667106628,-0.2342178374528885,-0.2641752064228058,0.3054542541503906,-0.10260485112667084,-0.16661030054092407,0.135869100689888,-0.06427595019340515,-0.19464044272899628,0.03577291965484619,0.17037183046340942,0.4324292838573456,-0.034823380410671234,-0.016867848113179207,-0.11786096543073654,-0.09346584230661392,-0.14189289510250092,-0.4711003303527832,0.44251933693885803,-0.04487653449177742,-0.8347671031951904,0.18440058827400208,-0.0017260115128010511,-0.479961097240448,0.04995143786072731,-0.09575289487838745,0.8658351898193359,0.3688964247703552,-0.5560773611068726,-0.24672885239124298,0.5629832744598389,0.013393422588706017,0.2218167781829834,0.825268566608429,0.325477659702301,-0.1270325928926468,0.1257191151380539,0.0015314186457544565,-0.42784276604652405,-0.049213994294404984,0.2642002999782562,-0.5698991417884827,0.2731327414512634,-0.10976695269346237,-0.4981878995895386,-0.23460699617862701,0.288997083902359,-0.37535667419433594,0.26029908657073975,-0.14879821240901947,0.22212490439414978,0.4927833080291748,0.3057408928871155,0.5139100551605225,0.14116542041301727,-0.20577554404735565,-0.2744111120700836,-0.9458768367767334,0.27328360080718994,0.23645378649234772,-0.14924797415733337,-0.7515859603881836,0.24030008912086487,-0.06315746903419495,-0.13433699309825897,-0.2567523121833801,0.5940248966217041,0.1927884966135025,0.24532802402973175,0.02687111124396324,-0.060339342802762985,-0.019977906718850136,-0.0025321361608803272,-0.0214543417096138,-0.06100738048553467,0.06105105206370354,0.07169698178768158,0.07532951980829239,0.2742926776409149,-0.0629369243979454,-0.05207974091172218,-0.42760515213012695,0.006020077969878912,-0.020778030157089233,0.06379517912864685,-0.05772421881556511,0.0007439567707479,-0.1934223175048828,0.12057305127382278,-0.21370495855808258,-0.34708502888679504,-0.07128378748893738,-0.035438429564237595,0.1846321076154709,0.1800728291273117,0.09519029408693314,-0.25004637241363525,-0.04780587553977966,-0.057842545211315155,-0.11157145351171494,-0.16200871765613556,-0.2603311538696289,0.05120297148823738,-0.11233790218830109,-0.17748917639255524,-0.015251134522259235,0.058809567242860794,-0.012259815819561481,0.04284006357192993,0.06914933025836945,-0.14293883740901947,0.2399808168411255,-0.03907497972249985,0.08018025010824203,-0.3535788953304291,0.06112835183739662,-0.3411225974559784,-0.28890901803970337,0.023843448609113693,0.09966246038675308,0.4499465823173523,0.09369165450334549,-0.2050236165523529,-0.2913306951522827,-0.07400865107774734,-0.14064528048038483,0.023909911513328552,-0.13676689565181732,-0.2265346199274063,0.02964644879102707,-0.03659310191869736,-0.09255850315093994,0.09885597974061966,-0.23446784913539886,0.18145394325256348,0.250436395406723,0.20565606653690338,-0.16981959342956543,0.03663284331560135,-0.06758160889148712,0.179697647690773,-0.4610801637172699,0.20332010090351105,-0.005457052495330572,0.010020852088928223,-0.2814636826515198,0.24944531917572021,-0.005139187444001436,-0.30859699845314026,0.12138025462627411,0.3366173505783081,0.0007638208917342126,-0.08698493987321854,0.189027801156044,0.08144102990627289,0.2966952323913574,0.09093651175498962,-0.13248200714588165,0.007386619690805674,-0.12599234282970428,0.0030863997526466846,-0.13383838534355164,0.03720739483833313,0.2185397893190384,0.07644838094711304,0.07470879703760147,-0.331919401884079,-0.25988349318504333,0.3969554305076599,0.08261743932962418,0.11242459714412689,-0.19400547444820404,0.09584585577249527,0.11142677068710327,-0.9339506030082703,-0.16477131843566895,-0.2854935824871063,0.20471791923046112,0.15338382124900818,0.19414661824703217,-0.2690429389476776,-0.04074030742049217,0.21079121530056,-0.5711705684661865,-0.04102376103401184,0.25437021255493164,0.4545780420303345,-0.29158785939216614,-0.04211047291755676,0.3331632614135742,-0.005213599186390638,0.13474628329277039,-0.3623736500740051,-0.1810341626405716,0.022321853786706924,-0.0013396423310041428,0.10525483638048172,0.002059138147160411,0.02468217723071575,-0.27996623516082764,-0.2936020493507385,-0.1426176130771637,-0.161785289645195,0.1393052190542221,0.04834221675992012,-0.07520671933889389,0.06786796450614929,0.25226494669914246,0.10143695026636124,0.043757565319538116,0.04187798872590065,-0.07914526015520096,0.22874420881271362,-0.19340121746063232,0.2929668724536896,-0.20620223879814148,-0.332624614238739,0.04650792106986046,0.1207224503159523,0.017971094697713852,-0.14197495579719543,-0.49031636118888855,-0.37931549549102783,-0.1668480783700943,0.08804859966039658,0.01820700243115425,0.14492946863174438,0.06649820506572723,-0.03472292795777321,-0.13821348547935486,0.02886473387479782,0.08045163750648499,0.036079104989767075,-0.42030084133148193,-0.1705993115901947,-0.06832076609134674,0.2871287763118744,-0.6148609519004822,0.15143407881259918,-0.3725970685482025,-0.3132317364215851,-0.08175033330917358,-0.2950640618801117,-0.28233447670936584,0.039338089525699615,0.6292908191680908,-0.22402797639369965,-0.029482398182153702,-0.27222612500190735,0.3461107015609741,0.05133289843797684,0.017242705449461937,0.045918259769678116,-0.04316473379731178,-0.07571838051080704,0.24260857701301575,0.18331409990787506,-0.36868545413017273,0.06325925141572952,0.0241397637873888,-0.07679849117994308,-0.2662001848220825,-0.10443297773599625,0.0036926723551005125,-0.5883177518844604,-0.10451468825340271,-0.2769545614719391,0.08377240598201752,0.1443723738193512,0.3672589063644409,-0.1250125765800476,0.07107483595609665,-0.19510085880756378,0.007716579362750053,-0.23701001703739166,0.34715622663497925,-0.16469413042068481,0.42670193314552307,-0.3480411767959595,-0.2263948768377304,-0.062009550631046295,0.41749346256256104,-0.39560064673423767,0.027521127834916115,-0.02951572649180889,-0.5019545555114746,-0.20045827329158783,-0.23274613916873932,-0.004729922860860825,0.23174607753753662,-0.05549474433064461,-0.26899391412734985,0.18666133284568787,-0.023026613518595695,-0.0693020224571228,0.12624947726726532,-0.11633966118097305,-0.26304110884666443,0.07850362360477448,0.14013363420963287,0.0332789309322834,0.024188527837395668,0.191359281539917,0.5183421969413757,0.14949840307235718,0.005254282150417566,0.32657748460769653,0.010387858375906944,0.257032185792923,0.6903005838394165,0.04847351089119911,0.14354495704174042,-0.14218966662883759,-0.10045161843299866,-0.22087730467319489,0.22025977075099945,-0.03725086525082588,-0.20742425322532654,-0.04588112235069275,0.019610093906521797,-0.11029136180877686,0.5514885187149048,-0.022064903751015663,-0.10083923488855362,0.5413929224014282,-0.0668320506811142,0.10729911178350449,0.013109439983963966,0.027027420699596405,0.08469953387975693,-0.0403965562582016,-0.02683097869157791,-0.12098143994808197,0.44107937812805176,0.1403297483921051,-0.0002409845037618652,0.18746520578861237,-0.0033924703020602465,0.29589080810546875,0.16696664690971375,-0.02900739386677742,-0.047574933618307114,0.025802258402109146,0.11660132557153702,-0.05622907355427742,-0.010912499390542507,-0.02872529812157154,-0.23139071464538574,0.18189510703086853,-0.14526529610157013,0.06328542530536652,0.6485405564308167,-0.008402219973504543,0.19049985706806183,-0.6925819516181946,-0.08149443566799164,-0.3789792060852051,-0.0015861031133681536,-0.09218429028987885,0.5650990009307861,0.3644922375679016,0.0771411582827568,-0.15259991586208344,0.4596364498138428,-0.6340301632881165,-0.4369668662548065,0.3890704810619354,0.2974071502685547,-0.575392484664917,0.3970045745372772,0.24833974242210388,-0.19700700044631958,0.46232983469963074,-0.09495794773101807,0.1178266778588295,0.8409243822097778,-0.15242061018943787,0.46267420053482056,0.6237863302230835,-0.2905299961566925,-0.01953052543103695,-0.4939512610435486,-0.10895080864429474,-0.32613405585289,0.35006776452064514,0.2579776346683502,-0.37249135971069336,-0.14141955971717834,0.18514491617679596,0.05318556725978851,-0.24443094432353973,0.07003740221261978,-0.1776086837053299,-0.7004521489143372,0.20796769857406616,-0.18657520413398743,0.7080166339874268,-0.2994413673877716,-0.1402382105588913,-0.7878996133804321,0.2740205228328705,-0.1081378385424614,-0.4333818852901459,-0.2594151496887207,0.023948468267917633,-0.17804722487926483,0.29308751225471497,0.33499133586883545,-0.27024877071380615,0.010289095342159271,-0.0845583975315094,0.04735806956887245,0.28079304099082947,0.29045453667640686,-0.13146036863327026,-0.15313884615898132,0.4572409689426422,-0.20512175559997559,-0.034236956387758255,-0.022966641932725906,0.48880669474601746,-0.13342468440532684,0.19777344167232513,-0.01705910451710224,0.010147438384592533,-0.5179831981658936,0.2621685862541199,-0.2905464470386505,0.27898910641670227,0.16955970227718353,-0.1547793447971344,-0.2578825354576111,-0.13107134401798248,-0.0014964045258238912,0.37983694672584534,-0.15699854493141174,0.07716408371925354,-0.08075648546218872,-0.20790916681289673,0.07077671587467194,-0.022106776013970375,-0.03578311949968338,-0.5006905198097229,0.014507797546684742,-0.18549521267414093,-0.2346705198287964,-0.1608460545539856,0.45603328943252563,-0.06163199618458748,-0.03112693876028061,-0.055179815739393234,0.05550292506814003,0.2516867220401764,0.2977111339569092,0.031980302184820175,-0.36347153782844543,0.03717759624123573,0.007109346333891153,0.0900316834449768,-0.09566985815763474,-0.16036273539066315,0.10652166604995728,-0.07216041535139084,-0.06653034687042236,0.09154710918664932,0.6992383003234863,0.020795945078134537,-0.47460970282554626,-0.3965470492839813,0.8222901225090027,-0.15901067852973938,0.259613573551178,0.3641441762447357,0.18370398879051208,-0.5557944178581238,0.3098800480365753,-0.20501381158828735,-0.24998104572296143,0.04767400398850441,-0.6746604442596436,-0.2624135911464691,-0.019352514296770096,0.18544596433639526,-0.13251380622386932,0.06794708222150803,0.3488506078720093,-0.15607798099517822,-0.030467653647065163,-0.41060197353363037,0.06779305636882782,-0.15858343243598938,0.07926330715417862,0.07761497050523758,-0.08151722699403763,-0.02177143655717373,-0.0070766787976026535,-0.06889739632606506,0.02384219318628311,-0.08503615111112595,-0.2227003127336502,-0.054484058171510696,0.013036767020821571,-0.008807145059108734,0.015568749979138374,-0.09551448374986649,-0.043548859655857086,-0.06766969710588455,-0.07260338217020035,-0.14412513375282288,0.1782469004392624,0.11349710077047348,0.23921500146389008,-0.14044152200222015,-0.0016792749520391226,-0.19703491032123566,0.08764133602380753,-0.00032769711106084287,-0.2548316717147827,-0.20159678161144257,-0.0326838418841362,0.1314322054386139,0.022913901135325432,-0.23227910697460175,-0.1376984417438507,-0.024373523890972137,0.07737930864095688,0.0003431803488638252,0.09764015674591064,-0.018110323697328568,0.16472667455673218,-0.03421494737267494,0.05567018687725067,0.03768165782094002,0.2612096667289734,0.12030243128538132,0.11181984096765518,0.07776135206222534,0.058958131819963455,0.011106272228062153,0.021323859691619873,0.08958020806312561,-0.144642174243927,-0.10466541349887848,-0.3366711735725403,-0.05118909478187561,-0.012582969851791859,0.06782931089401245,-0.003209136426448822,0.08856485038995743,0.09970270097255707,0.4258367419242859,-0.05626226216554642,-0.29055553674697876,0.06535425782203674,0.13736821711063385,0.08627398312091827,-0.014895045198500156,0.06850723177194595,0.013257740996778011,-0.03658849000930786,-0.0316120982170105,0.0364747978746891,0.18846045434474945,-0.2581194341182709,-0.16020521521568298,0.5022708773612976,-0.10693731158971786,0.024937812238931656,0.6430492997169495,0.15108712017536163,-0.03821501508355141,0.06825331598520279,0.13021808862686157,-0.20709697902202606,-0.15215356647968292,0.19504225254058838,-0.11561386287212372,-0.13245198130607605,0.014049223624169827,-0.13043618202209473,-0.19618496298789978,-0.16220012307167053,-0.034998632967472076,-0.024464307352900505,-0.36404454708099365,0.009623268619179726,0.2534116208553314,-0.045210737735033035,0.05118924751877785,-0.11660315096378326,-0.18996798992156982,-0.4181433320045471,-0.1922301948070526,0.009216313250362873,0.019111651927232742,0.09260423481464386,0.3465954661369324,0.20571118593215942,-0.15592840313911438,0.08286858350038528,0.3108396530151367,0.05461716651916504,0.40663695335388184,-0.05872103571891785,0.006266152951866388,0.024030789732933044,0.051366306841373444,-0.08534562587738037,-0.35624960064888,-0.06203087419271469,-0.02313847467303276,-0.029211323708295822,0.27535760402679443,0.3649497926235199,-0.3851023018360138,0.0036449141334742308,0.17060554027557373,-0.04423217102885246,-0.19531726837158203,0.16843892633914948,0.05572645738720894,0.01221939455717802,0.02831961400806904,-0.07547461986541748,-0.15151016414165497,0.27452385425567627,-0.07291757315397263,-0.046113014221191406,0.10957446694374084,0.04670264944434166,-0.12478973716497421,0.4383118748664856,-0.22223259508609772,-0.0799364522099495,0.0552525669336319,-0.11728014051914215,0.024882392957806587,0.006180666387081146,0.10673730075359344,0.012501759454607964,-0.060194555670022964,0.04699975252151489,-0.09855916351079941,0.0719921886920929,-0.034288160502910614,-0.1419132649898529,-0.000705147918779403,-0.1484883427619934,0.19800139963626862,-0.08805996179580688,-0.021171821281313896,-0.26530566811561584,-0.10986578464508057,0.42561885714530945,0.11012206226587296,0.0005550588830374181,0.2022392898797989,0.1994025856256485,-0.1606217622756958,-0.07558310776948929,0.061772119253873825,-0.5792275071144104,0.04814494401216507,-0.12486152350902557,-0.1739593893289566,-0.10351453721523285,0.17022071778774261,0.2173551768064499,-0.019283147528767586,0.08532669395208359,-0.10182451456785202,0.05889589712023735,0.2316230982542038,-0.006931014358997345,-0.24131479859352112,-0.06718853116035461,-0.22338725626468658,0.1469099372625351,-0.24942374229431152,0.04884747788310051,0.10801192373037338,-0.013611255213618279,0.08926230669021606,0.0031188116408884525,-0.03239019587635994,0.1096770390868187,-0.04938437417149544,-0.1496807038784027,0.05379486456513405,-0.038342125713825226,-0.040395136922597885,0.0866713598370552,0.14660555124282837,0.07493160665035248,-0.3452974855899811,0.24191981554031372,0.1792037934064865,-0.007748438511043787,0.0012304747942835093,0.056522436439991,0.039762236177921295,-0.002754851011559367,0.08493614941835403,-0.14613012969493866,0.2993644177913666,-0.07830426096916199,0.0855451375246048,-0.12830676138401031,-0.2866465151309967,-0.03935619816184044,-0.01020589005202055,0.22073028981685638,0.013491236604750156,0.1700170338153839,0.028598276898264885,0.034945424646139145,0.07012731581926346,-0.1855206936597824,-0.023222995921969414,0.16645076870918274,-0.022289754822850227,0.027445541694760323,0.04430569335818291,0.04077966883778572,-0.13321706652641296,-0.016404950991272926,0.17481729388237,-0.03845144808292389,-0.22168298065662384,0.027023684233427048,-0.10671204328536987,0.05450413003563881,-0.02000347152352333,0.00891526322811842,0.07122160494327545,-0.08430291712284088,-0.14364582300186157,-0.027374936267733574,-0.001676083542406559,-0.05298929661512375,-0.09007217735052109,-0.06786525994539261,0.05591801553964615,-0.1460229456424713,-0.19370368123054504,0.1328817903995514,-0.10943078994750977,0.12624505162239075,0.01568708010017872,-0.03699595853686333,0.261834055185318,0.035625919699668884,0.1362297534942627,0.029617086052894592,0.2337515503168106,0.024034857749938965,0.13288718461990356,-0.016691189259290695,-0.5300045013427734,0.10952847450971603,-0.05121220648288727,0.2161148339509964,-0.12479475885629654,-0.06975115835666656,0.07531189173460007,0.03821483626961708,-0.19048123061656952,-0.26628315448760986,0.1127590537071228,-0.12818604707717896,0.12205212563276291,0.019210748374462128,0.03292476013302803,-0.21545888483524323,0.13267837464809418,0.1568482518196106,0.14957310259342194,0.15913650393486023,-0.1378781944513321,-0.20008818805217743,-0.215872660279274,0.028511421754956245,-0.17413285374641418,0.289812296628952,0.10412988066673279,-0.18249745666980743,0.1999598741531372,0.046293992549180984,-0.38600149750709534,-0.03711571544408798,0.04350460320711136,-0.28896525502204895,-0.13281287252902985,0.058620717376470566,0.27294406294822693,-0.27703750133514404,-0.004828506615012884,0.29644447565078735,-0.07229694724082947,-0.0893416553735733,0.07849975675344467,-0.46043860912323,0.04289526492357254,-0.005276962649077177,0.01239659171551466,0.17049811780452728,0.06285271048545837,-0.18600986897945404,0.10813900828361511,0.07989460229873657,0.21841903030872345,-0.0652025043964386,0.18975390493869781,0.01944483257830143,0.2916853427886963,-0.03977613523602486,-0.11391700059175491,0.7369483113288879,0.053317416459321976,-0.14667582511901855,0.03443428501486778,-0.05073262006044388,0.1005268543958664,0.1828807145357132,-0.03512831777334213,-0.02610855922102928,0.06631239503622055,-0.08484407514333725,-0.23533454537391663,0.08472597599029541,0.03961678966879845,0.15112029016017914,-0.05315650999546051,-0.06074884161353111,-0.0868196040391922,0.13953357934951782,0.04049255698919296,-0.11130735278129578,0.055069174617528915,0.17377042770385742,0.17349310219287872,-0.4146173298358917,0.05132288485765457,0.13804566860198975,0.09834982454776764,0.01881386525928974,-0.13503310084342957,-0.10908722877502441,0.17382661998271942,-0.04910000041127205,0.06905785948038101,-0.16986025869846344,0.05323510989546776,0.0033090421929955482,0.050527673214673996,0.08565472066402435,-0.1371808797121048,0.25070807337760925,0.020565690472722054,-0.10569921880960464,0.2656237781047821,0.19307821989059448,-0.19388557970523834,0.21271124482154846,0.2591378390789032,0.04055079072713852,0.20275279879570007,0.06257917732000351,0.023633478209376335,-0.45225921273231506,0.061255764216184616,0.23389320075511932,0.21627365052700043,0.10182206332683563,-0.07401500642299652,-0.3101838529109955,-0.021881138905882835,0.10025320202112198,-0.06177860498428345,0.12772168219089508,0.07325810939073563,0.1494571715593338,-0.007658383809030056,0.04391678422689438,-0.11872892081737518,-0.023517165333032608,0.08729592710733414,0.43649089336395264,-0.07567169517278671,0.02735813707113266,0.3949350118637085,-0.07195773720741272,-0.042657673358917236,0.6774736642837524,0.06092023104429245,0.11055543273687363,0.22786520421504974,-0.1057683452963829,0.018919408321380615,-0.24602818489074707,-0.0033171072136610746,0.007400001864880323,0.2547333538532257,0.27873992919921875,-0.06074966490268707,-0.4992843568325043,0.017327817156910896,0.033512987196445465,-0.2711082398891449,-0.19339706003665924,-0.14255291223526,0.5306337475776672,0.17394229769706726,0.049840547144412994,0.1520596295595169,-0.22876958549022675,-0.0012633528094738722,0.6183117628097534,-0.10941189527511597,0.08936728537082672,-0.15458787977695465,0.13443726301193237,-0.01682482287287712,-0.23778416216373444,-0.005731602199375629,0.003081445349380374,-0.12638995051383972,-0.11838201433420181,0.017291100695729256,0.12917743623256683,0.0036811684258282185,0.024557724595069885,0.36859601736068726,-0.23463088274002075,-0.00664025591686368,0.0637839213013649,-0.11802058666944504,0.021865185350179672,0.13817186653614044,0.13196741044521332,0.04550926387310028,0.13638277351856232,-0.009593375958502293,-0.06937693804502487,0.2734798192977905,0.07958196103572845,0.06876061111688614,-0.09000333398580551,-0.10743702948093414,0.014510187320411205,-0.15239064395427704,0.13460929691791534,-0.057129669934511185,0.10070313513278961,0.04894411936402321,-0.07043448090553284,0.3188570737838745,-0.1410912573337555,-0.2716570496559143,0.14833420515060425,0.0227623600512743,-0.056464217603206635,0.38397347927093506,-0.011796493083238602,-0.0211863424628973,-0.3522305190563202,-0.055132392793893814,0.15742412209510803,0.15796609222888947,0.11398935317993164,0.047871191054582596,-0.012226631864905357,-0.0354926623404026,-0.0474473275244236,-0.3086306154727936,0.15409234166145325,0.022077037021517754,-0.11801216751337051,-0.02446523681282997,0.0623866431415081,-0.6744306087493896,-0.00972403958439827,0.043705329298973083,-0.04822605848312378,0.01239633746445179,-0.06750278174877167,0.11496811360120773,0.058256328105926514,0.04941166192293167,-0.2117336094379425,-0.14882007241249084,-0.07679819315671921,0.16079789400100708,0.5039265155792236,-0.3417392373085022,-0.1182539165019989,-0.09358885139226913,-0.03886060044169426,0.3162367045879364,-0.018837489187717438,0.24499289691448212,-0.042962558567523956,0.09352298825979233,0.2506122589111328,0.44751104712486267,-0.06811444461345673,-0.43853771686553955,0.09909532964229584,0.0792078748345375,0.002212690422311425,0.23087947070598602,-0.012981189414858818,0.05854406952857971,-0.12087143957614899,0.17395901679992676,0.22495980560779572,0.33906975388526917,0.36478933691978455,0.08436126261949539,0.2627890706062317,0.14803779125213623,0.0722627341747284,0.03390273079276085,-0.16053295135498047,-0.1168685108423233,-0.1688709408044815,0.009728205390274525,-0.005230436101555824,-0.21108172833919525,0.05906698480248451,-0.05152306705713272,0.10359865427017212,0.06329429894685745,-0.31565847992897034,-0.21468158066272736,-0.186664879322052,0.08167929202318192,0.5381375551223755,0.20744886994361877,0.1092059388756752,0.3701591193675995,0.026568887755274773,-0.2505190074443817,-0.052446141839027405,-0.007901220582425594,0.12034614384174347,0.1374630331993103,-0.1751476228237152,-0.4849623739719391,-0.10931550711393356,-0.031969476491212845,-0.044962186366319656,0.06902296841144562,-0.015488841570913792,-0.8033814430236816,-0.043193213641643524,-0.11346573382616043,0.3744323253631592,0.13803105056285858,-0.01247586589306593,0.07516008615493774,-0.435779333114624,0.08994439244270325,0.005015792790800333,-0.12905947864055634,-0.10847652703523636,0.29289335012435913,0.30357661843299866,0.028249938040971756,0.005359654314815998,-0.16944479942321777,-0.07172537595033646,0.05031488835811615,0.3730809986591339,0.036511581391096115,-0.09547706693410873,0.016590725630521774,0.03278065845370293,-0.1672183871269226,0.11306346952915192,0.015020789578557014,0.40697240829467773,-0.01607298105955124,-0.03802205249667168,0.0050651622004806995,0.3371368646621704,0.004642400424927473,0.2109518200159073,0.23671163618564606,0.3845960795879364,-0.0638376772403717,0.32075804471969604,-0.09371265769004822,-0.03429889306426048,-0.49269619584083557,0.037364691495895386,0.17147207260131836,0.23342949151992798,0.19869522750377655,0.05502358451485634,0.04837232455611229,-0.10413949191570282,0.12573708593845367,-0.37841519713401794,-0.18978959321975708,0.26297804713249207,0.22908876836299896,0.34005528688430786,0.0157111007720232,-0.2686721682548523,0.11185649782419205,-0.09968873858451843,-0.01659853756427765,0.36644887924194336,0.09123092144727707,-0.01912938803434372,-0.23464888334274292,-0.032798219472169876,0.3601617217063904,0.03120739758014679,0.16114771366119385,0.1957566887140274,-0.11538872122764587,0.011414366774260998,-0.2418631911277771,-0.0075662159360945225,-0.1439821422100067,0.4216747283935547,-0.26045212149620056,-0.19087444245815277,0.031602878123521805,-0.1966404765844345,0.0478576198220253,-0.21249577403068542,0.1447705179452896,-0.06807968765497208,-0.12276379764080048,-0.33471816778182983,0.4217976927757263,-0.20923301577568054,-0.0004542883252725005,0.14841000735759735,0.5077386498451233,0.04576118662953377,0.1209961473941803,0.16561943292617798,-0.09863591194152832,-0.0719919428229332,-0.01050751656293869,-0.008841102011501789,0.026999272406101227,0.3619360327720642,-0.0078284852206707,-0.09940661489963531,-0.01485381368547678,-0.010739417746663094,0.230780690908432,0.19782495498657227,0.17276529967784882,0.358901709318161,0.12486198544502258,-0.03411589190363884,0.15911865234375,-0.5260708928108215,-0.09333876520395279,-0.15985538065433502,-0.1410597711801529,0.22691112756729126,0.1447315216064453,-0.34537675976753235,0.16467539966106415,0.04258720204234123,0.10303989797830582,0.10146380960941315,0.0014778462937101722,0.02900044247508049,-0.3214550018310547,-0.15261270105838776,-0.04877875745296478,-0.13547806441783905,-0.23011426627635956,0.11347643285989761,-0.16289031505584717,0.3072919547557831,-0.4831710755825043,0.3466777801513672,-0.10397622734308243,0.07751516997814178,-0.06031143665313721,-0.038645580410957336,0.48792171478271484,0.3912006914615631,0.004000403452664614,-0.1701928675174713,-0.09381823241710663,0.061693236231803894,-0.3563271462917328,0.02451983094215393,0.1962825208902359,0.14295418560504913,0.04876275733113289,0.010238763876259327,-0.017438121140003204,0.29761195182800293,0.013813921250402927,0.41729360818862915,-0.11879032850265503,-0.05629076808691025,0.24628125131130219,0.012037983164191246,0.05642814189195633,-0.040146034210920334,0.004873502533882856,-0.05470650643110275,0.644332230091095,0.0962638333439827,0.03033365309238434,-0.04462546855211258,0.09606233984231949,-0.1331169307231903,0.27918851375579834,-0.2046910971403122,-0.048581790179014206,-0.1188044399023056,-0.08757662028074265,-0.08573652058839798,-0.01987498253583908,0.19396668672561646,0.024294234812259674,-0.20421192049980164,0.26629969477653503,-0.024240756407380104,-0.056303780525922775,0.4822333753108978,0.06096500903367996,0.4217683970928192,-0.18337516486644745,-0.12351228296756744,0.1318761259317398,0.08731497079133987,-0.19048282504081726,0.27673953771591187,-0.06572810560464859,-0.03371801599860191,-0.5487740635871887,-0.30741000175476074,-0.24632741510868073,0.18627259135246277,-0.16654552519321442,-0.061954233795404434,0.2203715443611145,-0.18011929094791412,-0.07028196007013321,-0.5787524580955505,-0.11073535680770874,-0.055095452815294266,0.060690537095069885,0.13371175527572632,0.09419414401054382,-0.15304070711135864,0.1584385484457016,0.04292001947760582,0.48432308435440063,-0.0366889126598835,-0.04320599138736725,0.13224756717681885,0.024708442389965057,0.04832955822348595,0.256924033164978,0.2636987566947937,0.048247285187244415,-0.2664183974266052,-0.013748391531407833,0.21989254653453827,0.2808733880519867,-0.056399136781692505,-0.024619119241833687,0.09297371655702591,-0.08712374418973923,-0.10643826425075531,-0.19125303626060486,-0.1098443865776062,0.14618079364299774,-0.1369389295578003,-0.14018529653549194,0.18892288208007812,0.08988739550113678,-0.25098565220832825,0.09227304905653,0.047162868082523346,0.19425123929977417,-0.20628702640533447,0.07527728378772736,0.2029239386320114,-0.520540714263916,0.21799412369728088,-0.24984771013259888,-0.12472732365131378,-0.12948988378047943,-0.07860077172517776,0.015497964806854725,0.23423297703266144,0.26782843470573425,0.30523836612701416,0.0916035920381546,0.019745968282222748,-0.014269747771322727,-0.17438681423664093,