{"version": "0.5.1", "metadata": {"date": {"year": 2023, "month": 6, "day": 25, "hour": 22, "minute": 9, "second": 3}, "loudness": -17.29261016845703, "gain": 0.760286586286776, "name": "Marshall JCM800 2203", "modeled_by": "Jesco", "gear_type": "amp", "gear_make": "Marshall", "gear_model": "JCM800 2203", "tone_type": "hi_gain"}, "architecture": "WaveNet", "config": {"layers": [{"input_size": 1, "condition_size": 1, "head_size": 8, "channels": 16, "kernel_size": 3, "dilations": [1, 2, 4, 8, 16, 32, 64, 128, 256, 512], "activation": "Tanh", "gated": false, "head_bias": false}, {"input_size": 16, "condition_size": 1, "head_size": 1, "channels": 8, "kernel_size": 3, "dilations": [1, 2, 4, 8, 16, 32, 64, 128, 256, 512], "activation": "Tanh", "gated": false, "head_bias": true}], "head": null, "head_scale": 0.02}, "weights": [-0.030509354546666145, 0.742523193359375, -0.8852945566177368, -0.8334861397743225, -0.4627123773097992, 0.4403780996799469, -0.03071483224630356, 0.9178513288497925, -0.1770300567150116, 0.3155811131000519, -0.20703162252902985, -0.3549586236476898, -1.1582063436508179, -0.7763753533363342, -0.5985236167907715, 0.3024078905582428, 0.037399910390377045, 0.3394874632358551, -0.35420602560043335, 0.0047653415240347385, -0.15897178649902344, 0.2936689555644989, -0.10231638699769974, 0.3041556775569916, -0.19534094631671906, -0.053944483399391174, 0.33297640085220337, -0.31019285321235657, -0.154587060213089, 0.1726732701063156, -0.21448281407356262, 0.19377963244915009, -0.2981876730918884, 0.11699826270341873, -0.07012640684843063, 0.1176040768623352, -0.27657291293144226, 0.19244281947612762, -0.13737595081329346, 0.24096442759037018, -0.04590727016329765, 0.15378142893314362, -0.1889721006155014, -0.0692124292254448, -0.31387338042259216, 0.11622213572263718, 0.026075376197695732, 0.2808072566986084, -0.23942875862121582, -0.07413268834352493, 0.3085952699184418, -0.05821433290839195, -0.010130648501217365, 0.22400996088981628, -0.07416115701198578, -0.15065047144889832, 0.23146221041679382, -0.2817403972148895, -0.16592659056186676, 0.13834494352340698, -0.10940530151128769, 0.1459188461303711, -0.34216269850730896, 0.22564595937728882, -0.08373872935771942, 0.10665123164653778, -0.12439446151256561, 0.13963043689727783, -0.08863747119903564, 0.22499005496501923, -0.21198517084121704, 0.12067540735006332, -0.02767697349190712, 0.018092580139636993, 0.3004800081253052, 0.04385455325245857, -0.07654037326574326, 0.050801657140254974, -0.06979846209287643, 0.01659182831645012, -0.30598655343055725, 0.21658705174922943, -0.023735789582133293, -0.07946357876062393, -0.08081433922052383, 0.07435721158981323, -0.20101867616176605, 0.014250047504901886, -0.06139678135514259, 0.07888780534267426, -0.04507444053888321, 0.18030045926570892, -0.06595179438591003, 0.14458085596561432, -0.24514062702655792, 0.0674772784113884, -0.01327053364366293, -0.08726399391889572, 0.05637592077255249, -0.18153835833072662, 0.03637271001935005, 0.27596279978752136, -0.14259403944015503, -0.13571137189865112, 0.03961703181266785, -0.08167147636413574, -0.21592490375041962, 0.06606567651033401, -0.09449546784162521, 0.1900552362203598, -0.230637788772583, 0.2476220428943634, -0.02478085085749626, 0.06075518578290939, 0.22337865829467773, -0.13769413530826569, 0.05247437581419945, -0.06902474910020828, 0.028486745432019234, -0.056132107973098755, 0.1265263557434082, 0.01802750490605831, -0.16108807921409607, 0.1400192677974701, -0.11833727359771729, -0.16582711040973663, 0.038978461176157, -0.08612637221813202, 0.029762672260403633, -0.20126192271709442, 0.034492895007133484, -0.003804352367296815, -0.003649650840088725, -0.016211453825235367, 0.19220192730426788, -0.0857788622379303, 0.039559103548526764, -0.08674769103527069, 0.14144085347652435, 0.07121427357196808, 0.2193547636270523, -0.00011532867938512936, 0.15200863778591156, -0.08902203291654587, -0.04836522042751312, -0.04497329890727997, 0.008499804884195328, 0.09061168134212494, -0.06317347288131714, -0.2012108564376831, -0.06638592481613159, -0.11098740249872208, -0.11646200716495514, 0.15025438368320465, 0.09539005905389786, -0.2290235459804535, 0.16666677594184875, -0.18841959536075592, 0.02889396622776985, -0.20215976238250732, 0.010148841887712479, 0.04799778759479523, -0.26098117232322693, -0.15631039440631866, -0.0714486762881279, 0.1374111771583557, -0.031538404524326324, 0.10167977958917618, -0.2606770098209381, 0.02428230457007885, 0.17625541985034943, -0.19003841280937195, 0.15533582866191864, 0.09587925672531128, -0.26064494252204895, 0.06053214520215988, -0.06164196878671646, 0.0664287731051445, 0.07150311022996902, -0.12844589352607727, -0.13258741796016693, -0.06106974929571152, 0.05754074454307556, 0.17085100710391998, 0.10358019918203354, 0.1025860533118248, -0.17973820865154266, -0.05965286120772362, -0.16343899071216583, 0.22194898128509521, 0.13597920536994934, 0.13430745899677277, -0.23759855329990387, 0.04367322102189064, -0.04431581869721413, -0.2201581746339798, -0.05177517235279083, 0.09684808552265167, -0.2157457321882248, 0.02680841274559498, 0.051373954862356186, -0.03632419928908348, -0.07560310512781143, -0.045910224318504333, -0.21642079949378967, 0.09847613424062729, -0.061846889555454254, 0.3149777054786682, -0.08334273099899292, -0.13711605966091156, 0.23129627108573914, 0.11899936199188232, 0.17901065945625305, -0.22291404008865356, -0.14251719415187836, -0.1300383061170578, 0.07651591300964355, -0.21875111758708954, -0.03461429476737976, 0.07307221740484238, -0.15967856347560883, -0.01939745806157589, 0.23208726942539215, 0.14259177446365356, 0.020903654396533966, -0.1208769679069519, -0.16292992234230042, -0.11965670436620712, 0.1814066767692566, 0.12233171612024307, 0.1520741730928421, -0.06722184270620346, -0.12100926786661148, -0.019507452845573425, 0.30539843440055847, 0.0464811772108078, 0.21220402419567108, -0.3064294159412384, -0.19021576642990112, -0.09207570552825928, 0.24166710674762726, -0.034696392714977264, -0.20086713135242462, 0.20948530733585358, -0.07263899594545364, -0.2944033443927765, 0.2895597219467163, -0.2643165588378906, -0.15057183802127838, 0.16039076447486877, -0.2266361564397812, -0.1429196447134018, 0.30961447954177856, 0.11863170564174652, 0.15464192628860474, -0.22291697561740875, -0.05402182787656784, -0.024851085618138313, 0.08909252285957336, -0.14049361646175385, 0.026217924430966377, -0.02846304140985012, 0.11241406202316284, 0.0015694748144596815, 0.15796662867069244, -0.010553129948675632, -0.15047195553779602, 0.14967578649520874, 0.16650813817977905, -0.06257347762584686, 0.04041021317243576, -0.11294586956501007, -0.037424128502607346, -0.08673319965600967, 0.0008526287856511772, -0.17303013801574707, 0.2504563331604004, -0.13107600808143616, 0.09172945469617844, -0.06437662243843079, 0.06538219749927521, -0.19333907961845398, 0.028167307376861572, 0.06750856339931488, 0.12652115523815155, -0.006338043138384819, -0.005445871967822313, -0.053097184747457504, 0.08246880024671555, 0.04557251185178757, -0.1969742625951767, 0.17804673314094543, 0.08263805508613586, -0.11336033046245575, 0.0711536705493927, -0.0500526987016201, -0.007371226791292429, -0.002380720805376768, 0.10427109152078629, -0.15967361629009247, 0.0420992411673069, -0.07883971929550171, 0.0160080436617136, -0.16000159084796906, 0.008128930814564228, -0.44082707166671753, 0.21320515871047974, 0.13434477150440216, 0.38848966360092163, -0.15856291353702545, -0.1974124014377594, -0.34385377168655396, 0.187305748462677, -0.13054466247558594, -0.27044957876205444, 0.23450149595737457, -0.14532168209552765, -0.31983011960983276, 0.19583255052566528, 0.08206957578659058, 0.32726532220840454, -0.13334283232688904, -0.1388806700706482, -0.252731055021286, 0.2181011438369751, 0.20933595299720764, 0.40750977396965027, -0.11707407236099243, 0.018432073295116425, -0.39180779457092285, 0.05896835774183273, -0.060264214873313904, 0.4641408622264862, -0.06626994162797928, -0.16689400374889374, -0.24575062096118927, 0.2534647285938263, 0.08297841250896454, -0.20970554649829865, 0.2723934054374695, -0.11390981823205948, -0.3779936134815216, 0.252538800239563, 0.002547140931710601, -0.409699022769928, 0.26526424288749695, -0.002877854974940419, -0.2567702829837799, 0.050617583096027374, 0.05182622745633125, 0.29229408502578735, -0.09530851244926453, -0.03693694248795509, -0.06775104999542236, 0.07005193084478378, 0.11920467764139175, 0.09721598774194717, 0.055725060403347015, -0.16270464658737183, -0.11268706619739532, -0.08605699986219406, -0.20298856496810913, -0.2619435489177704, 0.1262698918581009, 0.026156125590205193, -0.0036989878863096237, 0.12830093502998352, -0.0764639750123024, 0.038978658616542816, -0.04525520280003548, -0.026491550728678703, 0.093686044216156, -0.025997616350650787, -0.010874015279114246, 0.0043493290431797504, -0.0949975773692131, 0.07752867788076401, -0.013644841499626637, 0.14105993509292603, 0.16179317235946655, 0.26323485374450684, -0.06495720148086548, 0.016299434006214142, 0.002670253161340952, 0.07289347052574158, 0.08895301073789597, -0.07520221918821335, 0.11038082093000412, -0.11153599619865417, -0.0776507779955864, 0.026975998654961586, -0.09206809103488922, -0.22390463948249817, -0.06838668882846832, -0.16914767026901245, -0.053082577884197235, 0.11395172029733658, 0.02301580272614956, 0.0583929717540741, 0.04621235653758049, 0.2122221291065216, -0.22497428953647614, -0.15328489243984222, 0.06595979630947113, 0.3004293441772461, 0.021316511556506157, 0.20032650232315063, -0.1243283599615097, -0.18194881081581116, 0.14430491626262665, -0.3186698853969574, -0.15183603763580322, 0.19058296084403992, -0.22742995619773865, -0.23347268998622894, -0.12077964097261429, 0.1873188465833664, 0.09423158317804337, 0.09605478495359421, -0.06983731687068939, -0.08009663969278336, -0.1503353714942932, 0.24295896291732788, 0.20130324363708496, 0.1600016951560974, -0.36799389123916626, -0.12911869585514069, -0.17997969686985016, 0.17430834472179413, 0.1677388697862625, -0.036628395318984985, -0.17085614800453186, 0.002456984017044306, 0.09059829264879227, -0.33953842520713806, -0.16705359518527985, 0.09196453541517258, -0.3486032485961914, -0.06333736330270767, -0.06899178773164749, -0.37404996156692505, -0.27318650484085083, 0.03956899046897888, -0.14649631083011627, -0.2665407955646515, 0.0019504318479448557, 0.1927443891763687, 0.1281154751777649, 0.13333502411842346, -0.3666408658027649, 0.2950158715248108, -0.010486610233783722, 0.3717731535434723, -0.06004823371767998, -0.012679565697908401, -0.09623190760612488, 0.1363721489906311, 0.15140345692634583, -0.3366105556488037, 0.088712178170681, -0.05524067580699921, -0.2807863652706146, 0.15381360054016113, -0.20495003461837769, 0.26191267371177673, -0.05818803608417511, 0.14837627112865448, -0.24153216183185577, 0.035874661058187485, -0.12613117694854736, 0.28310903906822205, 0.01582583226263523, 0.18542703986167908, -0.24172207713127136, 0.2104114145040512, -0.23400935530662537, 0.09529677778482437, -0.07863590121269226, 0.006665700115263462, -0.13326230645179749, 0.03085845522582531, 0.028324922546744347, -0.348984956741333, 0.22696177661418915, 0.0660896971821785, -0.11248727142810822, 0.2149355709552765, 0.16165044903755188, -0.2163727581501007, 0.08062440156936646, 0.05535262078046799, -0.21299470961093903, 0.20317333936691284, -0.24351096153259277, 0.37504032254219055, -0.21110695600509644, -0.40503865480422974, 0.1508253812789917, 0.3686547577381134, 0.40278002619743347, -0.3421154320240021, -0.11975258588790894, -0.19371755421161652, 0.2829185426235199, 0.3366195857524872, -0.343231737613678, 0.24849046766757965, 0.27781644463539124, -0.31514880061149597, 0.24511082470417023, 0.17276521027088165, 0.3609796464443207, -0.2383240908384323, -0.27056077122688293, -0.20831061899662018, 0.23918907344341278, 0.15205353498458862, 0.2754335105419159, -0.11885245889425278, -0.2344893515110016, -0.23775480687618256, 0.17559848725795746, 0.27046725153923035, 0.167266383767128, -0.28934261202812195, -0.2894836366176605, -0.1290048360824585, 0.15423932671546936, 0.21148467063903809, -0.3501296937465668, 0.35370445251464844, 0.3608512878417969, -0.3720643222332001, 0.08841339498758316, 0.11359220743179321, -0.2645688056945801, 0.16578952968120575, 0.1265222728252411, -0.3235098123550415, 0.23357652127742767, 0.14527596533298492, 0.3415253758430481, -0.2628234326839447, -0.26696306467056274, 0.40607282519340515, -0.07384288311004639, -0.15469607710838318, -0.35593804717063904, 0.12128684669733047, 0.16553610563278198, 0.22188109159469604, -0.3040056824684143, 0.12176642566919327, 0.2687334418296814, -0.14090904593467712, -0.03579127416014671, 0.3193742334842682, -0.21010683476924896, 0.0671173632144928, -0.3488977551460266, 0.03909817710518837, -0.05358724668622017, 0.215220108628273, -0.16242758929729462, -0.20848365128040314, -0.21816907823085785, 0.13979098200798035, 0.00024423026479780674, 0.4825565218925476, -0.12079644948244095, 0.06467059254646301, -0.27903199195861816, 0.1349775791168213, -0.05580269545316696, 0.331879585981369, -0.05447548255324364, -0.0861314982175827, 0.24494637548923492, -0.11589908599853516, 0.1086421087384224, 0.3163374662399292, -0.29117852449417114, -0.15542879700660706, 0.3894731104373932, -0.18519486486911774, -0.10069768130779266, 0.39420515298843384, -0.12000782042741776, 0.08932526409626007, -0.29380983114242554, 0.17442645132541656, -0.13935299217700958, -0.3685033619403839, 0.23836110532283783, 0.12205500900745392, 0.32265713810920715, -0.21398542821407318, 0.0944225862622261, -0.12220881879329681, 0.20972900092601776, -0.08752064406871796, -0.3119409382343292, -0.016250431537628174, 0.17482194304466248, -0.3122809827327728, 0.024729790166020393, 0.11153533309698105, 0.18636731803417206, -0.16263554990291595, -0.056932006031274796, -0.14002235233783722, 0.039204537868499756, 0.21278324723243713, 0.18998388946056366, -0.034967876970767975, 0.08512994647026062, -0.18069994449615479, 0.12074372917413712, 0.18560665845870972, 0.2710132896900177, -0.16102658212184906, 0.08236097544431686, -0.20244568586349487, -0.04864503815770149, 0.010903234593570232, -0.3641662895679474, 0.2115960270166397, 0.019356902688741684, -0.3879300355911255, 0.07652866840362549, 0.12910954654216766, -0.2143155187368393, 0.13372069597244263, 0.05421872437000275, -0.20658378303050995, 0.050125062465667725, -0.021316492930054665, 0.17028386890888214, -0.23648211359977722, 0.03518355265259743, -0.2786588668823242, 0.16589343547821045, 0.06564408540725708, 0.16188384592533112, -0.25389429926872253, 0.09284413605928421, -0.2306755632162094, 0.27433833479881287, -0.0692242980003357, -0.18193349242210388, 0.23613665997982025, -0.012859382666647434, -0.03447459638118744, 0.05246227607131004, -0.07854984700679779, 0.0898500308394432, -0.12408305704593658, 0.09326303005218506, -0.24386367201805115, 0.15484409034252167, -0.02784630097448826, 0.11440905183553696, -0.05073518306016922, -0.16039854288101196, -0.15262003242969513, 0.28658509254455566, 0.007915963418781757, 0.2670367956161499, -0.19976714253425598, 0.08053458482027054, -0.2888284921646118, 0.12603797018527985, 0.014537670649588108, -0.11611789464950562, 0.21530166268348694, 0.1466185748577118, -0.1669790893793106, 0.15325459837913513, 0.1495935320854187, -0.18627603352069855, 0.2821269929409027, -0.04746519401669502, -0.17062698304653168, 0.1516576111316681, 0.1089395135641098, 0.3073630928993225, -0.1627415120601654, -0.08878011256456375, 0.17180758714675903, 0.025847740471363068, -0.12079717218875885, -0.1733391135931015, 0.08607751876115799, 0.29321250319480896, 0.09211691468954086, -0.12844538688659668, -0.05371588468551636, -0.026626773178577423, 0.03787459433078766, -0.13534949719905853, 0.023989781737327576, 0.06906091421842575, -0.2755371630191803, -0.05365120247006416, -0.10530304908752441, 0.13517430424690247, 0.1273946762084961, 0.12487435340881348, -0.21755506098270416, 0.011438760906457901, -0.026285802945494652, 0.0853596106171608, -0.02959507331252098, -0.128938689827919, -0.011971672996878624, -0.1212926134467125, 0.004778612870723009, 0.1929025799036026, 0.18031898140907288, 0.1296377032995224, -0.03176437318325043, -0.018220189958810806, -0.0240132138133049, -0.24464644491672516, -0.0010402967454865575, 0.04186277464032173, -0.02063780650496483, -0.03196924552321434, 0.09767860174179077, -0.22797664999961853, 0.06000323221087456, 0.12256425619125366, -0.18725261092185974, -0.08489152789115906, -0.13828296959400177, 0.2363175004720688, 0.19867144525051117, -0.3463536500930786, 0.08519159257411957, -0.2701137661933899, 0.1598391830921173, -0.009260531514883041, 0.2758396565914154, -0.3031616508960724, 0.08840258419513702, 0.2858080267906189, -0.1689305156469345, -0.05607621744275093, 0.15275788307189941, -0.31209608912467957, -0.0978216901421547, -0.17166176438331604, 0.35905149579048157, 0.09193727374076843, 0.17366580665111542, -0.16978387534618378, -0.041709039360284805, -0.051617518067359924, 0.20316633582115173, -0.11777635663747787, 0.2058899998664856, -0.17015992105007172, -0.09430180490016937, -0.03787851706147194, 0.3131682872772217, -0.13096453249454498, 0.13122443854808807, -0.12152019143104553, -0.08669201284646988, 0.13941793143749237, -0.2184620350599289, -0.0967685803771019, 0.23932760953903198, -0.19217747449874878, 0.10401303321123123, 0.06897932291030884, -0.11944174766540527, -0.0692448541522026, 0.3133716285228729, -0.4104219079017639, -0.11039681732654572, -0.14312338829040527, 0.32662078738212585, -0.08281689137220383, -0.027196969836950302, -0.015730494633316994, -0.06039314344525337, -0.0641678050160408, 0.027257202193140984, 0.06412452459335327, -0.24349822103977203, -0.03080505132675171, 0.1073828637599945, 0.059252653270959854, -0.015756845474243164, 0.014187213964760303, -0.10760323703289032, -0.016230525448918343, -0.012159381993114948, 0.011232085525989532, 0.6107367277145386, -0.35049009323120117, 0.7368825078010559, -0.5757824778556824, -0.1782122701406479, 0.8033599853515625, 0.867867648601532, -0.5841488838195801, 0.31567540764808655, -0.002146693877875805, -0.6889147162437439, -0.3288969397544861, 0.23795633018016815, -0.7486964464187622, 0.3220033347606659, 0.4197044372558594, -0.01015327125787735, 0.21526117622852325, -0.01647951267659664, 0.22749483585357666, -0.01746422052383423, -0.03378688171505928, 0.16044296324253082, -0.1782219409942627, -0.07969073951244354, -0.10194998979568481, 0.1501869112253189, -0.18509626388549805, 0.13162946701049805, 0.08633023500442505, 0.32876449823379517, -0.16034315526485443, 0.029180562123656273, -0.20217907428741455, -0.24466769397258759, 0.08181197196245193, 0.06209780275821686, -0.15246248245239258, -0.2075897604227066, 0.11344803124666214, -0.11391018331050873, 0.24505701661109924, -0.2404020130634308, 0.06087610870599747, 0.12780076265335083, -0.07252547144889832, -0.006701895035803318, 0.31643837690353394, 0.2742190659046173, 0.09238065034151077, -0.05329616740345955, 0.1395452916622162, -0.15513907372951508, -0.13095980882644653, -0.0050333719700574875, -0.1314728707075119, -0.05796291306614876, -0.265705406665802, 0.49611473083496094, -0.3503621220588684, 0.23479174077510834, 0.4355650544166565, 0.0999436005949974, -0.19982090592384338, 0.13043804466724396, -0.20428112149238586, -0.08519837260246277, -0.17600935697555542, -0.031897351145744324, 0.15420714020729065, -0.11730758100748062, 0.036563534289598465, -0.17542801797389984, 0.15615494549274445, -0.011303198523819447, 0.028662165626883507, 0.056488800793886185, 0.2100532054901123, -0.19889748096466064, -0.0792284905910492, -0.39313700795173645, -0.30163130164146423, -0.18728135526180267, -0.00606460589915514, 0.28675463795661926, 0.19552376866340637, 0.21194887161254883, -0.1901862621307373, 0.12742015719413757, 0.3495934307575226, -0.30212828516960144, 0.26694467663764954, -0.08179271221160889, 0.011024885810911655, -0.22310945391654968, 0.17949563264846802, -0.03501236066222191, 0.02337714284658432, 0.09638292342424393, 0.03378470242023468, 0.26356884837150574, 0.1887616366147995, 0.29984256625175476, 0.059706125408411026, 0.2145022749900818, -0.05056129768490791, -0.2230948656797409, -0.13854087889194489, 0.09151566028594971, -0.1654464155435562, 0.11013581603765488, 0.042692847549915314, 0.05067266523838043, -0.0262344628572464, 0.17263935506343842, 0.2802647650241852, -0.9198931455612183, -0.16128002107143402, 0.1639126092195511, -0.3726463317871094, 0.19558581709861755, -0.24952231347560883, -0.5317526459693909, 0.6367975473403931, -0.04840705543756485, -0.27931609749794006, 0.14599445462226868, -0.03315230831503868, 0.28198814392089844, -0.01309281587600708, 0.3451748788356781, -0.2617173492908478, -0.09885699301958084, 0.12589555978775024, 0.3784278333187103, 0.14365580677986145, 0.09737412631511688, -0.13468101620674133, 0.11935993283987045, -0.37416544556617737, 0.28595197200775146, -0.17157000303268433, -0.017102694138884544, 0.12314526736736298, -0.07910358905792236, 0.10582585632801056, -0.28680360317230225, -0.15389074385166168, 0.02393564023077488, -0.14121009409427643, -0.3296315670013428, -0.029328059405088425, -0.3381398022174835, -0.31810474395751953, 0.31354084610939026, 0.21082532405853271, -0.034020524471998215, 0.03624093160033226, -0.001729606301523745, -0.14341163635253906, -0.24944578111171722, -0.1263340711593628, 0.1242348775267601, -0.2113315314054489, -0.22761797904968262, 0.04387657716870308, 0.17910371720790863, -0.26537051796913147, -0.01309361681342125, 0.23795099556446075, 0.05021054297685623, 0.07828114926815033, 0.13780739903450012, 0.1397588849067688, -0.2064797282218933, 0.02068106271326542, 0.14268863201141357, 0.34309878945350647, -0.2677076458930969, 0.1783519834280014, -0.20517711341381073, -0.18921008706092834, 0.027974523603916168, -0.11924681812524796, 0.17253215610980988, -0.30727049708366394, -0.2198730707168579, 0.0184379443526268, -0.14125271141529083, 0.14262264966964722, 0.20119191706180573, 0.2134188413619995, 0.23196086287498474, 0.13234856724739075, -0.04540274664759636, 0.027357472106814384, -0.02895524725317955, -0.2656760513782501, -0.36454668641090393, 0.00040150652057491243, -0.0605231337249279, -0.46888065338134766, 0.35303381085395813, -0.18208228051662445, -0.11457730829715729, 0.3733287453651428, -0.32091060280799866, -0.43684810400009155, -0.19942018389701843, -0.06171216443181038, 0.03143002837896347, 0.04286111146211624, -0.049802303314208984, -0.08045189827680588, -0.027211667969822884, 0.09732018411159515, 0.3306906521320343, 0.027416884899139404, -0.243223175406456, 0.2615514099597931, -0.022047419100999832, -0.25344666838645935, -0.06369317322969437, 0.22997835278511047, -0.30437320470809937, -0.25037240982055664, -0.019218090921640396, 0.08395998179912567, -0.140687495470047, 0.32655343413352966, 0.326646625995636, 0.019916556775569916, 0.1316649615764618, 0.06684975326061249, -0.1192425787448883, 0.2185436338186264, -0.31977787613868713, -0.19459038972854614, -0.07677291333675385, 0.36205053329467773, -0.3686405122280121, -0.07640723139047623, -0.050352372229099274, -0.4248068332672119, 0.4297724664211273, 0.03213369846343994, 0.16587971150875092, 0.36463621258735657, -0.33334943652153015, 0.303079217672348, 0.14433249831199646, -0.014286869205534458, 0.1554846167564392, 0.19026745855808258, -0.19596682488918304, 0.04579148069024086, 0.2903229594230652, 0.012305106036365032, 0.11258099973201752, 0.06465867161750793, -0.24722304940223694, 0.1696961671113968, -0.021307140588760376, 0.17651596665382385, -0.23745335638523102, -0.168329119682312, -0.12180285900831223, -0.18727512657642365, 0.022526567801833153, 0.2385866791009903, 0.04430535063147545, -0.00760654965415597, 0.10874342173337936, -0.2032836526632309, 0.2505734860897064, -0.18368983268737793, -0.05623335391283035, 0.03724042698740959, 0.15632355213165283, 0.12117388099431992, -0.059269558638334274, 0.0022704838775098324, 0.04331274330615997, -0.1316550076007843, -0.015324882231652737, -0.0034146038815379143, 0.08215127885341644, 0.03794462978839874, 0.25904566049575806, -0.11833270639181137, 0.14803996682167053, 0.15938067436218262, 0.033713359385728836, 0.15263469517230988, -0.1979420930147171, -0.031056856736540794, 0.04694703593850136, -0.18190528452396393, 0.027337772771716118, -0.006080676335841417, 0.012815587222576141, -0.19658230245113373, -0.2039095163345337, 0.1424361914396286, -0.13750407099723816, 0.050960246473550797, 0.1628051996231079, -0.00705264788120985, 0.06884390860795975, 0.007035429123789072, -0.06764160841703415, -0.14341962337493896, -0.11187048256397247, 0.09480653703212738, -0.09038852155208588, -0.03965354710817337, 0.12089530378580093, -0.1272333264350891, 0.13658662140369415, -0.022440215572714806, 0.15676550567150116, -0.23471656441688538, -0.10058851540088654, 0.04831374064087868, -0.04098515212535858, 0.07448481768369675, 0.05608297884464264, -0.002691369503736496, 0.22021012008190155, -0.12753859162330627, -0.4274742603302002, 0.011416635476052761, 0.1024247333407402, 0.1091976910829544, 0.157887801527977, 0.1151151955127716, -0.06675177812576294, -0.2233322262763977, -0.018992679193615913, -0.17528752982616425, -0.07711250334978104, 0.12228941172361374, -0.1309734284877777, -0.19171756505966187, 0.35132646560668945, -0.12200938165187836, 0.07189437001943588, 0.16049271821975708, 0.10439343750476837, 0.2870337963104248, 0.0787333995103836, -0.07062926143407822, 0.017276208847761154, -0.35556331276893616, 0.00143400055821985, -0.31053218245506287, -0.12631043791770935, 0.13257408142089844, -0.027127007022500038, -0.3236613869667053, -0.17398115992546082, -0.1083386093378067, 0.2807128131389618, 0.1731078177690506, 0.2034275233745575, -0.2846170663833618, -0.1895385980606079, -0.30110567808151245, 0.1328648179769516, -0.14178623259067535, -0.18363508582115173, 0.4923512637615204, -0.13454820215702057, 0.026837941259145737, 0.1360708475112915, 0.004423599224537611, 0.12655635178089142, 0.03808692470192909, -0.017422912642359734, 0.05596674233675003, 0.2611874043941498, -0.05392491817474365, -0.07055278867483139, -0.07228373736143112, -0.009863276034593582, -0.23583965003490448, -0.05727935954928398, 0.34696105122566223, 0.26499441266059875, 0.05817722901701927, -0.05520588904619217, -0.042595911771059036, 0.02572767809033394, 0.12752984464168549, 0.05977235734462738, -0.06982504576444626, -0.05795678123831749, 0.06315139681100845, 0.0730380192399025, 0.023524345830082893, 0.013117648661136627, 0.12826092541217804, 0.001889794715680182, -0.26433128118515015, -0.042318060994148254, 0.08540879189968109, -0.12231062352657318, 0.1143115907907486, -0.06803373247385025, -0.0638444721698761, -0.027671050280332565, 0.002906439360231161, 0.10924798995256424, -0.14009396731853485, -0.2518705725669861, -0.20228002965450287, 0.13624286651611328, 0.06168434023857117, 0.006086338777095079, 0.06711075454950333, -0.2158341407775879, 0.04143022373318672, 0.11893045157194138, -0.2282283455133438, -0.026398085057735443, 0.12727665901184082, 0.0068154893815517426, 0.34414491057395935, 0.054670125246047974, 0.19026079773902893, 0.29931747913360596, 0.16955262422561646, -0.3330245018005371, -0.11366274207830429, -0.05466128885746002, 0.05407675728201866, 0.27613621950149536, 0.07426682859659195, 0.3418706953525543, -0.24384461343288422, -0.4090173840522766, 0.39123326539993286, 0.03615253046154976, -0.2996772527694702, -0.16132205724716187, 0.152726411819458, 0.07582274079322815, -0.520921528339386, -0.022696783766150475, 0.27282923460006714, -0.03956150636076927, 0.7197344303131104, 0.2460055649280548, -0.5779701471328735, -0.030793778598308563, 0.34586793184280396, 0.5237030982971191, -0.14545954763889313, -0.2334233671426773, -0.14207851886749268, -0.29495564103126526, 0.09073275327682495, 0.30516305565834045, 0.466108500957489, 0.05240708589553833, 0.6047788262367249, 0.1616278439760208, -0.1401442289352417, 0.23981165885925293, 0.13496366143226624, -0.046883031725883484, 0.07326845079660416, -0.023859016597270966, -0.049791496247053146, 0.19103604555130005, -0.6656339168548584, -0.3222297728061676, 0.14882314205169678, 0.20625926554203033, 0.09500271826982498, -0.19907940924167633, -0.1187686026096344, 0.01985394023358822, 0.18697093427181244, 0.18515545129776, 0.056029852479696274, -0.10937653481960297, 0.16014155745506287, -0.2152499109506607, -0.10318845510482788, 0.13543161749839783, 0.017977412790060043, -0.06244974583387375, 0.01688605174422264, -0.11359315365552902, -0.11998635530471802, -0.0791194811463356, 0.06334874033927917, 0.15712787210941315, -0.18072447180747986, 0.01847938448190689, 0.06703880429267883, 0.006805105600506067, 0.27971795201301575, 0.07403679937124252, 0.15115293860435486, -0.20392228662967682, -0.06436650454998016, -0.10694760829210281, 0.115892194211483, 0.1753070056438446, -0.01596408151090145, -0.08903276175260544, -0.12175142019987106, 0.2301744818687439, -0.035767316818237305, -0.3007132411003113, -0.1395033895969391, 0.008981449529528618, -0.039781760424375534, -0.014925827272236347, 0.01720294915139675, -0.17504927515983582, 0.06522461771965027, -0.295695960521698, 0.17094190418720245, 0.0920884981751442, 0.019977392628788948, -0.16690358519554138, -0.26945826411247253, -0.17659816145896912, 0.13686728477478027, 0.35057100653648376, 0.2668575644493103, -0.03252073749899864, -0.1412358582019806, -0.22016483545303345, 0.24309146404266357, 0.23283016681671143, 0.0670730397105217, -0.2786499559879303, 0.2294486165046692, 0.11974240094423294, -0.19236944615840912, -0.23481813073158264, 0.05993746221065521, 0.1561533510684967, -0.2612353265285492, 0.025620443746447563, -0.25822436809539795, -0.26791879534721375, 0.16430792212486267, 0.4042225480079651, 0.2183981090784073, -0.16278524696826935, -0.02718103863298893, 0.005737973842769861, 0.015718970447778702, 0.31187212467193604, 0.06870151311159134, 0.18773674964904785, 0.5169799327850342, 0.15583769977092743, 0.007443002425134182, 0.2397458702325821, 0.11908557265996933, 0.044104091823101044, -0.08719395846128464, -0.18432112038135529, 0.03389677777886391, -0.09849412739276886, 0.1150527372956276, -0.3132821023464203, 0.09338658303022385, -0.01101331040263176, 0.16721366345882416, 0.16088399291038513, 0.12759238481521606, -0.012261800467967987, -0.12150279432535172, -0.04485826566815376, -0.20777370035648346, 0.08411376178264618, -0.03294074907898903, 0.27159926295280457, -0.1070130243897438, -0.1491076946258545, -0.07806023210287094, -0.09255489706993103, 0.12904971837997437, 0.062369152903556824, 0.30967047810554504, 0.19893379509449005, 0.003914390690624714, 0.060476791113615036, 0.13865867257118225, 0.2832714915275574, 0.22817932069301605, 0.1614200621843338, -0.1082833856344223, -0.09096712619066238, -0.13264082372188568, 0.003077659523114562, 0.06355218589305878, -0.06670980155467987, -0.177097886800766, -0.17375341057777405, 0.017632903531193733, 0.20006689429283142, -0.2811349034309387, -0.15911170840263367, 0.015371165238320827, -0.07760346680879593, 0.19630217552185059, 0.2615054249763489, -0.04242163151502609, 0.15712378919124603, 0.06845420598983765, -0.014055876061320305, -0.008811162784695625, -0.04871229827404022, -0.13449370861053467, -0.09494902193546295, -0.11023815721273422, -0.06025216728448868, 0.027418173849582672, 0.10798490792512894, 0.17027828097343445, 0.006414396688342094, 0.047833412885665894, -0.10336454212665558, -0.10129910707473755, 0.11495393514633179, -0.014417644590139389, -0.07652569562196732, -0.03983555734157562, -0.1158832386136055, 0.01910695806145668, -0.052745211869478226, 0.17939355969429016, 0.04364161565899849, -0.09990813583135605, -0.07085265964269638, 0.04265839233994484, 0.3055238127708435, 0.09243583679199219, -0.01286676898598671, -0.06449230015277863, 0.007691585924476385, -0.2118566483259201, 0.15774118900299072, 0.10195035487413406, 0.135807603597641, -0.09770483523607254, 0.05708992853760719, -0.05229772999882698, 0.23620514571666718, 0.0005139523418620229, -0.17579858005046844, 0.13525111973285675, -0.24473947286605835, 0.0664067268371582, -0.008609727025032043, -0.3107652962207794, 0.0391247421503067, 0.020220812410116196, 0.11666048318147659, -0.04815099760890007, -0.05983492359519005, 0.0669739618897438, -0.0061884475871920586, 0.1372414380311966, 0.277682363986969, 0.20875973999500275, 0.10829499363899231, -0.26690247654914856, -0.24256765842437744, -0.2697032690048218, 0.22400937974452972, 0.24309808015823364, 0.12821853160858154, 0.06117972731590271, -0.02502022497355938, -0.19107189774513245, 0.14500564336776733, 0.16280926764011383, -0.015807434916496277, -0.22632071375846863, -0.1106434091925621, 0.1419275403022766, 0.3869539201259613, 0.06481676548719406, -0.04731058329343796, -0.2466815561056137, -0.18863224983215332, 0.2119101583957672, 0.041464123874902725, 0.00881926715373993, 0.01881393976509571, -0.09449751675128937, 0.06993657350540161, -0.09725592285394669, 0.39122146368026733, 0.04114576429128647, -0.24260959029197693, 0.008669639937579632, 0.14198201894760132, -0.04795579984784126, 0.22251951694488525, 0.1931638866662979, 0.029073959216475487, 0.2362026870250702, 0.050029244273900986, -0.14347970485687256, -0.1567678302526474, 0.021352248266339302, 0.0935884639620781, -0.19415023922920227, -0.0882686972618103, -0.11509928852319717, 0.30489009618759155, 0.14123685657978058, -0.05477641895413399, -0.182159885764122, 0.13737621903419495, 0.0873897522687912, -0.008562100119888783, 0.18864519894123077, 0.0024291391018778086, -0.1091398373246193, 0.14365878701210022, -0.09882417321205139, 0.02219081111252308, -0.38542768359184265, -0.07467112690210342, -0.03719927743077278, -0.17511337995529175, 0.055792856961488724, -0.08274077624082565, 0.06375069916248322, 0.21954894065856934, -0.005183443892747164, -0.004527066834270954, 0.20152385532855988, -0.06181439012289047, 0.2812963128089905, -0.01565411128103733, 0.11022090166807175, -0.23754063248634338, 0.05792941898107529, -0.480835497379303, 0.09826400130987167, 0.0734180212020874, -0.021344708278775215, 0.08991734683513641, -0.05628113076090813, -0.2830066978931427, -0.20336686074733734, -0.1912802904844284, -0.1234675943851471, -0.06071513891220093, 0.018683528527617455, 0.11859311163425446, -0.13416942954063416, -0.062408167868852615, 0.02963222563266754, 0.23384883999824524, -0.0006312035256996751, 0.003648736048489809, -0.00804390199482441, -0.24872934818267822, -0.2641185224056244, -0.0910225659608841, -0.14847590029239655, 0.14490681886672974, -0.05277552828192711, 0.1608075648546219, -0.03960568457841873, -0.07331015914678574, 0.0627393051981926, -0.1816481202840805, 0.22325442731380463, -0.00640887301415205, -0.04177631810307503, 0.2020367532968521, -0.16825363039970398, 0.19167038798332214, 0.17909586429595947, 0.36651596426963806, -0.21725386381149292, 0.1404818445444107, -0.06293488293886185, 0.08328240364789963, -0.09044204652309418, 0.23850946128368378, -0.1818186193704605, -0.09251821041107178, -0.11099378019571304, 0.25706928968429565, -0.09016907215118408, 0.19370326399803162, 0.2113758772611618, -0.18639497458934784, -0.015711510553956032, 0.31353890895843506, 0.14169912040233612, 0.06486520171165466, 0.23627009987831116, 0.0864265114068985, 0.19052007794380188, -0.19388000667095184, -0.08711139112710953, -0.22909533977508545, -0.06756668537855148, -0.4615606367588043, 0.054190970957279205, -0.04197179526090622, 0.04772409424185753, -0.028379226103425026, -0.06956464052200317, -0.021871104836463928, -0.1252911239862442, -0.012743872590363026, 0.02415040321648121, -0.014839217998087406, 0.11832968890666962, 0.02666492946445942, -0.04279366880655289, 0.007089997176080942, 0.11721764504909515, -0.0516820028424263, -0.09250109642744064, 0.14946985244750977, 0.14478799700737, -0.21732483804225922, -0.058015402406454086, 0.09717588871717453, -0.011920008808374405, 0.0650993138551712, 0.1675945222377777, 0.2233448177576065, -0.1626182347536087, -0.21477092802524567, -0.2813255786895752, 0.08611523360013962, 0.11337192356586456, -0.10752670466899872, 0.05432746931910515, -0.25502505898475647, 0.04124416410923004, -0.016813848167657852, -0.1492084413766861, 0.09678679704666138, -0.06989465653896332, -0.2106330394744873, 0.1832258552312851, 0.1465093344449997, -0.023293286561965942, 0.4643101096153259, 0.0983547568321228, -0.15940454602241516, -0.20869672298431396, -0.09156521409749985, 0.0705399215221405, -0.050550784915685654, 0.2055010348558426, -0.1841176152229309, -0.04013317450881004, -0.022076057270169258, -0.10006633400917053, 0.2780759334564209, 0.12890277802944183, -0.08014962077140808, 0.00917741283774376, -0.02591834031045437, -0.09382683783769608, 0.028057385236024857, -0.12211669236421585, -0.06489560008049011, -0.12408661097288132, -0.12390244007110596, 0.1696370393037796, -0.1258837729692459, -0.1363193392753601, -0.08449780941009521, -0.16537979245185852, -0.07724291831254959, 0.0820901021361351, -0.06574388593435287, 0.0570908784866333, 0.07286237925291061, -0.022661767899990082, 0.08882281929254532, -0.06356542557477951, 0.03332867845892906, 0.06939069926738739, -0.13671520352363586, 0.20683878660202026, -0.15299300849437714, -0.06064978986978531, 0.18413124978542328, -0.19840358197689056, 0.031867969781160355, 0.011078129522502422, -0.06753920763731003, -0.10122047364711761, 0.1755533367395401, -0.12153194844722748, 0.07562654465436935, -0.07353442907333374, -0.018122181296348572, 0.03321658447384834, 0.2107795774936676, -0.15616729855537415, 0.13004013895988464, 0.023368557915091515, 0.10756762325763702, 0.06943726539611816, 0.16716943681240082, -0.38278961181640625, 0.14599068462848663, -0.013105259276926517, -0.11855413764715195, 0.09530237317085266, -0.850408673286438, 0.9178829789161682, -0.032011087983846664, -0.09679216146469116, 0.21848516166210175, -0.15058496594429016, -0.18477199971675873, 0.3367280066013336, -0.01722102053463459, 0.09458913654088974, 0.17445701360702515, -0.06743568181991577, 0.06985259056091309, -0.22104713320732117, 0.18114317953586578, 0.0066779921762645245, -0.03542783111333847, 0.05255831032991409, -0.12434378266334534, 0.24401967227458954, -0.16679605841636658, 0.046789173036813736, -0.21399246156215668, -0.017368758097290993, -0.36178141832351685, 0.02872905507683754, -0.10874702036380768, -0.3716488182544708, 0.3692505955696106, -0.2601068913936615, 0.0992419496178627, -0.33903148770332336, -0.06274320930242538, 0.11271648108959198, -0.22152400016784668, 0.03331960365176201, 0.06288939714431763, 0.03502000868320465, -0.17088422179222107, 0.11473830789327621, 0.19516120851039886, 0.03669692203402519, -0.06723404675722122, 0.00040053410339169204, 0.10103759914636612, -0.0650690346956253, -0.05038405954837799, 0.0924672931432724, -0.3655853867530823, -0.006848847959190607, 0.2857873737812042, 0.22859323024749756, 0.09599467366933823, -0.13196749985218048, -0.023075126111507416, 0.11561203747987747, 0.16236348450183868, 0.18119694292545319, 0.11711600422859192, -0.2059541493654251, 0.0019745351746678352, -0.20535360276699066, 0.05090363696217537, -0.11641846597194672, -0.17334240674972534, 0.009674186818301678, -0.043525222688913345, 0.03292052075266838, 0.24960806965827942, 0.07010453194379807, -0.0585126169025898, 0.12280189990997314, -0.3863358199596405, 0.012012703344225883, 0.2703378200531006, -0.383617639541626, -0.15195100009441376, 0.08339160680770874, -0.18954984843730927, -0.08343192934989929, -0.0765480101108551, 0.313448429107666, -0.02736729383468628, -0.0504019670188427, -0.24943876266479492, -0.08509539812803268, -0.3916453719139099, 0.10189397633075714, 0.15366698801517487, 0.1426425576210022, 0.04535433277487755, -0.06331119686365128, -0.09164727479219437, 0.13664521276950836, 0.044676147401332855, -0.16415762901306152, -0.2992379069328308, 0.03799573704600334, 0.0557006411254406, -0.15350764989852905, -0.11329841613769531, 0.08277395367622375, -0.07764268666505814, 0.004354940261691809, -0.23735594749450684, -0.07551291584968567, -0.15988217294216156, -0.04391121864318848, -0.03469811752438545, -0.09770756959915161, -0.1255396455526352, -0.19846314191818237, 0.1743883192539215, 0.27162355184555054, -0.02113521471619606, 0.011450190097093582, -0.26297619938850403, 0.09602273255586624, -0.010138518176972866, -0.09500566124916077, -0.0810716301202774, -0.2919481098651886, -0.2115408331155777, -0.07556590437889099, -0.0035615216474980116, -0.24699974060058594, 0.11752891540527344, -0.13866782188415527, 0.01823292300105095, 0.2077629566192627, 0.14649364352226257, 0.20112866163253784, 0.07374110817909241, 0.01989922486245632, -0.11311106383800507, 0.05989423394203186, -0.12836854159832, -0.0960497260093689, 0.3316243886947632, 0.08355531096458435, 0.07864940911531448, 0.019535401836037636, 0.10054119676351547, 0.0614236444234848, 0.15775926411151886, 0.008562392555177212, 0.027923358604311943, -0.10114212334156036, -0.42119547724723816, -0.13469411432743073, 0.3509523868560791, -0.1943575143814087, 0.5525904297828674, -0.6664294600486755, -0.4170781672000885, -0.39549076557159424, 1.0149818658828735, -0.7016105055809021, -0.8379818201065063, -0.7916255593299866, 0.2285258173942566, -0.9237633943557739, 0.1906447410583496, -0.5567751526832581, -0.22556211054325104, 0.12370246648788452, 0.06496469676494598, 0.1428394764661789, 0.29236388206481934, 0.0912758857011795, -0.31079813838005066, 0.12400826811790466, -0.09049465507268906, 0.2981624901294708, 0.0772952139377594, 0.23435337841510773, 0.18246515095233917, 0.050328485667705536, 0.03240867704153061, 0.10618521273136139, 0.12283293157815933, -0.11321990936994553, -0.09865687042474747, 0.0050703389570117, -0.27930620312690735, 0.02122693881392479, 0.03406345471739769, -0.46033716201782227, 0.4292527437210083, -0.11566814035177231, 0.08848895132541656, -0.0019643735140562057, 0.11669149249792099, -0.20027028024196625, -0.14779597520828247, 0.2866940200328827, -0.15157054364681244, -0.10214082151651382, 0.006406786851584911, 0.1947503536939621, 0.10480330884456635, 0.1508178561925888, -0.10492945462465286, 0.06536293029785156, 0.0044289943762123585, 0.25344061851501465, -0.3230619728565216, -0.25933247804641724, 0.06270625442266464, 0.1533743143081665, 0.16933466494083405, 0.05089772865176201, 0.2626609802246094, 0.3291751742362976, -0.3391457796096802, -0.281293660402298, -0.2504609525203705, -0.059662312269210815, -0.11111047863960266, -0.15287715196609497, -0.012055187486112118, -0.15850815176963806, 0.13248558342456818, 0.46841415762901306, 0.10841307044029236, -0.10551055520772934, -0.1305367648601532, 0.014552893117070198, 0.5756006240844727, 0.058774929493665695, -0.09847099334001541, -0.051541347056627274, 0.2605033218860626, 0.009323645383119583, -0.20742453634738922, 0.15501132607460022, 0.2052241563796997, 0.15604737401008606, -0.24581973254680634, 0.0976695641875267, -0.17985214293003082, -0.6548731327056885, -0.2535196542739868, -0.412905752658844, -0.05316365882754326, -0.13626769185066223, -0.15716752409934998, -0.18170234560966492, 0.2160702794790268, -0.23809659481048584, 0.04746759682893753, -0.003861101344227791, -0.015701251104474068, 0.1716521978378296, -0.16678762435913086, -0.23289218544960022, -0.28094571828842163, -0.19953693449497223, 0.08061165362596512, -0.059877969324588776, -0.11294299364089966, -0.21530817449092865, 0.02502312697470188, -0.3064889907836914, 0.13402073085308075, 0.29351896047592163, -0.3708480894565582, -0.41693007946014404, 0.432110995054245, -0.13258539140224457, -0.09171205759048462, 0.2578587830066681, 0.20096343755722046, -0.3066267967224121, -0.25897759199142456, 0.28613126277923584, -0.07292308658361435, -0.14378076791763306, 0.13403981924057007, 0.2252582162618637, 0.21215003728866577, -0.01305441651493311, -0.19689680635929108, 0.12673069536685944, -0.20233488082885742, 0.18374896049499512, -0.3800343871116638, 0.12436217069625854, -0.15070222318172455, 0.1653084009885788, 0.23549692332744598, -0.06255141645669937, 0.14368866384029388, 0.24413055181503296, -0.3814567029476166, -0.12365684658288956, -0.348117858171463, -0.0924103707075119, -0.12236983329057693, -0.24572791159152985, 0.18085846304893494, 0.028215935453772545, 0.3372879922389984, -0.24943360686302185, 0.0033894628286361694, 0.05169393867254257, -0.2414945363998413, 0.45471927523612976, -0.2616761028766632, -0.3488052189350128, -0.17921185493469238, 0.27531975507736206, 0.16371706128120422, -0.11051148921251297, 0.04901398345828056, -0.07691502571105957, -0.13007952272891998, 0.09904006123542786, 0.16469286382198334, 0.3713913857936859, 0.11328629404306412, -0.020694252103567123, 0.0049096508882939816, -0.10879716277122498, -0.5101091265678406, -0.3252675235271454, -0.2519305348396301, 0.12163286656141281, 0.26519131660461426, 0.051672693341970444, -0.20877084136009216, 0.18755556643009186, 0.3252190351486206, 0.7593165040016174, -0.29586923122406006, 0.26534968614578247, 0.41490069031715393, 0.22356879711151123, 0.23753400146961212, 0.27620312571525574, 0.1979285180568695, 0.5445374846458435, -0.24749501049518585, -0.1517418473958969, -0.23166465759277344, -0.25976184010505676, 0.33082881569862366, 0.11842706799507141, -0.2511422634124756, 0.14136004447937012, 0.2622198462486267, -0.2148348093032837, -0.12066137045621872, 0.1235184594988823, 0.09308543801307678, -0.16928064823150635, -0.6817395091056824, -0.24052074551582336, -0.18417541682720184, 0.191162109375, 0.0767071396112442, 0.03500894829630852, -0.027543406933546066, 0.17578066885471344, 0.012641307897865772, -0.30165550112724304, 0.01644931547343731, -0.007866235449910164, 0.36415237188339233, -0.06592980772256851, 0.09188155084848404, 0.36883318424224854, -0.05757438391447067, 0.010727332904934883, -0.41710779070854187, 0.20757824182510376, -0.24714525043964386, 0.18089736998081207, -0.18178854882717133, -0.33745211362838745, 0.6852187514305115, 0.38179337978363037, 0.060658857226371765, 0.02962017059326172, 0.4798271954059601, -0.19830459356307983, -0.19699834287166595, 0.22467073798179626, -0.027947166934609413, 0.38142624497413635, 0.23863357305526733, -0.23713406920433044, -0.21501648426055908, -0.20780383050441742, 0.26258742809295654, 0.21971271932125092, -0.6907405853271484, 0.027529245242476463, -0.28708669543266296, 0.22437593340873718, -0.41982102394104004, 0.20218098163604736, 0.29989194869995117, -0.07302270829677582, -0.051009830087423325, -0.19497960805892944, -0.14332260191440582, -0.12831135094165802, -0.36370670795440674, 0.18406574428081512, -0.1603730469942093, 0.159370556473732, 0.060283660888671875, -0.28150099515914917, 0.32933610677719116, 0.4197772145271301, -0.17051421105861664, 0.9492180347442627, -0.15065956115722656, -0.09349606186151505, -0.13403096795082092, -0.14786101877689362, 0.04568728432059288, -0.05726847052574158, 0.028486991301178932, -0.031977683305740356, 0.15914766490459442, 0.3208133578300476, 0.002548332791775465, 0.06778571009635925, 0.07320625334978104, -0.206691175699234, -0.09375613927841187, -0.31787487864494324, -0.016521118581295013, -0.03894377499818802, 0.15986773371696472, 0.040940117090940475, -0.019771793857216835, -0.25488173961639404, -0.17608699202537537, -0.06368552893400192, 0.21136145293712616, 0.1879531890153885, 0.2264072299003601, -0.04380711540579796, -0.09013184905052185, -0.009833642281591892, 0.24768270552158356, -0.02103319764137268, -0.15038460493087769, 0.07536331564188004, -0.048020895570516586, -0.08600528538227081, -0.007916993461549282, 0.04216805100440979, 0.051690950989723206, 0.12049007415771484, 0.06005403771996498, -0.09736724197864532, -0.160657599568367, 0.16905099153518677, 0.06982941925525665, 0.004732139874249697, 0.01801171526312828, -0.11066244542598724, 0.05349239706993103, -0.07161474227905273, -0.19448252022266388, -0.43799540400505066, -0.01665828749537468, -0.21229934692382812, 0.036336444318294525, -0.042980216443538666, 0.08171917498111725, -0.11724161356687546, 0.1744554191827774, 0.016344161704182625, 0.20829147100448608, 0.005469772964715958, -0.18618902564048767, 0.12246158719062805, 0.380708247423172, 0.34960752725601196, -0.029421932995319366, -0.04624741151928902, -0.029912715777754784, -0.010259050875902176, 0.15550202131271362, -0.18764236569404602, 0.23802420496940613, 0.09454993903636932, 0.06375189125537872, 0.0009697955101728439, -0.13124626874923706, -0.12761208415031433, 0.21811418235301971, 0.05473020672798157, 0.18760506808757782, -0.11595231294631958, 0.02484171837568283, -0.11006597429513931, 0.16191823780536652, -0.003647608682513237, 0.19511298835277557, -0.15917900204658508, -0.08811444044113159, -0.055096764117479324, 0.13749483227729797, -0.04665471985936165, -0.1434934437274933, 0.04950745403766632, 0.15350666642189026, 0.09878075867891312, 0.16805048286914825, 0.023309750482439995, 0.14151570200920105, 0.1324121206998825, -0.35096046328544617, 0.04079617187380791, 0.010150205343961716, 0.1829160749912262, -0.011617480777204037, 0.02049410715699196, 0.02550092339515686, -0.17349469661712646, -0.07186634093523026, -0.004014473408460617, 0.23494616150856018, 0.38206005096435547, 0.21030989289283752, 0.02973676659166813, 0.17724207043647766, -0.04769694805145264, -0.004192247986793518, 0.25605371594429016, 0.032412026077508926, 0.0032156489323824644, 0.20923326909542084, -0.20707696676254272, 0.013404970988631248, -0.13995341956615448, -0.07257406413555145, 0.09187408536672592, -0.23055563867092133, -0.1465732753276825, 0.1817840337753296, 0.12641197443008423, 0.2029530256986618, 0.06898359954357147, 0.05027138441801071, 0.13086973130702972, 0.0392693430185318, -0.06848752498626709, 0.12192529439926147, 0.03017721325159073, 0.0747317373752594, -0.1569800078868866, -0.046637460589408875, -0.16863130033016205, -0.025026673451066017, -0.22515681385993958, 0.006828869692981243, -0.0332413949072361, -0.06183324009180069, 0.2212858498096466, -0.10859152674674988, 0.10130857676267624, 0.09942018240690231, -0.061457592993974686, 0.04789967089891434, -0.0036124736070632935, -0.11108188331127167, -0.0022520506754517555, -0.03353829309344292, -0.17285077273845673, -0.002256762934848666, -0.3248427212238312, 0.18265005946159363, 0.09838804602622986, 0.07507017999887466, 0.06601838022470474, 0.0767008364200592, 0.09893444925546646, 0.17449697852134705, -0.06668226420879364, 0.23182936012744904, 0.12395087629556656, -0.1739097237586975, 0.23921340703964233, -0.051416538655757904, -0.1973496824502945, 0.06464040279388428, 0.03156299516558647, 0.05026807636022568, -0.11402589082717896, -0.004473010543733835, 0.25565025210380554, 0.22577004134655, 0.07690873742103577, -0.2322314828634262, -0.12616296112537384, 0.10968882590532303, 0.22657619416713715, 0.07482802867889404, -0.11333544552326202, -0.10126697272062302, -0.18533293902873993, -0.017603674903512, -0.05645310506224632, 0.08999128639698029, 0.10559190809726715, -0.08121783286333084, 0.19185681641101837, -0.6399419903755188, -0.22739876806735992, 0.17514631152153015, 0.08767847716808319, -0.1210973858833313, 0.27666640281677246, 0.03375266119837761, -0.03706224262714386, -0.13111703097820282, -0.19839809834957123, 0.3111169636249542, -0.147594153881073, -0.04321020469069481, -0.3159755766391754, -0.03957762196660042, -0.14790980517864227, 0.09716780483722687, -0.25224897265434265, 0.08494112640619278, 0.17642571032047272, -0.06749217212200165, 0.20984198153018951, 0.10306884348392487, -0.06516522169113159, 0.27982380986213684, 0.04358387738466263, 0.03764909878373146, -0.02841370739042759, -0.10458827763795853, 0.06546636670827866, -0.035119228065013885, -0.1853320151567459, -0.23108318448066711, -0.12409911304712296, 0.18768154084682465, 0.031054584309458733, -0.23546239733695984, -0.12920476496219635, -0.07055217027664185, 0.05913085490465164, 0.29962989687919617, 0.10360019654035568, 0.01781230978667736, -0.07654475420713425, -0.10374238342046738, 0.05629492923617363, 0.12789228558540344, -0.08115865290164948, 0.6315262913703918, 0.1449177861213684, -0.15404044091701508, 0.04138431325554848, 0.11094031482934952, -0.15085139870643616, -0.03203776478767395, 0.3306531608104706, 0.214265376329422, -0.051826123148202896, -0.06925603002309799, -0.39436861872673035, -0.06028527393937111, 0.028263689950108528, 0.05171879008412361, -0.037508077919483185, -0.17403900623321533, 0.10015043616294861, -0.092835932970047, -0.10591219365596771, -0.17225298285484314, 0.0069470652379095554, -0.22599001228809357, -0.03830348700284958, -0.03628167510032654, 0.06568440049886703, 0.1731472611427307, 0.030474180355668068, 0.12923558056354523, -0.13943134248256683, -0.17333754897117615, 0.14514553546905518, -0.09594473242759705, -0.01626884751021862, -0.12140334397554398, -0.20626142621040344, -0.20039580762386322, 0.10780581086874008, 0.07796403020620346, 0.059111692011356354, -0.16453692317008972, -0.014620054513216019, -0.02645041048526764, 0.1138712540268898, 0.015918375924229622, 0.04715638607740402, -0.015566440299153328, -0.0003724611597135663, 0.23156628012657166, 0.10562712699174881, 0.14418357610702515, -0.10678248107433319, -0.20231293141841888, 1.3874144315195736e-05, 0.05542434751987457, -0.02616252936422825, -0.04440174624323845, 0.06484557688236237, 0.07105375826358795, 0.16628924012184143, 0.040259089320898056, -0.06990303099155426, -0.19980132579803467, -0.10945125669240952, 0.03435231000185013, -0.008386781439185143, -0.01036303024739027, 0.02560579776763916, 0.1496560126543045, 0.10793320834636688, 0.050170913338661194, -0.09313300251960754, 0.03901846706867218, 0.07725715637207031, -0.09995441883802414, -0.18009023368358612, 0.13802792131900787, 0.017514517530798912, 0.11219525337219238, -0.009602285921573639, 0.027479257434606552, -0.062133610248565674, 0.05941721051931381, 0.22247673571109772, 0.17144417762756348, -0.06687026470899582, -0.21174117922782898, -0.052653249353170395, 0.1152053028345108, -0.1034414991736412, 0.2161862850189209, -0.14395570755004883, -0.15628014504909515, 0.0597899965941906, -0.01585429161787033, 0.05234181508421898, -0.0463404580950737, -0.10736749321222305, -0.1610802859067917, -0.10654022544622421, 0.14837735891342163, -0.07556384801864624, -0.04500298202037811, 0.09809069335460663, -0.1898692101240158, -0.08091025799512863, -0.04380880668759346, 0.04631423205137253, -0.11048690229654312, 0.12367260456085205, 0.14598238468170166, 0.2521114647388458, -0.11204071342945099, 0.2365967482328415, 0.261485755443573, -0.0006977875018492341, -0.05700118839740753, 0.24841897189617157, -0.12841656804084778, -0.05624864622950554, 0.05910412594676018, 0.01252215076237917, -0.07339197397232056, 0.04904647916555405, -0.03827008232474327, -0.13419485092163086, 0.006087243091315031, 0.10858368128538132, -0.06368526816368103, 0.042751796543598175, -0.08924610167741776, -0.3463228642940521, -0.05303580313920975, -0.01917680911719799, 0.06843248009681702, 0.11950169503688812, -0.1922067552804947, -0.14921504259109497, 0.055835966020822525, -0.12354310601949692, 0.07313185185194016, 0.025337519124150276, -0.19888480007648468, -0.035100266337394714, -0.07894140481948853, -0.0726211741566658, 0.2736658751964569, 0.21464914083480835, 0.04991484433412552, 0.07119349390268326, 0.10185259580612183, -0.14460738003253937, 0.01828162372112274, -0.2110939770936966, 0.14543256163597107, -0.16263778507709503, 0.5252426266670227, 0.15179532766342163, -0.43750888109207153, -0.14000187814235687, -0.13416066765785217, -0.2241956740617752, 0.03810815140604973, -0.01108942274004221, -0.18213093280792236, 0.24182815849781036, 0.022882452234625816, 0.19893981516361237, 0.041958559304475784, 0.05534535273909569, 0.1728539615869522, 0.03842689469456673, 0.07466260343790054, -0.021821262314915657, -0.20421361923217773, -0.0648583248257637, -0.07524610310792923, 0.24778026342391968, 0.002317893784493208, -0.0794982761144638, -0.09325022995471954, 0.031790316104888916, 0.13718600571155548, -0.06553715467453003, 0.08335591852664948, -0.06131662055850029, 0.2676599621772766, 0.09742244333028793, -0.3538017272949219, 0.6520596742630005, -0.3273930251598358, 0.6860013604164124, -0.15642252564430237, 0.08520203828811646, -0.41211873292922974, 0.23379063606262207, -0.19770783185958862, -0.2387567013502121, 0.16428011655807495, 0.055517204105854034, 0.652040421962738, -0.2721858322620392, -0.21412938833236694, -0.10046172142028809, 0.03915010765194893, 0.37885138392448425, -0.20120719075202942, -0.17844904959201813, -0.06667441874742508, -0.09768505394458771, 0.050546180456876755, 0.20096474885940552, -0.10944580286741257, 0.01609169691801071, 0.15536946058273315, -0.19439974427223206, 0.07966094464063644, -0.05101008713245392, -0.0448923222720623, -0.14590491354465485, 0.0537097305059433, 0.02976224385201931, -0.07817928493022919, -0.18283522129058838, -0.2376115620136261, -0.08207523822784424, -0.026667630299925804, 0.17712798714637756, -0.23481422662734985, -0.15961091220378876, -0.1574520319700241, -0.011471914127469063, 0.17769969999790192, 0.1879245638847351, -0.1768079400062561, -0.05430883914232254, -0.08406515419483185, -0.016878481954336166, 0.007520421873778105, -0.2360529601573944, 0.8059820532798767, -0.24026897549629211, -0.1550382375717163, -0.07952983677387238, 0.03719570115208626, -0.19091913104057312, -0.17772653698921204, 0.1794792115688324, 0.06270390748977661, 0.2871246337890625, -0.3185846507549286, 0.08042921870946884, 0.11696545779705048, 0.17658786475658417, 0.07981885969638824, -0.028113607317209244, 0.06918919086456299, 0.04031401127576828, -0.07449395209550858, 0.149635449051857, 0.16173920035362244, -0.40356260538101196, -0.07567161321640015, -0.025224661454558372, 0.16263650357723236, 0.07982870936393738, 0.01194132212549448, 0.03614499419927597, 0.23709039390087128, -0.03884942829608917, 0.036324407905340195, -0.08718615770339966, 0.06662066280841827, 0.2689225375652313, -0.07725835591554642, 0.10441489517688751, 0.01928306370973587, -0.0008640536107122898, 0.0017276429571211338, 0.06316183507442474, 0.027191583067178726, -0.09038611501455307, -0.04616878181695938, 0.05163612589240074, -0.0425557866692543, -0.5001541972160339, 0.12414436787366867, -0.16979292035102844, -0.3372590243816376, -0.13838236033916473, 0.232114776968956, 0.1306225210428238, 0.1324840635061264, 0.20692503452301025, -0.24002455174922943, -0.0028021149337291718, -0.26311054825782776, 0.5646116137504578, -0.010701855644583702, 0.23305635154247284, 0.5111715793609619, 0.0789320319890976, 0.2762933373451233, -0.08601079881191254, 0.32674840092658997, 0.17212994396686554, -0.17220300436019897, 0.18086516857147217, 0.11159166693687439, -0.11612821370363235, 0.2644861340522766, -0.216692253947258, 0.07545104622840881, 0.17525304853916168, -0.37273186445236206, 0.07130671292543411, 0.28611403703689575, -0.0006658381898887455, -0.006047234870493412, -0.09394329786300659, 0.044226277619600296, -0.027805637568235397, 0.2040148377418518, 0.2597055435180664, -0.017691656947135925, -0.1653394252061844, -0.32294827699661255, -0.035647351294755936, -0.09965015202760696, 0.030993549153208733, -0.11115769296884537, -0.22719594836235046, 0.2721475660800934, -0.5031594038009644, 0.1468968391418457, -0.4664125144481659, 0.17084529995918274, 0.06624825298786163, 0.16162852942943573, -0.1967034488916397, 0.07545187324285507, 0.05881544202566147, -0.3222666382789612, 0.2439652979373932, -0.4317827820777893, 0.04833952337503433, 0.06747642159461975, 0.35511526465415955, -0.1280180662870407, -0.6498391628265381, -0.03945353254675865, -0.09575995802879333, 0.17614983022212982, 0.2695031762123108, 0.03451593220233917, -0.06669944524765015, -0.005609357729554176, -0.32616469264030457, -0.07874777168035507, -0.010670877993106842, -0.09899234026670456, -0.02592768520116806, 0.15498004853725433, 0.08790458738803864, 0.03831874206662178, 0.008289129473268986, 0.17366768419742584, 0.06675098091363907, -0.04718310385942459, 0.1702028214931488, -0.09844118356704712, 0.05807553976774216, 0.022154895588755608, 0.0007881984929554164, 0.11935149133205414, -0.24320894479751587, 0.03908277675509453, -0.3101467192173004, -0.07033843547105789, -0.05994005501270294, 0.09929516911506653, 0.119721420109272, 0.04722276329994202, 0.2304481565952301, -0.31798699498176575, 0.16697824001312256, -0.10636157542467117, 0.00437916861847043, 0.04716505855321884, 0.11693266779184341, 0.01361317839473486, 0.022507335990667343, -0.20720791816711426, 0.03856778144836426, -0.03946824371814728, 0.34231528639793396, -0.0019584116525948048, -0.12292271852493286, 0.01242681872099638, -0.05309339985251427, -0.09797438979148865, 0.24112699925899506, -0.03484848141670227, -0.0629488080739975, 0.19547683000564575, 0.0063459668308496475, -0.0859440267086029, 0.015374386683106422, -0.03442345932126045, 0.1495101898908615, -0.12309019267559052, 0.3578321933746338, -0.13765288889408112, -0.1574801504611969, -0.013777201995253563, -0.10938891768455505, 0.10013669729232788, 0.09065703302621841, 0.03442161902785301, -0.09201007336378098, 0.05244340002536774, -0.0760103389620781, 0.1437349021434784, 0.005384228192269802, 0.008669144473969936, -0.04659256339073181, -0.0628613531589508, 0.22269141674041748, -0.10563229024410248, -0.16854335367679596, 0.0099068284034729, 0.16239482164382935, -0.173373743891716, 0.07789472490549088, -0.009143282659351826, 0.07529962807893753, -0.016986411064863205, 0.14887657761573792, 0.12870721518993378, -0.14030130207538605, -0.1761522889137268, -0.07814867794513702, 0.06720957159996033, -0.12654967606067657, -0.05870748683810234, 0.34656471014022827, 0.162758931517601, 0.24503439664840698, 0.08662489056587219, 0.20118719339370728, 0.1162848249077797, -0.018281904980540276, 0.12470581382513046, -0.054523807018995285, -0.02582680433988571, -0.0062339152209460735, -0.15909036993980408, -0.0023714788258075714, 0.06258218735456467, 0.010075966827571392, -0.2791132628917694, 0.017188243567943573, 0.07968682795763016, -0.019154565408825874, -0.024120213463902473, 0.09953174740076065, -0.1803482323884964, -0.10012906044721603, 0.044098757207393646, 0.06506418436765671, 0.15404146909713745, -0.2225939780473709, -0.021517006680369377, -0.003958059009164572, -0.060526419430971146, 0.07643935829401016, 0.04102057218551636, -0.03876514732837677, 0.039858829230070114, 0.14814478158950806, -0.13111358880996704, -0.09472265839576721, -0.041955236345529556, -0.04574321582913399, -0.11621082574129105, -0.00855204463005066, -0.09014033526182175, -0.11211653053760529, -0.07936931401491165, -0.2764398157596588, 0.2142426073551178, -0.058733437210321426, -0.04718616604804993, -0.11488274484872818, -0.007577653508633375, 0.2044447809457779, 0.27937790751457214, -0.17252711951732635, -0.0033584623597562313, 0.2386951893568039, -0.15059447288513184, 0.32802265882492065, 0.18223796784877777, -0.18685020506381989, 0.14319494366645813, 0.1714814156293869, 0.03480441868305206, 0.16498854756355286, -0.038544781506061554, 0.1915254145860672, -0.11669613420963287, -0.16627685725688934, -0.01598384790122509, -0.03495398536324501, 0.14708860218524933, 0.15668368339538574, 0.014250949956476688, 0.05333476886153221, -0.11420492827892303, 0.050208915024995804, 0.04421151429414749, -0.08472034335136414, -0.15886139869689941, -0.2115139365196228, -0.13608889281749725, -0.011100638657808304, 0.09231054037809372, -0.24050743877887726, 0.30091390013694763, -0.08318605273962021, -0.2015121430158615, 0.15745049715042114, 0.022048315033316612, -0.14147047698497772, 0.12392343580722809, 0.12361836433410645, 0.3522864580154419, 0.05497099086642265, -0.1094113141298294, 0.13352099061012268, -0.739210307598114, 0.14618627727031708, 0.12233686447143555, 0.08927331119775772, -0.08688277006149292, -0.1515337973833084, 0.07396509498357773, 0.04743858799338341, -0.0918668732047081, -0.09621263295412064, 0.19378970563411713, 0.011083776131272316, 0.04897274449467659, -0.1681629866361618, -0.13153348863124847, 0.10237666219472885, -0.02991415373980999, -0.13382987678050995, -0.32561782002449036, -0.5649040937423706, 0.9177077412605286, 0.4971417486667633, -0.692980170249939, 0.2337939590215683, -0.12056363373994827, -0.020064957439899445, 0.6222211122512817, -0.8433036804199219, 0.8259314298629761, 0.5563043355941772, -0.03840719535946846, -0.4077494144439697, 0.32162943482398987, -0.7826732397079468, 0.23533838987350464, -0.2660612165927887, -0.04751509800553322, -0.3626656234264374, 0.3396236002445221, 0.15921801328659058, 0.23988023400306702, 0.052928853780031204, 0.17952239513397217, 0.3545486330986023, 0.05921219661831856, 0.14330899715423584, -0.33441710472106934, -0.1185062974691391, -0.29129600524902344, 0.07234890758991241, 0.29226434230804443, 0.020936138927936554, -0.07375120371580124, -0.03203694894909859, 0.3036704361438751, 0.047780461609363556, -0.05617114156484604, -0.3549054265022278, -0.2145085632801056, 0.2807052731513977, 0.05936131998896599, 0.08525940030813217, 0.1152520477771759, 0.22751325368881226, -0.10443414747714996, -0.16525797545909882, -0.01996418833732605, -0.20627754926681519, 0.2641032338142395, -0.6240265965461731, 0.2808386981487274, -0.2856212258338928, 0.2488728165626526, -0.27993589639663696, -0.1918187439441681, 0.5064716339111328, -0.24669291079044342, 0.3199101388454437, 0.23885898292064667, -0.3610433340072632, 0.008623079396784306, 0.17647959291934967, 0.3820023238658905, 0.03131535276770592, 0.13721558451652527, -0.07539790868759155, -0.27899831533432007, 0.18699708580970764, -0.11876377463340759, 0.24166728556156158, 0.10023031383752823, -0.06642754375934601, 0.45281654596328735, 0.3362225592136383, 0.02916048653423786, 0.09953296929597855, 0.09945858269929886, -0.04545002430677414, 0.3621579110622406, -0.177668958902359, 0.3927406966686249, -0.17426720261573792, 0.27198150753974915, -0.3286498785018921, 0.17893199622631073, -0.16718164086341858, 0.18549074232578278, 0.03835689276456833, 0.12567739188671112, 0.2813950479030609, -0.16712665557861328, -0.314907968044281, -0.00597970187664032, -0.00984138436615467, -0.09064506739377975, -0.20364731550216675, 0.05833173915743828, -0.04447398707270622, -0.17281872034072876, -0.16076362133026123, 0.15786385536193848, -0.04375705122947693, -0.3166608512401581, -0.32621774077415466, 0.11647262424230576, 0.18126116693019867, 0.15025199949741364, 0.1135072410106659, 0.2257809191942215, 0.04146125540137291, 0.27476072311401367, 0.11613018065690994, -0.14197522401809692, -0.0297183059155941, 0.21776160597801208, 0.041859354823827744, -0.023517237976193428, 0.0756775289773941, -0.3078758120536804, 0.21295107901096344, 0.16244255006313324, 0.08018119633197784, 0.017003022134304047, 0.04528259113430977, 0.032439690083265305, 0.18135111033916473, 0.2246064692735672, 0.29622676968574524, -0.08169882744550705, 0.1257501244544983, 0.17356255650520325, -0.30607926845550537, 0.21154826879501343, -0.1088409423828125, 0.08545607328414917, 0.013251854106783867, 0.23011860251426697, 0.23493875563144684, 0.12169689685106277, 0.1890357881784439, 0.1362272948026657, -0.11624471098184586, -0.3529978096485138, 0.2195957750082016, -0.02747495286166668, 0.11299627274274826, 0.1346723735332489, 0.13473369181156158, -0.17182648181915283, 0.06941927224397659, 0.009814905002713203, 0.2344980388879776, -0.22328394651412964, 0.203486368060112, -0.2034309208393097, -0.010620957240462303, -0.008969112299382687, 0.11036010086536407, 0.03836314007639885, -0.2439725697040558, -0.32260861992836, 0.3893921375274658, -0.1542266458272934, 0.30496978759765625, -0.2977561950683594, -0.07773107290267944, -0.11844517290592194, -0.13300001621246338, 0.2619968056678772, -0.15828020870685577, -0.021483030170202255, -0.14602500200271606, 0.11442356556653976, -0.0600554421544075, 0.6346828937530518, -0.27501699328422546, -0.2642196714878082, -0.2733323574066162, 0.2971573770046234, -0.1623365730047226, 0.1423257738351822, 0.03892767056822777, 0.15065495669841766, 0.2727167308330536, -0.33540210127830505, 0.10853220522403717, -0.22337765991687775, -0.41534239053726196, -0.07795655727386475, 0.5255629420280457, 0.20128488540649414, 0.11699660867452621, -0.14248405396938324, -0.05439341440796852, -0.1217823177576065, 0.2314702421426773, 0.22174382209777832, 0.1070965826511383, -0.07498879730701447, -0.10705123096704483, 0.0444871224462986, 0.08898412436246872, -0.4051675796508789, -0.16641785204410553, 0.02121669612824917, 0.041988860815763474, -0.5041954517364502, -0.346561998128891, -0.38249313831329346, -0.1377684324979782, 0.2440563440322876, 0.21897757053375244, -0.3298393487930298, -0.09003971517086029, 0.015298218466341496, 0.017071271315217018, -0.09332820773124695, 0.1515188217163086, -0.03618801385164261, -0.01527912076562643, -0.049497704952955246, 0.1669502854347229, -0.2766326665878296, 0.09077303111553192, -0.23787015676498413, -0.05844103917479515, -0.1732618659734726, 0.05278713256120682, 0.14672377705574036, -0.031998906284570694, -0.18555115163326263, 0.06135432794690132, 0.31836482882499695, -0.012188554741442204, -0.1945660412311554, 0.017841141670942307, -0.18044711649417877, 0.20104040205478668, -0.25220805406570435, 0.012393170036375523, 0.18049822747707367, -0.24545051157474518, -0.021008038893342018, -0.19883805513381958, 0.12041018903255463, -0.3912777006626129, 0.13769376277923584, 0.3032781481742859, -0.02086973376572132, 0.2822013199329376, 0.2797461748123169, -0.05195239186286926, -0.03372688218951225, -0.3449203073978424, 0.07189502567052841, -0.22661413252353668, -0.2152477204799652, -0.3688375949859619, -0.06556683778762817, 0.050620850175619125, 0.04051578417420387, -0.15061461925506592, -0.25464928150177, 0.6803604364395142, 0.4295532703399658, 0.5251650214195251, -0.28983983397483826, -0.2492905557155609, -0.2580040991306305, 0.19128604233264923, -0.024283086881041527, -0.0257999487221241, 0.10135947167873383, 0.13436882197856903, 0.015573937445878983, 0.12794411182403564, 0.1732168197631836, 0.148714080452919, -0.2220458835363388, -0.003713330952450633, 0.01889982260763645, 0.19861888885498047, -0.08618240803480148, 0.08168958127498627, -0.06426658481359482, -0.010028619319200516, 0.06885764002799988, -0.017230600118637085, -0.14258135855197906, 0.07811006903648376, 0.05858853459358215, -0.04860790818929672, -0.219171404838562, -0.030964277684688568, -0.023793546482920647, 0.11951378732919693, 0.15711817145347595, 0.021818857640028, -0.10280106961727142, -0.1604960709810257, 0.06086406856775284, -0.019911926239728928, -0.04499319568276405, 0.3075469732284546, 0.16943594813346863, 0.041241127997636795, -0.21097059547901154, -0.3508198857307434, 0.016020379960536957, 0.24380707740783691, 0.15194211900234222, -0.07904092967510223, -0.2624534070491791, -0.0691828727722168, 0.0697973445057869, 0.05622771009802818, -0.16815049946308136, 0.03338836506009102, -0.05195071920752525, 0.061635203659534454, 0.05624077469110489, -0.06485628336668015, -0.017873046919703484, 0.039119549095630646, -0.23506703972816467, 0.1089751347899437, 0.04022472724318504, -0.38110411167144775, -0.21088652312755585, -0.20868298411369324, 0.15226450562477112, -0.06839121878147125, 0.06982020288705826, -0.1049700379371643, 0.03156554326415062, 0.7851104736328125, -0.08823870867490768, 0.1919497847557068, 0.1998148262500763, -0.04931550845503807, 0.3671707510948181, 1.182122826576233, -0.28201255202293396, -0.24314798414707184, 0.23491987586021423, 0.12275103479623795, 0.316430926322937, 0.40680286288261414, 0.10034430027008057, 0.15039101243019104, -0.21763460338115692, -0.08399315923452377, -0.3478933870792389, 0.08870287239551544, -0.14267076551914215, -0.02662826143205166, -0.33635491132736206, -0.20717424154281616, -0.04539293423295021, 0.38286498188972473, 0.045979004353284836, 0.1895325928926468, -0.18259574472904205, 0.029141390696167946, 0.11294981837272644, 0.5141897797584534, 0.06477624922990799, 0.017797229811549187, 0.05362365022301674, -0.25423547625541687, -0.2665354311466217, 0.1298823207616806, -0.1155330091714859, -0.3668810725212097, 0.059881314635276794, -0.22769926488399506, 0.2520466148853302, 0.3597061336040497, -0.20977745950222015, 0.1732693463563919, 1.0764093399047852, -0.6399914622306824, -0.03967753052711487, -0.020153867080807686, -0.013318313285708427, 0.279070109128952, 0.0665520578622818, -0.22392280399799347, -0.14503610134124756, -0.18702912330627441, 0.3062434792518616, 0.04184240102767944, 0.02292780764400959, -0.16767939925193787, 0.05026841163635254, 0.014070654287934303, 0.052091360092163086, -0.22483789920806885, -0.17247433960437775, 0.16066814959049225, 0.11440213024616241, 0.15900105237960815, -0.1902872771024704, -0.09138891100883484, 0.01434139721095562, 0.2267216295003891, 0.09035518765449524, 0.044188544154167175, -0.07853716611862183, -0.0421997494995594, 0.004124619532376528, 0.1858808547258377, -0.032639577984809875, 0.23390527069568634, -0.013958343304693699, -0.019663142040371895, -0.20858195424079895, 0.08135290443897247, 0.027377426624298096, 0.106940858066082, -0.1247219666838646, 0.02311328426003456, 0.06590858101844788, -0.20219211280345917, 0.0498022697865963, -0.21432149410247803, 0.1588076800107956, -0.07896681129932404, 0.04258600249886513, 0.24399498105049133, 0.11451466381549835, 0.4145217835903168, -0.28847044706344604, 0.07258160412311554, 0.08970873057842255, 0.04792630672454834, 0.12124200165271759, 0.5208802223205566, -0.563008189201355, 0.012369327247142792, -0.03558075428009033, -0.19199389219284058, 0.008148884400725365, 0.07627258449792862, -0.09476767480373383, -0.09919852763414383, -0.18716976046562195, 0.17643001675605774, 0.2072499841451645, 0.052229467779397964, -0.042759619653224945, 0.020344547927379608, 0.010764624923467636, 0.23482480645179749, 0.0818057507276535, -0.15173546969890594, -0.2735491693019867, -0.21191446483135223, -0.012462892569601536, 0.18290165066719055, 0.14427508413791656, 0.47775664925575256, -0.143819198012352, 0.22375324368476868, 0.20450234413146973, 0.2319212108850479, 0.0014417137717828155, 0.2212604284286499, -0.23268111050128937, 0.10324589908123016, 0.12436221539974213, -0.26729816198349, -0.1214589923620224, 0.0023261208552867174, 0.1634487360715866, 0.024712465703487396, 0.38607481122016907, -0.3960253596305847, 0.2369575798511505, 0.11488816142082214, -0.06973908841609955, 0.1529959738254547, 0.07240087538957596, -0.029301879927515984, 0.045837029814720154, 0.3955918252468109, -0.010135183110833168, 0.20625488460063934, -0.06537403911352158, 0.12702356278896332, 0.0346989668905735, -0.09598207473754883, 0.18508216738700867, -0.2121443748474121, 0.06725203990936279, 0.1887616217136383, -0.10692440718412399, -0.09149941056966782, -0.02586381882429123, -0.0575391948223114, -0.07803390175104141, -0.0905207097530365, 0.07680350542068481, 0.233244851231575, -0.08278320729732513, -0.18361948430538177, -0.10396255552768707, 0.03318510577082634, 0.11144725233316422, 0.3008350729942322, -0.056384164839982986, -0.10594365000724792, -0.05646843463182449, -0.020361213013529778, -0.0569634735584259, 0.08769780397415161, -0.05985212326049805, -0.12580682337284088, -0.056318916380405426, -0.14112117886543274, -0.09624513983726501, -0.0796087235212326, 0.15551196038722992, 0.017485151067376137, -0.2826298177242279, 0.03427349776029587, 0.031134145334362984, 0.09102655202150345, -0.5214558839797974, 0.12949620187282562, 0.2708655595779419, 0.014138712547719479, 0.06226038932800293, 0.20419862866401672, -0.26792848110198975, -0.16465459764003754, -0.010341889224946499, -0.35491159558296204, 0.11698935180902481, 0.0024854354560375214, -0.2160821557044983, -0.22997675836086273, -0.35744374990463257, 0.06826471537351608, 0.08633196353912354, 0.022328341379761696, -0.11145063489675522, 0.09346221387386322, -0.2512606084346771, 0.05604429543018341, -0.11225952953100204, 0.17286080121994019, -0.24307546019554138, -0.20865057408809662, -0.1255655288696289, 0.16189706325531006, 0.05294220894575119, 0.05849061906337738, -0.30034300684928894, 0.12415283173322678, 0.10990575700998306, 0.08851762115955353, -0.04462319612503052, 0.029498860239982605, -0.2997974753379822, 0.04973193258047104, 0.015092228539288044, -0.17497290670871735, 0.03045651875436306, 0.12093876302242279, -0.09377903491258621, -0.14706823229789734, -0.1698923259973526, -0.5732768177986145, -0.022446874529123306, 0.14673709869384766, -0.15472251176834106, -0.16534075140953064, -0.06515169888734818, 0.2463989555835724, -0.05078259855508804, 0.1694640815258026, -0.1257961541414261, -0.19253912568092346, -0.1667270064353943, -0.06255889683961868, 0.018427899107336998, -0.056222423911094666, -0.029113667085766792, -0.023635711520910263, -0.1681695580482483, -0.012735921889543533, -0.03743502497673035, 0.015304776839911938, 0.060927607119083405, 0.28699561953544617, 0.100012868642807, -0.18104176223278046, -0.17237339913845062, 0.06929733604192734, 0.12882331013679504, 0.1673719435930252, -0.12052153795957565, -0.05986686050891876, 0.05555528774857521, 0.06727011501789093, -0.023936854675412178, -0.09829802811145782, -0.3598894476890564, 0.0839693695306778, 0.09638551622629166, -0.04301644116640091, -0.00540717551484704, -0.13215528428554535, 0.009508476592600346, 0.017166923731565475, 0.012686771340668201, -0.003142302157357335, -0.041385821998119354, 0.05214843153953552, -0.2261406034231186, -0.26855477690696716, -0.004404948092997074, -0.07272198796272278, -0.12072919309139252, 0.13715822994709015, 0.15981647372245789, 0.11770729720592499, -0.1408614069223404, -0.1464797407388687, 0.17764690518379211, -0.111854188144207, 0.30653801560401917, -0.07040278613567352, -0.08401162177324295, 0.41083240509033203, 0.02865750901401043, -0.0649564266204834, -0.13202261924743652, -0.014835070818662643, 0.02330545149743557, -0.04916416108608246, 0.04212599992752075, 0.03610118106007576, -0.11513981968164444, -0.06550144404172897, 0.08884771913290024, 0.10468938946723938, -0.059821728616952896, -0.020364882424473763, -0.05957571789622307, 0.1521608680486679, -0.05118459463119507, 0.02599414251744747, -0.08160845935344696, -0.053142353892326355, 0.015633679926395416, 0.1589353084564209, 0.10910698771476746, 0.025465527549386024, 0.08710549026727676, 0.06526503711938858, -0.04353773593902588, -0.1303272396326065, -0.04108354449272156, -0.1550031155347824, 0.12524139881134033, -0.1229572743177414, -0.04319445788860321, 0.052612707018852234, -0.06189928948879242, 0.15784762799739838, -0.016100088134407997, 0.38347622752189636, 0.07881177216768265, -0.07351069897413254, -0.22052042186260223, -0.137440025806427, 0.2597889006137848, 0.07561929523944855, 0.024715663865208626, -0.11845315992832184, -0.15250204503536224, 0.04628438875079155, 0.1138053759932518, -0.10069605708122253, 0.07510873675346375, 0.12026258558034897, 0.05030929669737816, -0.056374162435531616, -0.1661851853132248, -0.17213191092014313, -0.09805634617805481, 0.0016245567239820957, 0.11514993757009506, 0.03536868840456009, -0.1892995536327362, 0.0065193395130336285, 0.15388354659080505, -0.029021013528108597, -0.09447900205850601, -0.014355748891830444, -0.026574980467557907, 0.11397900432348251, 0.25660839676856995, 0.08466020971536636, 0.17300990223884583, -0.02330426685512066, -0.19862554967403412, 0.025709260255098343, 0.1414070576429367, -0.14445357024669647, 0.048057351261377335, 0.06845737248659134, 0.11819158494472504, 0.039964571595191956, -0.005941902752965689, 0.17436257004737854, -0.00037666416028514504, 0.12645608186721802, 0.04667051136493683, 0.13620813190937042, -0.12488093972206116, -0.28122055530548096, -0.08252187073230743, -0.0035454786848276854, 0.10001763701438904, 0.24233122169971466, 0.11666799336671829, -0.22737467288970947, -0.0979723110795021, 0.20157721638679504, -0.00909661315381527, -0.08231803774833679, 0.002663003746420145, 0.009954343549907207, 0.11856908351182938, 0.038991380482912064, -0.009038400836288929, 0.012706396169960499, -0.047637585550546646, 0.26480633020401, 0.13171544671058655, 0.04310400411486626, -0.15028437972068787, -0.07197289168834686, -0.01829451508820057, 0.2087412327528, -0.07022859156131744, 0.18331396579742432, 0.17019440233707428, -0.17433486878871918, -0.3178544342517853, -0.20205815136432648, 0.15612532198429108, 0.045924894511699677, -0.20963715016841888, -0.010819045826792717, 0.17970314621925354, -0.23318424820899963, -0.04152553156018257, -0.003399207256734371, -0.23680202662944794, 0.04595537111163139, 0.17489393055438995, 0.09576509892940521, 0.037574972957372665, -0.07010874897241592, 0.016382750123739243, 0.014153697527945042, -0.07479943335056305, 0.019802799448370934, -0.046212293207645416, 0.15121100842952728, 0.2296060472726822, 0.21505923569202423, 0.02556590922176838, -0.22043196856975555, -0.31500330567359924, -0.14224942028522491, 0.15213574469089508, 0.0981084406375885, 0.06325500458478928, 0.1366315335035324, 0.16046856343746185, 0.17002882063388824, -0.09072094410657883, 0.026101186871528625, -0.059532102197408676, 0.07509908825159073, 0.050093937665224075, 0.05357376113533974, -0.037300944328308105, -0.010967588983476162, 0.0362115278840065, 0.063011534512043, 0.05583219230175018, 0.2863163352012634, 0.04979679360985756, 0.06390116363763809, 0.009613397531211376, -0.1261959671974182, 0.04089736565947533, -0.049984198063611984, -0.04014558345079422, 0.01950591802597046, -0.02810647152364254, -0.023286957293748856, -0.14048892259597778, -0.16146637499332428, 0.1621362864971161, -0.0797542929649353, -0.04147540032863617, 0.027753062546253204, -0.026261338964104652, -0.006600330118089914, 0.0030961157754063606, 0.20756535232067108, 0.15773020684719086, -0.047455232590436935, -0.06038825213909149, -0.279953271150589, 0.22220806777477264, -0.010740776546299458, -0.16212646663188934, -0.05833502113819122, -0.23950888216495514, -0.18418870866298676, 0.0674772635102272, -0.09059103578329086, -0.10600340366363525, 0.15987035632133484, 0.2782382071018219, 0.08611340075731277, -0.07606392353773117, 0.18636049330234528, 0.21779204905033112, 0.4146915376186371, 0.013799604028463364, -0.1588275283575058, -0.17367225885391235, -0.3306202292442322, 0.24125109612941742, 0.3017495572566986, 0.04145634546875954, -0.1490883231163025, 0.01566315069794655, 0.009461781941354275, -0.18909671902656555, 0.13482937216758728, 0.1365824043750763, 0.16597692668437958, -0.1857164204120636, 0.24548444151878357, 0.03083597868680954, -0.0064124916680157185, -0.25203949213027954, -0.19471412897109985, 0.08756913989782333, -0.09196096658706665, 0.023758038878440857, 0.4350951313972473, 0.14468269050121307, 0.3436760902404785, -0.1631699800491333, 0.0006882165907882154, 0.1602722853422165, 0.18535912036895752, 0.15695255994796753, 0.3007773458957672, -0.29091206192970276, -0.28536680340766907, -0.08592899888753891, -0.17825448513031006, 0.08434432744979858, 0.10914448648691177, -0.015047537162899971, 0.1121412068605423, -0.15602131187915802, -0.040977537631988525, -0.08738645911216736, 0.20388217270374298, -0.04551583155989647, 0.12885919213294983, -0.03827742114663124, -0.029500598087906837, -0.19403228163719177, 0.08320947736501694, -0.2138725221157074, -0.051631901413202286, 0.1225002110004425, 0.10936155915260315, 0.0982307568192482, 0.2572561204433441, -0.16203634440898895, -0.1696750968694687, -0.18461637198925018, 0.3397248089313507, 0.045256730169057846, 0.1729307770729065, -0.016497481614351273, 0.1238352581858635, 0.09757183492183685, 0.02167876809835434, 0.0035755836870521307, -0.27789467573165894, 0.049282025545835495, 0.24976126849651337, 0.4769899249076843, 0.2116951197385788, -0.04819343239068985, -0.16474804282188416, 0.4737206995487213, 0.005126687698066235, 0.07758564502000809, 0.14392241835594177, -0.033128976821899414, -0.20394869148731232, 0.8699105978012085, 0.10100235044956207, -0.10899090021848679, 0.31321558356285095, 0.03257482498884201, -0.0684426799416542, 0.08481825143098831, 0.16692528128623962, 0.23841385543346405, 0.045735251158475876, -0.1330188512802124, 0.009746716357767582, 0.3175654709339142, -0.06479475647211075, 0.1509864181280136, -0.08714710175991058, -0.07172784209251404, -0.10756619274616241, 0.2576969861984253, 0.06018870696425438, 0.19398823380470276, -0.0922367125749588, -0.07482196390628815, -0.23305751383304596, 0.13574934005737305, -0.08139821887016296, -0.34791770577430725, 0.13258102536201477, 0.024998735636472702, -0.07318560779094696, 0.1015993133187294, -0.03672901168465614, -0.13548895716667175, 0.3015355169773102, -0.11578705161809921, -0.1369674652814865, 0.07612033933401108, 0.16580279171466827, 0.12294613569974899, 1.1166232824325562, 0.0062583619728684425, 0.01152936089783907, 0.2605377435684204, -0.27327024936676025, -0.09907959401607513, 0.13401928544044495, 0.13780471682548523, 0.10445224493741989, 0.07122839242219925, -0.24993084371089935, -0.05411018431186676, 0.32120150327682495, -0.08372219651937485, 0.0022871235851198435, -0.24809588491916656, 0.19022968411445618, -0.10538706928491592, -0.31260475516319275, -0.008310189470648766, -0.13966533541679382, 0.21459020674228668, 0.18137608468532562, 0.0324040949344635, -0.1405724287033081, -0.21818850934505463, 0.047353122383356094, 0.3154902160167694, 0.00938684307038784, 0.03943141922354698, -0.13448968529701233, 0.03881527855992317, -0.19751571118831635, 0.09444163739681244, 0.03429692983627319, -0.09619680792093277, -0.10103891044855118, -0.20367123186588287, 0.0179036445915699, 0.11694665998220444, -0.1465824544429779, 0.12266890704631805, 0.23233576118946075, -0.044441189616918564, 0.1628284752368927, -0.2750769853591919, 0.06951306760311127, 0.07259408384561539, 0.02821945957839489, -0.036646030843257904, 0.3166934549808502, 0.004624264780431986, -0.05884299427270889, 0.03765466436743736, -0.05335823819041252, -0.20269526541233063, 0.21804004907608032, 0.21757622063159943, 0.18007001280784607, 0.05668536201119423, 0.0028056392911821604, -0.13091892004013062, 0.016899414360523224, 0.09259447455406189, -0.15856395661830902, -0.10692043602466583, 0.18701422214508057, 0.06595464795827866, -0.034263044595718384, -0.21144410967826843, -0.18792185187339783, 0.13668464124202728, 0.0557229183614254, 0.2123567759990692, -0.001834792667068541, -0.09942130744457245, -0.17104880511760712, -0.029063383117318153, 0.242275208234787, -0.03088248148560524, 0.3868589699268341, -0.03050054796040058, 0.2645397186279297, 0.1661577969789505, 0.17215977609157562, -0.13748742640018463, -0.048896774649620056, -0.08021597564220428, -0.04485760256648064, 0.04739384353160858, -0.08709012717008591, 0.07338755577802658, 0.014565774239599705, 0.27918946743011475, 0.05615882948040962, 0.2843857407569885, 0.37259575724601746, -0.01187632791697979, -0.22081655263900757, 0.14959970116615295, -0.0323345921933651, 0.0535355806350708, 0.14878901839256287, -0.0331420823931694, -0.15101024508476257, 0.09731046110391617, 0.12546785175800323, 0.033203184604644775, 0.1589486002922058, 0.10639377683401108, 0.028208928182721138, 0.021445373073220253, 0.16231822967529297, 0.8538722395896912, -0.12454032897949219, 0.6335424184799194, -1.1338517665863037, -0.8851760029792786, -0.244059219956398, -0.24723656475543976, -0.32307079434394836, 0.39302101731300354, 0.6896916627883911, -1.0230118036270142, 0.7054015398025513, -0.6022223234176636, -0.5821582078933716, -0.09949345886707306, -0.32963207364082336, -0.35343217849731445, -0.20008967816829681, 0.010268344543874264, -0.15673719346523285, -0.039644889533519745, 0.19609975814819336, 0.2474895417690277, -0.1789705604314804, -0.4070967435836792, -0.10325422883033752, -0.26233530044555664, 0.010011667385697365, 0.09629230201244354, 0.07303503155708313, 0.3144935667514801, -0.010787878185510635, -0.11336682736873627, -0.06696469336748123, 0.13131104409694672, -0.3651321828365326, -0.036628663539886475, 0.022606948390603065, -0.0223514586687088, -0.1293075680732727, -0.0527917854487896, 0.05569233000278473, -0.13636177778244019, 0.07637552917003632, -0.09799164533615112, 0.3561986982822418, 0.3012150824069977, -0.031485117971897125, -0.12436146289110184, 0.1937655359506607, -0.3365541398525238, -0.07540003210306168, 0.13654197752475739, -0.06950509548187256, 0.1699611246585846, -0.20019106566905975, 0.2364269345998764, -0.4393981695175171, -0.6041021347045898, -0.41300490498542786, 0.06999531388282776, -0.20547232031822205, 0.13858261704444885, 0.11646363884210587, -0.15318261086940765, -0.026139771565794945, -0.15066179633140564, 0.3938441872596741, 0.16098731756210327, 0.24724963307380676, 0.26077938079833984, 0.04416196420788765, -0.28123578429222107, -0.09631889313459396, 0.041050419211387634, -0.13786284625530243, 0.1761867105960846, 0.19161874055862427, 0.062194012105464935, -0.045002762228250504, 0.2914866507053375, -0.12231622636318207, -0.041863150894641876, 0.10780714452266693, 0.07997521758079529, -0.10090406984090805, 0.16354955732822418, -0.26089784502983093, 0.04197448119521141, 0.29373228549957275, 0.10188708454370499, -0.01726236753165722, -0.19908134639263153, -0.23716628551483154, -0.2225303202867508, -0.06425685435533524, -0.2742028534412384, 0.04418943077325821, 0.15480196475982666, 0.3038949966430664, -0.08223193138837814, 0.21386149525642395, 0.00040375383105129004, -0.0608406625688076, 0.045414283871650696, 0.17434465885162354, -0.15526580810546875, 0.2315651774406433, 0.00586853688582778, -0.07258366793394089, -0.23231765627861023, 0.02856113575398922, -0.11627307534217834, -0.15198726952075958, -0.14406216144561768, -0.10727154463529587, -0.04945068806409836, -0.14024010300636292, 0.26231327652931213, 0.15921175479888916, -0.2786116898059845, -0.04555446282029152, -0.014990857802331448, -0.064457967877388, 0.03771088272333145, 0.08976851403713226, -0.008044750429689884, -0.22968780994415283, -0.2786468267440796, 0.3014484643936157, -0.12074517458677292, 0.14430174231529236, 0.18406157195568085, -0.17016376554965973, -0.029553916305303574, 0.3840359151363373, 0.2949628531932831, -0.18567511439323425, -0.04623592644929886, 0.0544046051800251, -0.19580987095832825, -0.09051539748907089, 0.1669418066740036, -0.25850626826286316, -0.26772817969322205, 0.09824992716312408, -0.10914355516433716, 0.10913798958063126, 0.14347903430461884, 0.09719827771186829, -0.21981549263000488, -0.09070674329996109, -0.07364542782306671, -0.0990762785077095, -0.08429776132106781, -0.05644505098462105, 0.1772724688053131, 0.07831478863954544, 0.012743472121655941, 0.09452981501817703, -0.04964481666684151, -0.04645629972219467, -0.010650286450982094, -0.024984119459986687, 0.05864601582288742, 0.1389113962650299, 0.361998051404953, -0.248653843998909, -0.7305111289024353, 0.1222727969288826, -0.05739249289035797, -0.11371184885501862, 0.14196884632110596, 0.0869990661740303, 0.12479592859745026, -0.043616946786642075, -0.22924832999706268, 0.17296072840690613, -0.28652605414390564, -0.1552964150905609, -0.18894162774085999, 0.06143656373023987, -0.04130761697888374, -0.17653517425060272, 0.127278670668602, 0.014345882460474968, -0.10098844021558762, -0.0941600650548935, -0.10798806697130203, 0.30415770411491394, 0.19321177899837494, -0.08319387584924698, 0.0687483474612236, 0.14404839277267456, -0.04756530001759529, -0.30474549531936646, -0.059406738728284836, -0.20100393891334534, -0.2663910984992981, 0.030511919409036636, -0.17660948634147644, 0.011602007783949375, 0.23210641741752625, 0.08814974874258041, -0.13363510370254517, 0.27431198954582214, -0.2841259241104126, -0.22737054526805878, 0.10517559945583344, 0.13400967419147491, 0.2760672867298126, 0.3216196596622467, -0.17004913091659546, 0.043118201196193695, -0.21102797985076904, 0.1901295781135559, 0.5824710726737976, 0.18724310398101807, -0.19928224384784698, 0.06460685282945633, -0.20952646434307098, -0.057352352887392044, -0.002668266650289297, -0.15915124118328094, -0.04606952145695686, 0.048351798206567764, -0.01925746165215969, 0.23288249969482422, 0.026165364310145378, 0.08594611287117004, -0.11583054810762405, 0.07253389060497284, -0.030238809064030647, 0.24429851770401, 0.19647596776485443, -0.008432670496404171, -0.21876788139343262, -0.26697006821632385, -0.17012912034988403, 0.10838786512613297, 0.3166273534297943, -0.03228592500090599, 0.1311332732439041, -0.01026723813265562, -0.21975018084049225, -0.24415633082389832, 0.04616241902112961, -0.037138648331165314, -0.09445242583751678, -0.0433945432305336, -0.40793266892433167, -0.05522828921675682, 0.041078243404626846, 0.03211163356900215, -0.2239786982536316, -0.030156807973980904, -0.23141205310821533, 0.07694205641746521, -0.6235778331756592, 0.05590003356337547, -0.35096803307533264, -0.04252990335226059, 0.05492310971021652, -0.17205055058002472, -0.48585399985313416, 0.06380309909582138, -0.41280922293663025, 0.01989973895251751, 0.006413425784558058, 0.0002844270202331245, 0.17946088314056396, 0.006127233151346445, -0.22152042388916016, 0.09105489403009415, 0.10089268535375595, -0.06309861689805984, -0.015049217268824577, -0.019655024632811546, 0.059659939259290695, 0.0726366937160492, -0.1862020492553711, 0.08715122938156128, 0.11415837705135345, 0.05341491103172302, -0.0464155413210392, -0.1701992005109787, -0.0012585347285494208, 0.20462749898433685, 0.05978403612971306, 0.11032738536596298, -0.38490810990333557, -0.0345001257956028, 0.3070458173751831, -0.16841426491737366, -0.00153514021076262, 0.2986249029636383, -0.7913464307785034, 0.11232499778270721, 0.20888328552246094, -0.11752311140298843, -0.010040701366961002, -0.02135206200182438, 0.08677374571561813, 0.0817098543047905, -0.051206037402153015, 0.39976999163627625, 0.08364984393119812, 0.11900945752859116, -0.11364016681909561, 0.13595901429653168, 0.1645049750804901, -0.3355780243873596, 0.08576857298612595, 0.022921500727534294, -0.13000763952732086, 0.16774873435497284, -0.18293924629688263, -0.14150694012641907, 0.02632465399801731, 0.1597522795200348, -0.5908332467079163, 0.009638623334467411, -0.3077930212020874, -0.21964183449745178, 0.11128886044025421, 0.16910435259342194, 0.01867712289094925, 0.09633275866508484, 0.0798100158572197, -0.17920932173728943, 0.021025536581873894, -0.19776122272014618, 0.2319556474685669, -0.09287991374731064, 0.29453083872795105, -0.48277047276496887, -0.052598822861909866, -0.005655933637171984, 0.12358053028583527, 0.03625980764627457, -0.07772324234247208, 0.12984007596969604, 0.020294882357120514, -0.03491680324077606, -0.022787069901823997, -0.1462051421403885, 0.040158744901418686, 0.18679113686084747, 0.13728727400302887, 0.02490861900150776, -0.02662622556090355, 0.15150931477546692, 0.0021298727951943874, -0.21548956632614136, -0.2017294317483902, 0.021097606047987938, 0.28980880975723267, 0.050035253167152405, 0.08890897035598755, -0.3411867022514343, -0.12609462440013885, 0.022443139925599098, 0.25214889645576477, -0.014544878154993057, -0.05987488478422165, -0.20030614733695984, 0.09025003761053085, -0.07898405194282532, 0.2187037616968155, -0.09406401962041855, 0.06869230419397354, 0.06314364820718765, -0.09739125519990921, -0.1450156718492508, 0.19342289865016937, -0.11204221844673157, -0.09734416753053665, 0.21000351011753082, 0.21285945177078247, 0.042853422462940216, -0.18623071908950806, 0.072575643658638, 0.02531559392809868, -0.11074691265821457, -0.021803073585033417, 0.2685427665710449, 0.07292430102825165, -0.048598114401102066, 0.19325178861618042, -0.018605589866638184, -0.00413060886785388, 0.3349979519844055, 0.07295525819063187, 0.006374291609972715, 0.41460245847702026, 0.1259557604789734, 0.04489205777645111, -0.17406202852725983, -0.1407536119222641, 0.205154150724411, -0.08941185474395752, 0.06468268483877182, -0.06376562267541885, -0.004517947789281607, -0.16348300874233246, 0.047812171280384064, -0.327278733253479, -0.11583870649337769, 0.07382822036743164, 0.11106819659471512, 0.006183854769915342, 0.41713544726371765, -0.4100784361362457, -0.06911074370145798, 0.025947246700525284, 0.16003602743148804, -0.01417470257729292, 0.08700884133577347, 0.08965439349412918, 0.02374505065381527, -0.2262500673532486, 0.0996008887887001, 0.07951824367046356, -0.12688834965229034, 0.20769914984703064, 0.11653013527393341, 0.22355686128139496, 0.034740056842565536, 0.07151004672050476, 0.385820209980011, 0.2176130712032318, -0.18734712898731232, -0.020587805658578873, -0.04133518412709236, 0.1072441041469574, -0.09622006863355637, -0.11900849640369415, -0.23110798001289368, 0.17356108129024506, 0.08092399686574936, 0.17552508413791656, 0.01226827036589384, -0.218096062541008, -0.017816830426454544, -0.03597097098827362, 0.06601864099502563, 0.10688989609479904, -0.17740847170352936, -0.14765311777591705, 0.11129193753004074, 0.2563283145427704, 0.051602866500616074, 0.11432767659425735, -0.18947236239910126, -0.2877159118652344, 0.032088130712509155, 0.008855977095663548, -0.08339392393827438, 0.04349628835916519, -0.08567936718463898, -0.1832583248615265, 0.27508580684661865, 0.06437230855226517, -0.032617051154375076, 0.05757700279355049, -0.12754952907562256, 0.11136673390865326, -0.051549989730119705, -0.027939895167946815, 0.17996756732463837, -0.2761106491088867, 0.03703740984201431, 0.34050115942955017, -0.15318195521831512, -0.11150965839624405, -0.09604542702436447, 0.09940840303897858, 0.05880769342184067, -0.1478610634803772, -0.037102650851011276, 0.08991265296936035, 0.33480003476142883, 0.09505563974380493, 0.011580019257962704, 0.11876029521226883, -0.025658298283815384, 0.27294543385505676, 0.08572071045637131, 0.036059074103832245, 0.11735232174396515, 0.297370046377182, -0.06827480345964432, 0.05102844536304474, -0.0032376914750784636, 0.20629385113716125, 0.09304213523864746, -0.1813921183347702, -0.024585707113146782, 0.17908541858196259, 0.1011912077665329, -0.10914210230112076, 0.07941098511219025, -0.05624030902981758, 0.050667598843574524, 0.1486896276473999, 0.14364884793758392, 0.05700420215725899, 0.32223770022392273, 0.48864075541496277, 0.07330746203660965, -0.10568498075008392, 0.12270762771368027, -0.13338054716587067, 0.046003203839063644, -0.6120181083679199, -0.09208875894546509, -0.2710835039615631, 0.08201872557401657, -0.040093760937452316, -0.06086122617125511, 0.14612556993961334, -0.15369634330272675, 0.011438468471169472, -0.21324995160102844, 0.14097394049167633, 0.04277987778186798, -0.05184050276875496, 0.0885000005364418, -0.1763359159231186, 0.04740335792303085, -0.1057053953409195, -0.058806609362363815, -0.059545598924160004, 0.21409155428409576, 0.07051923871040344, 0.057016875594854355, -0.2034214287996292, 0.03899771720170975, 0.01064014621078968, 0.08494500070810318, -0.08570577204227448, -0.01459522359073162, -0.1433873027563095, 0.012257114052772522, 0.05099116265773773, -0.07427805662155151, 0.09462673962116241, -0.09767471253871918, 0.029075386002659798, -0.5320090055465698, 0.10011989623308182, -0.1901317536830902, -0.08915825933218002, -0.1949690282344818, 0.050853289663791656, 0.2486305981874466, 0.0502854585647583, -0.31244218349456787, 0.04599597677588463, 0.06892058998346329, -0.04954047501087189, -0.16667048633098602, -0.2861292362213135, 0.1769387573003769, 0.0917845219373703, -0.0627259686589241, -0.09130341559648514, -0.2528385519981384, -0.16259092092514038, 0.02974902093410492, 0.13966470956802368, 0.25016677379608154, -0.244423970580101, 0.1816808432340622, 0.13242210447788239, -0.13251566886901855, 0.015426382422447205, -0.0051290239207446575, -0.010774369351565838, 0.05728849396109581, -0.1228146106004715, -0.08411862701177597, -0.02831599861383438, -0.15416479110717773, -0.1600000262260437, -0.07565247267484665, -0.21383784711360931, 0.07957296818494797, 0.1661359965801239, 0.21332567930221558, -0.145755335688591, 0.16722340881824493, 0.20857082307338715, 0.055319320410490036, 0.03883294016122818, 0.12569712102413177, 0.09575192630290985, -0.10402887314558029, -0.08461867272853851, 0.14820919930934906, -0.13692770898342133, -0.17726844549179077, 0.1901063174009323, 0.11168082058429718, 0.08934479206800461, -0.19569475948810577, -0.04321284592151642, 0.1305103451013565, 0.05082174018025398, -0.10853714495897293, 0.09103715419769287, 0.13651622831821442, -0.09835156798362732, 0.11317174136638641, 0.21019873023033142, 0.0005251251277513802, 0.08973255753517151, 0.15472355484962463, 