{"version": "0.5.4", "metadata": {"date": {"year": 2024, "month": 11, "day": 3, "hour": 22, "minute": 54, "second": 43}, "loudness": -12.828312873840332, "gain": 0.810175148271013, "name": "KDM SLAMMIN MESA/BOOGIE MARK IV", "modeled_by": "MADE BY KDM TRAINED BY SLAMMIN MOFO", "gear_type": "amp", "gear_make": "MESA/BOOGIE", "gear_model": "MARK IV", "tone_type": "hi_gain", "input_level_dbu": 9.0, "output_level_dbu": 9.0, "training": {"settings": {"ignore_checks": false}, "data": {"latency": {"manual": null, "calibration": {"algorithm_version": 1, "delays": [5], "safety_factor": 1, "recommended": 4, "warnings": {"matches_lookahead": false, "disagreement_too_high": false}}}, "checks": {"version": 3, "passed": true}}, "validation_esr": 0.015933307642303964}}, "architecture": "WaveNet", "config": {"layers": [{"input_size": 1, "condition_size": 1, "head_size": 8, "channels": 16, "kernel_size": 3, "dilations": [1, 2, 4, 8, 16, 32, 64, 128, 256, 512], "activation": "Tanh", "gated": false, "head_bias": false}, {"input_size": 16, "condition_size": 1, "head_size": 1, "channels": 8, "kernel_size": 3, "dilations": [1, 2, 4, 8, 16, 32, 64, 128, 256, 512], "activation": "Tanh", "gated": false, "head_bias": true}], "head": null, "head_scale": 0.02}, "weights": [-0.031954292207956314, 0.5841067433357239, -0.9484585523605347, -0.8111717104911804, -0.41085585951805115, 0.4917254149913788, -0.00110089429654181, 0.9033122062683105, -0.05151940509676933, 0.29379791021347046, -0.2992246747016907, -0.25686970353126526, -0.9332541227340698, -0.5925753712654114, -0.5277761816978455, 0.0014331006677821279, 0.09260145574808121, 0.028503376990556717, -0.005395188927650452, -0.14478148519992828, 0.15283872187137604, 0.03305197134613991, 0.05145945027470589, 0.002951659495010972, 0.06648803502321243, 0.09602262079715729, 0.027811570093035698, -0.047337137162685394, -0.008077004924416542, -0.13809190690517426, 0.03409884124994278, 0.0460265651345253, 0.02079147659242153, -0.15741877257823944, -0.11936260014772415, -0.16948437690734863, -0.18776869773864746, 0.04298345372080803, 0.16818508505821228, -0.018098341301083565, 0.09656413644552231, -0.15068253874778748, 0.09733304381370544, -0.21414658427238464, 7.759130676276982e-05, -0.15858086943626404, 0.16966447234153748, -0.01709427870810032, 0.020182274281978607, 0.07405015826225281, -0.012012118473649025, 0.22717192769050598, 0.13854311406612396, -0.07937370985746384, 0.18202847242355347, -0.003389645367860794, -0.06941129267215729, -0.027620386332273483, -0.019186265766620636, -0.1801726520061493, 0.15532523393630981, -0.03352352976799011, -0.16966867446899414, -0.17647340893745422, 0.04289892315864563, -0.1494344025850296, -0.09381967782974243, -0.025138316676020622, 0.06025388836860657, 0.1623811572790146, -0.049337923526763916, -0.021989090368151665, 0.03420554846525192, 0.1808435320854187, 0.1554681658744812, 0.10431716591119766, 0.08279382437467575, -0.10094114392995834, -0.014921707101166248, -0.14260973036289215, -0.15403011441230774, 0.16081355512142181, -5.141877045389265e-05, -0.2493315190076828, -0.13642315566539764, -0.08602958917617798, -0.05427442863583565, -0.04297739267349243, 0.07058604806661606, -0.10190155357122421, -0.005063313990831375, 0.02244587242603302, 0.08433587849140167, 0.08788643032312393, -0.09163939207792282, -0.07405344396829605, 0.040416620671749115, 0.07694025337696075, -0.09393798559904099, -0.11749541759490967, 0.19732019305229187, 0.128886878490448, -0.08475415408611298, 0.022315004840493202, -0.10874679684638977, -0.026105331256985664, -0.05276385694742203, -0.08643749356269836, -0.037019673734903336, -0.08343172818422318, -0.13992786407470703, 0.09067044407129288, -0.004685668274760246, 0.014906618744134903, 0.15461963415145874, -0.17194817960262299, 0.16657808423042297, -0.10894816368818283, 0.06728775054216385, -0.17227251827716827, 0.16780024766921997, 0.055132847279310226, -0.2747161388397217, 0.18151065707206726, -0.08222314715385437, -0.2835446000099182, 0.0828251838684082, -0.12875401973724365, 0.14697882533073425, -0.24084565043449402, 0.03220164775848389, -0.03900137543678284, -0.16577598452568054, -0.05367350950837135, 0.3082067668437958, -0.1284947693347931, 0.10986892133951187, -0.13730347156524658, 0.19793763756752014, 0.03154851868748665, 0.32543739676475525, -0.0372827984392643, 0.1946023404598236, -0.2003408968448639, -0.006662106607109308, -0.004272089805454016, -0.09338095784187317, 0.12958839535713196, -0.02592805027961731, -0.3150157034397125, -0.022277312353253365, -0.07332628220319748, -0.22887228429317474, 0.19365668296813965, 0.1316491961479187, -0.33947664499282837, 0.21067224442958832, -0.12857551872730255, -0.039401352405548096, -0.08851157873868942, 0.08759936690330505, -0.04956413805484772, -0.20734703540802002, -0.33830568194389343, -0.08058043569326401, 0.13706772029399872, 0.15442302823066711, 0.11512956768274307, -0.26341238617897034, 0.20864757895469666, 0.1875162124633789, -0.1913330852985382, 0.3389623761177063, 0.1039964109659195, -0.2721560299396515, -0.12235448509454727, -0.06762461364269257, 0.08299732208251953, 0.15431605279445648, -0.16727985441684723, -0.017074186354875565, -0.2496812492609024, 0.04213687404990196, 0.17434750497341156, 0.215901717543602, 0.044337112456560135, -0.20912538468837738, -0.2359163612127304, -0.16593262553215027, 0.2266184389591217, 0.31963497400283813, 0.14670518040657043, -0.24599801003932953, 0.20866568386554718, -0.05285264924168587, -0.22755756974220276, 0.1325242817401886, 0.11037357151508331, -0.21719545125961304, 0.20882654190063477, 0.06324003636837006, -0.03918168321251869, 0.1049388200044632, -0.04434482753276825, -0.22602571547031403, -0.0001238066324731335, -0.003960619680583477, 0.07105506956577301, 0.07399874180555344, 0.18197162449359894, -0.07438532263040543, -0.11519922316074371, -0.24824602901935577, 0.1394396424293518, 0.09115739166736603, 0.28827962279319763, -0.2830023169517517, 0.015725869685411453, 0.38526132702827454, -0.28795042634010315, 0.07097570598125458, 0.40399765968322754, -0.12380515784025192, -0.07940298318862915, -0.3876928687095642, 0.2532770037651062, -0.01448903325945139, 0.18644189834594727, 0.1538899689912796, -0.11312153190374374, -0.2671487629413605, 0.2917507290840149, 0.04382123425602913, 0.32152503728866577, -0.11794967949390411, -0.16915130615234375, -0.1885150671005249, 0.0841679722070694, 0.018269527703523636, 0.29747888445854187, -0.13282836973667145, 0.18349307775497437, 0.21218854188919067, -0.18196633458137512, 0.1646995097398758, 0.12887635827064514, -0.0657813549041748, -0.03229493275284767, 0.2664112150669098, -0.19495011866092682, 0.00959168653935194, 0.2834028899669647, -0.05977792292833328, -0.0696566253900528, -0.07110697776079178, -0.007480124942958355, -0.11045504361391068, 0.10390231013298035, -0.024232178926467896, -0.05118345469236374, -0.029142949730157852, 0.04938897863030434, 0.027109328657388687, 0.0543680302798748, 0.0820489302277565, -0.09688962250947952, -0.09605024009943008, 0.07340347766876221, 0.07895085960626602, -0.009335549548268318, -0.030646640807390213, -0.0288765300065279, -0.09092281013727188, -0.010512549430131912, 0.006367912981659174, -0.02220040187239647, 0.2622949779033661, -0.044443439692258835, 0.03989512100815773, 0.010186377912759781, 0.01316838152706623, -0.09212103486061096, -0.035246677696704865, 0.1514439433813095, 0.06638281047344208, 0.07439864426851273, -0.08619852364063263, -0.001800247118808329, 0.008044995367527008, -0.03874775767326355, -0.1315145492553711, 0.09720654785633087, -0.0032020886428654194, -0.05967768654227257, -0.0019091469002887607, -0.13474926352500916, 0.0465255044400692, -0.07518742978572845, 0.016145756468176842, -0.09894812107086182, -0.03157338872551918, 0.052967820316553116, -0.1603258103132248, -0.008007656782865524, 0.001448158291168511, -0.06455431133508682, 0.05588637664914131, 0.11809879541397095, 0.0751076191663742, -0.10435766726732254, -0.17988857626914978, -0.040176138281822205, 0.13395455479621887, -0.11334893852472305, 0.03748701885342598, 0.18210731446743011, -0.12649519741535187, -0.010038253851234913, 0.14851872622966766, 0.062472011893987656, 0.017639344558119774, -0.07499182969331741, -0.06129109114408493, 0.03386220708489418, 0.03850127011537552, 0.1908545047044754, 0.10170362889766693, -0.06771258264780045, 0.06376762688159943, -0.033755771815776825, 0.00017174090316984802, -0.07825928926467896, 0.14576196670532227, -0.008874169550836086, -0.14971181750297546, 0.05142072215676308, 0.20120587944984436, 0.10065450519323349, 0.11560768634080887, 0.20901843905448914, -0.0930294394493103, -0.0696980357170105, 0.20404760539531708, 0.023490509018301964, -0.10272165387868881, 0.21522295475006104, 0.015635963529348373, 0.06706446409225464, 0.0014410213334485888, 0.03980061039328575, -0.05930858477950096, 0.10740913450717926, -0.06145991384983063, 0.05505910888314247, -0.005278888624161482, 0.1486007422208786, 0.04241318628191948, 0.15136833488941193, -0.19119024276733398, -0.061299875378608704, -0.1814001500606537, -0.23205073177814484, -0.20873171091079712, 0.03156638890504837, -0.0034214574843645096, 0.05014655739068985, 0.03997838869690895, -0.04680079221725464, -0.012488426640629768, 0.05214393138885498, -0.025600885972380638, 0.1552192121744156, -0.07692629098892212, 0.020004354417324066, -0.04544065147638321, 0.0010881010675802827, 0.07687389850616455, 0.07602279633283615, 0.07221250236034393, 0.18977247178554535, 0.20983591675758362, 0.03300396353006363, -0.016450243070721626, 0.04547882825136185, -0.024315914139151573, 0.06853803992271423, -0.006819598376750946, 0.019182484596967697, -0.140439972281456, -0.02415093407034874, -0.0660969614982605, -0.12121348828077316, -0.1712586134672165, -0.1603814661502838, -0.19540074467658997, 0.00890142098069191, 0.025369802489876747, -0.0977787896990776, -0.14787329733371735, 0.008868199773132801, 0.11881806701421738, -0.08399509638547897, -0.0636698380112648, 0.13884885609149933, 0.21934454143047333, -0.1366954743862152, 0.12886007130146027, -0.05345175042748451, -0.029380690306425095, 0.07178289443254471, -0.2439408153295517, 0.0024659899063408375, 0.12257851660251617, -0.1489797830581665, -0.07105559855699539, -0.04960555583238602, 0.11521170288324356, -0.06240599974989891, 0.03445086255669594, 0.07302353531122208, -0.029529357329010963, -0.07944387197494507, 0.1699630320072174, 0.0441366471350193, 0.11949974298477173, -0.22631998360157013, 0.0578470453619957, -0.11039545387029648, 0.08723720908164978, 0.012129059061408043, -0.10136252641677856, -0.09618263691663742, 0.1586199849843979, 0.01591949164867401, -0.2461518943309784, -0.010023833252489567, 0.021263079717755318, -0.27276837825775146, 0.09595721960067749, -0.1383385807275772, -0.2973233759403229, -0.11304205656051636, -0.03193340450525284, -0.060136258602142334, -0.10498044639825821, 0.1590963751077652, -0.023101871833205223, 0.028685590252280235, -0.07752818614244461, -0.10913139581680298, 0.042155083268880844, 0.18848921358585358, 0.12847670912742615, -0.0035109901800751686, -0.213389590382576, 0.13358159363269806, 0.0835922360420227, -0.048108555376529694, -0.10339044779539108, 0.03183678537607193, -0.2533109486103058, -0.04124773293733597, 0.10510297864675522, 0.0005749980336986482, 0.024423349648714066, -0.0028137806802988052, 0.019769951701164246, -0.045884788036346436, -0.026875851675868034, 0.07240746170282364, 0.050175394862890244, 0.06606070697307587, 0.02036823332309723, 0.03550247102975845, 0.12302685528993607, -0.0330042690038681, -0.1433442384004593, -0.010656489059329033, -0.18672724068164825, 0.0912707969546318, -0.02765754796564579, -0.17489007115364075, -0.10049964487552643, 0.15544068813323975, -0.12894389033317566, 0.12205756455659866, 0.16163253784179688, -0.031096365302801132, 0.01716778054833412, 0.023936579003930092, -0.14624202251434326, 0.03418395295739174, 0.14917224645614624, -0.07946763932704926, 0.0694124698638916, 0.06395244598388672, -0.25269126892089844, 0.054690904915332794, 0.3399389684200287, 0.39170145988464355, -0.25163692235946655, -0.10132427513599396, -0.18994000554084778, 0.20800408720970154, 0.3265856206417084, -0.33697178959846497, 0.1673128455877304, 0.2630789279937744, -0.31073829531669617, 0.16081471741199493, 0.1536271572113037, 0.3584301173686981, -0.160196453332901, -0.2533802092075348, -0.05187806487083435, 0.12106465548276901, 0.11481982469558716, 0.2712495028972626, -0.04005180671811104, -0.22019733488559723, -0.245692640542984, 0.025604762136936188, 0.19345101714134216, 0.1607513278722763, -0.19799259305000305, -0.2685137689113617, -0.12600140273571014, 0.07701461017131805, 0.19372114539146423, -0.33753007650375366, 0.25179481506347656, 0.33482542634010315, -0.36465469002723694, 0.003716373583301902, 0.0957193374633789, -0.2573525607585907, 0.08020336180925369, 0.10483945906162262, -0.31858983635902405, 0.14454463124275208, 0.1252537965774536, 0.09816773980855942, -0.07438831776380539, -0.041501667350530624, 0.01919844001531601, 0.007476945407688618, -0.07992136478424072, -0.06596031785011292, 0.0307276863604784, 0.10322809219360352, -0.062189582735300064, -0.21911434829235077, 0.18417981266975403, -0.019257711246609688, -0.05628345534205437, 0.025655703619122505, 0.044595953077077866, -0.11303740739822388, 0.13419409096240997, -0.06934647262096405, -0.05716576427221298, -0.12522995471954346, -0.03402021527290344, -0.049099210649728775, -0.2485012412071228, 0.06360454857349396, 0.05099410191178322, -0.0648311898112297, 0.17670957744121552, -0.008472690358757973, 0.1638033241033554, 0.01130456943064928, 0.039857085794210434, -0.13439077138900757, 0.061050646007061005, 0.03556001931428909, -0.01143810898065567, -0.06037832051515579, -0.02672959677875042, 0.17736725509166718, 0.02987709827721119, -0.2041778415441513, -0.09382764995098114, 0.10670413821935654, -0.09544720500707626, -0.0362527035176754, 0.10400108993053436, -0.027385247871279716, 0.1561514288187027, -0.03718191757798195, 0.1094597578048706, -0.048264823853969574, -0.18779496848583221, 0.02648727037012577, -0.003743770532310009, 0.02749091200530529, -0.030845988541841507, 0.06581138074398041, 0.16675743460655212, 0.03430594876408577, -0.05422649160027504, -0.02245507575571537, -0.19262318313121796, 0.2063145935535431, -0.024639980867505074, -0.15862619876861572, 0.14246948063373566, -0.10684167593717575, 0.016880542039871216, -0.08460374176502228, 0.021410921588540077, -0.22636091709136963, -0.01840001717209816, -0.09619807451963425, 0.1438075304031372, 0.05436696857213974, 0.14856944978237152, -0.02306964434683323, 0.207193985581398, -0.02538216859102249, 0.013384334743022919, 0.05860051140189171, 0.07727394998073578, -0.2226744443178177, 0.03225788474082947, -0.05224974453449249, 0.03688730672001839, 0.04712209105491638, -0.09883476793766022, -0.10315026342868805, 0.15937143564224243, 0.07282732427120209, -0.04443906992673874, 0.08249125629663467, 0.09028063714504242, -0.12701727449893951, 0.013545604422688484, -0.11025512218475342, 0.17249317467212677, 0.12919431924819946, -0.16543953120708466, 0.06888820230960846, 0.09540189057588577, 0.0531279556453228, -0.20374301075935364, 0.09714101254940033, -0.12455558776855469, 0.23194430768489838, -0.07039057463407516, -0.07459473609924316, 0.19099529087543488, -0.015432755462825298, 0.071010522544384, 0.005093086045235395, -0.08537938445806503, -0.01417723298072815, -0.08120549470186234, 0.09854482114315033, -0.10088533163070679, 0.10365241020917892, 0.049974940717220306, 0.008177054114639759, -0.0071774618700146675, -0.1555628776550293, -0.07876547425985336, 0.1839219629764557, -0.032907724380493164, 0.16360095143318176, -0.14475111663341522, 0.08608140796422958, -0.1891566812992096, 0.08073927462100983, 0.007058507762849331, -0.008487077429890633, 0.15582287311553955, 0.1390708088874817, -0.060090914368629456, 0.10744273662567139, 0.1428443044424057, -0.08048678934574127, 0.235819011926651, -0.05537755787372589, -0.0628514513373375, 0.09924597293138504, 0.10128272324800491, 0.08437266200780869, -0.0031955307349562645, -0.13058634102344513, 0.20653679966926575, -0.12502311170101166, 0.016307292506098747, -0.269596666097641, 0.23002804815769196, 0.1451975554227829, 0.19291433691978455, -0.2748689353466034, 0.08837862312793732, 0.07129489630460739, -0.1073731780052185, 0.008278727531433105, 0.12014296650886536, -0.08356776088476181, -0.13525348901748657, -0.1553116887807846, 0.04804639518260956, -0.009147432632744312, 0.033873412758111954, 0.018481064587831497, -0.18164359033107758, -0.08534982055425644, 0.12289686501026154, -0.0560222864151001, 0.08079241216182709, -0.2300894856452942, 0.16457277536392212, -0.21962617337703705, 0.14267948269844055, 0.044492531567811966, 0.277402400970459, -0.013793396763503551, 0.11119496822357178, 0.08109589666128159, -0.15601350367069244, -0.08421768248081207, 0.09377079457044601, -0.10453048348426819, 0.12414012849330902, 0.06069409102201462, -0.04911155253648758, -0.08359654247760773, 0.1562132090330124, -0.022633850574493408, -0.04004514217376709, 0.021857134997844696, -0.09704698622226715, 0.0590626522898674, -0.03449510782957077, 0.007747672498226166, -0.012952826917171478, -0.009910991415381432, -0.1508631408214569, 0.09523609280586243, 0.018563702702522278, -0.004770939238369465, -0.02087794616818428, 0.02863863669335842, 0.13145214319229126, -0.16358840465545654, -0.10278064012527466, -0.0023678126744925976, -0.19788718223571777, 0.08707419782876968, 0.06077669560909271, 0.20122204720973969, 0.018580680713057518, 0.07278762012720108, -0.055955301970243454, 0.20503833889961243, -0.09536357969045639, -0.012200976721942425, -0.02190777286887169, 0.16247621178627014, -0.17790697515010834, 0.21446923911571503, 0.005368048325181007, -0.025262169539928436, -0.11658437550067902, 0.16960561275482178, -0.18938659131526947, -0.12330964207649231, 0.09360332787036896, -0.20262588560581207, -0.016689592972397804, 0.1084786206483841, 0.0010399114107713103, -0.1845325082540512, 0.1795390248298645, -0.17155319452285767, 0.054385364055633545, -0.09600086510181427, -0.21070550382137299, 0.15964555740356445, -0.030406538397073746, 0.007950011640787125, 0.0011509419418871403, -0.012703747488558292, -0.07462779432535172, -0.14665497839450836, 0.04079326614737511, 0.009007740765810013, -0.057602085173130035, -0.0031856929417699575, 0.005539449863135815, 0.0659383237361908, -0.03762441501021385, 0.0010722645092755556, -0.0232667438685894, 0.016975732520222664, 0.0037785174790769815, -0.08074378222227097, 0.35706785321235657, -0.410725474357605, 0.6928514242172241, -0.5766615867614746, 0.16669218242168427, 0.8762620091438293, 0.914789080619812, -0.4897162914276123, 0.1614798754453659, 0.044562045484781265, -0.6787206530570984, -0.38475120067596436, 0.20316368341445923, -0.7466601133346558, 0.18237915635108948, 0.5273011922836304, -0.11289791017770767, 0.21189892292022705, -0.05306624621152878, 0.17434458434581757, 0.26712554693222046, -0.05722805857658386, 0.11021886020898819, -0.015401079319417477, -0.07674584537744522, -0.06889791786670685, -0.04165227711200714, -0.10166044533252716, -0.05006415396928787, 0.02634296379983425, 0.09951074421405792, 0.020130762830376625, -0.011545298621058464, -0.015736185014247894, -0.24037091434001923, 0.12802045047283173, 0.19782815873622894, -0.12930071353912354, -0.1858712136745453, -0.13411758840084076, -0.10945598036050797, -0.053700149059295654, -0.10788344591856003, -0.2081291824579239, -0.04432593286037445, -0.08087451010942459, 0.10534823685884476, 0.12469667196273804, 0.10420937836170197, 0.1792008876800537, -0.13397398591041565, 0.31288960576057434, 0.06762468069791794, -0.24748164415359497, -0.016763264313340187, -0.25330132246017456, -0.1363203078508377, -0.27365878224372864, 0.13820891082286835, -0.22000347077846527, 0.028976324945688248, 0.37890908122062683, 0.2639751136302948, -0.1372843086719513, 0.04429791122674942, -0.19571833312511444, -0.03735124319791794, -0.16483436524868011, -0.021432949230074883, 0.15552571415901184, 0.06872229278087616, 0.09185323864221573, -0.1868325024843216, 0.08042092621326447, -0.07049495726823807, -0.013454447500407696, 0.1330162137746811, 0.19277681410312653, -0.10307302325963974, 0.042710352689027786, 0.008076507598161697, -0.2515471875667572, -0.25143006443977356, 0.2431747317314148, 0.19382429122924805, 0.11300545185804367, 0.10617798566818237, -0.18944378197193146, 0.03122902475297451, 0.19194765388965607, -0.19653742015361786, 0.14661887288093567, -0.03320007398724556, 0.1871829777956009, 0.0008189635118469596, 0.06467003375291824, -0.02704075537621975, -0.11354952305555344, 0.2233121395111084, -0.005083326715976, 0.14776967465877533, 0.36572322249412537, 0.31059184670448303, 0.09924463927745819, 0.29611387848854065, -0.01411375217139721, -0.5187672972679138, -0.20721548795700073, 0.09457892179489136, -0.3129759728908539, 0.08258730173110962, 0.21693307161331177, 0.24059198796749115, 0.2509486973285675, 0.27669239044189453, 0.22900134325027466, -0.18980814516544342, -0.30439823865890503, -0.025639904662966728, -0.2210758626461029, 0.05258943885564804, -0.4522780179977417, -0.42154327034950256, 0.34480020403862, 0.20872236788272858, -0.20492610335350037, 0.3859088122844696, -0.32119351625442505, 0.07030336558818817, 0.011741571128368378, 0.3538801968097687, -0.3344672620296478, -0.3860487937927246, 0.20297154784202576, 0.3040866255760193, 0.12834975123405457, 0.1975793093442917, -0.1139630377292633, 0.2552104890346527, -0.15877234935760498, 0.10356414318084717, -0.2168944776058197, -0.2183670699596405, 0.16283081471920013, -0.05977677181363106, -0.08064030855894089, -0.21180540323257446, -0.21477551758289337, 0.27156567573547363, 0.07318153977394104, -0.06328301876783371, -0.017878087237477303, -0.1803935468196869, -0.19134770333766937, 0.14289416372776031, 0.0064608086831867695, 0.11770953238010406, -0.2287958711385727, -0.012894097715616226, 0.22882074117660522, -0.2243284434080124, -0.12296059727668762, 0.36972543597221375, -0.3712332844734192, -0.4797864258289337, 0.1474337875843048, 0.3989645838737488, 0.17432552576065063, 0.07024486362934113, 0.4092393219470978, 0.25053849816322327, 0.08475310355424881, 0.19463686645030975, 0.09564550966024399, -0.17143839597702026, 0.3451460897922516, 0.026423102244734764, 0.15576913952827454, -0.2554174065589905, 0.1472834050655365, -0.023028764873743057, -0.10257191956043243, 0.10419512540102005, -0.0159233920276165, 0.040628425776958466, -0.14126618206501007, -0.17389346659183502, -0.17606818675994873, -0.10188145935535431, 0.11617351323366165, -0.018356842920184135, 0.31641140580177307, 0.07655934244394302, -0.08436822146177292, 0.22497135400772095, -0.044534165412187576, 0.025067558512091637, -0.07306446135044098, 0.026443002745509148, 0.11014503985643387, 0.08594458550214767, -0.1676708161830902, -0.17259109020233154, 0.07738430052995682, 0.014609511941671371, 0.07273519784212112, 0.05715063586831093, -0.1890205293893814, 0.007202778942883015, -0.08246158808469772, 0.03792772442102432, 0.09506005793809891, 0.17692655324935913, -0.10595777630805969, 0.05881142616271973, 0.23219233751296997, 0.230739027261734, -0.05038182809948921, -0.27380576729774475, 0.012304374016821384, 0.2263316661119461, -0.15743069350719452, -0.09073891490697861, 0.1574902981519699, -0.016374941915273666, -0.23397360742092133, -0.17075912654399872, 0.13822875916957855, -0.03063182346522808, 0.23417754471302032, 0.2666623890399933, 0.13695028424263, -0.07713103294372559, -0.011408325284719467, 0.04806229844689369, 0.02786695584654808, -0.10984577983617783, -0.003144713817164302, -0.21685872972011566, 0.25958260893821716, -0.1131243035197258, 0.2663368582725525, -0.14764952659606934, -0.08571048825979233, 0.22058740258216858, -0.038380466401576996, 0.130904883146286, 0.11228150129318237, -0.28970399498939514, 0.11185614764690399, -0.01577064022421837, -0.014456698670983315, 0.09085281193256378, 0.25173690915107727, -0.06308972090482712, -0.10862766206264496, 0.3357791304588318, 0.09958051145076752, 0.12192247062921524, -0.08842584490776062, 0.07555872946977615, 0.12149806320667267, -0.04269157350063324, 0.21360735595226288, -0.0845254585146904, -0.20658065378665924, -0.09536021202802658, -0.06806634366512299, 0.05063440650701523, 0.21188093721866608, 0.1865202784538269, -0.19095554947853088, 0.16663378477096558, -0.1331038773059845, 0.12015226483345032, -0.09031528234481812, -0.0826694443821907, -0.1125783622264862, 0.04520811885595322, 0.004198323003947735, 0.017830096185207367, -0.18615426123142242, 0.10518182069063187, -0.050711121410131454, 0.043066900223493576, 0.0496719628572464, 0.17596063017845154, 0.1109444797039032, 0.13345395028591156, -0.037377696484327316, 0.0026229368522763252, 0.26545780897140503, -0.13049538433551788, 0.005724820774048567, -0.16770774126052856, -0.21687933802604675, 0.0024906150065362453, -0.4474644660949707, -0.02190469205379486, -0.02279740571975708, -0.08113870769739151, -0.16067376732826233, -0.042857374995946884, 0.25742897391319275, 0.022410282865166664, 0.08315975219011307, -0.05953744798898697, -0.14667031168937683, 0.10305420309305191, 0.08305089175701141, 0.08985516428947449, -0.12156766653060913, 0.1302328258752823, 0.1401587575674057, -0.07110261172056198, -0.18346446752548218, 0.1216917410492897, -0.07913576811552048, -0.049502432346343994, -0.06185922771692276, -0.00035796681186184287, -0.18257540464401245, -0.17175841331481934, -0.11558770388364792, -0.3744511604309082, 0.03720496594905853, 0.006522186566144228, -0.13878527283668518, 0.14662858843803406, -0.06218009069561958, -0.17829574644565582, 0.07323154807090759, 0.04351823031902313, 0.1649693250656128, -0.06487592309713364, -0.12125708907842636, 0.03808461129665375, 0.09683383256196976, 0.07094677537679672, 0.05149810388684273, 0.060694415122270584, 0.1157301515340805, -0.18418602645397186, -0.06776231527328491, 0.08749423176050186, -0.43579936027526855, 0.07286359369754791, -0.05607611685991287, -0.04082290455698967, 0.030169468373060226, 0.06617247313261032, 0.04175868630409241, -0.13800443708896637, 0.020261313766241074, 0.5015385150909424, -0.276639848947525, -0.025926416739821434, 0.20319809019565582, -0.11103135347366333, 0.03869831562042236, -0.2548927962779999, 0.16728784143924713, -0.013802286237478256, 0.06960979849100113, 0.010046240873634815, -0.1042943075299263, 0.04579437896609306, 0.10872817784547806, -0.03914181515574455, 0.07168330997228622, -0.0726158618927002, 0.006131742615252733, -0.11558964103460312, -0.1257474422454834, -0.08416879177093506, -0.30292561650276184, 0.08775840699672699, 0.012075326405465603, -0.25894632935523987, 0.0011530062183737755, -0.03455514833331108, 0.011304405517876148, 0.20094825327396393, -0.11010801047086716, -0.1054791659116745, -0.2861231565475464, -0.013306684792041779, 0.32768237590789795, 0.023114105686545372, -0.09796157479286194, -0.10294222086668015, -0.05812487751245499, 0.15170496702194214, 0.11625242978334427, 0.10116792470216751, 0.010375569574534893, 0.16003310680389404, -0.001023690914735198, 0.1266859471797943, 0.01669422537088394, 0.18217742443084717, 0.05100031569600105, -0.01057444792240858, -0.06371688842773438, -0.008707721717655659, 0.006012988276779652, 0.06547410041093826, 0.03003046102821827, 0.06895477324724197, -0.3411847949028015, -0.0660000741481781, -0.056657109409570694, 0.33629998564720154, -0.1494416743516922, -0.16203120350837708, -0.35038989782333374, 0.149410679936409, 0.1489536315202713, 0.018527483567595482, 0.19197802245616913, -0.18564645946025848, 0.12441497296094894, 0.0716051533818245, -0.1345825344324112, -0.16410763561725616, -0.01624276302754879, -0.17182224988937378, -0.08983636647462845, 0.08573929220438004, -0.0609077550470829, 0.09035412967205048, 0.19229482114315033, -0.08837264031171799, -0.09432869404554367, 0.0004034709418192506, -0.24094559252262115, -0.0016274864319711924, -0.07052917033433914, 0.21240630745887756, -0.10373780876398087, -0.15811102092266083, 0.25359708070755005, 0.06056354567408562, -0.14090289175510406, -0.00802173838019371, -0.19256561994552612, -0.09166564047336578, -0.2505020499229431, 0.07019034028053284, -0.0470271110534668, -0.11078748852014542, 0.1710447520017624, 0.015965616330504417, -0.23538796603679657, 0.08328352123498917, 0.08850912749767303, 0.14975737035274506, -0.1899404674768448, 0.027792921289801598, 0.1463685929775238, -0.1363745480775833, 0.013568262569606304, 0.11443932354450226, -0.1116056963801384, -0.023498544469475746, 0.05753723531961441, 0.008203219622373581, 0.2650643289089203, 0.3332238793373108, 0.12249308824539185, -0.015293401665985584, 0.2771349251270294, -0.0837642177939415, -0.15149074792861938, 0.2020748257637024, -0.019025925546884537, 0.1422705203294754, 0.02154362201690674, -0.024766169488430023, 0.06562549620866776, -0.11900507658720016, -0.172062948346138, 0.05418297275900841, 0.15872760117053986, 0.021773522719740868, 0.07970075309276581, -0.13077788054943085, -0.01989680528640747, 0.05760839954018593, -0.18782848119735718, 0.1425001621246338, 0.11697525531053543, -0.014330663718283176, 0.02920895628631115, -0.08949309587478638, -0.056367047131061554, 0.1607373207807541, -0.16248485445976257, 0.05591960996389389, -0.04939983785152435, 0.025485992431640625, 0.09009245038032532, 0.23489810526371002, -0.0010079597122967243, 0.13910545408725739, -0.11572257429361343, -0.014674114994704723, -0.07426439225673676, 0.08184615522623062, -0.09822359681129456, 0.12258514761924744, -0.14687462151050568, 0.17199204862117767, -0.07630833238363266, 0.010122568346560001, 0.17047734558582306, -0.3190211355686188, -0.1372733861207962, 0.09242267161607742, -0.04925196245312691, -0.0724831074476242, 0.015239201486110687, -0.04872005060315132, -0.16478656232357025, -0.061006054282188416, 0.11777292191982269, -0.0545036606490612, 0.05439843237400055, -0.049854129552841187, -0.024924861267209053, -0.024582451209425926, -0.09947632998228073, 0.02237379550933838, -0.06078800931572914, -0.026951586827635765, 0.08572844415903091, -0.006298390682786703, 0.01479692105203867, 0.1481693983078003, -0.03444864973425865, -0.13768108189105988, 0.06394097208976746, 0.01487194187939167, 0.06846373528242111, -0.26668691635131836, 0.04362232983112335, -0.09795432537794113, -0.5074325203895569, -0.003733038669452071, 0.0475771389901638, -0.2423417568206787, 0.17879097163677216, 0.24381695687770844, 0.389567494392395, 0.07817044854164124, 0.11214953660964966, -0.19229820370674133, -0.009971695020794868, 0.08596763759851456, 0.12283274531364441, 0.04370728135108948, 0.07031763345003128, -0.12394624203443527, -0.11508273333311081, 0.037703391164541245, 0.06700282543897629, 0.06564319878816605, 0.1852872669696808, 0.12634986639022827, 0.2075727880001068, -0.043393634259700775, 0.2991185486316681, -0.19098572432994843, -0.015717266127467155, -0.006677336525171995, -0.11971308290958405, 0.1045156866312027, 0.016838863492012024, 0.10488534718751907, 0.24993492662906647, 0.07479892671108246, 0.04568994417786598, -0.0295083150267601, -0.15811243653297424, 0.2097197026014328, 0.06620319187641144, 0.06771090626716614, 0.0159250907599926, -0.06594915688037872, 0.046022217720746994, -0.021936161443591118, 0.12056080251932144, 0.17195796966552734, 0.07998335361480713, 0.07908909022808075, 0.0447181798517704, 0.1094515323638916, -0.04359783977270126, 0.1998521387577057, -0.10220705717802048, 0.16499300301074982, -0.24432066082954407, -0.05733194202184677, -0.008013523183763027, 0.16451701521873474, -0.09762939065694809, 0.1450752168893814, -0.15699352324008942, 0.1750824898481369, -0.04181421920657158, 0.15811032056808472, -0.04062441363930702, -0.1440211832523346, 0.28361377120018005, 0.15277020633220673, -0.13417185842990875, -0.07709503918886185, -0.18389569222927094, -0.08549267798662186, -0.06868675351142883, 0.03568940609693527, -0.0003346363373566419, 0.03276626393198967, 0.0677516758441925, -0.28437742590904236, 0.2554599642753601, 0.13187582790851593, -0.26303791999816895, 0.1633872091770172, -0.0459931418299675, -0.2982725203037262, 0.07071816921234131, 0.038528818637132645, 0.012397653423249722, -0.1904386729001999, -0.17197255790233612, -0.12982769310474396, -0.09511377662420273, -0.299240380525589, 0.11728985607624054, -0.03768960386514664, 0.04501880705356598, -0.2785782217979431, 0.06438971310853958, 0.17192749679088593, 0.28965070843696594, -0.2615698575973511, 0.032211434096097946, -0.0733589455485344, 0.019348736852407455, 0.14871414005756378, 0.3527314066886902, -0.18882869184017181, -0.016361523419618607, -0.1069745123386383, 0.24007447063922882, -0.029617207124829292, -0.15716978907585144, 0.13037052750587463, -0.0001126395509345457, -0.21968315541744232, 0.15599425137043, 0.05449862778186798, 0.06786636263132095, -0.04831957072019577, -0.0975770354270935, 0.057163409888744354, 0.10739275068044662, 0.02545495145022869, -0.2504168450832367, 0.055339448153972626, 0.025299614295363426, 0.11317217350006104, 0.1061471626162529, -0.05275771766901016, -0.31992924213409424, 0.08099644631147385, 0.0643450990319252, 0.13365112245082855, 0.025267530232667923, 0.09407423436641693, 0.1359810084104538, -0.06122513860464096, -0.16426603496074677, 0.19533108174800873, 0.06308968365192413, -0.014558444730937481, -0.10223058611154556, 0.11446722596883774, -0.023659590631723404, -0.4183633029460907, 0.07660679519176483, 0.11014346778392792, -0.054954204708337784, -0.005305352155119181, 0.12409456819295883, -0.024918867275118828, -0.1789109855890274, 0.08464471250772476, 0.023550335317850113, 0.1367027312517166, -0.12874716520309448, 0.015318868681788445, -0.078990139067173, -0.023422766476869583, 0.013411348685622215, -0.1242951899766922, 0.20344558358192444, 0.09152255952358246, -0.20391899347305298, -0.11047319322824478, 0.0741330236196518, -0.06642773002386093, -0.20231683552265167, 0.09507623314857483, -0.11643025279045105, -0.0013143197866156697, 0.08119097352027893, -0.07770124822854996, -0.07531866431236267, 0.04758375883102417, 0.10733427107334137, -0.07884851843118668, -0.21001273393630981, 0.14843714237213135, 0.17703677713871002, -0.13166256248950958, 0.02651897259056568, -0.14678025245666504, 0.08456838130950928, 0.07040605694055557, -0.1130620613694191, 0.02558879368007183, -0.02422385662794113, -0.0024368418380618095, -0.10340715944766998, -0.14940455555915833, 0.16327154636383057, 0.1331212967634201, -0.10466483235359192, 0.03500846028327942, -0.11296682059764862, -0.007383748888969421, 0.2618882358074188, -0.11819570511579514, 0.17938637733459473, -0.07885938882827759, -0.04771595075726509, -0.15241138637065887, 0.12720826268196106, -0.13442040979862213, 0.014875042252242565, -0.026500409469008446, -0.012951589189469814, -0.11995958536863327, -0.14399898052215576, 0.11034106463193893, -0.43522289395332336, -0.47265195846557617, -0.06046431139111519, -0.036261897534132004, -0.08032457530498505, -0.012511937879025936, -0.06481219828128815, 0.018261566758155823, -0.03858724236488342, 0.09193060547113419, -0.03020964376628399, -0.17476743459701538, -0.00817782711237669, -0.15178586542606354, -0.1820235401391983, 0.16358259320259094, 0.08812139183282852, -0.02343418262898922, -0.03696226328611374, -0.08616293221712112, -0.0001380710455123335, 0.021170133724808693, -0.0900554358959198, 0.0015464525204151869, -0.01618601754307747, -0.08285290002822876, -0.04285105690360069, -0.044020574539899826, 0.09932961314916611, -0.07649645954370499, 0.07889042049646378, 0.2059222012758255, -0.06998274475336075, 0.028543375432491302, 0.17252576351165771, -0.1419367641210556, -0.05853157490491867, 0.05607737973332405, 0.02286270074546337, -0.2208818644285202, -0.011453702114522457, 0.10926587134599686, 0.03772207722067833, -0.09406641125679016, 0.1884184032678604, 0.05449793115258217, -0.1587132066488266, 0.3942655026912689, -0.12018932402133942, -0.10866290330886841, 0.07538563758134842, -0.10209199041128159, -0.06920421123504639, 0.13616719841957092, 0.06278535723686218, -0.11192753911018372, 0.002499291440472007, -0.21082332730293274, -0.02717115730047226, -0.14528726041316986, -0.30064305663108826, -0.2460893839597702, 0.16380421817302704, 0.16960228979587555, 0.1448933631181717, -0.2495153546333313, -0.00941238459199667, 0.0646388977766037, 0.12079168111085892, 0.187965527176857, 0.09249041974544525, 0.06676486134529114, 0.12002069503068924, 0.025319794192910194, 0.08675765991210938, 0.24737755954265594, 0.08449305593967438, -0.4182538390159607, -0.19135881960391998, 0.307473748922348, 0.24250257015228271, 0.2207600474357605, 0.01421432290226221, 0.08225683867931366, -0.2566991448402405, -0.21233849227428436, 0.04476853832602501, 0.2903219163417816, 0.005556092597544193, -0.24191536009311676, -0.15533652901649475, -0.04471959173679352, -0.16274061799049377, -0.015158559195697308, 0.10034431517124176, -0.5052733421325684, -0.3004193902015686, 0.16529221832752228, 0.11428439617156982, -0.10124923288822174, -0.22923725843429565, -0.2101719230413437, -0.21780554950237274, -0.2892094850540161, -0.1653958559036255, -0.04711049050092697, 0.09535166621208191, -0.10825473815202713, -0.026169216260313988, -0.20347914099693298, 0.12620899081230164, 0.05839679017663002, -0.054257508367300034, 0.10350731015205383, 0.1462966352701187, -0.12525951862335205, 0.13614633679389954, 0.059220876544713974, -0.014658116735517979, 0.16348141431808472, -0.04988451302051544, -0.051147427409887314, -0.02563430555164814, -0.2052592635154724, 0.1675294190645218, -0.0029387925751507282, -0.19042298197746277, -0.08999209851026535, -0.12439252436161041, -0.10437775403261185, 0.1479479968547821, -0.2152867466211319, 0.015476712957024574, 0.02245512418448925, -0.005475137382745743, 0.06405741721391678, 0.001434755395166576, 0.06791529804468155, 0.003874126821756363, -0.11033188551664352, 0.03503889590501785, -0.15238389372825623, -0.018518414348363876, 0.039258476346731186, -0.2212710678577423, -0.02096116915345192, -0.06759096682071686, -0.12559852004051208, -0.21215805411338806, 0.038812942802906036, -0.0653882622718811, -0.04564030095934868, 0.02148210071027279, 0.10724550485610962, -0.005275022238492966, -0.24680736660957336, 0.21412034332752228, 0.15905506908893585, -0.19777223467826843, 0.35774511098861694, 0.13854897022247314, -0.04561278596520424, -0.1553589105606079, 0.14547136425971985, 0.06222758814692497, -0.04791319742798805, 0.07139740139245987, -0.1320336014032364, 0.016025669872760773, 0.08249855041503906, -0.18054205179214478, 0.06656946241855621, -0.20117215812206268, -0.31448376178741455, 0.1741960495710373, 0.11667880415916443, 0.2817220091819763, -0.008289961144328117, -0.13197869062423706, 0.041593171656131744, 0.14925044775009155, 0.25841501355171204, 0.31700554490089417, -0.25511184334754944, 0.0513453334569931, -0.19385743141174316, 0.22386983036994934, 0.09041643142700195, 0.019729092717170715, 0.04681924358010292, 0.013654925860464573, -0.20384083688259125, 0.09739849716424942, 0.14267072081565857, 0.3037182688713074, 0.2702213227748871, 0.029179062694311142, -0.06395793706178665, -0.12788231670856476, -0.09686993807554245, -0.21095791459083557, -0.11301371455192566, -0.014243372716009617, -0.0726122185587883, -0.1019754484295845, -0.08067528158426285, 0.06229010969400406, 0.12537513673305511, 0.028658151626586914, -0.04997048154473305, -0.05804676190018654, 0.12296300381422043, -0.07795264571905136, -0.0734497532248497, 0.03781498223543167, 0.034792933613061905, 0.11971934884786606, 0.04796198010444641, 0.16011829674243927, 0.1423744559288025, -0.1619877964258194, 0.027051612734794617, 0.21462062001228333, 0.0036172664258629084, 0.07649904489517212, 0.19433598220348358, -0.19715583324432373, 0.12240400165319443, -0.245176300406456, 0.07220505177974701, -0.12641789019107819, 0.026187049224972725, -0.008968692272901535, -0.010357411578297615, -0.04437817633152008, 0.23874706029891968, 0.16542240977287292, 0.08400113135576248, -0.04899885132908821, -0.011641526594758034, 0.05380260944366455, -0.02675354853272438, -0.10468827188014984, -0.1547980159521103, 0.010043015703558922, -0.11641491949558258, -0.13593950867652893, -0.035131365060806274, 0.17678245902061462, 0.004229495767503977, 0.10913816094398499, -0.07766121625900269, 0.03566315770149231, -0.17660759389400482, 0.059983991086483, -0.037538085132837296, 0.1429091840982437, 0.10914934426546097, 0.1869078278541565, -0.06595095992088318, 0.11811745911836624, 0.14198489487171173, -0.18095053732395172, -0.024914812296628952, 0.06733282655477524, 0.07793516665697098, -0.03546246513724327, -0.24879665672779083, 0.17879199981689453, 0.2442597895860672, 0.0006276717176660895, -0.0028900736942887306, -0.017949262633919716, -0.21328838169574738, 0.028825392946600914, -0.16836468875408173, -0.07084833085536957, -0.18718017637729645, -0.13791222870349884, 0.12481490522623062, 0.29967179894447327, 0.017894217744469643, 0.031752604991197586, -0.2530449628829956, -0.0458771288394928, 0.01895902119576931, -0.018386028707027435, 0.07818828523159027, -0.07320225983858109, 0.04072072356939316, -0.0012275277404114604, 0.11927194893360138, -0.15389972925186157, 0.005154151003807783, -0.03847702965140343, -0.1701044887304306, 0.04801880568265915, 0.1567988097667694, 0.09827163070440292, 0.22045665979385376, 0.04434025287628174, -0.14219385385513306, 0.19693908095359802, -0.1401701718568802, 0.20022974908351898, 0.06074484437704086, 0.20377609133720398, -0.010903451591730118, -0.002064508618786931, 0.07236156612634659, -0.197913259267807, 0.045528847724199295, -0.005585692822933197, 0.022362936288118362, -0.12429243326187134, -0.42606550455093384, 0.26351967453956604, 0.12404561787843704, -0.477578729391098, 0.051877692341804504, -0.8068267107009888, -0.3600285053253174, -0.3980395793914795, 1.1651415824890137, -0.6127822399139404, -0.3135916590690613, -0.9880571365356445, 0.32098138332366943, -0.957547664642334, 0.2004868984222412, -0.5105577111244202, -0.2877812683582306, -0.18482500314712524, -0.0366843044757843, 0.3555094003677368, 0.17046935856342316, -0.10321388393640518, -0.18519216775894165, -0.20043295621871948, 0.1895100474357605, 0.027140652760863304, 0.11411023139953613, 0.2670977711677551, 0.07519706338644028, -0.12868092954158783, -0.0034011316020041704, -0.00971358921378851, -0.38911259174346924, -0.20504142343997955, -0.25828543305397034, 0.14814932644367218, -0.49753129482269287, 0.31235530972480774, -0.410748153924942, -0.4550287127494812, 0.24152511358261108, 0.09686068445444107, 0.4153866171836853, 0.26570263504981995, 0.2748453915119171, -0.18806880712509155, -0.2286466509103775, 0.42177891731262207, -0.3510395884513855, -0.3504785895347595, -0.2582613229751587, 0.4218983054161072, -0.1591033637523651, 0.31579431891441345, -0.24563854932785034, -0.1251235008239746, 0.0814184844493866, 0.22993436455726624, -0.06026644632220268, -0.39325645565986633, 0.18530602753162384, -0.05891027674078941, -0.043671827763319016, 0.17302857339382172, -0.039340484887361526, -0.010936383157968521, -0.3892146944999695, 0.0034802351146936417, -0.30930575728416443, 0.07912497222423553, -0.20770420134067535, -0.18582861125469208, 0.26239168643951416, 0.3403129279613495, 0.41198667883872986, 0.2790018618106842, 0.3003203868865967, -0.27639326453208923, -0.018344348296523094, 0.07902539521455765, 0.2646629512310028, 0.10670449584722519, -0.09838367253541946, -0.2731505334377289, 0.24039456248283386, -0.09415898472070694, -0.07658275216817856, 0.3390856385231018, 0.18883953988552094, -0.0047830622643232346, -0.14893868565559387, 0.21157951653003693, -0.1939646601676941, 0.26472634077072144, -0.14902321994304657, -0.15557512640953064, -0.38282549381256104, -0.2018153965473175, -0.4524015784263611, 0.18327189981937408, -0.18421557545661926, -0.06653433293104172, -0.29183244705200195, -0.1835828274488449, 0.5897775888442993, 0.3854852020740509, 0.2327030748128891, -0.36393237113952637, 0.13378223776817322, -0.30634886026382446, -0.11928149312734604, 0.11906681209802628, 0.24715933203697205, -0.06867098808288574, 0.15235713124275208, -0.30677592754364014, 0.04428747296333313, 0.4555283188819885, -0.23016108572483063, -0.06834667921066284, -0.015763994306325912, -0.13151028752326965, -0.3326042890548706, 0.16942249238491058, 0.2053958922624588, -0.15241070091724396, -0.23811936378479004, 0.24523483216762543, 0.31766828894615173, 0.20309753715991974, 0.11105544865131378, 0.031439587473869324, 0.20370233058929443, -0.15437401831150055, 0.05336203798651695, 0.3033396601676941, -0.05814092606306076, 0.1001749262213707, -0.23532353341579437, 0.10100945085287094, -0.2663959264755249, 0.16696269810199738, 0.21142016351222992, -0.21467064321041107, -0.18567459285259247, -0.14932450652122498, -0.3785932660102844, 0.190476194024086, -0.46190905570983887, 0.10775334388017654, -0.05325706675648689, -0.32403281331062317, 0.10348866134881973, 0.06352832168340683, 0.21387127041816711, -0.4420420229434967, 0.18001161515712738, -0.15793824195861816, -0.18565668165683746, 0.42325618863105774, -0.04635696858167648, 0.03045620396733284, 0.014641547575592995, 0.10672088712453842, 0.1603771150112152, -0.3861880302429199, 0.1393890231847763, 0.04091011732816696, 0.1980971097946167, -0.04928385466337204, 0.18066522479057312, 0.30484530329704285, 0.05642132833600044, 0.04411230608820915, 0.18013545870780945, -0.26791250705718994, -0.3593828082084656, -0.24089977145195007, -0.2275882512331009, 0.22287896275520325, -0.04695100709795952, -0.11507175117731094, -0.18768464028835297, -0.11011570692062378, 0.3717387914657593, 0.2588297724723816, -0.13259588181972504, 0.2466800957918167, 0.1001104786992073, -0.07991032302379608, -0.07758025079965591, 0.02356526255607605, 0.1222115010023117, 0.3629063367843628, -0.3226048946380615, -0.07508599758148193, -0.2106975018978119, 0.13670402765274048, 0.13472412526607513, 0.3244149386882782, -0.3190675377845764, 0.1965963989496231, 0.1881590336561203, -0.23303109407424927, 0.10880354046821594, -0.12823282182216644, 0.06807176768779755, -0.02703479863703251, -0.11364533752202988, -0.24149863421916962, -0.21394149959087372, 0.17603935301303864, -0.04627483710646629, 0.05392207205295563, -0.07688034325838089, -0.00013793630932923406, -0.05173081159591675, -0.04653077945113182, -0.1740398406982422, -0.20830389857292175, 0.23529164493083954, -0.31917059421539307, -0.006837446708232164, -0.021217232570052147, 0.054062772542238235, -0.0962182953953743, -0.21266968548297882, 0.3987022936344147, -0.26664286851882935, -0.020679833367466927, 0.07234761863946915, -0.26503950357437134, 0.08676108717918396, 0.13754048943519592, -0.07893092185258865, -0.2685466706752777, 0.2804446220397949, -0.6160822510719299, 0.1485859900712967, -0.07160207629203796, -0.04896301403641701, 0.25786083936691284, 0.07733705639839172, -0.15508103370666504, -0.09405091404914856, -0.24068908393383026, 0.1590227633714676, -0.05426592379808426, 0.04776545986533165, 0.08936131000518799, -0.09230580925941467, 0.10114799439907074, -0.19656960666179657, 0.35065603256225586, 0.18870466947555542, 0.12392393499612808, 0.036062389612197876, -0.24644599854946136, -0.42702925205230713, 0.21850581467151642, -0.5882487893104553, 0.37832343578338623, -0.4220530390739441, 0.20045235753059387, 0.24471646547317505, -0.12937834858894348, 0.41914236545562744, 0.15471357107162476, -0.03800671175122261, 0.56157386302948, -0.43971720337867737, -0.2207893431186676, -0.03123476915061474, -0.08043939620256424, -0.07678084820508957, 0.06873583793640137, -0.20472955703735352, -0.043845098465681076, 0.11120746284723282, 0.29094982147216797, 0.14523006975650787, 0.032108087092638016, 0.10850052535533905, -0.25449272990226746, 0.061495572328567505, -0.22854319214820862, -0.01900525577366352, 0.27987098693847656, 0.036777179688215256, -0.01593264564871788, -0.09733615070581436, 0.023448830470442772, -0.20395918190479279, 0.0028722721617668867, 0.008189073763787746, -0.13163721561431885, -0.017938021570444107, -0.03155214339494705, -0.15063229203224182, -0.04130435362458229, 0.15141670405864716, 0.08415378630161285, -0.10328797250986099, 0.17135673761367798, 0.2159169316291809, 0.27353936433792114, -0.07668700814247131, -0.08098689466714859, 0.14977484941482544, 0.004944238346070051, 0.18479037284851074, -0.09823132306337357, -0.127679243683815, -0.029753826558589935, 0.04115137457847595, 0.06905822455883026, 0.1910412311553955, -0.010791230946779251, -0.19426709413528442, -0.07309330254793167, -0.10724178701639175, -0.010580924339592457, -0.11926448345184326, 0.10538482666015625, 0.007975656539201736, -0.1426900178194046, 0.03461982309818268, 0.005728932097554207, 0.05040417239069939, 0.03097538650035858, -0.004057248588651419, 0.11165615171194077, -0.29552415013313293, 0.12305530160665512, -0.18206126987934113, 0.03374487906694412, -0.16039106249809265, 0.03156498819589615, 0.15316087007522583, -0.24886396527290344, 0.2521246373653412, -0.27000269293785095, -0.061940617859363556, 0.12237299233675003, 0.13392804563045502, -0.06592690944671631, 0.2592887878417969, -0.014933501370251179, 0.181610569357872, -0.2104029804468155, -0.018616149201989174, 0.05657277628779411, 0.5188333988189697, -0.2620011270046234, -0.2401767075061798, 0.03806095942854881, -0.18468506634235382, 0.08744926750659943, -0.17298029363155365, -0.0703829973936081, -0.06691259145736694, 0.15219813585281372, -0.15545451641082764, 0.30847927927970886, 0.08105213195085526, 0.08486111462116241, -0.12546564638614655, 0.08652662485837936, -0.0027249869890511036, 0.0020585593301802874, 0.3673262596130371, -0.1732480227947235, -0.18770678341388702, 0.21776112914085388, -0.044614650309085846, -0.10009174793958664, 0.23006890714168549, -0.05934538319706917, -0.01751103810966015, -0.30584460496902466, 0.21067588031291962, 0.0880059078335762, 0.13716895878314972, -0.1073269322514534, -0.32755985856056213, -0.1900768280029297, -0.22657129168510437, -0.19130435585975647, -0.21238264441490173, -0.3685787618160248, -0.03342009708285332, -0.012136070057749748, 0.12203388661146164, -0.4172038733959198, -0.1589345484972, 0.053307659924030304, -0.05824408680200577, -0.20850588381290436, -0.20184114575386047, -0.04450392350554466, 0.049268513917922974, -0.09120874106884003, 0.37960490584373474, 0.19139385223388672, 0.11686062067747116, 0.1649143546819687, 0.20919710397720337, 0.10337737202644348, 0.019830193370580673, 0.059101805090904236, 0.161117821931839, -0.035578466951847076, -0.07265966385602951, -0.11514405161142349, -0.3597225248813629, 0.12871962785720825, -0.0956534892320633, 0.17149561643600464, 0.11855902522802353, 0.1574324667453766, 0.09177777916193008, 0.06731538474559784, 0.18335026502609253, -0.10523035377264023, 0.059966616332530975, 0.19485372304916382, 0.1089354082942009, -0.21682457625865936, -0.12690860033035278, -0.2169373631477356, -0.02167312614619732, 0.1474732905626297, -0.17122049629688263, -0.20927689969539642, -0.17447803914546967, -0.07024768739938736, 0.15093396604061127, -0.1299528330564499, 0.13935266435146332, 0.09732988476753235, -0.2320472151041031, 0.05106418579816818, -0.021925225853919983, -0.22652772068977356, -0.07792823016643524, -0.2181873917579651, -0.011858019046485424, -0.17040260136127472, 0.7429192662239075, 0.04811824858188629, -0.07939828187227249, 0.2476908415555954, -0.12699060142040253, -0.01670144870877266, 0.15103831887245178, 0.2866264879703522, 0.11645275354385376, 0.08894295245409012, -0.0017985074082389474, -0.16034895181655884, -0.024681219831109047, -0.049120113253593445, 0.009304210543632507, -0.0346958301961422, -0.19425301253795624, 0.26932790875434875, 0.26529404520988464, 0.35103943943977356, 0.1257108449935913, 0.025035088881850243, -0.11339343339204788, 0.17492836713790894, 0.034298986196517944, -0.08048315346240997, -0.021035341545939445, -1.1781286001205444, 0.10099835693836212, 0.2053874135017395, 0.27265074849128723, 0.11919083446264267, 0.1823764592409134, -0.1740523874759674, -0.08000191301107407, -0.042032625526189804, -0.11073409765958786, -0.023824671283364296, 0.31946247816085815, 0.13775041699409485, -0.03855842351913452, -0.05687124654650688, -0.06572505831718445, -0.2774183750152588, -0.18369445204734802, 0.027536289766430855, -0.005726428236812353, -0.04643698409199715, -0.02376476302742958, 0.076126828789711, -0.6483654975891113, -0.22865022718906403, -0.232991024851799, -0.1648624986410141, -0.06694549322128296, 0.08710333704948425, 0.1767067164182663, -0.09899793565273285, 0.12162785977125168, -0.1698276549577713, 0.05882009491324425, 0.048726364970207214, 0.04115213453769684, -0.21029962599277496, 0.01998942717909813, -0.12091391533613205, 0.03562300279736519, -0.0054671731777489185, 0.07211178541183472, 0.063214510679245, -0.0007418549503199756, 0.01842716708779335, -0.19640572369098663, 0.10719892382621765, -0.044874679297208786, -0.1128704845905304, 0.07821077108383179, 0.3509066104888916, -0.016635838896036148, 0.004811917897313833, 0.10747241973876953, -0.02001158520579338, -0.1898275464773178, 0.2592482566833496, 0.020924126729369164, -0.036981001496315, 0.08897992223501205, -0.1223268061876297, -0.17549875378608704, 0.01503671519458294, 0.045653335750103, -0.058761052787303925, 0.01656869426369667, -0.019131097942590714, 0.2969319522380829, -0.25389865040779114, -0.08207932859659195, 0.19502495229244232, -0.0027426062151789665, -0.1313633769750595, 0.04362167418003082, -0.2669876217842102, -0.1106138676404953, 0.12806706130504608, 0.14776693284511566, -0.05927615240216255, -0.2649131417274475, -0.23594169318675995, 0.07692188769578934, 0.09068702906370163, 0.09064481407403946, -0.011871655471622944, -0.10979855060577393, 0.2773326337337494, 0.2155609279870987, 0.19167855381965637, 0.23126935958862305, -0.07677068561315536, -0.19034786522388458, 0.0803457573056221, 0.12360868602991104, -0.12567751109600067, 0.10539727658033371, 0.03397289291024208, -0.03443767875432968, 0.10657399147748947, -0.1295080929994583, 0.013269826769828796, -0.17752327024936676, -0.14496877789497375, 0.08821409940719604, 0.02705356664955616, -0.0640796646475792, -0.07488689571619034, -0.15809008479118347, -0.04967280104756355, -0.07687640190124512, 0.034300144761800766, 0.10230444371700287, 0.016584454104304314, -0.10788461565971375, -0.18169409036636353, -0.12094850093126297, 0.029078399762511253, 0.18140171468257904, 0.012350102886557579, 0.016036806628108025, 0.25336816906929016, -0.04545782133936882, 0.34852319955825806, 0.054058484733104706, -0.1214834675192833, -0.06665106117725372, 0.08113766461610794, 0.18487152457237244, 0.13752858340740204, 0.08120730519294739, -0.07570161670446396, -0.2337018996477127, 0.024890778586268425, -0.06525734066963196, 0.26551052927970886, 0.10944406688213348, -0.16119349002838135, -0.1080385223031044, -0.015514371916651726, 0.14661328494548798, 0.07757136225700378, 0.06253153085708618, 0.12669487297534943, -0.24363209307193756, -0.11799242347478867, -0.05206051096320152, -0.05398845672607422, -0.08867491781711578, -0.10059517621994019, 0.2519276738166809, 0.14707884192466736, -0.12285333126783371, 0.1684492528438568, 0.05787975341081619, 0.07146641612052917, 0.14098282158374786, 0.18100586533546448, -0.06653394550085068, -0.03936626389622688, -0.021495068445801735, 0.14001958072185516, -0.1813652068376541, 0.09384419769048691, -0.0047797649167478085, -0.41645827889442444, -0.028370535001158714, 0.15474310517311096, 0.09985765814781189, 0.0012594937579706311, -0.03798718750476837, -0.336654394865036, -0.04090302437543869, -0.03872039169073105, 0.12008586525917053, 0.0807512104511261, -0.1373155266046524, -0.30552664399147034, -0.0629110187292099, -0.09583631157875061, 0.2998031675815582, -0.04291689395904541, -0.006749982014298439, 0.12395225465297699, 0.2037743180990219, -0.13283926248550415, 0.21337257325649261, 0.1084032952785492, 0.09715719521045685, 0.013806356117129326, -0.06340304762125015, 0.03338371217250824, 0.27308061718940735, 0.19464993476867676, -0.07768363505601883, -0.05777785927057266, -0.12843893468379974, -0.05591538920998573, -0.15003558993339539, -0.07020056992769241, -0.0395195372402668, -0.0006156332674436271, -0.12488210946321487, -0.04619331657886505, 0.15860192477703094, 0.01711370423436165, -0.12323278933763504, -0.09437160193920135, 0.13330140709877014, -0.13887259364128113, -0.1777658313512802, -0.007341508753597736, 0.03425729647278786, -0.3115634322166443, -0.12819722294807434, -0.025946756824851036, 0.32235512137413025, -0.029725631698966026, 0.048783812671899796, -0.061226729303598404, 0.05478162690997124, 0.09997760504484177, 0.1315716803073883, -0.145013689994812, 0.011394158937036991, -0.29944390058517456, 0.14931786060333252, 0.1009875014424324, 0.1559322625398636, 0.10339775681495667, -0.12257347255945206, -0.33022943139076233, -0.20308108627796173, -0.0939360111951828, -0.10102792084217072, 0.027505837380886078, -0.07552420347929001, -0.10939536243677139, -0.19690674543380737, -0.02447698265314102, 0.35478469729423523, 0.1312030404806137, 0.003393055172637105, 0.2355923056602478, 0.06948389858007431, 0.16225068271160126, -0.26903873682022095, -0.015653885900974274, -0.0370994471013546, -0.07586091011762619, 0.09819630533456802, 0.14373868703842163, -0.132562056183815, 0.005775554105639458, 0.18433305621147156, -0.15489046275615692, -0.0179214458912611, -0.03418489918112755, 0.11044669896364212, 0.043762337416410446, -0.06198588386178017, -0.05886153131723404, 0.04287715628743172, -0.07743696868419647, -0.330990195274353, 0.33637523651123047, 0.0004715014365501702, 0.16197392344474792, -0.18122537434101105, -0.20993764698505402, -0.18895207345485687, -0.16018877923488617, 0.1875823736190796, 0.2700420320034027, -0.08717045187950134, -0.04953223466873169, -0.08114773035049438, 0.07373236864805222, 0.07463089376688004, -0.2829999625682831, 0.09226331859827042, 0.007847181521356106, -0.1786048263311386, 0.009587248787283897, 0.05254508554935455, -0.18722839653491974, -0.11136148124933243, 0.1894475817680359, -0.01730394922196865, 0.15072765946388245, -0.1361200362443924, 0.004375956021249294, -0.06586702167987823, -0.20380951464176178, -0.1440509855747223, -0.14938132464885712, -0.029578885063529015, -0.03296324983239174, -0.035649023950099945, 0.07900016009807587, -0.12261831015348434, 0.0059585790149867535, 0.12575756013393402, -0.05324164032936096, -0.03159168362617493, 0.04747828096151352, 0.14263176918029785, -0.1674562692642212, -0.11881530284881592, 0.15789267420768738, 0.024448342621326447, -0.16878816485404968, -0.2257377803325653, 0.19191746413707733, -0.10131801664829254, 0.2668007016181946, 0.11679711937904358, -0.007322622463107109, -0.03476040065288544, 0.1431281715631485, 0.09833742678165436, 0.14470362663269043, -0.03191881626844406, 0.007698095869272947, -0.03189878538250923, -0.004867481533437967, 0.11545021086931229, -0.037212688475847244, 0.006544328760355711, -0.017718970775604248, 0.05250027775764465, 0.06817591190338135, 0.08443862199783325, 0.08666493743658066, -0.06059042736887932, 0.09702463448047638, -0.13505919277668, 0.10273975878953934, -0.16246043145656586, 0.23951789736747742, -0.07479935139417648, -0.05543452873826027, -0.2361321598291397, -0.12658782303333282, 0.2639491856098175, -0.22841936349868774, -0.20086249709129333, 0.1317594200372696, -0.13503742218017578, -0.0022602526005357504, 0.30066296458244324, -0.2670484781265259, 0.009386058896780014, 0.1366841346025467, 0.1769288033246994, -0.014609665609896183, -0.12793874740600586, -0.15999272465705872, -0.5061370134353638, -0.057869601994752884, -0.11625899374485016, 0.10078970342874527, 0.11261021345853806, 0.29735109210014343, -0.07169263064861298, -0.29921624064445496, -0.309557169675827, 0.050323836505413055, 0.07063163816928864, 0.04601256921887398, -0.07593763619661331, -0.31800249218940735, -0.2966793477535248, -0.10743851959705353, 0.1523093283176422, 0.028462093323469162, -0.02234851010143757, 0.31922897696495056, -0.16904397308826447, -0.017746564000844955, 0.15801769495010376, -0.3106556236743927, -0.14751684665679932, 0.3828152120113373, -0.012376473285257816, 0.14040875434875488, -0.10588204860687256, -0.00037583193625323474, -0.0588359460234642, -0.03843723610043526, -0.22372564673423767, 0.039408668875694275, 0.10573913902044296, -0.013197989203035831, 0.047700293362140656, -0.0641036182641983, -0.07326149940490723, -0.16079367697238922, 0.08988050371408463, -0.001742193358950317, 0.02648334391415119, 0.25383663177490234, 0.12849943339824677, 0.11404036730527878, -0.005192950833588839, -0.05354882404208183, 0.15912958979606628, -0.07059018313884735, -0.0721895843744278, -0.45763328671455383, -0.3007643222808838, 0.08398669958114624, -0.12293995916843414, -0.06945399940013885, -0.024040842428803444, -0.16326302289962769, 0.11690592765808105, -0.020473603159189224, 0.08521732687950134, -0.03175608068704605, -0.18002724647521973, 0.11632498353719711, -0.0448545478284359, 0.3900667130947113, 0.04178018122911453, 0.2772715091705322, -0.02277284860610962, 0.07833468914031982, -0.034648288041353226, 0.20438487827777863, 0.2175981104373932, 0.20753757655620575, -0.060023270547389984, 0.07791811227798462, -0.12830212712287903, 0.046458013355731964, 0.0005082792486064136, 0.05367458611726761, -0.03901881352066994, 0.10898202657699585, 0.006958633195608854, 0.07939360290765762, -0.08893023431301117, 0.053840748965740204, -0.04093533009290695, -0.04366469383239746, -0.062151260673999786, -0.14703640341758728, -0.16932158172130585, 0.26263198256492615, -0.0429094061255455, 0.06898217648267746, -0.10084722191095352, 0.012038199231028557, 0.014018944464623928, -0.04627109318971634, -0.4250746965408325, -0.19575214385986328, -0.16494226455688477, 0.15431521832942963, 0.0567907840013504, -0.09486179798841476, -0.029949039220809937, -0.011924668215215206, 0.12011956423521042, 0.21940812468528748, -0.03359099477529526, 0.1353304386138916, -0.03921724483370781, 0.1217837855219841, -0.077610544860363, -0.05585339292883873, -0.1550254374742508, 0.013025299645960331, -0.13826212286949158, 0.07936517894268036, 0.06626357138156891, 0.03386259451508522, 0.22194010019302368, 0.1862967610359192, -0.030191969126462936, -0.07529781013727188, -0.09424443542957306, 0.032376449555158615, -0.12990863621234894, -0.0639994740486145, 0.131105437874794, 0.08669555187225342, -0.006052663549780846, 0.1694646030664444, -0.19986966252326965, 0.06336510926485062, 0.049891408532857895, -0.18052107095718384, 0.11887774616479874, -0.08801690489053726, -0.2892170548439026, -0.07772011309862137, -0.16768579185009003, -0.0005421423702500761, -0.22951215505599976, 0.29723113775253296, -0.006190132815390825, -0.18370048701763153, 0.00706721656024456, -0.05611955374479294, 0.08187133818864822, -0.02541346661746502, 0.12556642293930054, -0.022337187081575394, 0.14251214265823364, -0.29016369581222534, 0.13509511947631836, 0.11239998787641525, 0.18747518956661224, -0.008277046494185925, -0.022396957501769066, -0.06137702241539955, -0.009081765078008175, -0.02696823701262474, -0.16751766204833984, 0.04737835004925728, 0.11068446189165115, -0.13856595754623413, 0.018840830773115158, 0.1875888705253601, -0.19945770502090454, 0.11983687430620193, -0.2262393981218338, -0.029845809563994408, 0.03482044115662575, 0.1253075897693634, -0.010305804200470448, 0.00784347951412201, 0.06875129044055939, 0.007280054502189159, 0.26966023445129395, 0.11532142013311386, 0.18501806259155273, 0.3255533277988434, -0.019398566335439682, 0.2814406752586365, 0.03430916368961334, 0.07656087726354599, 0.015128672122955322, 0.1275729089975357, 0.007581837475299835, 0.24974343180656433, 0.269413024187088, 0.2458379715681076, -0.1254940927028656, -0.056582119315862656, 0.05420107766985893, 0.2851560413837433, 0.07162488996982574, -0.036105480045080185, -0.3155195713043213, 0.0314205177128315, 8.763788173382636e-06, -0.048431072384119034, -0.20509721338748932, -0.014513972215354443, -0.2993459403514862, -0.014187552034854889, 0.0035180242266505957, -0.2033294290304184, 0.024615662172436714, -0.040563106536865234, 0.3863295912742615, 0.001412286190316081, -0.1493678092956543, 0.15559148788452148, -0.2330469936132431, 0.031520143151283264, -0.012683480978012085, -0.06612404435873032, 0.012769633904099464, 0.012512256391346455, -0.00538964569568634, -0.26934924721717834, -0.005944099277257919, -0.1721467524766922, 0.010846653021872044, -0.012122741900384426, 0.2899870276451111, 0.243865966796875, 0.21407033503055573, -0.13143891096115112, 0.012815789319574833, -0.10020492970943451, 0.31532901525497437, -0.06868681311607361, 0.18156783282756805, 0.013853386975824833, -0.24022655189037323, -0.022780869156122208, -0.03931836783885956, -0.24746225774288177, -0.34306418895721436, -0.7890380024909973, 0.5412064790725708, 0.5837255716323853, -0.2120574563741684, 0.3066140115261078, -0.40236374735832214, 0.06934354454278946, 0.7802894115447998, -1.038448691368103, 0.7069877982139587, 0.32264938950538635, -0.23778635263442993, -0.6321769952774048, 0.021004708483815193, -0.43412527441978455, 0.1428060233592987, 0.028282685205340385, -0.08097042888402939, -0.42577463388442993, 0.08558106422424316, 0.33394739031791687, 0.1517602801322937, 0.017339907586574554, 0.5054134726524353, 0.12399324774742126, 0.09676419198513031, -0.009880316443741322, -0.48712268471717834, 0.02316546067595482, -0.31617704033851624, -0.15701444447040558, 0.28198692202568054, 0.15537485480308533, 0.16153167188167572, 0.057823602110147476, 0.03800955042243004, 0.17766201496124268, 0.1515209972858429, -0.3978825807571411, -0.4922129809856415, 0.12998837232589722, 0.14652270078659058, 0.003748151706531644, 0.21998988091945648, 0.3777693212032318, 0.16113552451133728, -0.1280771791934967, 0.04569004103541374, -0.08990585058927536, 0.11828460544347763, -0.32129383087158203, 0.005654537584632635, -0.20581239461898804, 0.039365049451589584, -0.2837423086166382, -0.29040178656578064, 0.19657346606254578, -0.160122811794281, 0.45400747656822205, 0.4412553310394287, -0.22729934751987457, -0.08450856804847717, 0.15163502097129822, 0.34447863698005676, -0.02739378623664379, 0.07035774737596512, -0.30763164162635803, -0.09688584506511688, 0.25179415941238403, -0.2150503545999527, 0.16021747887134552, 0.38374924659729004, 0.14311543107032776, 0.026874935254454613, 0.5072349905967712, 0.04586176946759224, 0.07952768355607986, 0.08951225131750107, -0.19236096739768982, 0.11196000128984451, -0.03853421285748482, 0.5691547393798828, -0.10910803824663162, -0.3147859275341034, -0.2704938054084778, 0.5112006664276123, -0.18232625722885132, -0.009594297036528587, 0.05254996195435524, 0.16216568648815155, 0.2297365665435791, -0.08706536144018173, -0.07939673960208893, -0.11337482929229736, -0.3305807411670685, -0.002385316416621208, -0.26291796565055847, 0.13079459965229034, -0.20481126010417938, -0.1832667589187622, -0.16784918308258057, 0.3201364278793335, 0.08898945152759552, -0.3505516052246094, -0.04147942736744881, 0.1636471003293991, 0.32024431228637695, 0.2403332144021988, 0.24821166694164276, 0.2972281277179718, 0.023262158036231995, 0.0658562183380127, -0.22057701647281647, -0.03427756577730179, 0.29889580607414246, 0.4107745885848999, -0.2162536084651947, -0.08080166578292847, -0.1095215231180191, -0.5673140287399292, -0.24458321928977966, 0.21071195602416992, -0.055698495358228683, 0.42030903697013855, 0.241359144449234, 0.06601720303297043, 0.28688374161720276, 0.16705940663814545, 0.1007620245218277, -0.2406647950410843, -0.09377705305814743, 0.10221903026103973, -0.16762565076351166, 0.07859490066766739, 0.08847103267908096, -0.06457861512899399, 0.08882586658000946, 0.18349957466125488, 0.18386997282505035, 7.57861344027333e-05, 0.2543790936470032, -0.040219616144895554, -0.07991089671850204, -0.14812615513801575, 0.2210932970046997, -0.19031354784965515, 0.015361095778644085, 0.2751060724258423, 0.041252944618463516, -0.31598058342933655, -0.017360800877213478, 0.025858907029032707, 0.2187591791152954, -0.18491609394550323, 0.38010215759277344, -0.26256808638572693, -0.14961819350719452, 0.021006980910897255, -0.00406738743185997, 0.18237346410751343, -0.25282853841781616, -0.09248727560043335, 0.23821640014648438, 0.09945136308670044, 0.17825454473495483, -0.11911939084529877, -0.00819338671863079, 0.090186707675457, -0.10891559720039368, 0.13628897070884705, -0.15864330530166626, -0.2069491446018219, -0.08116837590932846, 0.2660590708255768, -0.18106719851493835, 0.3226192593574524, -0.2559119164943695, -0.12888972461223602, -0.2608112394809723, 0.22382767498493195, -0.07227369397878647, 0.09179060906171799, -0.17162266373634338, 0.3454294800758362, 0.019124453887343407, -0.2392703890800476, 0.15397946536540985, -0.12725993990898132, -0.24580368399620056, 0.07615745812654495, 0.12643998861312866, 0.14667148888111115, 0.025705143809318542, -0.10643761605024338, -0.009673254564404488, -0.14863480627536774, 0.16249960660934448, 0.3010983169078827, 0.0186295323073864, -0.056306883692741394, -0.12884674966335297, -0.21774131059646606, 0.35678988695144653, -0.4745023846626282, -0.4441581964492798, -0.3067129850387573, 0.1657782346010208, -0.3446930944919586, -0.08653417229652405, -0.31752800941467285, -0.34835106134414673, 0.29189246892929077, 0.1855504810810089, -0.4120856821537018, -0.21930544078350067, 0.2884843349456787, 0.0767291858792305, -0.30361974239349365, 0.04537775740027428, -0.0767633393406868, -0.0637529268860817, -0.1453021913766861, 0.036546774208545685, -0.567886471748352, 0.3336813151836395, -0.35862967371940613, -0.1154409646987915, 0.10139606893062592, 0.0272211991250515, -0.02539140172302723, -0.37637606263160706, -0.019577721133828163, 0.058028701692819595, -0.03860318288207054, -0.30793482065200806, -0.10031413286924362, 0.020680926740169525, -0.5676417946815491, 0.20642152428627014, 0.0819799154996872, 0.4146724045276642, 0.054977983236312866, -0.16132070124149323, -0.29200300574302673, -0.3189793527126312, 0.29199454188346863, -0.3781983554363251, -0.07977724820375443, 0.4132704436779022, 0.19929492473602295, 0.6107710003852844, 0.049432773143053055, 0.13033387064933777, -0.009379701688885689, -0.25950828194618225, -0.04731476679444313, 0.23728562891483307, -0.06835228204727173, -0.548362135887146, -0.3044126331806183, -0.2888394296169281, 0.10615066438913345, -0.3306591808795929, -0.24503909051418304, 0.604840099811554, 0.3166141211986542, 0.6692268252372742, -0.17082493007183075, 0.05106862634420395, -0.18463441729545593, 0.14385786652565002, 0.255825400352478, 0.04702841117978096, 0.001379038323648274, 0.1871311068534851, -0.08748325705528259, 0.083824522793293, -0.24389895796775818, -0.09349764138460159, -0.196587935090065, -0.07967919111251831, 0.17894461750984192, 0.19721275568008423, 0.2604258954524994, 0.22367918491363525, 0.16647638380527496, 0.11217264831066132, 0.12443399429321289, -0.15288494527339935, 0.10281103849411011, -0.23732365667819977, -0.08706409484148026, 0.18176054954528809, 0.17626819014549255, -0.23876099288463593, -0.006105488631874323, -0.028419628739356995, 0.08759012818336487, -0.016633063554763794, -0.11776901036500931, -0.11962424218654633, -0.07825124263763428, -0.14694365859031677, 0.0004135983472224325, 0.051637522876262665, 0.10601822286844254, -0.09856429696083069, 0.20277346670627594, -0.2994743585586548, 0.13591940701007843, 0.11337512731552124, 0.1207660660147667, -0.232736736536026, -0.18537260591983795, -0.12237691879272461, 0.2024538815021515, -0.006729270797222853, 0.011073416098952293, -0.24994629621505737, 0.16858293116092682, 0.14272460341453552, -0.1277817189693451, -0.0848422721028328, 0.0013383171753957868, -0.05662387236952782, -0.1695311963558197, 0.11340824514627457, -0.08589325845241547, -0.19460663199424744, -0.30464404821395874, -0.16929858922958374, 0.01926625892519951, -0.12938140332698822, -0.3548814654350281, 0.1470411717891693, -0.04044853150844574, 0.5221602916717529, -0.40560778975486755, 0.36771073937416077, 0.19323095679283142, 0.09238430112600327, -0.1510554701089859, -0.2596019506454468, -0.14781275391578674, -0.1430760771036148, -0.13037705421447754, 0.09664905071258545, 0.027626074850559235, 0.11108846217393875, 0.46285489201545715, 0.277869313955307, 0.0479118786752224, -0.034230124205350876, 0.25747150182724, -0.1413211226463318, 0.009714734740555286, 0.10618087649345398, 0.022714929655194283, 0.25591740012168884, -0.07184267789125443, 0.02371423877775669, -0.3089911937713623, 0.15722092986106873, 0.31945836544036865, 0.24451211094856262, 0.02723463624715805, 0.7719350457191467, -0.3165823519229889, 0.09385279566049576, -0.5473579168319702, -0.016269458457827568, 0.002630586503073573, 0.08044344931840897, -0.09417065232992172, 0.04137395694851875, 0.08897525072097778, -0.38742634654045105, 4.5059532567393035e-05, 0.20685835182666779, 0.2979618012905121, -0.4533745050430298, 0.06678532063961029, 0.09153144061565399, -0.3542965352535248, -0.1497114598751068, 0.20196007192134857, 0.047696035355329514, -0.2150246948003769, -0.09230343997478485, -0.034089792519807816, -0.1476505845785141, 0.0968264564871788, -0.1972673237323761, -0.5748936533927917, -0.06016093119978905, 0.33979418873786926, 0.15910665690898895, -0.06492304056882858, 0.2632332146167755, -0.07071845978498459, -0.14846427738666534, 0.03945498540997505, 0.5849806666374207, -0.06651869416236877, -0.15771208703517914, -0.04067770019173622, -0.1488993763923645, 0.06453724950551987, -0.02833331562578678, 0.04552910476922989, 0.03382414951920509, 0.04027784988284111, 0.14679722487926483, -0.21858851611614227, 0.09198442101478577, 0.3307360112667084, -0.20529597997665405, 0.20148177444934845, 0.07904808223247528, -0.12665319442749023, 0.0006314858910627663, 0.027850737795233727, -0.23848628997802734, 0.044765353202819824, -0.2594689130783081, -0.08745533972978592, -0.13299724459648132, -0.22532807290554047, -0.28255778551101685, 0.03653391823172569, -0.1733940690755844, -0.016206948086619377, 0.16618306934833527, -0.19661951065063477, -0.11993150413036346, 0.034474972635507584, 0.07460910081863403, 0.28164029121398926, -0.06285568326711655, -0.24916529655456543, -0.07193244993686676, 0.15813711285591125, -0.3006570041179657, -0.09646299481391907, 0.10147269070148468, -0.004688447806984186, -0.07102855294942856, 0.0812697634100914, 0.09771060198545456, 0.44481950998306274, 0.2146882861852646, 0.04244275391101837, -0.10642211884260178, 0.09959869086742401, 0.3121901750564575, 0.20597273111343384, -0.17059828341007233, -0.2496880143880844, -0.29747554659843445, 0.08015289157629013, 0.22280773520469666, 0.12383231520652771, 0.051936980336904526, -0.2796631157398224, 0.09533142298460007, 0.06357508897781372, -0.0003210751456208527, 0.1469317227602005, 0.10690337419509888, -0.24342812597751617, 0.21239954233169556, 0.015531834214925766, -0.27154210209846497, -0.24423964321613312, 0.052786361426115036, 0.0664355605840683, -0.08163629472255707, 0.06517991423606873, -0.09397672861814499, 0.10449516773223877, 0.06559354066848755, -0.21669289469718933, 0.22666586935520172, 0.14497101306915283, -0.042368534952402115, -0.15000253915786743, 0.3927169740200043, -0.01725732535123825, 0.1585911512374878, 0.14876990020275116, 0.09106973558664322, 0.22982610762119293, -0.1636742800474167, -0.10969366133213043, -0.014745974913239479, 0.21998277306556702, 0.168048694729805, 0.04939153417944908, -0.04375453665852547, 0.026558922603726387, 0.1979605108499527, -0.06298084557056427, -0.07837659120559692, -0.19429756700992584, 0.25596481561660767, -0.02117949165403843, -0.04597308114171028, -0.20212382078170776, 0.00457039475440979, 0.06300374865531921, 0.2666727304458618, -0.012703479267656803, -0.09150724858045578, 0.03812608867883682, -0.08360317349433899, -0.20150843262672424, 0.13733899593353271, 0.05509164184331894, -0.22067591547966003, 0.03289271891117096, -0.06675160676240921, 0.11960646510124207, -0.028940469026565552, -0.08177144825458527, 0.23246142268180847, 0.32423135638237, -0.09595052897930145, -0.06131305173039436, 0.13218717277050018, -0.0020966799929738045, 0.026807820424437523, 0.1322435736656189, -0.1245599091053009, -0.07087481021881104, 0.35353606939315796, 0.1280757337808609, -0.18590332567691803, 0.06553536653518677, -0.061472088098526, 0.23991759121418, -0.17434513568878174, -0.10402795672416687, -0.05226651206612587, -0.08004939556121826, 0.06794540584087372, -0.013459894806146622, 0.09173854440450668, -0.08875201642513275, 0.08423081040382385, -0.10404624044895172, -0.11620422452688217, -0.2509205937385559, 0.18520361185073853, -0.056856121867895126, 0.06961815059185028, -0.070327028632164, -0.05183453857898712, 0.06888318806886673, 0.0013682413846254349, -0.03094080649316311, -0.06201157718896866, 0.19993767142295837, 0.1798871010541916, -0.06693810224533081, 0.08207820355892181, -0.07114242017269135, -0.18138155341148376, 0.11540260910987854, -0.11439602077007294, 0.058783892542123795, 0.13101662695407867, -0.1165907233953476, -0.06319411844015121, 0.6215832233428955, -0.053860459476709366, 0.20741240680217743, -0.2383398413658142, -0.028696300461888313, -0.16561608016490936, -0.28866836428642273, -0.0670732855796814, 0.06578321754932404, -0.20802268385887146, 0.09132318943738937, -0.10514438152313232, -0.46337711811065674, -0.15132087469100952, -0.012037914246320724, 0.1588456630706787, -0.05612269043922424, -0.09573415666818619, -0.3492128252983093, 0.0614621601998806, -0.2087024450302124, -0.06481710821390152, 0.10847479104995728, 0.2360726296901703, 0.0784175917506218, -0.005251460243016481, -0.03595465049147606, -0.05721402168273926, 0.043523792177438736, -0.05857626348733902, 0.18004952371120453, 0.018812650814652443, -0.26446035504341125, -0.47855859994888306, -0.10441764444112778, 0.04477494955062866, -0.2608863115310669, -0.18032234907150269, 0.19961443543434143, -0.13662800192832947, -0.02843712642788887, -0.05370092764496803, -0.07653016597032547, 0.013622574508190155, 0.04227865859866142, 0.040386781096458435, 0.05194348841905594, 0.23247666656970978, -0.5172573924064636, -0.14864712953567505, -0.11791658401489258, -0.10826411843299866, -0.06956087797880173, -0.06602901220321655, -0.11113173514604568, 0.2256414294242859, -0.03180452436208725, -0.33707669377326965, 0.020443079993128777, -0.06825282424688339, 0.12504518032073975, -0.13686561584472656, -0.21584324538707733, 0.1800747960805893, -0.00479251379147172, -0.1065402626991272, -0.12284058332443237, -0.11739588528871536, 0.06184097006917, -0.16861841082572937, 0.18967631459236145, -0.1515107899904251, 0.130942240357399, 0.03869931399822235, 0.1578623354434967, -0.1388661414384842, -0.09179259091615677, -0.14135318994522095, 0.050151579082012177, 0.11801057308912277, -0.11623712629079819, -0.20970016717910767, -0.2577189803123474, 0.02331027016043663, -0.20275180041790009, 0.0700012668967247, 0.15835273265838623, -0.07518074661493301, -0.022580906748771667, 0.10516014695167542, -0.27493301033973694, -0.08252459764480591, -0.1557941734790802, -0.14323194324970245, 0.09043291211128235, -0.04520854353904724, -0.37218648195266724, 0.06562156975269318, -0.038741808384656906, 0.2593157887458801, 0.2901587188243866, -0.01868860051035881, -0.09387385845184326, 0.17960166931152344, 0.10907720029354095, -0.28238484263420105, -0.00820699892938137, -0.2128399759531021, -0.20976239442825317, -0.12222953885793686, -0.27485716342926025, -0.024137141183018684, 0.06748198717832565, -0.3159695565700531, 0.03927064314484596, -0.05108806490898132, -0.056570954620838165, 0.028666242957115173, -0.17459073662757874, -0.20129917562007904, -0.06965845823287964, -0.03770851716399193, 0.11881287395954132, -0.04166718199849129, -0.201629176735878, -0.053797148168087006, 0.19135023653507233, -0.02880036272108555, 0.15730656683444977, -0.20872652530670166, -0.11844693869352341, 0.22566480934619904, 0.03142877668142319, -0.23124709725379944, 0.2373248040676117, -0.03253836929798126, -0.1944463700056076, 0.00888750422745943, 0.19431990385055542, -0.11448731273412704, -0.04506460949778557, 0.07220332324504852, 0.056463439017534256, -0.08044936507940292, -0.24967730045318604, 0.2871060371398926, -0.3802430033683777, -0.20486177504062653, 0.013265947811305523, -0.09230601787567139, -0.22741423547267914, 0.00928636733442545, 0.19475018978118896, -0.21797135472297668, 0.03053402341902256, 0.05651164799928665, -0.1370212733745575, -0.0006431248621083796, -0.02632106840610504, 0.13599708676338196, 0.11319756507873535, -0.21105678379535675, 0.08061956614255905, -0.13739395141601562, -0.18181438744068146, -0.09946264326572418, 0.2345103919506073, -0.13480690121650696, 0.15112170577049255, 0.10086605697870255, 0.17322850227355957, -0.07422634959220886, -0.02111193537712097, -0.24270398914813995, 0.17216001451015472, -0.018789218738675117, -0.17293475568294525, 0.016347059980034828, 0.015661515295505524, 0.03461406007409096, -0.1778181940317154, -0.04982640594244003, 0.13230940699577332, -0.16120296716690063, -0.11743228137493134, 0.003641663119196892, -0.01289998646825552, -0.0781664177775383, -0.01007930189371109, 0.07764789462089539, -0.06493827700614929, 0.07707121223211288, -0.3341819643974304, 0.26896601915359497, -0.00844356045126915, -0.2944134473800659, 0.04862981662154198, 0.04949226602911949, 0.03157997503876686, 0.018327752128243446, -0.2327372431755066, -0.041182007640600204, 0.15471963584423065, -0.027974765747785568, 0.22543907165527344, -0.21630217134952545, 0.0024749874137341976, -0.11336978524923325, -0.023640574887394905, 0.3090687096118927, 0.26291054487228394, 0.10867606848478317, 0.045483339577913284, 0.48290538787841797, -0.028214434161782265, 0.07969577610492706, 0.028540577739477158, -0.036636706441640854, -0.13753125071525574, 0.01853727176785469, 0.14135925471782684, 0.04886029288172722, 0.1223982498049736, -0.049855682998895645, -0.1939423382282257, 0.07569868117570877, 0.08524971455335617, 0.019688542932271957, -0.13545717298984528, 0.10018473118543625, -0.02307763695716858, -0.09604190289974213, 0.18859286606311798, -0.022892626002430916, -0.24586553871631622, 0.15081872045993805, 0.04580197110772133, -0.09175525605678558, -0.12163318693637848, 0.09995944052934647, -0.07844405621290207, -0.1552329659461975, -0.016092561185359955, 0.026783011853694916, 0.18265481293201447, -0.16115283966064453, -0.03823288902640343, -0.016832545399665833, 0.01512568723410368, -0.26264286041259766, 0.12440696358680725, -0.11472390592098236, -0.24139325320720673, -0.05340011045336723, -0.26437297463417053, -0.07334930449724197, 0.1192420944571495, -0.2028810828924179, -0.16673649847507477, -0.10533735901117325, -0.08448141068220139, -0.29599541425704956, 0.08890581876039505, -0.04360601678490639, 0.06848184764385223, 0.1722460389137268, 0.011937476694583893, -0.17789728939533234, -0.06156003102660179, -0.18778230249881744, 0.24506795406341553, 0.11705082654953003, 0.1880374550819397, -0.20276333391666412, 0.10623041540384293, 0.19152279198169708, -0.15324053168296814, 0.02391374111175537, 0.1685800403356552, 0.019852979108691216, -0.21603108942508698, 0.24597227573394775, -0.12619084119796753, 0.03376837447285652, -0.30774688720703125, -0.1834421455860138, -0.024828528985381126, -0.1377618908882141, -0.43230846524238586, 0.23124337196350098, -0.35839584469795227, -0.021442202851176262, -0.2772546410560608, -0.2938002347946167, -0.165713831782341, -0.3153877556324005, -0.16019268333911896, -0.1042371392250061, -0.025307945907115936, -0.09996876120567322, 0.09557774662971497, -0.10281495749950409, 0.08742020279169083, 0.06983543187379837, -0.11950977146625519, 0.38865476846694946, -0.0949031263589859, -0.16318324208259583, -0.0912788137793541, 0.016811007633805275, 0.13780611753463745, 0.1914302259683609, 0.018902894109487534, 0.0004251125792507082, -0.18516805768013, 0.07817144691944122, -0.03321504965424538, 0.005663658957928419, 0.13163401186466217, -0.08381914347410202, -0.3153916001319885, -0.04226731136441231, 0.027315055951476097, -0.07753800600767136, -0.19275614619255066, 0.35999587178230286, -0.03358056768774986, 0.07889227569103241, 0.1072816476225853, -0.12338562309741974, -0.07245586812496185, 0.16306735575199127, -0.1311545968055725, -0.1547047197818756, -0.07695059478282928, -0.17079879343509674, 0.006219644099473953, -0.0916438028216362, 0.07054230570793152, -0.037476055324077606, 0.36725279688835144, 0.1339062750339508, 0.18912732601165771, 0.045387234538793564, -0.2742197513580322, 0.028449324890971184, 0.4820902347564697, -0.02110176905989647, -0.23313741385936737, 0.27617111802101135, 0.2496456354856491, -0.03725031018257141, 0.005081223789602518, 0.14565709233283997, 0.006186354905366898, 0.2282320261001587, -0.249719500541687, 0.002815541112795472, 0.3308066725730896, 0.07006068527698517, 0.0062519763596355915, -0.23756633698940277, -0.2225394994020462, -0.014309109188616276, 0.2810504734516144, 0.12078158557415009, -0.08533664047718048, -0.11006250232458115, 0.06372474133968353, 0.14972519874572754, 0.48346152901649475, 0.0405866913497448, -0.21299748122692108, 0.03900185227394104, -0.1207759752869606, -0.05115818977355957, 0.12802602350711823, -0.23333488404750824, -0.09440861642360687, 0.27854612469673157, 0.09413186460733414, -0.03308483958244324, 0.04612939804792404, 0.009314597584307194, 0.10773853957653046, 0.2727300524711609, 0.21450887620449066, 0.5888699889183044, 0.1693277359008789, 0.0874389111995697, 0.07993221282958984, -0.09102270752191544, -0.19606737792491913, 0.22917795181274414, 0.03845997154712677, 0.09647834300994873, 0.19697275757789612, 0.29695433378219604, 0.04539203643798828, -0.11446943134069443, -0.09834028035402298, 0.40081658959388733, -0.0739021748304367, -0.09560676664113998, -0.2904002368450165, -0.5714850425720215, -0.010238206945359707, 0.1217527911067009, -0.0445382185280323, -0.008086326532065868, -0.18689875304698944, 0.1833513379096985, 0.1656312346458435, 0.09473194181919098, -0.048446498811244965, 0.01320223044604063, -0.011249512434005737, 0.1600634753704071, 0.07367756217718124, -0.042556971311569214, 0.030344514176249504, 0.017483312636613846, -0.26011940836906433, 0.11771728843450546, 0.04214697703719139, -0.14372321963310242, 0.2509053945541382, 0.025190124288201332, 0.06114150956273079, 0.08601108193397522, -0.1269434243440628, -0.016352033242583275, 0.5937330722808838, -0.051347896456718445, -0.033372409641742706, 0.13359631597995758, 0.3003176748752594, -0.22910167276859283, -0.12387166172266006, 0.04756515845656395, 0.003250142792239785, -0.31389379501342773, -0.14690986275672913, 0.1883905827999115, 0.03908520191907883, 0.037181295454502106, -0.17861512303352356, 0.145331472158432, 0.0050300005823373795, -0.3420501947402954, -0.20592428743839264, -0.060441821813583374, 0.15526220202445984, 0.0019009073730558157, -0.06825710088014603, -0.2324361354112625, 0.17594550549983978, -0.09467611461877823, 0.2332179695367813, -0.10165923833847046, -0.03524896875023842, -0.244598388671875, 0.045003343373537064, 0.11689664423465729, 0.055099405348300934, 0.03308742865920067, -0.030945830047130585, 0.11893337219953537, 0.08196285367012024, 0.0293413233011961, 0.007094018626958132, -0.07902451604604721, -0.0064655570313334465, -0.042585499584674835, 0.034249063581228256, 0.08240333199501038, -0.04300566017627716, 0.07783466577529907, 0.08815298974514008, -0.10134139657020569, -0.34300342202186584, 0.13389839231967926, 0.052348989993333817, 0.22420671582221985, 0.10903753340244293, -0.052703727036714554, 0.11622902005910873, 0.061222370713949203, -0.006801276933401823, -0.12910781800746918, 0.061916910111904144, 0.16825629770755768, 0.04373845458030701, -0.047555357217788696, 0.16836781799793243, 0.11141429096460342, -0.024924762547016144, 0.15997199714183807, 0.6914099454879761, 0.9773160815238953, 0.15668904781341553, -0.6267169117927551, -0.5576399564743042, 0.05197858437895775, 0.08960186690092087, 0.01533553283661604, 0.45256441831588745, 0.3614211976528168, -0.8942567110061646, 0.34553632140159607, -0.17018435895442963, -0.9705356955528259, -0.04474860429763794, -0.221562460064888, -0.15041759610176086, -0.11807938665151596, 0.052759651094675064, -0.5964603424072266, 0.24899861216545105, 0.14794181287288666, -0.06018660590052605, -0.2685297429561615, -0.6006664037704468, -0.19661496579647064, 0.10695295035839081, -0.027677370235323906, 0.2504408657550812, -0.07808373123407364, 0.20040084421634674, -0.18767082691192627, -0.17176242172718048, -0.11620363593101501, 0.7770605087280273, -0.4827319085597992, -0.029777586460113525, -0.06748118996620178, 0.40822964906692505, -0.06734353303909302, -0.0008081626729108393, 0.13254785537719727, -0.24520649015903473, 0.04252951592206955, -0.03842824697494507, 0.30881747603416443, 0.22755423188209534, 0.3335365951061249, 0.08222625404596329, 0.14901426434516907, 0.20320911705493927, -0.17828501760959625, -0.1649022251367569, -0.1004939153790474, -0.21755801141262054, 0.2563784122467041, 0.32936960458755493, -0.03018476627767086, -0.12518590688705444, -0.09374222904443741, 0.07252135872840881, 0.15185336768627167, -0.1230539083480835, 0.3703932762145996, -0.15699733793735504, -0.03983617573976517, -0.07103624194860458, 0.00227646017447114, 0.3303375244140625, 0.01003374345600605, 0.31288522481918335, -0.012292634695768356, -0.0653219223022461, -0.169437438249588, 0.23248477280139923, -0.2198815494775772, 0.09400753676891327, 0.44425660371780396, -0.07716164737939835, -0.24899832904338837, 0.29507777094841003, -0.16922423243522644, -0.17629985511302948, 0.049415428191423416, -0.10082224756479263, -0.0925818607211113, 0.0011018046643584967, -0.11219555139541626, 0.1600574254989624, 0.05590803176164627, 0.3331455886363983, 0.14203304052352905, -0.1829516738653183, -0.14314305782318115, -0.3009859323501587, -0.20596884191036224, 0.14104075729846954, 0.0963708907365799, 0.14209382236003876, 0.1090782955288887, -0.3962152600288391, 0.023129872977733612, -0.14816729724407196, 0.21887324750423431, 0.16080808639526367, 0.2087801843881607, 0.006425451021641493, 0.5416737794876099, -0.012570864520967007, 0.05708155408501625, -0.19288593530654907, 0.12958627939224243, -0.28533318638801575, -0.09566434472799301, -0.029058072715997696, -0.18228866159915924, -0.01859915629029274, -0.11960091441869736, 0.2319399118423462, 0.03198609501123428, -0.5566675662994385, 0.02423071675002575, 0.7836048007011414, -0.15364111959934235, 0.6304235458374023, -0.05992656201124191, 0.20154635608196259, -0.13795991241931915, -0.1409117430448532, 0.004692362621426582, -0.23381853103637695, 0.062149014323949814, 0.24459372460842133, -0.12447849661111832, -0.2411479651927948, 0.22441421449184418, -0.055544424802064896, 0.06607694923877716, 0.09100892394781113, 0.006013607140630484, 0.35805410146713257, 0.04938945546746254, 0.46895328164100647, 0.01722683385014534, -0.4092639088630676, 0.2533574402332306, -0.3095209300518036, -0.03374980017542839, 0.3494437038898468, -0.0474616140127182, -0.1269576996564865, -0.2736366391181946, -0.15197311341762543, -0.5986461043357849, 0.13134297728538513, -0.26314815878868103, -0.112289659678936, 0.26347169280052185, -0.01610608957707882, -0.3636876046657562, -0.010982879437506199, 0.2671041488647461, 0.038455817848443985, -0.12932337820529938, -0.10512495040893555, 0.12024576216936111, -0.32359516620635986, 0.0005601216689683497, -0.3041839897632599, -0.24967095255851746, 0.14288054406642914, -0.1878318190574646, 0.2566574513912201, -0.14907456934452057, 0.33856019377708435, -0.013632232323288918, -0.45737871527671814, 0.20916108787059784, -0.43182116746902466, -0.2076638787984848, -0.052580174058675766, 0.25006914138793945, -0.12351743876934052, -0.33424127101898193, 0.017082951962947845, -0.3254944086074829, -0.09480590373277664, -0.23393841087818146, 0.07375310361385345, 0.11904388666152954, 0.22779780626296997, -0.2910727560520172, 0.08393889665603638, 0.12914347648620605, -0.22701939940452576, -0.3153056502342224, -0.02256135642528534, -0.24148400127887726, -0.030790023505687714, -0.02588038519024849, -0.3489723801612854, 0.004873162601143122, 0.6064492464065552, 0.19325371086597443, -0.019251445308327675, 0.5517716407775879, -0.23176714777946472, -0.2045898288488388, 0.13717958331108093, 0.07681402564048767, -0.11104224622249603, 0.3575063943862915, -0.10478579252958298, 0.0551532544195652, -0.29133498668670654, 0.12398196011781693, 0.24732232093811035, -0.09672202169895172, -0.24542756378650665, -0.0584799163043499, -0.3065614700317383, 0.21247680485248566, 0.05400621145963669, -0.23294338583946228, -0.28440040349960327, 0.1368531584739685, 0.37718141078948975, 0.20894856750965118, -0.0018769517773762345, 0.1155376061797142, 0.26523375511169434, -0.08762058615684509, 0.028613300994038582, 0.12620939314365387, -0.14197713136672974, -0.29619309306144714, -0.2864343822002411, -0.205227792263031, -0.2995811402797699, -0.012158425524830818, 0.319278359413147, -0.18967190384864807, 0.08027328550815582, 0.13428887724876404, -0.30943262577056885, -0.20343001186847687, 0.06260832399129868, 0.19293645024299622, -0.04848294332623482, 0.10718951374292374, -0.13101093471050262, 0.02584761381149292, 0.09647134691476822, 0.14826300740242004, -0.07801848649978638, 0.15311753749847412, 0.19584660232067108, 0.03041454590857029, -0.40340301394462585, -0.19804292917251587, -0.23812243342399597, -0.38577431440353394, 0.07506050914525986, 0.11475113779306412, -0.19516174495220184, 0.05853668227791786, 0.002543173497542739, 0.24308043718338013, 0.03798595815896988, 0.08628877252340317, 0.16317202150821686, 0.037981342524290085, -0.16470485925674438, -0.03835160657763481, 0.08909150958061218, 0.03141162544488907, 0.007704425137490034, -0.036945540457963943, -0.2039690613746643, 0.05792314186692238, 0.018926527351140976, 0.10992120206356049, 0.18681836128234863, 0.06507379561662674, 0.2602996230125427, -0.06586495041847229, -0.08934547007083893, -0.005884224083274603, 0.19976112246513367, 0.09837151318788528, -0.09280139952898026, 0.23783792555332184, 0.05122808739542961, -0.1422295719385147, 0.15327581763267517, 0.12402205914258957, 0.08424478769302368, 0.07547912001609802, 0.1434793323278427, -0.03279738500714302, 0.03752249479293823, -0.04145924374461174, -0.09184274822473526, -0.029299434274435043, -0.2032652348279953, -0.017216816544532776, 0.3131767511367798, 0.12847597897052765, 0.18415164947509766, 0.19159570336341858, 0.195624440908432, 0.06762094050645828, -0.07299713045358658, -0.07113457471132278, 0.038321636617183685, 0.1081910952925682, 0.05103330314159393, 0.179146870970726, 0.00017355589079670608, 0.22857540845870972, -0.055991608649492264, 0.28574371337890625, 0.04073813185095787, -0.005539054051041603, 0.03646821528673172, 0.15060237050056458, 0.04408002272248268, -0.32045644521713257, -0.09277881681919098, -0.10272624343633652, 0.2205440253019333, -0.40536704659461975, 0.04619426652789116, -0.018395258113741875, -0.16955797374248505, -0.020369214937090874, -0.10330715030431747, -0.037954337894916534, 0.21311521530151367, 0.09502290189266205, -0.11655736714601517, -0.051116783171892166, -0.40773385763168335, -0.11625518649816513, 0.19291691482067108, -0.1303294152021408, 0.11938876658678055, 0.027859224006533623, 0.2536311745643616, 0.023300301283597946, -0.14945510029792786, 0.08195937424898148, -0.011259450577199459, -0.14465723931789398, -0.15715892612934113, 0.13976247608661652, -0.07375267148017883, -0.04641588404774666, -0.015781793743371964, -0.32955580949783325, -0.13515883684158325, 0.07520599663257599, 0.26824405789375305, 0.14350400865077972, 0.11271162331104279, -0.1055295392870903, 0.018041200935840607, -0.09153415262699127, 0.2413063645362854, -0.19929400086402893, -0.06952804327011108, -0.018202615901827812, -0.16361883282661438, -0.14919283986091614, 0.1828843355178833, -0.05316648632287979, -0.15558919310569763, 0.3134098947048187, 0.1549215316772461, -0.012902108021080494, -0.2621006667613983, -0.10600826889276505, -0.09032849222421646, -0.2520281672477722, -0.12147390842437744, -0.13651104271411896, 0.08113790303468704, 0.14256969094276428, -0.15770061314105988, -0.4437818229198456, -0.33752790093421936, 0.1052112877368927, 0.4443938732147217, -0.0031198798678815365, -0.03982039541006088, -0.17488789558410645, 0.08057115972042084, 0.22629302740097046, -0.4157063663005829, -0.07144056260585785, -0.25515633821487427, 0.08003460615873337, 0.09535809606313705, 0.05358535423874855, -0.3543755114078522, 0.003363309195265174, 0.07483035326004028, -0.3264042139053345, -0.0055752964690327644, -0.17501811683177948, 0.08123621344566345, 0.13193194568157196, -0.02797844633460045, 0.04152188450098038, 0.1319582760334015, 0.3356831669807434, 0.21478834748268127, -0.025075949728488922, -0.19855007529258728, 0.24617774784564972, -0.16051891446113586, -0.1972973644733429, 0.5209938883781433, -0.10587906092405319, -0.22524823248386383, 0.44640788435935974, 0.10996022820472717, 0.22432981431484222, -0.11225778609514236, 0.2901139557361603, 0.12711313366889954, -0.1745237112045288, -0.11690707504749298, -0.02433110773563385, 0.1049060970544815, -0.04136180505156517, 0.0854988545179367, 0.20476685464382172, 0.3195664882659912, 0.15885072946548462, 0.1447201520204544, 0.06868525594472885, -0.07692200690507889, 0.36433175206184387, -0.06932967901229858, 0.0684676542878151, 0.11948952823877335, -0.05084080621600151, 0.009985671378672123, 0.11606138199567795, -0.006168827414512634, -0.052411988377571106, 0.36070317029953003, 0.010321665555238724, 0.08299510180950165, 0.07952485233545303, 0.06837901473045349, 0.008348105475306511, 0.1718098521232605, -0.32200074195861816, 0.11879553645849228, 0.16245760023593903, 0.05311965197324753, 0.15052486956119537, 0.3580513894557953, -0.1447363793849945, -0.05446358770132065, 0.6158106923103333, 0.24588385224342346, 0.0699983611702919, -0.1549498289823532, -0.0906796082854271, 0.24675855040550232, -0.041237082332372665, -0.04488494247198105, -0.04020318761467934, 0.25837674736976624, -0.3136039078235626, -0.08734643459320068, 0.30839022994041443, -0.028282737359404564, 0.24491648375988007, 0.16457512974739075, 0.06379441916942596, 0.4417608976364136, 0.014172418974339962, 0.3278772234916687, 0.33960309624671936, 0.02105163224041462, -0.020173242315649986, 0.2290879487991333, 0.1995469480752945, -0.1291441172361374, -0.16240116953849792, 0.03814053162932396, -0.05810979753732681, -0.12673145532608032, -0.24546505510807037, 0.19287018477916718, 0.04206221550703049, -0.1588803380727768, -0.04081437736749649, -0.12252839654684067, 0.07507293671369553, 0.09749384224414825, 0.09384506195783615, 0.1461888551712036, -0.1670476645231247, -0.14372557401657104, 0.11253327876329422, 0.00929572805762291, 0.05567830055952072, 0.0385528989136219, 0.04160960763692856, -0.06606857478618622, -0.3688046634197235, -0.01946277543902397, 0.22640050947666168, 0.031069492921233177, 0.2814766466617584, 0.08340660482645035, 0.06487967818975449, -0.09540674090385437, -0.17078164219856262, 0.012758050113916397, -0.08278318494558334, -0.03888476639986038, 0.05994844064116478, -0.18691031634807587, -0.05172322317957878, 0.04678449407219887, -0.17648114264011383, -0.1410185843706131, -0.0019448547391220927, 0.010252617299556732, -0.191076397895813, -0.06652657687664032, 0.057275623083114624, 0.0004197403322905302, 0.08125995844602585, -0.09187523275613785, -0.034869395196437836, 0.006225375458598137, -0.20711158215999603, -0.09030593931674957, 0.0024424789007753134, -0.01625766046345234, -0.012944083660840988, -0.19781367480754852, -0.11147651821374893, 0.23377461731433868, 0.023930680006742477, 0.04297833889722824, -0.16231311857700348, 0.05000676214694977, -0.2679227292537689, 0.20149782299995422, -0.18707436323165894, 0.16579799354076385, 0.01672290451824665, 0.09259350597858429, -0.0286919716745615, 0.2827700972557068, 0.09520190209150314, 0.20845846831798553, -0.13181936740875244, -0.04727255180478096, -0.02621329389512539, -0.464504599571228, -0.3048040568828583, -0.0441112220287323, 0.16364075243473053, -0.11675675213336945, 0.14612634479999542, 0.07794679701328278, 0.09644128382205963, -0.09882406890392303, -0.11630304157733917, 0.30575448274612427, 0.04630078002810478, -0.2903444766998291, -0.16967478394508362, -0.40772199630737305, -0.1105271428823471, 0.0642966479063034, 