{"version": "0.5.2", "metadata": {"date": {"year": 2024, "month": 2, "day": 7, "hour": 8, "minute": 19, "second": 32}, "loudness": -12.08239459991455, "gain": 0.6643339123728232, "name": null, "modeled_by": null, "gear_type": null, "gear_make": null, "gear_model": null, "tone_type": null}, "architecture": "WaveNet", "config": {"layers": [{"input_size": 1, "condition_size": 1, "head_size": 12, "channels": 24, "kernel_size": 3, "dilations": [1, 2, 4, 8, 16, 32, 64, 128, 256, 512], "activation": "Tanh", "gated": false, "head_bias": false}, {"input_size": 24, "condition_size": 1, "head_size": 1, "channels": 12, "kernel_size": 3, "dilations": [1, 2, 4, 8, 16, 32, 64, 128, 256, 512], "activation": "Tanh", "gated": false, "head_bias": true}], "head": null, "head_scale": 0.02}, "weights": [-0.0003073094703722745, 0.5654909610748291, -0.7810214757919312, -0.6492946743965149, -0.3130510151386261, 0.302600622177124, -0.0024890524800866842, 0.7588125467300415, -0.0015878633130341768, 0.16692617535591125, -0.058235809206962585, -0.0023543518036603928, -0.9471529722213745, -0.7620688676834106, -0.1748998463153839, -0.00027883105212822556, 0.2785869836807251, 0.5785378217697144, -0.6609532833099365, -0.2902010679244995, 0.40565231442451477, 0.9047389030456543, -0.29036569595336914, 0.870583176612854, 0.04832960665225983, 0.08998389542102814, 0.08341380953788757, -0.10500538349151611, -0.058551520109176636, 0.01082445029169321, -0.04759256914258003, 0.08761642128229141, -0.11617573350667953, -0.05656082555651665, -0.09674981236457825, -0.14929884672164917, -0.07671833038330078, 0.08285225927829742, 0.009680535644292831, 0.06887847185134888, 0.027688337489962578, -0.010586745105683804, 0.08486737310886383, -0.038247786462306976, 0.0029605464078485966, -0.05918409302830696, 0.08855243772268295, 0.10856787115335464, -0.0730380266904831, -0.013467635028064251, 0.06691540032625198, 0.12021294236183167, 0.05736583098769188, 0.05407799780368805, 0.05669017881155014, -0.09945150464773178, -0.0346941202878952, -0.11509241163730621, -0.09385044127702713, -0.10757956653833389, 0.052761681377887726, 0.03420581668615341, -0.1080872118473053, 0.033297426998615265, 0.05049887299537659, -0.055004533380270004, -0.006289601791650057, 0.006299972999840975, 0.023687073960900307, 0.01721429079771042, -0.17726844549179077, -0.13122496008872986, 0.05437996983528137, 0.11632668226957321, 0.14803852140903473, 0.10779689252376556, 0.03944450616836548, -0.06067316234111786, 0.008400684222579002, -0.08784311264753342, -0.14965902268886566, 0.0958792045712471, 0.06915467232465744, -0.1622900664806366, 0.028109118342399597, -0.003500690683722496, 0.024847831577062607, -0.052557047456502914, 0.05927572026848793, -0.030363548547029495, 0.0329618863761425, 0.04175382852554321, 0.03521961718797684, 0.045989807695150375, -0.10215906798839569, -0.03662043809890747, 0.10368525981903076, 0.013502649962902069, -0.06420731544494629, 0.00642898865044117, -0.09878313541412354, 0.021496577188372612, -0.11934002488851547, 0.1839621663093567, -0.05224783346056938, -0.07372049987316132, 0.12191978842020035, -0.03138692304491997, -0.09074337780475616, 0.2154248058795929, 0.0014142446452751756, 0.1548180729150772, -0.2690995931625366, 0.06379219889640808, 0.043240875005722046, -0.15052175521850586, -0.07652299851179123, 0.07441289722919464, -0.19572392106056213, -0.03194770589470863, 0.02062625251710415, 0.05326005443930626, 0.019322890788316727, 0.15213800966739655, -0.3040200173854828, -0.12214697897434235, -0.15220734477043152, 0.09067458659410477, -0.033962029963731766, -0.20513983070850372, 0.05504783242940903, 0.07672760635614395, -0.14357028901576996, 0.20950433611869812, 0.14662253856658936, -0.08153655380010605, 0.21642911434173584, 0.048770733177661896, -0.06572427600622177, 0.26284927129745483, 0.14847628772258759, -0.04786274954676628, 0.14113576710224152, 0.05104145035147667, -0.02123255841434002, -0.25169482827186584, 0.03386211767792702, 0.07141103595495224, -0.26788291335105896, -0.14595486223697662, -0.18036594986915588, 0.11320166289806366, 0.03593747317790985, -0.020938150584697723, 0.25862446427345276, -0.06524280458688736, 0.1504238396883011, -0.29766663908958435, -0.07690557092428207, 0.01927880384027958, -0.23751690983772278, -0.08364488929510117, -0.18657204508781433, 0.10108670592308044, 0.02759682759642601, 0.06952963024377823, -0.26774248480796814, -0.015142476186156273, -0.04718700796365738, 0.04942971467971802, 0.19046546518802643, -0.047000061720609665, 0.1148422583937645, -0.03478015214204788, -0.11021817475557327, 0.06479578465223312, 0.0637095645070076, -0.05451563745737076, 0.08558367192745209, -0.018579356372356415, 0.012699367478489876, -0.03168611228466034, 0.15916305780410767, 0.032040875405073166, 0.06314801424741745, -0.040433675050735474, 0.03639122471213341, -0.0421353243291378, -0.20266836881637573, 0.0673670843243599, 0.10352402925491333, 0.0038760954048484564, -0.009958142414689064, 0.06057049706578255, -0.045330457389354706, -0.07003802806138992, -0.06166709586977959, -0.03068462386727333, -0.06634839624166489, -0.006020260043442249, 0.07589910179376602, 0.0817708820104599, -0.08851615339517593, -0.004419325850903988, -0.07177814841270447, 0.07288212329149246, 0.03494245558977127, 0.09594583511352539, 0.032771993428468704, 0.09251921623945236, -0.002399935619905591, -0.03206029161810875, 0.09147311002016068, -0.06217849999666214, 0.030887680128216743, 0.06324364244937897, -0.09142913669347763, -0.05424705520272255, 0.018735099583864212, -0.09285364300012589, 0.0006948882364667952, 0.038749080151319504, 0.04016696661710739, -0.005880372598767281, -0.02423105761408806, 0.06003357470035553, -0.08981750905513763, 0.04195896163582802, -0.03821037337183952, -0.009700684808194637, -0.07756728678941727, 0.10109173506498337, 0.02457289956510067, 0.02803456410765648, 0.0703325867652893, -0.08317926526069641, 0.13448145985603333, -0.07954081147909164, -0.040084585547447205, -0.04329634830355644, 0.16959932446479797, 0.1331922709941864, -0.0436362698674202, -0.08316577970981598, 0.05933145806193352, -0.16012094914913177, 0.16352048516273499, -0.09908454865217209, 0.047173693776130676, 0.06169574707746506, -0.06130894646048546, 0.060192838311195374, 0.18269746005535126, -0.030296847224235535, -0.025955626741051674, -0.1259526014328003, -0.11949820816516876, 0.0001379523309879005, 0.03748896345496178, -0.05434064567089081, -0.23913472890853882, -0.011693612672388554, 0.06379200518131256, 0.045816414058208466, 0.06350085139274597, 0.020877808332443237, -0.04268252104520798, -0.06256750226020813, 0.08776963502168655, -0.0017854120815172791, 0.02416052483022213, -0.04990585148334503, -0.07457958906888962, 0.057872332632541656, -0.008436343632638454, 0.08760371059179306, 0.18255187571048737, -0.0779975950717926, 0.03192240372300148, 0.11310385912656784, 0.002796316985040903, -0.032636288553476334, -0.01824512891471386, 0.09200552850961685, 0.06379339098930359, -0.00410624360665679, 0.09768624603748322, 0.12872149050235748, -0.11025203764438629, -0.009056320413947105, -0.11701551824808121, -0.03895358741283417, 0.03869892284274101, -0.048113591969013214, 0.05442819744348526, -0.07292139530181885, 0.1267743706703186, -0.0036406044382601976, 0.05131014063954353, 0.000931660586502403, -0.13884085416793823, 0.019422370940446854, -0.1092546284198761, -0.050778020173311234, 0.025432582944631577, -0.13286736607551575, 0.10114968568086624, 0.051992207765579224, 0.09953094273805618, -0.0928552970290184, -0.09427499026060104, -0.06452490389347076, 0.07188943028450012, 0.007536502089351416, 0.03157078102231026, 0.07618770748376846, 0.05361754447221756, -0.06567850708961487, 0.0457330085337162, -0.10910000652074814, 0.07576807588338852, 0.0146627277135849, -0.20878516137599945, 0.07474721968173981, 0.09359993040561676, 0.0016741271829232574, 0.1426786184310913, 0.0014802174409851432, 0.1574222296476364, -0.1389346420764923, -0.0768563449382782, -0.0965941920876503, 0.05369387939572334, 0.07698531448841095, 0.036448683589696884, -0.019593194127082825, 0.006429349072277546, -0.0020131943747401237, -0.040805086493492126, 0.06994543224573135, 0.07463855296373367, -0.1085662767291069, 0.14926999807357788, 0.007969445548951626, 0.03982241079211235, 0.15711838006973267, 0.06848451495170593, 0.11464444547891617, -0.0783805400133133, -0.08662927150726318, 0.02222887985408306, 0.09043241292238235, -0.13877269625663757, 0.11309485137462616, 0.040013544261455536, -0.044656071811914444, 0.04608262702822685, 0.025429535657167435, -0.07197026908397675, 0.04779426008462906, -0.09276700764894485, -0.013993144035339355, -0.17184945940971375, 0.091755710542202, 0.17792417109012604, 0.04066263511776924, 0.09352914243936539, -0.22263556718826294, -0.014671871438622475, -0.005153951235115528, -0.17890994250774384, 0.15597930550575256, -0.09556372463703156, 0.05178259685635567, -0.18816106021404266, -0.0629846453666687, 0.21626006066799164, 0.03080105409026146, 0.09595466405153275, -0.013837670907378197, 0.1866919845342636, -0.02725963294506073, 0.17037276923656464, 0.038352642208337784, -0.2628479599952698, -0.3493245542049408, -0.5123491883277893, 0.09441138058900833, -0.009902293793857098, 0.051503051072359085, -0.013762542977929115, -0.06358800828456879, -0.06389760971069336, -0.0897337794303894, -0.12344636768102646, 0.08225371688604355, 0.06886369735002518, -0.03824228420853615, -0.05901380628347397, 0.1011946052312851, 0.0943576991558075, -0.011586359702050686, 0.07884704321622849, 0.0621369406580925, -0.02392670325934887, -0.0625518187880516, 0.14844612777233124, 0.08784792572259903, -0.05703365430235863, 0.09263550490140915, 0.00041743949986994267, -0.0166311077773571, 0.12010867893695831, -0.000851040706038475, -0.07152329385280609, -0.035007040947675705, 0.0026822485961019993, 0.00523938937112689, 0.052461836487054825, 0.09660053998231888, -0.02126426249742508, -0.10904935747385025, 0.007202260661870241, 0.03137895464897156, 0.024505455046892166, -0.10340669751167297, -0.03402230888605118, -0.10771049559116364, -0.032449882477521896, 0.0326894149184227, 0.1049133911728859, 0.23115895688533783, 0.11552686989307404, 0.032554179430007935, -0.08943945914506912, -0.018014982342720032, 0.05833693966269493, -0.09536340087652206, 0.034248750656843185, -0.14089511334896088, -0.11042343825101852, -0.12546391785144806, -0.04381433129310608, 0.09206269681453705, -0.09267692267894745, 0.12683714926242828, -0.05586332455277443, 0.0625610500574112, 0.04162820428609848, -0.10826606303453445, 0.0843556746840477, 0.03903042897582054, 0.1335543990135193, 0.08646133542060852, -0.042635317891836166, 0.0949576124548912, 0.008934575133025646, -0.006771993823349476, -0.08401766419410706, -0.017443524673581123, -0.033694587647914886, -0.08432181179523468, 0.007219734601676464, -0.17435887455940247, 0.07780364155769348, 0.04505293071269989, -0.06544535607099533, -0.040575843304395676, -0.09985175728797913, -0.11113226413726807, 0.09639416635036469, 0.11882752925157547, 0.13875506818294525, -0.06467247754335403, 0.147543802857399, -0.03576052561402321, 0.043124008923769, 0.0734897330403328, 0.015094487927854061, 0.01710016280412674, -0.013712020590901375, -0.07917331904172897, -0.023846952244639397, 0.07783292233943939, 0.07437840849161148, 0.059712719172239304, 0.09659804403781891, 0.020455902442336082, 0.07675569504499435, 0.00847609993070364, -0.09521893411874771, -0.05624067410826683, 0.038026630878448486, -0.1665075272321701, 0.13635270297527313, -0.03000071831047535, -0.180588498711586, -0.023007376119494438, 0.10314576327800751, 0.042613591998815536, -0.0524492971599102, -0.07722441107034683, 0.059635281562805176, 0.13102543354034424, 0.10817798972129822, 0.010187962092459202, -0.01010109856724739, 0.06245898827910423, 0.04353191331028938, -0.004243813920766115, -0.052056580781936646, -0.010135531425476074, 0.005759361665695906, -0.05260153487324715, -0.04362178221344948, 0.08612313866615295, -0.04695189744234085, 0.08797749876976013, 0.0223050806671381, 0.006596748251467943, 0.11787967383861542, -0.06881185621023178, 0.037199147045612335, -0.16043002903461456, -0.017030471935868263, -0.04263477027416229, 0.18951328098773956, -0.07242097705602646, -0.11578106880187988, -0.07942259311676025, -0.010916553437709808, 0.3850736618041992, -0.008298572152853012, -0.1529303938150406, -0.36336269974708557, -0.08385051041841507, 0.02711697295308113, -0.3483797609806061, -0.12364605814218521, 0.078623928129673, -0.3200104236602783, -0.04377074912190437, 0.0381937175989151, 0.19940926134586334, 0.08285167068243027, 0.02386869117617607, -0.15445205569267273, -0.02970646321773529, -0.14404913783073425, 0.3890940845012665, -0.028836829587817192, -0.16957947611808777, -0.04026426747441292, -0.1043291911482811, -0.029741480946540833, 0.23966369032859802, 0.04388407990336418, -0.0850868672132492, -0.13667425513267517, -0.016273338347673416, -0.009736396372318268, -0.24359358847141266, 0.0051459805108606815, 0.05093877762556076, -0.35211706161499023, 0.025809653103351593, 0.028462834656238556, -0.294981986284256, 0.009545106440782547, 0.11731874197721481, -0.14778576791286469, 0.008956195786595345, 0.0423319935798645, -0.05293688923120499, 0.09749351441860199, 0.08425911515951157, 0.21696104109287262, -0.04256461188197136, -0.020594287663698196, 0.38457491993904114, 0.04553472250699997, -0.15855561196804047, -0.37897905707359314, -0.053053613752126694, 0.04811845347285271, -0.31462788581848145, -0.044019151479005814, 0.10952664911746979, 0.35923126339912415, 0.16582176089286804, -0.08452529460191727, 0.17170998454093933, -0.022121280431747437, 0.0533054880797863, -0.21005779504776, -0.018741419538855553, -0.027083685621619225, 0.3839452862739563, 0.19519835710525513, 0.04884757846593857, -0.02198307402431965, 0.0023736811708658934, -0.013426301069557667, 0.10375438630580902, -0.06963915377855301, -0.11953743547201157, 0.06883718818426132, -0.034849170595407486, 0.009838510304689407, -0.002164142904803157, 0.008434141986072063, -0.025334294885396957, 0.10667981952428818, -0.0332254022359848, 0.10460740327835083, 0.09476254135370255, 0.04059728980064392, -0.050818491727113724, 0.05294704809784889, -0.08014095574617386, -0.23280586302280426, 0.10337040573358536, 0.007719001732766628, -0.18305166065692902, -0.2101152092218399, -0.20719975233078003, -0.02171647548675537, -0.03181250020861626, -0.12564682960510254, -0.06425882875919342, 0.08482395112514496, 0.05062957480549812, 0.09721571952104568, 0.031718138605356216, 0.07459796965122223, 0.01791089028120041, -0.03918367996811867, -0.09006346017122269, -0.020647453144192696, 0.05832298472523689, -0.04996137693524361, 0.08510240167379379, 0.04517005383968353, 0.026906386017799377, -0.009389831684529781, 0.07002668082714081, -0.008705244399607182, 0.15881507098674774, -0.10217930376529694, -0.047945644706487656, -0.0008197653805837035, -0.05625356733798981, 0.07881397753953934, -0.1493794023990631, -0.09106526523828506, -0.033505845814943314, 0.0863756388425827, 0.11673115938901901, -0.03836740553379059, 0.10376452654600143, -0.03814864903688431, -0.046603765338659286, 0.018289420753717422, -0.0983409658074379, -0.007076276000589132, 0.04267728701233864, -0.009073980152606964, 0.11125881969928741, 0.03331514447927475, 0.08774568140506744, -0.13366495072841644, -0.08546140044927597, -0.26746246218681335, -0.14402687549591064, -0.034752845764160156, 0.0763697698712349, -0.028839588165283203, 0.07137344032526016, 0.0985116958618164, -0.017823075875639915, 0.02686714194715023, -0.06310837715864182, -0.00010190754983341321, -0.08109475672245026, 0.06563697010278702, 0.0906282514333725, -0.09069125354290009, -0.11350617557764053, 0.04731784015893936, 0.11367805302143097, -0.043507955968379974, -0.15845556557178497, 0.24643784761428833, 0.09443692862987518, -0.004113829229027033, -0.0348142609000206, 0.0640711560845375, -0.19086648523807526, -0.0259690098464489, 0.0161100085824728, -0.05767332762479782, 0.10706129670143127, -0.09027557075023651, 0.03627678006887436, -0.1357061117887497, 0.002396730240434408, 0.011236999183893204, 0.044848013669252396, -0.039126187562942505, 0.08918261528015137, -0.0916251540184021, -0.03867759555578232, -0.08939206600189209, -0.18508346378803253, 0.13387702405452728, -0.014910497702658176, -0.0666411891579628, 0.09147335588932037, -0.09271550923585892, -0.0008127857581712306, 0.08109346032142639, -0.09764392673969269, 0.054243072867393494, -0.0873105525970459, -0.08159760385751724, 0.10357555001974106, 0.1262756586074829, -0.0817476436495781, -0.004428854212164879, -0.04733461141586304, -0.010786039754748344, 0.024256955832242966, -0.042055778205394745, 0.0011371413711458445, -0.005343512631952763, 0.08201786875724792, -0.03003271110355854, -0.009918373078107834, 0.05042736604809761, -0.07572688907384872, -0.17436665296554565, -0.011022769846022129, 0.07879737764596939, 0.04369931295514107, 0.051205117255449295, 0.17871712148189545, 0.08958812057971954, -0.05144159495830536, -0.013414285145699978, -0.019134316593408585, -0.10519114881753922, 0.00023658697318751365, 0.06971926242113113, 0.08958419412374496, 0.011845661327242851, 0.009589817374944687, -0.06034165620803833, 0.09074949473142624, -0.06679771840572357, -0.06809180974960327, 0.020755192264914513, 0.09411776065826416, -0.00015023745072539896, 0.12810879945755005, 0.03756484016776085, -0.0721672996878624, -0.02535230666399002, 0.12071720510721207, -0.023434506729245186, 0.004265427123755217, -0.05788642168045044, -0.10298819094896317, 0.05396930128335953, 0.07003068178892136, 0.06376298516988754, -0.07624971121549606, 0.0950789749622345, -0.08985070884227753, 0.10729162395000458, -0.13789628446102142, -0.1151382327079773, 0.07286707311868668, -0.005800134036689997, -0.0033928812481462955, -0.06439267098903656, -0.06829898804426193, -0.04481770843267441, -0.1157626062631607, -0.015861090272665024, 0.08670289069414139, -0.014591976068913937, 0.07786592841148376, 0.12230204045772552, 0.03127552568912506, -0.023382004350423813, -0.03730376809835434, -0.07462290674448013, -0.06187940016388893, -0.02854193188250065, -0.019393544644117355, 0.03520863875746727, -0.058703962713479996, 0.09445920586585999, -0.09962999075651169, 0.01028392743319273, 0.1036754623055458, 0.13802216947078705, -0.057620514184236526, 0.02087385766208172, 0.032896630465984344, -0.06534714996814728, -0.03731485456228256, 0.008664986118674278, -0.07098111510276794, 0.019693057984113693, 0.07004111260175705, -0.06587395071983337, 0.005482436623424292, -0.019549258053302765, 0.11800334602594376, 0.07951128482818604, -0.17123931646347046, 0.006537044886499643, 0.00901306327432394, 0.12093214690685272, -0.08162622153759003, 0.03896697238087654, 0.0934986099600792, -0.046240780502557755, 0.030968138948082924, 0.20180179178714752, 0.04896584525704384, -0.01421385072171688, -0.16309644281864166, -0.04436939209699631, 0.03327174857258797, 0.05489975959062576, 0.011741147376596928, -0.08183106780052185, -0.10747727751731873, -0.055392030626535416, -0.09034597128629684, -0.09645351022481918, 0.13342051208019257, 0.03425879403948784, -0.15357652306556702, -0.05778341367840767, 0.06958477944135666, 0.08987628668546677, -0.0859811082482338, -0.10343299806118011, 0.1875344216823578, -0.1065826565027237, -0.018555909395217896, 0.19146227836608887, -0.16093352437019348, 0.04393070191144943, 0.08309993147850037, 0.0006476211128756404, -0.08912541717290878, 0.18558616936206818, -0.017408957704901695, 0.011098665185272694, 0.25561705231666565, 0.1895749419927597, -0.07570488005876541, -0.1336047500371933, 0.009566619992256165, -0.05510055273771286, -0.10844588279724121, -0.04424518346786499, 0.019189070910215378, 0.019513744860887527, -0.06977073103189468, 0.021575964987277985, 0.1434755176305771, 0.15540112555027008, 0.08081941306591034, -0.1982942372560501, 0.04894205555319786, -0.09124472737312317, -0.247768834233284, -0.15282563865184784, 0.14125290513038635, 0.18972472846508026, 0.12066367268562317, 0.02243657410144806, -0.23158575594425201, -0.03981267660856247, 0.11014390736818314, -0.18785931169986725, 0.11144986003637314, 0.0379178524017334, 0.1776009052991867, -0.05661585181951523, 0.04742345213890076, -0.19823981821537018, -0.01401725597679615, 0.0314745232462883, -0.059771981090307236, 0.08973269164562225, 0.10732016712427139, 0.013337311334908009, 0.09002190828323364, 0.09249875694513321, 0.08089593052864075, -0.24626193940639496, -0.021144412457942963, -0.11643856018781662, -0.05715030059218407, 0.06797470897436142, 0.13640102744102478, 0.00872308574616909, 0.12914972007274628, 0.09943555295467377, 0.05243753269314766, -0.09762319177389145, 0.009646105580031872, 0.03717336803674698, 0.0021029599010944366, -0.036366354674100876, -0.12250496447086334, -0.1152961403131485, -0.021008681505918503, 0.06948671489953995, -0.11332458257675171, -0.049439799040555954, -0.09957678616046906, 0.08192383497953415, -0.05777953937649727, 0.10781218856573105, -0.1252056509256363, -0.20565837621688843, 0.058941587805747986, 0.008291183970868587, -0.10139897465705872, 0.08773957192897797, -0.09019811451435089, 0.17985495924949646, -0.10359534621238708, 0.03468247130513191, 0.01765783503651619, -0.05230855941772461, 0.01494656316936016, -0.14053897559642792, -0.02683522179722786, -0.12231791764497757, -0.2071066051721573, 0.05594608560204506, -0.04348452016711235, 0.02140689827501774, -0.039540696889162064, -0.08874479681253433, 0.00022727984469383955, 0.058152712881565094, 0.05488104745745659, -0.07589925825595856, -0.05759574845433235, 0.046942003071308136, 0.10012093931436539, -0.01770445518195629, 0.0024552929680794477, 0.019279705360531807, -0.20758353173732758, -0.3622779846191406, 0.09948194026947021, 0.1843913048505783, 0.1752498298883438, -0.05783442407846451, 0.1763683408498764, 0.2818591892719269, -0.057492777705192566, 0.19798193871974945, 0.3102543354034424, -0.15854428708553314, -0.06833986192941666, -0.17083263397216797, 0.20310524106025696, -0.09458225965499878, 0.021831581369042397, -0.08827460557222366, -0.2107187956571579, -0.22075609862804413, 0.01906733587384224, 0.03769274428486824, -0.02251826785504818, -0.07567346841096878, -0.08261879533529282, -0.27154481410980225, 0.1557909995317459, 0.0462847501039505, 0.27365338802337646, -0.10992173850536346, -0.002609174931421876, 0.18957121670246124, -0.061753664165735245, 0.11984768509864807, 0.21154552698135376, -0.08075253665447235, 0.07292310148477554, 0.23748545348644257, -0.17611192166805267, 0.07121259719133377, 0.12371321767568588, -0.12910878658294678, 0.011869905516505241, -0.04231474921107292, -0.007344604004174471, -0.10780578851699829, -0.26246464252471924, 0.11598812788724899, -0.07224584370851517, -0.18328407406806946, 0.006177549250423908, 0.08533427119255066, 0.31226956844329834, 0.01804124005138874, 0.06909537315368652, 0.16156212985515594, -0.05781276896595955, -0.019933583214879036, -0.31294772028923035, 0.02492314949631691, -0.04528011754155159, -0.2569275200366974, -0.028418174013495445, 0.01450730673968792, 0.2837356925010681, -0.1413658708333969, -0.015130937099456787, -0.15484730899333954, 0.10096032172441483, -0.030253278091549873, -0.09472700953483582, -0.09809525310993195, 0.03350218012928963, -0.31152746081352234, -0.020271876826882362, -0.10537625849246979, 0.2962857186794281, -0.08234348148107529, 0.09825925529003143, 0.1920650154352188, -0.07390077412128448, 0.034494731575250626, 0.22824880480766296, 0.06595485657453537, 0.07448134571313858, -0.32131287455558777, 0.0976436510682106, 0.004624627996236086, -0.027499791234731674, 0.06468934565782547, 0.09371592104434967, -0.3272930979728699, -0.0038833359722048044, -0.031339842826128006, 0.013775991275906563, 0.00799201987683773, -0.010765258222818375, -0.2743132710456848, 0.11192861944437027, -0.01540696993470192, 0.2733404338359833, -0.1060163751244545, -0.1340433657169342, 0.0937289297580719, -0.07164371758699417, 0.0407671257853508, 0.313274085521698, 0.023732086643576622, -0.019912030547857285, 0.28250783681869507, -0.08262483775615692, 0.08459191769361496, 0.08056161552667618, -0.1422726958990097, -0.13545534014701843, 0.05534377694129944, -0.010486157611012459, 0.06890992820262909, -0.2937040328979492, 0.0627647191286087, -0.0017236670246347785, -0.17247708141803741, 0.09439820051193237, 0.0421670563519001, 0.2137685865163803, -0.014088940806686878, -0.09777271002531052, 0.16445158421993256, 0.06039641425013542, -0.0306538138538599, -0.14371156692504883, -0.03108944371342659, -0.02139933779835701, -0.22287969291210175, -0.101662278175354, -0.023491231724619865, 0.2018989771604538, -0.033631015568971634, -0.01638604700565338, -0.13165654242038727, 0.09427320212125778, -0.1502094715833664, 0.11511003971099854, -0.0895652249455452, -0.08950839936733246, 0.04376959800720215, -0.10423995554447174, -0.06949924677610397, -0.1249222680926323, 0.05565789341926575, 0.027904730290174484, -0.11812110990285873, -0.010304015129804611, 0.0052680643275380135, -0.09017069637775421, 0.0012326205614954233, -0.029275957494974136, -0.008639668114483356, -0.20751772820949554, -0.027224162593483925, 0.039706677198410034, -0.16304461658000946, -0.0034736855886876583, -0.06559722125530243, -0.18436358869075775, 0.10140843689441681, -0.10165020823478699, -0.12699927389621735, 0.05665704607963562, 0.009274308569729328, -0.01245982013642788, -0.045660730451345444, -0.06296718865633011, 0.07719682157039642, -0.01983008161187172, 0.12829138338565826, -0.005175615195184946, -0.021396540105342865, 0.041635170578956604, 0.03826829046010971, -0.07352109253406525, 0.04682009667158127, -0.009862200357019901, 0.012290882878005505, -0.10181481391191483, 0.15316668152809143, 0.013890908099710941, 0.0494978129863739, -0.05954349413514137, -0.08652181923389435, 0.009675667621195316, -0.007377939764410257, -0.086514912545681, -0.0414922796189785, 0.0025750743225216866, -0.03293897956609726, 0.03905993327498436, -0.009587199427187443, -0.046819474548101425, -0.06728941947221756, 0.20060065388679504, 0.06316334754228592, -0.07703891396522522, -0.0820436105132103, 0.012903532944619656, -0.0373535081744194, -0.1692313551902771, -0.05717978999018669, 0.08319444209337234, 0.01420882809907198, -0.06917686015367508, -0.024672342464327812, -0.10030099749565125, -0.15142883360385895, -0.1949661374092102, -0.2660296559333801, -0.09107372164726257, 0.0009493263787589967, -0.11151500791311264, 0.10975626111030579, -0.13981439173221588, -0.012166905216872692, -0.07792948931455612, -0.044343382120132446, 0.1544545292854309, 0.1285829395055771, -0.11854355782270432, 0.06061314418911934, 0.0453043095767498, 0.06769775599241257, 0.021778810769319534, -0.0044561331160366535, -0.05943197384476662, -0.01486134435981512, -0.055989328771829605, 0.08584686368703842, -0.09155058115720749, -0.09055086225271225, -0.03558836132287979, -0.05956517904996872, -0.14412921667099, -0.06663724035024643, -0.1076248437166214, -0.036597058176994324, 0.11497941613197327, 0.06347151100635529, -0.04285541549324989, 0.019048910588026047, 0.13290287554264069, 0.06210712343454361, -0.12904046475887299, -0.048171088099479675, -0.10089461505413055, 0.02600047178566456, 0.12199483066797256, -0.05106130614876747, 0.01166237611323595, 0.15554837882518768, 0.021414535120129585, 0.002197741763666272, -0.04502316936850548, -0.036796826869249344, 0.07453617453575134, -0.1475687474012375, 0.04281476512551308, 0.08926871418952942, -0.13664653897285461, 0.11312611401081085, 0.09171977639198303, 0.016894545406103134, -0.006395465228706598, 0.04431096464395523, -0.026376940310001373, 0.026463104411959648, 0.04737066105008125, 0.006653840187937021, -0.11611929535865784, -0.07193464785814285, -0.009625067003071308, 0.06383276730775833, -0.12828023731708527, 0.006608449388295412, -0.1220831423997879, -0.05883006751537323, -0.11706624180078506, -0.10308718681335449, -0.18414263427257538, -0.07093459367752075, 0.13399170339107513, 0.056158456951379776, -0.15483471751213074, 0.035653550177812576, 0.041767217218875885, 0.13893072307109833, -0.13829529285430908, 0.07062622904777527, 0.14573238790035248, -0.1279449313879013, 0.013435683213174343, 0.1517568975687027, -0.066044881939888, 0.039195239543914795, -0.0004451927379705012, 0.015533397905528545, -0.028909623622894287, -0.076682910323143, 0.12453737109899521, -0.01158627774566412, 0.050835832953453064, -0.16282832622528076, -0.17187945544719696, -0.1934426724910736, -0.017743466421961784, 0.10664241760969162, 0.0016758376732468605, 0.061114974319934845, 0.08419649302959442, -0.03621811047196388, -0.042520519345998764, 0.007738817483186722, 0.09959683567285538, 0.03660232201218605, -0.050553224980831146, 0.011827000416815281, 0.07582644373178482, -0.033922336995601654, -0.032997481524944305, 0.059076882898807526, 0.07803010940551758, 0.012157928198575974, -0.06506720930337906, -0.1262810379266739, -0.01654328592121601, 0.06514962017536163, -0.04959408566355705, 0.04250120744109154, -0.07140249013900757, -0.013256373815238476, -0.04561097174882889, 0.03813685104250908, 0.09350113570690155, 0.12922070920467377, 0.03232405707240105, -0.05376668646931648, -0.033941034227609634, -0.08523821830749512, 0.005669039208441973, 0.06289476901292801, 0.0008594694081693888, -0.002143400488421321, -0.1334962695837021, 0.016495231539011, 0.07534704357385635, -0.06374156475067139, -0.05925906449556351, 0.09063999354839325, -0.02005176804959774, -0.10812563449144363, -0.047206223011016846, 0.01597246527671814, -0.09246250987052917, -0.10952472686767578, 0.015700917690992355, -0.0043662842363119125, -0.044783592224121094, 0.03149010241031647, -0.05471301078796387, -0.03519965335726738, -0.03893597051501274, 0.09921073913574219, 0.04786643385887146, 0.002424173755571246, -0.055318433791399, 0.050737809389829636, -0.10859327018260956, 0.0575316846370697, 0.022965721786022186, 0.05586404353380203, 0.019996531307697296, 0.0076477620750665665, 0.040725838392972946, -0.0775335356593132, -0.12144425511360168, 0.10315921902656555, -0.10414418578147888, 0.012961735017597675, 0.051587533205747604, -0.03544500470161438, 0.11768925189971924, 0.17011484503746033, 0.13311626017093658, -0.0020659700967371464, 0.16706959903240204, -0.04209719970822334, -0.04138997569680214, 0.10628071427345276, 0.03517848253250122, 0.06426414102315903, 0.1744077205657959, -0.05973679572343826, 0.06453434377908707, 0.10348531603813171, 0.11760661751031876, 0.058631278574466705, -0.05828501656651497, -0.1062476858496666, 0.09248658269643784, -0.1316988617181778, 0.06433122605085373, -0.11275883764028549, -0.08358506858348846, 0.01056660432368517, 0.018785249441862106, 0.07145192474126816, 0.048329923301935196, -0.012297515757381916, 0.09216949343681335, 0.10333146899938583, -0.0766918808221817, -0.07143686711788177, -0.05471280589699745, 0.1040559709072113, 0.038768019527196884, 0.012594102881848812, -0.04070597141981125, -0.007238548714667559, 0.0746883973479271, -0.00738493213430047, 0.04939686879515648, 0.11034295707941055, 0.1311495304107666, 0.0717918649315834, -0.07772236317396164, 0.022439513355493546, -0.01720149628818035, 0.060095082968473434, 0.001918609719723463, -0.01922663487493992, -0.08083213120698929, -0.09311416745185852, 0.014094872400164604, 0.02788856439292431, 0.02096823789179325, 0.047826219350099564, -0.05124881863594055, 0.030121449381113052, -0.03427896648645401, -0.09686633944511414, -0.050035260617733, -0.04919152334332466, 0.10226434469223022, 0.09006192535161972, 0.03508841246366501, 0.08200941979885101, -0.02958829514682293, -0.05277000367641449, 0.01768464967608452, -0.010977239347994328, -0.056388359516859055, -0.050030700862407684, -0.045894723385572433, -0.14762112498283386, 0.02875070832669735, 0.09959279000759125, 0.007272306364029646, -0.05501234158873558, -0.09526366740465164, -0.12447746843099594, 0.0031670043244957924, 0.09369950741529465, -0.07765134423971176, -0.06056185066699982, -0.05114714428782463, -0.037190839648246765, -0.08316732197999954, -0.0732039213180542, 0.13439542055130005, -0.05810147523880005, -0.032810028642416, -0.0009758796659298241, -0.10451919585466385, -0.032985419034957886, 0.06559111922979355, -0.04701053351163864, 0.007274970877915621, -0.031512923538684845, -0.11629271507263184, 0.09562165290117264, 0.06329786032438278, 0.07890936732292175, -0.05176342651247978, 0.09194562584161758, -0.11096067726612091, -0.04157149791717529, 0.005408349446952343, -0.03922827169299126, 0.06319717317819595, -0.0829906016588211, -0.014538868330419064, -0.04653402045369148, -0.08111311495304108, -0.045337382704019547, -0.1310970038175583, 0.13488735258579254, 0.07163891196250916, 0.07756934314966202, -0.055009372532367706, -0.0002564866153988987, 0.05772281065583229, 0.13419388234615326, 0.09966591000556946, -0.027642030268907547, -0.08450208604335785, -0.11615362018346786, -0.02738245390355587, 0.11297152936458588, 0.04586971178650856, 0.08103393018245697, 0.07168914377689362, 0.0005725437658838928, -0.04347829893231392, 0.33591917157173157, 0.10063442587852478, 0.015666013583540916, -0.08166655153036118, 0.01957627758383751, -0.01646721363067627, 0.188500314950943, 0.06669922918081284, 0.03965839371085167, -0.11819464713335037, -0.07440400123596191, 0.09654451161623001, -0.01020205207169056, -0.11528712511062622, 0.1369321644306183, 0.015387821942567825, 0.08824334293603897, -0.057179056107997894, 0.05741880461573601, -0.05099998414516449, -0.014936896041035652, -0.007585799787193537, -0.048206429928541183, 0.09720864146947861, -0.00543873431161046, 0.13895297050476074, 0.10730099678039551, 0.002652405761182308, -0.06044859439134598, -0.13940103352069855, -0.05004739388823509, -0.10393819957971573, -0.057221513241529465, -0.015497422777116299, -0.01621568202972412, -0.02536112815141678, 0.09687071293592453, 0.05703159421682358, 0.0017884199041873217, -0.03069397062063217, 0.08199279010295868, 0.07152073830366135, -0.12350577861070633, -0.019595613703131676, -0.04623904451727867, -0.05951473116874695, 0.09141093492507935, 0.010390239767730236, 0.11233887821435928, 0.006182396784424782, -0.04864142835140228, -0.08573038130998611, 0.029633494094014168, -0.021415431052446365, 0.08851265907287598, 0.02955039031803608, 0.12080051004886627, -0.14422392845153809, 0.010114490985870361, 0.0971280038356781, 0.04226680099964142, 0.05886243283748627, -0.00690000643953681, -0.026356205344200134, -0.09665732085704803, 0.03510351479053497, 0.0105772465467453, 0.05617278814315796, 0.12019825726747513, -0.02796606346964836, 0.09135443717241287, 0.07535318285226822, 0.0010911808349192142, -0.06417118012905121, -0.07995304465293884, -0.16156995296478271, 0.015058714896440506, -0.028127923607826233, 0.03373304754495621, -0.08088589459657669, 0.07954680919647217, -0.12215389311313629, -0.04503820836544037, -0.10301090031862259, -0.0025940740015357733, 0.029098911210894585, -0.11330444365739822, -0.011146053671836853, 0.05290611833333969, -0.06960958242416382, 0.013313036412000656, -0.06686235964298248, 0.04188387468457222, -0.013599756173789501, -0.01800030842423439, 0.042160164564847946, 0.0570310540497303, -0.060441430658102036, -0.030541183426976204, 0.10399604588747025, 0.07478757947683334, -0.0076730698347091675, -0.16143576800823212, 0.08069028705358505, 0.08470474928617477, -0.08425366878509521, 0.02076287381350994, 0.03397785499691963, 0.014419732615351677, -0.040610283613204956, 0.11044246703386307, 0.06276184320449829, -0.06279804557561874, 0.0006767764571122825, -0.005563611164689064, -0.003662815084680915, -0.05293388292193413, 0.034118957817554474, 0.03545737639069557, -0.02781113237142563, 0.07397756725549698, 0.021878793835639954, 0.0354309007525444, -0.0592695027589798, -0.1528681218624115, -0.05149363353848457, -0.05382131412625313, -0.0008820802322588861, -0.13165991008281708, 0.05680827051401138, -0.08402533829212189, 0.12237586081027985, 0.036231882870197296, -0.0023173983208835125, -0.0041371178813278675, -0.026143211871385574, 0.00036876744707114995, -0.02317427657544613, -0.1160951480269432, 0.11354810744524002, 0.01351546123623848, 0.10492660105228424, 0.05060901120305061, -0.0034393654204905033, 0.07666902244091034, 0.06675677001476288, -0.11491135507822037, 0.012009969912469387, -0.056354060769081116, -0.05018872767686844, -0.21762947738170624, -0.09430314600467682, -0.02131391316652298, 0.11679191142320633, 0.05481347814202309, 0.06289712339639664, 0.0178915373980999, -0.16138897836208344, -0.001318282913416624, 0.03002995438873768, 0.10847373306751251, 0.0886416807770729, -0.07905545085668564, 0.05093563348054886, 0.043685946613550186, -0.1031825989484787, 0.03790111467242241, 0.08992151916027069, -0.12848885357379913, -0.14837804436683655, -0.0069041503593325615, -0.04081900045275688, 0.011011428199708462, -0.13529899716377258, 0.09286574274301529, 0.013092394918203354, -0.18689239025115967, -0.045458730310201645, 0.0365123450756073, 0.16079694032669067, -0.06422954797744751, 0.05460582301020622, 0.0022476674057543278, 0.0789421871304512, 0.07906361669301987, -0.06083868071436882, 0.08550655096769333, 0.028732461854815483, -0.15773344039916992, 0.026168422773480415, 0.031269147992134094, 0.053726676851511, 0.07374965399503708, -0.05654937028884888, -0.19263021647930145, -0.02817736193537712, -0.04691212996840477, 0.17791222035884857, -0.16165407001972198, -0.06362687051296234, 0.0025305398739874363, -0.08186479657888412, -0.08300860226154327, 0.04254633188247681, -0.0858069360256195, 0.036416348069906235, 0.06978639960289001, 0.0019318893318995833, 0.03499900922179222, -0.07791677117347717, 0.09290047734975815, 0.1359015703201294, 0.0417955182492733, 0.1021265983581543, -0.04700728878378868, 0.07516268640756607, -0.14968836307525635, -0.08139649033546448, 0.07553913444280624, -0.0465480238199234, -0.15174056589603424, -0.12468855828046799, -0.11136794835329056, -0.07883822917938232, -0.02088613063097, 0.05625629052519798, 0.07020515948534012, 0.01740872859954834, -0.049670878797769547, -0.08197291940450668, 0.06678327172994614, 0.021734263747930527, 0.07786048948764801, 0.026447134092450142, 0.09767941385507584, -0.1164439395070076, 0.0779445618391037, -0.051534391939640045, -0.05421232059597969, -0.015614183619618416, -0.020765257999300957, 0.09728903323411942, 0.261416494846344, 0.08459680527448654, 0.05496763437986374, -0.08231349289417267, 0.01661853864789009, 0.11844848841428757, 0.0970369353890419, 0.09854302555322647, 0.044486913830041885, -0.025369875133037567, 0.033655375242233276, -0.06595021486282349, 0.08523117750883102, 0.058583736419677734, -0.06687193363904953, 0.11238854378461838, -0.005935573019087315, 0.016412794589996338, -0.014261492528021336, -0.03390420228242874, -0.014919246546924114, -0.06515472382307053, -0.10380591452121735, -0.03885249048471451, -0.005392389837652445, 0.08555867522954941, -0.002157900482416153, -0.03433450311422348, 0.0012417957186698914, 0.014126748777925968, -0.06744438409805298, -0.01445455476641655, -0.04038206860423088, 0.2420644611120224, -0.001287137158215046, -0.00022529668058268726, 0.0014663058100268245, -0.22128549218177795, -0.0024791171308606863, -0.348837286233902, -0.19328077137470245, 0.00022513819567393512, -0.0010247015161439776, -0.0013040939811617136, 0.00014968487084843218, 0.0012282519601285458, 0.0020047950092703104, 0.002524154493585229, -0.007448887452483177, 0.0021427045576274395, -0.5150349140167236, -0.38462555408477783, 0.28820085525512695, 0.7558672428131104, 0.902273952960968, 0.16620378196239471, 0.011886331252753735, -0.49308252334594727, 0.49772927165031433, -0.5038018226623535, -0.24629969894886017, -0.9857385754585266, -0.868939220905304, 0.6303046345710754, 0.06272733211517334, 0.6921201944351196, 0.7397352457046509, 0.4792826771736145, 0.3408161401748657, -0.23030787706375122, 0.5150710940361023, 0.42092904448509216, 0.36311545968055725, -0.030854888260364532, 0.017145227640867233, -0.020885027945041656, 0.004236608278006315, -0.09322956949472427, 0.1617218255996704, 0.21375665068626404, 0.1168988049030304, 0.01574130728840828, -0.005979121662676334, 0.0011566047323867679, 0.002987889340147376, 0.10898582637310028, -0.00836542434990406, 0.2310982346534729, 0.09676685184240341, 0.00857994519174099, 0.10645992308855057, -0.009595205076038837, 0.001999651314690709, 0.0036463618744164705, 0.0020926152355968952, 0.012646997347474098, -0.1995621919631958, 0.017026741057634354, -0.02751016616821289, -0.0886458232998848, -0.007645371835678816, 0.21308450400829315, -0.16070960462093353, 0.03575790673494339, -0.14097236096858978, -0.13087572157382965, -0.005472091492265463, 0.009815999306738377, 0.002133200876414776, -0.28463900089263916, 0.0007716013351455331, 0.003393221413716674, 0.019265051931142807, 0.0018336958019062877, 0.007838236168026924, 0.003951528575271368, -0.0025553861632943153, -0.003101807553321123, 0.001777808996848762, 0.0045087034814059734, 0.08232736587524414, 0.0019963718950748444, 0.027561461552977562, -0.054858725517988205, 0.016199547797441483, -0.039953477680683136, 0.2367841750383377, 0.06478434801101685, 0.16040301322937012, -0.005340646021068096, 0.003641485469415784, -0.015717817470431328, 0.0039694057777523994, 0.07702536880970001, -0.0062798564322292805, 0.3836134672164917, 0.35214197635650635, 0.09696535021066666, 0.0337538868188858, 0.003958097193390131, 0.007478328421711922, 0.004077429883182049, -0.00017671154637355357, -0.003188184928148985, 0.2009928822517395, 0.034088049083948135, -0.011201420798897743, 0.039959318935871124, -0.02452145516872406, -0.139786034822464, 0.1736113578081131, 0.09278054535388947, -0.03328614681959152, -0.08062265068292618, -0.020556330680847168, -0.003703043330460787, 0.008553644642233849, -0.32813259959220886, 0.01176106370985508, -0.04712658002972603, 0.08824796229600906, -0.08552270382642746, -0.1439831703901291, 0.05654756352305412, -0.017519211396574974, -0.02589653804898262, 0.016256183385849, -0.03335993364453316, -0.1776232123374939, 0.016136089339852333, 0.012909697368741035, -0.03671887889504433, 0.0022004933562129736, 0.2691762447357178, 0.12367715686559677, 0.04618581756949425, -0.13579674065113068, 0.20111680030822754, -0.0011595722753554583, -0.016646940261125565, -0.007731553167104721, 0.013164842501282692, -0.0017900377279147506, 0.17612914741039276, -0.09736062586307526, -0.02030421979725361, 0.21757282316684723, -0.001399987144395709, 0.0017039630329236388, -0.00014247138460632414, -0.0023981723934412003, -0.003158749546855688, 0.19575561583042145, 0.01604793779551983, -0.027966506779193878, -0.11051050573587418, 0.0060687679797410965, 0.19423089921474457, 0.08540701866149902, 0.12347784638404846, 0.12743428349494934, 0.04172421246767044, 0.018119094893336296, 0.006137802265584469, -0.0003144266956951469, -0.2254839837551117, -0.011792258359491825, 0.02169872261583805, 0.11281619966030121, -0.007641178090125322, 0.1498991698026657, -0.027074504643678665, 0.013076016679406166, 0.01657673344016075, -0.0027719028294086456, 0.025384167209267616, -0.12549033761024475, -0.03170940279960632, -0.055219653993844986, 0.1737472116947174, 0.007725126575678587, 0.2951950430870056, -0.02166091464459896, -0.3367741107940674, -0.11824125796556473, 0.10711891204118729, 0.031090758740901947, -0.008572133257985115, 0.008483673445880413, -0.155364528298378, -0.005165937356650829, -0.15369340777397156, -0.03689955547451973, -0.0034040380269289017, 0.18290142714977264, -0.014666398987174034, 0.014407112263143063, 0.01432562991976738, 0.004630511626601219, 0.00748445512726903, 0.0026119020767509937, -0.0471639409661293, -0.03285551071166992, -0.06726974248886108, -0.007697582710534334, -0.0703824907541275, -0.059280481189489365, -0.18807916343212128, -0.034404005855321884, 0.028072549030184746, 0.014184713363647461, 0.013751097023487091, 0.0012379817198961973, 0.01838395930826664, -0.0023105768486857414, -0.3109672963619232, -0.06814055889844894, -0.044215183705091476, -0.06003721058368683, -0.012574546970427036, 0.003792986972257495, 0.0075223916210234165, 0.0006908548530191183, 0.014236810617148876, -0.13989049196243286, -0.0514582134783268, -0.08339329808950424, -0.26930537819862366, -0.0680723488330841, 0.29069241881370544, 0.02950822189450264, -0.05906625837087631, -0.27409496903419495, 0.13336218893527985, -0.03516792133450508, 0.03365282341837883, 0.009935990907251835, 0.23021987080574036, 0.02011466585099697, -0.024513473734259605, -0.024723704904317856, -0.2093699425458908, -0.083610899746418, 0.06757732480764389, -0.037748102098703384, -0.04347151517868042, 0.007869735360145569, -0.02713383175432682, 0.3850992023944855, -0.03571484982967377, -0.024407535791397095, 0.12108220160007477, 0.02480999194085598, -0.1477188616991043, -0.07434801012277603, -0.10322020947933197, 0.02718236856162548, -0.17411044239997864, 0.033589646220207214, -0.01360742561519146, -0.002309228293597698, -0.17038756608963013, -0.009952564723789692, 0.1516067534685135, 0.07987243682146072, -0.016755063086748123, -0.024181220680475235, -0.03821229189634323, 0.023926258087158203, 0.027078010141849518, 0.0016276533715426922, 0.02134406380355358, 0.10302858799695969, -0.03251545876264572, -0.006081119645386934, 0.05570251867175102, -0.005060443188995123, 0.36726710200309753, 0.06012827157974243, -0.0964992567896843, 0.0496472530066967, -0.05587237700819969, 0.006175083573907614, 0.005675518419593573, -0.012381245382130146, -0.0015568331582471728, 0.010701768100261688, -0.2142966389656067, -0.02336243912577629, -0.023876072838902473, 0.26853471994400024, 0.0033202983904629946, -0.0033095127437263727, -0.003108301432803273, -0.00465408293530345, -0.0072069671005010605, 0.12389514595270157, -0.015230467543005943, -0.0002995722461491823, 0.11867039650678635, 0.02454475127160549, -0.07945063710212708, -0.20807257294654846, -0.10138694196939468, -0.06777820736169815, 0.25143441557884216, 0.01873967982828617, -0.008292322978377342, 0.007600750308483839, -0.12304524332284927, -0.012890016660094261, -0.026616470888257027, 0.09167318791151047, 0.04994233697652817, 0.016259754076600075, -0.03848811239004135, 0.016452763229608536, 0.020244507119059563, -0.0019503709627315402, 0.024165168404579163, -0.014066127128899097, 0.004557358101010323, -0.020971033722162247, -0.29241135716438293, 0.019632142037153244, -0.038634996861219406, 0.3679269254207611, 0.01288826484233141, 0.06674060225486755, -0.10861048102378845, 0.025470005348324776, -0.0006972788251005113, -0.00588899664580822, 0.11248423159122467, -0.006662068888545036, 0.06664320826530457, -0.1261730194091797, -0.011442628689110279, 0.22044828534126282, -0.04063993692398071, 0.018417997285723686, 0.02278069406747818, -0.004835270345211029, 0.023558998480439186, -0.14466162025928497, -0.02434569224715233, -0.03252186253666878, 0.17054599523544312, 0.009146565571427345, -0.05268026515841484, -0.11465927958488464, -0.01599423959851265, 0.19132578372955322, -0.025520307943224907, 0.00876830704510212, 0.009262951090931892, -0.0022526648826897144, -0.03087691403925419, -0.008405748754739761, 0.17384037375450134, 0.18345709145069122, -0.011973814107477665, 0.15395189821720123, -0.041150711476802826, 0.009832259267568588, 0.01782526820898056, -6.758789822924882e-05, 0.03287782520055771, -0.23790645599365234, -0.011070654727518559, 0.014022720977663994, -0.2063828557729721, -0.009843298234045506, 0.06090934947133064, -0.009640246629714966, 0.0932110920548439, -0.20340187847614288, -0.09501282125711441, -0.008861524984240532, -0.0014995939563959837, 0.004509238060563803, -0.20668689906597137, 0.0015848606126382947, -0.06036919727921486, 0.2436148226261139, 0.05761370807886124, 0.038204360753297806, 0.021353432908654213, -0.009576719254255295, -0.013717775233089924, 0.0036847307346761227, -0.01369208749383688, 0.016340840607881546, 0.023502493277192116, 0.02277943678200245, -0.011643215082585812, -0.020899776369333267, -0.00811740942299366, -0.2764417827129364, -0.17476008832454681, -0.04579421132802963, 0.11968039721250534, -0.022141138091683388, 0.018217140808701515, -0.005378043279051781, -0.21985787153244019, 0.008629945106804371, -0.00948786549270153, 0.028637591749429703, -0.04867754876613617, 0.01210559532046318, 0.0035173213109374046, -0.020605891942977905, -0.01617985963821411, -0.00559998769313097, -0.009547230787575245, 0.18156762421131134, -0.01903287135064602, 0.01893622614443302, 0.19452351331710815, 0.004976979456841946, 0.1470261663198471, -0.08118513971567154, -0.07379388064146042, -0.2039826363325119, -0.07251907885074615, 0.004363488405942917, -0.00512515427544713, -0.003684772877022624, 0.03312233090400696, -0.0029211363289505243, -0.2947845160961151, -0.06029543653130531, -0.0063880858942866325, 0.25746864080429077, -0.003114289604127407, 0.003852538298815489, 0.0026625432074069977, -0.004996609874069691, 0.003457212122157216, -0.062145598232746124, 0.02129441313445568, -0.03989407420158386, -0.12392131239175797, -0.0020530910696834326, -0.1048235073685646, 0.0507902167737484, -0.19704581797122955, 0.16302980482578278, 0.17016588151454926, 0.019439637660980225, 0.002658798359334469, -0.007241882849484682, 0.003482108935713768, 0.0022883513011038303, -0.16749729216098785, -0.10244009643793106, -0.05434318259358406, -0.10958334803581238, -0.010957032442092896, 0.006606159266084433, 0.007467746268957853, -0.0014286579098552465, 0.0036095634568482637, -0.05162455141544342, -0.055557385087013245, -0.0022759593557566404, -0.04383736103773117, -0.0008146011386997998, 0.10970071703195572, 0.08127718418836594, 0.10467999428510666, 0.1190556138753891, 0.029804939404129982, 0.012770376168191433, 0.0007068246486596763, -0.005784542765468359, -0.03404291719198227, -0.0027566109783947468, 0.1587439924478531, -0.22217664122581482, -0.007263424340635538, -0.07266436517238617, 0.0035565895959734917, 0.004977268632501364, 0.005253300536423922, -0.0017841419903561473, 0.0008433774346485734, -0.06502826511859894, -0.02621418982744217, 0.048438917845487595, -0.24082262814044952, 0.021851809695363045, 0.391203910112381, -0.21434831619262695, -0.30056947469711304, -0.275456964969635, 0.16502369940280914, 0.004976590629667044, -0.022713683545589447, 0.0049339961260557175, -0.06860918551683426, -0.01234700158238411, -0.30804964900016785, 0.047684893012046814, 0.08490641415119171, 0.14856210350990295, -0.007439563982188702, 0.013049515895545483, 0.012194590643048286, 0.001026621786877513, 0.005166312213987112, 0.43949657678604126, 0.02857690118253231, -0.015418275259435177, 0.05310280621051788, -0.00032585844746790826, -0.10028939694166183, 0.09560208767652512, -0.25969043374061584, -0.19556482136249542, 0.16177688539028168, 0.02590179815888405, 0.0007485865498892963, -0.010511372238397598, -0.10334832221269608, 0.00842287763953209, 0.016167206689715385, 0.28755971789360046, -0.07637707889080048, 0.005273264832794666, -0.0008511269115842879, 0.00834951363503933, 0.008595368824899197, 3.040464252990205e-05, -0.0038782937917858362, 0.10285142809152603, -0.04505861923098564, -0.006463121622800827, -0.28349223732948303, -0.0009976100409403443, -0.09188946336507797, 0.1885744333267212, 0.12557567656040192, 0.10470324009656906, 0.2913913130760193, -0.0045365989208221436, -0.00044013423030264676, -0.00016123286332003772, -0.19485294818878174, 0.0006823364528827369, -0.2282707691192627, -0.26577529311180115, 0.010615954175591469, -0.07780499011278152, 0.004292404744774103, -0.001802357379347086, -0.0027608447708189487, -8.261350740212947e-05, -0.0018452623626217246, 0.018663285300135612, 0.010337010025978088, -0.017269322648644447, 0.12604284286499023, -0.03228209540247917, -0.27438539266586304, -0.30803999304771423, -0.1928933709859848, -0.11962852627038956, 0.08758159726858139, -0.010856032371520996, 0.02387731522321701, -0.012129218317568302, 0.09477823227643967, 0.016606023535132408, 0.032383330166339874, -0.13760915398597717, -0.03874625265598297, -0.23751114308834076, 0.037161797285079956, -0.018300093710422516, -0.022419441491365433, -0.0017897814977914095, -0.020368438214063644, 0.0026256879791617393, -0.014562755823135376, 0.03544646129012108, -0.29939600825309753, 0.021557971835136414, 0.008881796151399612, 0.16915473341941833, 0.11324354261159897, 0.1302851438522339, 0.2670017182826996, 0.0009512677206657827, -0.014948236756026745, 0.0035873311571776867, -0.274082213640213, -0.010627693496644497, -0.19864876568317413, -0.22116339206695557, 0.06481192260980606, 0.25133755803108215, -0.01796885021030903, 0.009155605919659138, 0.011335602961480618, 0.0011014400515705347, 0.011409138329327106, -0.06830132752656937, 0.04434111341834068, 0.13242201507091522, -0.05294077470898628, 0.17745620012283325, -0.03409567475318909, -0.002018473343923688, 0.011390222236514091, -0.12371622771024704, -0.15240879356861115, -0.011908658780157566, 0.021174319088459015, -0.05193037912249565, -0.08099202066659927, 0.053245704621076584, 0.10248254239559174, -0.0003143357753288001, -0.08947475254535675, -0.10120555758476257, -0.03521807864308357, -0.006240940652787685, -0.1750727891921997, 0.0052896784618496895, -0.04984250292181969, -0.09144437313079834, -0.16525642573833466, 0.1882706731557846, 0.17923429608345032, 0.08825436234474182, -0.07230508327484131, -0.08077630400657654, -0.15007567405700684, -0.04454341530799866, -0.06160017475485802, -0.10965282469987869, -0.3142893612384796, -0.13589967787265778, 0.05074051395058632, 0.38312047719955444, -0.11617632210254669, 0.19511280953884125, -0.06174977868795395, -0.07012298703193665, 0.10256103426218033, 0.2578587234020233, 0.021298203617334366, -0.030277147889137268, -0.12162980437278748, -0.1403125822544098, 0.14195215702056885, 0.4547676742076874, -0.20277026295661926, -0.1380298137664795, -0.17970117926597595, 0.03730326518416405, -0.074151910841465, 0.11700353026390076, -0.003009720938280225, -0.1453038901090622, 0.264194130897522, 0.1405976116657257, 0.09580189734697342, -0.05013430118560791, -0.1293489634990692, -0.09101573377847672, 0.018818221986293793, 0.0708501785993576, 0.02393716387450695, -0.08156061917543411, -0.03983829915523529, -0.077519491314888, 0.21459588408470154, -0.03825303539633751, -0.02030980959534645, 0.16115453839302063, -0.004388273693621159, -0.17908506095409393, 0.10190378129482269, -0.07585114240646362, 0.07279340922832489, 0.018650304526090622, -0.184546560049057, -0.10602635890245438, 0.37170302867889404, -0.050474487245082855, -0.11912185698747635, 0.2783328890800476, 0.1023055911064148, 0.23952889442443848, -0.11775584518909454, -2.9479149361577583e-06, 0.111812524497509, 0.067357137799263, 0.084722600877285, -0.02478741481900215, 0.01940891705453396, -0.02617673948407173, -0.04259081929922104, -0.22828121483325958, -0.02039267309010029, 0.09353138506412506, -0.31931233406066895, 0.21685747802257538, -0.16941151022911072, -0.12543676793575287, 0.09837327897548676, -0.0668078288435936, 0.08750087767839432, 0.042441852390766144, 0.04074465483427048, -0.21654120087623596, -0.05890336632728577, 0.1877172440290451, 0.02349671721458435, 0.031278327107429504, 0.015097464434802532, 0.022405916824936867, 0.16859468817710876, -0.12489211559295654, 0.09988152980804443, -0.14596831798553467, 0.03105463646352291, -0.11724895983934402, -0.059861697256565094, 0.11212532222270966, -0.16404607892036438, 0.06763850897550583, 0.05566093698143959, -0.045915763825178146, 0.13414102792739868, -0.19802723824977875, 0.04034971818327904, 0.05111030489206314, 0.19710975885391235, -0.031547896564006805, -0.12117704004049301, -0.22198686003684998, 0.12458832561969757, 0.15222051739692688, 0.07804353535175323, -0.25475770235061646, 0.14889691770076752, 0.032960567623376846, -0.2080070525407791, 0.06479030847549438, 0.04211746156215668, 0.07227631658315659, 0.03778664022684097, -0.4202320873737335, 0.04452019929885864, 0.04096270352602005, -0.006882235407829285, 0.1876956969499588, -0.2301773726940155, -0.09674693644046783, 0.0315784215927124, 0.24283067882061005, -0.11494123190641403, -0.024110522121191025, 0.19195835292339325, 0.26877930760383606, -0.0936373695731163, -0.09007963538169861, 0.11081433296203613, -0.0102672278881073, -0.19829106330871582, -0.08615515381097794, -0.195419043302536, -0.13933336734771729, -0.046096183359622955, -0.13887786865234375, -0.22103258967399597, -0.017473429441452026, 0.05717308819293976, -0.08269064873456955, -0.13564454019069672, -0.005755493883043528, 0.06677981466054916, -0.11975020170211792, -0.3710108995437622, -0.050055600702762604, -0.4612695276737213, 0.3133479058742523, -0.13391363620758057, 0.15210551023483276, -0.010004611685872078, -0.12930303812026978, -0.0468672476708889, 0.14616408944129944, -0.15327927470207214, 0.07935851067304611, -0.05521894246339798, -0.14550845324993134, 0.07586819678544998, 0.32616356015205383, 0.290485680103302, 0.16658848524093628, -0.09000130742788315, 0.04563628509640694, -0.058167293667793274, 0.128813698887825, 0.008173744194209576, -0.2736639678478241, -0.08077891916036606, 0.008960461243987083, -0.1770852953195572, -0.18578189611434937, 0.04363230988383293, -0.2760373651981354, -0.006973396521061659, -0.042635876685380936, 0.016119888052344322, -0.10640764236450195, -0.15579071640968323, -0.3554111123085022, 0.006679356563836336, -0.01683707721531391, -0.0814988985657692, 0.007557068020105362, 0.19764643907546997, -0.001506409258581698, 0.08469422161579132, 0.09598056226968765, 0.1406412422657013, 0.07413718849420547, -0.025960810482501984, 0.006587978918105364, -0.10648350417613983, 0.09302659332752228, -0.43545863032341003, 0.1315743327140808, 0.06711295992136002, 0.26718300580978394, -0.06589636206626892, -0.023452138528227806, -0.018350211903452873, -0.14173267781734467, 0.06742469221353531, -0.14170873165130615, 0.04103884845972061, -0.13136300444602966, -0.01878202334046364, -0.08646254241466522, -0.06938956677913666, -0.021103564649820328, 0.09608891606330872, 0.09936045855283737, -0.05368547514081001, 0.09232258796691895, 0.21896947920322418, -0.026922501623630524, -0.18619908392429352, 0.19466666877269745, 0.006561848800629377, 0.07992356270551682, 0.025200868025422096, 0.0034731468185782433, 0.008922585286200047, -0.22634607553482056, -0.001206117682158947, 0.08232387900352478, 0.009012720547616482, -0.012941488064825535, 0.1148037239909172, -0.14823997020721436, 0.06451033055782318, 0.0973125472664833, 0.11183760315179825, -0.12162108719348907, -0.09784600883722305, 0.22799451649188995, 0.0341692790389061, 0.09802674502134323, -0.11123219132423401, 0.08656717091798782, 0.03243054822087288, 0.2816949486732483, 0.06502419710159302, 0.2534538805484772, -0.2991538643836975, 0.10310333967208862, -0.026204651221632957, 0.10113810747861862, -0.0619916208088398, 0.10059060156345367, 0.03412507846951485, -0.15487681329250336, -0.06495144218206406, 0.19302129745483398, -0.024729153141379356, 0.07643172144889832, 0.08771717548370361, 0.1338922083377838, -0.08105960488319397, -0.17637848854064941, 0.06274376809597015, -0.010239489376544952, -0.20160530507564545, -0.03714914992451668, 0.18707230687141418, -0.08675236999988556, 0.14664727449417114, 0.06999491900205612, 0.25387147068977356, -0.11253578215837479, 0.053914207965135574, -0.2844006419181824, -0.05448398366570473, -0.05332997813820839, 0.23587556183338165, -0.06870727241039276, 0.003493098309263587, -0.2608618140220642, 0.005031349137425423, 0.21282164752483368, -0.030389590188860893, -0.0014898692024871707, 0.3925856947898865, 0.04263436049222946, 0.11000343412160873, 0.15307843685150146, 0.06637171655893326, 0.17448276281356812, -0.13877344131469727, 0.10676763206720352, 0.09376230835914612, 0.20541653037071228, -0.2818000018596649, 0.12772580981254578, 0.066164530813694, -0.06929267942905426, 0.0538366362452507, -0.25496888160705566, -0.06305348128080368, 0.26869839429855347, 0.02625926025211811, -0.07862898707389832, -0.1651240587234497, 0.022130919620394707, -0.3460640013217926, -0.3327646851539612, 0.09074045717716217, 0.06584073603153229, -0.10967003554105759, 0.1457592397928238, -0.19942866265773773, 0.05502811819314957, -0.195451557636261, 0.01580384559929371, 0.014928562566637993, 0.006721094250679016, -0.04744759574532509, 0.0038888000417500734, -0.16561707854270935, -0.08271442353725433, 0.07169737666845322, 0.3583768606185913, -0.011703324504196644, 0.1280210167169571, 0.014319505542516708, 0.02783191204071045, -0.1652386635541916, 0.03357142210006714, 0.021955640986561775, 0.373533695936203, -0.024784160777926445, 0.013377565890550613, -0.12468570470809937, -0.15033142268657684, -0.18788716197013855, 0.07097630947828293, -0.05021550878882408, -0.35953113436698914, 0.10773593932390213, 0.15340638160705566, 0.197916641831398, 0.07908736169338226, 0.06173557788133621, 0.05469236895442009, -0.0279765035957098, -0.3359893560409546, 0.0872669443488121, -0.12935490906238556, 0.20197227597236633, 0.0003581585187930614, -0.009753922000527382, 0.15395016968250275, 0.22401994466781616, 0.22775857150554657, -0.27573972940444946, 0.3347642719745636, -0.16431036591529846, 0.03430023044347763, 0.25511518120765686, 0.11546625941991806, -0.2938065230846405, -0.1641358584165573, 0.022596679627895355, -0.4176900088787079, 0.21464470028877258, 0.22306698560714722, 0.07927257567644119, 0.2067873328924179, 0.06500560790300369, 0.012221192009747028, -0.10360176116228104, -0.21804822981357574, 0.10951191186904907, -0.10965383052825928, -0.021040022373199463, -0.2871122658252716, -0.08582302927970886, -0.0029054030310362577, 0.10093815624713898, 0.17696121335029602, 0.027721844613552094, -0.28725868463516235, 0.0692315325140953, 0.1936887800693512, 0.20113222301006317, -0.4386703073978424, -0.19305799901485443, -0.6700599789619446, -0.12827272713184357, 0.2591274380683899, -0.07963987439870834, -0.023732617497444153, -0.00018150292453356087, -0.30040207505226135, 0.5559989809989929, -0.002151021733880043, -0.0803569108247757, 0.2042376846075058, -0.13732610642910004, 0.0258686114102602, -0.42369428277015686, 0.004226728342473507, 0.1185620129108429, -0.15275540947914124, 0.040405966341495514, -0.07712578028440475, -0.20856891572475433, 0.15690858662128448, -0.965737521648407, -0.3323614001274109, -0.3180474042892456, 0.20710422098636627, 0.2806921899318695, -0.22700311243534088, 0.13723576068878174, 0.07858356833457947, -0.13693466782569885, -0.15002815425395966, -0.3106852173805237, -0.15540239214897156, 0.007074794732034206, -0.019511550664901733, -0.08684799820184708, 0.15510748326778412, 0.08208880573511124, 0.24762044847011566, 0.20578254759311676, -0.30106601119041443, 0.00989646464586258, 0.0025008060038089752, -0.13430766761302948, 0.08750513941049576, -0.2799623906612396, -0.06905552744865417, 0.15848401188850403, 0.047752637416124344, -0.018837466835975647, -0.018763486295938492, 0.05240051448345184, -0.058928899466991425, -0.1375555396080017, -0.07552585750818253, -0.01764686219394207, -0.1529531329870224, 0.00017197724082507193, 0.049381956458091736, -0.1099308505654335, 0.19489413499832153, -0.06740511953830719, -0.11939508467912674, 0.26162418723106384, -0.11906703561544418, 0.14391294121742249, -0.22738565504550934, 0.027957240119576454, -0.005336033180356026, -0.045132316648960114, 0.08797632902860641, -0.08750643581151962, -0.36980965733528137, 0.03285517543554306, -0.01989561878144741, -0.09756553918123245, -0.15545351803302765, 0.09107355773448944, 0.16300123929977417, -0.3433341979980469, -0.03507059067487717, 0.10304050892591476, -0.14380009472370148, -0.09528471529483795, -0.1725771129131317, 0.014049333520233631, -0.16977213323116302, -0.038681238889694214, 0.1523139476776123, 0.043358929455280304, -0.38266265392303467, 0.215957909822464, 0.18654464185237885, -0.08744597434997559, -0.12850305438041687, -0.16536465287208557, 0.3447091281414032, -0.0680595338344574, -0.005382409784942865, 0.14130093157291412, 0.1129743829369545, -0.12739704549312592, 0.062848299741745, 0.1112469956278801, 0.16082912683486938, 0.09445871412754059, 0.1306496560573578, 0.013961128890514374, -0.09461411833763123, 0.028115009889006615, 0.2555912137031555, 0.062998928129673, 0.15213869512081146, 0.12741895020008087, 0.012823527678847313, -0.1345936357975006, 0.21190178394317627, -0.18579456210136414, -0.09222658723592758, -0.1284361332654953, 0.014214616268873215, 0.4356984496116638, -0.29120728373527527, 0.017085149884223938, 0.26767468452453613, -0.032335907220840454, 0.2636312246322632, 0.1683645397424698, -0.17064392566680908, -0.06011193245649338, 0.05066315457224846, 0.012341771274805069, 0.28880801796913147, 0.22221046686172485, -0.04712332785129547, -0.02558455802500248, 0.07855433225631714, 0.21692919731140137, 0.06023553013801575, 0.264213502407074, 0.30536845326423645, -0.1474180966615677, -0.34458112716674805, -0.3702772855758667, 0.10665831714868546, 0.2602923512458801, 0.11310936510562897, -0.01775319129228592, -0.12145228683948517, 0.03664770349860191, 0.3630164861679077, 0.4347500503063202, 0.33218714594841003, -0.07384548336267471, -0.14862175285816193, -0.06134531646966934, 0.05699831619858742, -0.16348394751548767, 0.05658804252743721, 0.05273440480232239, 0.02660156972706318, -0.216834157705307, 0.06666143983602524, 0.004103717859834433, -0.12044055014848709, 0.31701987981796265, 0.2098548859357834, -0.3411013185977936, 0.015256185084581375, 0.11630484461784363, 0.16180334985256195, 0.01687248796224594, 0.15315581858158112, -0.12560297548770905, -0.008091939613223076, -0.21419528126716614, -0.19933083653450012, 0.035596828907728195, 0.08536537736654282, -0.20666004717350006, 0.13549619913101196, -0.027017712593078613, -0.1028732880949974, 0.1607983261346817, 0.14035919308662415, -0.020595328882336617, 0.14980114996433258, -0.12879927456378937, -0.16191352903842926, -0.2449103444814682, 0.07630303502082825, -0.03361520916223526, 0.09947230666875839, -0.00465996190905571, 0.07473067194223404, -0.06882137060165405, 0.1404077559709549, -0.01180892251431942, -0.04754013940691948, -0.07098326086997986, 0.1687614470720291, -0.18105801939964294, 0.03411117196083069, 0.05969942361116409, 0.31985151767730713, -0.2041100114583969, -0.08889418095350266, 0.20106138288974762, 0.03383823484182358, -0.19906538724899292, -0.08619606494903564, 0.23401877284049988, 0.12515020370483398, -0.05653507634997368, -0.113385871052742, 0.003631124971434474, -0.03099648840725422, 0.16095997393131256, -0.07704947143793106, 0.20040829479694366, 0.0850207507610321, -0.0704096183180809, 0.17022114992141724, 0.14802049100399017, -0.013296586461365223, 0.2114715874195099, -0.15218743681907654, -0.07849027961492538, -0.03234068304300308, 0.09707913547754288, 0.09828338772058487, -0.1703958958387375, 0.07766032963991165, 0.10299437493085861, -0.0531383715569973, 0.2150789350271225, 0.10259076952934265, 0.004208962433040142, -0.16415433585643768, 0.09330511093139648, 0.10521984845399857, -0.2721002399921417, 0.057141248136758804, -0.26466670632362366, -0.04868655279278755, 0.05304446816444397, 0.02257167361676693, -0.14592882990837097, -0.03775067254900932, -0.17860747873783112, 0.10214869678020477, 0.09943882375955582, 0.22574347257614136, 0.0526324063539505, 0.0964931771159172, -0.0395977646112442, -0.08632098138332367, 0.020612899214029312, 0.07669218629598618, 0.0201458390802145, -0.15715596079826355, 0.21399113535881042, -0.12029259651899338, -0.10589754581451416, 0.2439553290605545, -0.3372974395751953, 0.14302121102809906, -0.006801166106015444, -0.2386169731616974, 0.17226164042949677, 0.280372679233551, -0.10175511986017227, 0.219169020652771, 0.026297884061932564, -0.061134014278650284, 0.21532228589057922, -0.2161773294210434, 0.2482936829328537, 0.1787298619747162, -0.08539705723524094, 0.13450519740581512, -0.1526946723461151, 0.4482710659503937, -0.12036572396755219, 0.09370770305395126, -0.17857886850833893, 0.34550464153289795, 0.24188879132270813, 0.14546477794647217, -0.18664683401584625, -0.16791188716888428, 0.039530523121356964, -0.026972128078341484, -0.052985355257987976, 0.1314561516046524, -0.05676742643117905, 0.03818833827972412, -0.0012805166188627481, -0.058464519679546356, -0.03550495207309723, -0.02672293409705162, 0.04678013548254967, -0.11193301528692245, 0.07662703841924667, -0.14114230871200562, 0.13462287187576294, -0.05679482966661453, -0.27662885189056396, 0.015190141275525093, -0.20014961063861847, -0.04727013409137726, 0.19998550415039062, -0.07225023955106735, 0.18884332478046417, 0.05255468189716339, -0.12972316145896912, -0.13236115872859955, 0.2184022217988968, -0.010653931647539139, 0.11545263230800629, -0.05979999527335167, -0.09016463905572891, -0.00643894774839282, 0.17407077550888062, -0.14599335193634033, -0.14784961938858032, 0.12460868805646896, -0.06364238262176514, 0.2593667805194855, 0.036988358944654465, 0.04296514019370079, -0.031304020434617996, 0.2273685336112976, -0.12989450991153717, -0.636624813079834, -0.046033330261707306, -0.3088828921318054, -0.1523217260837555, 0.22359520196914673, 0.07254238426685333, 0.08465651422739029, 0.058610230684280396, 0.23739905655384064, 0.3182830512523651, -0.09644314646720886, 0.08941695094108582, 0.11795097589492798, 0.01038183830678463, -0.0745459496974945, 0.030159378424286842, -0.16533038020133972, 0.13857771456241608, -0.04187926650047302, -0.05909444019198418, 0.15963833034038544, 0.42983582615852356, 0.13036657869815826, -0.1068270280957222, -0.2650827467441559, -0.5391528010368347, -0.14591306447982788, -0.15589694678783417, 0.030810238793492317, -0.14267230033874512, 0.038549281656742096, -0.0038506435230374336, -0.1891462653875351, 0.14323748648166656, 0.24168696999549866, 0.17561529576778412, 0.16597117483615875, 0.0465465746819973, 0.2855697572231293, 0.7083188891410828, -0.3635866343975067, -0.009234555065631866, -0.025583963841199875, -0.1488373577594757, 0.13830053806304932, -0.09532033652067184, 0.1241682693362236, 0.37859123945236206, 0.44281086325645447, -0.07124129682779312, -0.043619073927402496, -0.03548445180058479, -0.1903519332408905, 0.035077184438705444, 0.006438784766942263, 0.04181651398539543, -0.018776698037981987, -0.11801070719957352, -0.22458462417125702, -0.016373133286833763, 0.07349930703639984, -0.13521456718444824, 0.07909709960222244, 0.02505635842680931, 0.02107030153274536, 0.17064428329467773, -0.040010739117860794, 0.06162554770708084, 0.026374155655503273, -0.1809881627559662, -0.05826472118496895, -0.05548805370926857, -0.07463665306568146, -0.1389312446117401, -0.35610461235046387, 0.20853865146636963, -0.043701641261577606, -0.23939290642738342, 0.10065636038780212, 0.0806155800819397, -0.021444538608193398, 0.09934641420841217, -0.05207020416855812, -0.03052133321762085, 0.08026659488677979, -0.020670421421527863, 0.010058365762233734, 0.030373280867934227, 0.14251063764095306, 0.2060614824295044, -0.1529967039823532, 0.014056544750928879, -0.13479657471179962, 0.16634991765022278, 0.05867884308099747, 0.06484530866146088, -0.22114767134189606, -0.11552167683839798, -0.14783160388469696, 0.2201911211013794, 0.2924239933490753, -0.01707277074456215, -0.03754228726029396, -0.06901033967733383, 0.01942274533212185, -0.03485333174467087, -0.08689513057470322, 0.182352215051651, 0.007930523715913296, -0.15089401602745056, 0.06974493712186813, -0.20308096706867218, 0.1287456750869751, 0.05597890913486481, 0.15899378061294556, -0.1289786994457245, -0.14349552989006042, 0.2604108452796936, 0.23816505074501038, -0.008363984525203705, -0.17958693206310272, -0.101678766310215, 0.04191020503640175, -0.2341584414243698, -0.21140366792678833, 0.09292345494031906, 0.12376660853624344, -0.14081083238124847, 0.09021899104118347, -0.059861261397600174, 0.05063312128186226, 0.008249950595200062, 0.0660364106297493, -0.09729837626218796, 0.14871373772621155, 0.11480371654033661, -0.16839255392551422, 0.0717611312866211, -0.29904764890670776, 0.07731713354587555, 0.08142827451229095, 0.16761383414268494, -0.04834727942943573, -0.005070936866104603, 0.12287862598896027, -0.07156169414520264, -0.14858666062355042, 0.04870596528053284, 0.042118657380342484, 0.0645856112241745, -0.07174881547689438, 0.2682707905769348, -0.11082037538290024, -0.00817057304084301, -0.07269470393657684, -0.18368986248970032, -0.10886343568563461, 0.07106674462556839, -0.23629775643348694, 0.05213110148906708, 0.17104780673980713, 0.09507784992456436, -0.022595912218093872, -0.12834154069423676, 0.25409135222435, -0.12300713360309601, 0.044930070638656616, -0.23191845417022705, 0.13497048616409302, -0.12333624809980392, 0.1567200869321823, -0.024811845272779465, 0.004902638029307127, 0.02784915454685688, 0.1934201866388321, 0.04040063917636871, 0.0788973793387413, -0.286723792552948, 0.2002429962158203, 0.08411283046007156, -0.06755097210407257, -0.07804440706968307, -0.08445100486278534, -0.23081238567829132, -0.28500625491142273, -0.17362794280052185, -0.062375757843256, 0.13222846388816833, -0.050913192331790924, 0.004324603360146284, -0.07623223960399628, -0.4087976813316345, -0.28908395767211914, -0.018912045285105705, -0.015340243466198444, 0.0034115463495254517, 0.06965096294879913, -0.10192615538835526, -0.18761399388313293, 0.020342523232102394, -0.01295388676226139, 0.20434895157814026, -0.14687767624855042, -0.2008003145456314, -0.2650652229785919, 0.05805044248700142, 0.10409817099571228, -0.08519238233566284, 0.038057614117860794, 0.029071152210235596, 0.1423056423664093, 0.05186157673597336, -0.21943704783916473, -0.05499432981014252, -0.08444411307573318, 0.13207922875881195, 0.03368515893816948, 0.2003362625837326, 0.04659422114491463, -0.2764859199523926, -0.13213929533958435, 0.3750216066837311, -0.10119909048080444, 0.09944931417703629, 0.22611333429813385, -0.052720677107572556, 0.02286580391228199, 0.14002656936645508, -0.19337064027786255, -0.1420750468969345, -0.3692474663257599, 0.16414819657802582, 0.1038452684879303, -0.2058405727148056, 0.031823571771383286, -0.02683285064995289, 0.33669835329055786, -0.1939837485551834, 0.10652425140142441, -0.3192422091960907, 0.2985496520996094, -0.03745405375957489, 0.024696428328752518, -0.20789740979671478, 0.07759010046720505, -0.06891833990812302, 0.07723142206668854, 0.1804487556219101, -0.031671471893787384, 0.07135194540023804, 0.1083282083272934, -0.05545608699321747, 0.33124688267707825, 0.0949304923415184, 0.20097528398036957, 0.04797513782978058, 0.11718809604644775, 0.12060808390378952, 0.033084895461797714, 0.04608743637800217, 0.03388737514615059, -0.3179784417152405, -0.11211923509836197, -0.08590435981750488, 0.12270709127187729, 0.267000675201416, -0.07286745309829712, 0.30093950033187866, 0.039142243564128876, 0.38310715556144714, 0.055652838200330734, -0.14889122545719147, -0.3977249264717102, -0.09045825153589249, -0.09351455420255661, 0.28165215253829956, -0.027040207758545876, 0.053485896438360214, -0.03960473835468292, -0.02324269711971283, -0.08160120248794556, -0.008508726954460144, 0.17439265549182892, -0.06159001588821411, 0.06667321920394897, 0.09943623095750809, 0.032720111310482025, -0.1571352630853653, -0.08454816043376923, 0.09064020961523056, 0.07020995765924454, 0.11605805903673172, -0.13997915387153625, -0.117129385471344, 0.21569399535655975, 0.005646282806992531, -0.11667723208665848, 0.14894802868366241, 0.07125858217477798, -0.05467444658279419, -0.031430069357156754, 0.27323809266090393, -0.0578615628182888, -0.1568712294101715, -0.2946484088897705, 0.046934377402067184, 0.11218833178281784, -0.1905709207057953, -0.20124275982379913, 0.0030761195812374353, -0.008194467052817345, 0.06793197244405746, -0.23578952252864838, 0.005884398240596056, 0.09110397100448608, 0.049286555498838425, -0.045131999999284744, 0.04674208536744118, -0.10160940885543823, 0.05272580683231354, -0.06540422141551971, 0.02155379205942154, -0.1598084717988968, 0.01627284288406372, -0.004607467912137508, -0.06749793887138367, -0.2335079312324524, -0.014921114780008793, 0.13154637813568115, -0.11171232163906097, -0.11932756751775742, 0.13989998400211334, 0.05758674442768097, 0.008332166820764542, 0.0712609738111496, -0.07963191717863083, 0.014288908801972866, -0.03511223569512367, 0.04448990151286125, 0.055642977356910706, -0.11772144585847855, -0.12273514270782471, -0.05764439329504967, 0.023149333894252777, 0.015512215904891491, -0.1790991872549057, 0.0409509502351284, -0.20568321645259857, 0.019009362906217575, 0.16156978905200958, 0.0603238046169281, -0.013203037902712822, 0.02484387718141079, -0.24623019993305206, 0.22450383007526398, -0.0054324921220541, -0.0756835788488388, 0.08520103245973587, -0.03466690704226494, 0.19757695496082306, -0.1652495265007019, -0.07730173319578171, 0.43653324246406555, -0.19625109434127808, -0.18749426305294037, -0.01392192393541336, -0.19164031744003296, 0.020842913538217545, 0.042358189821243286, 0.05238621309399605, -0.05075785145163536, 0.03124832734465599, -0.08169148117303848, 0.019727913662791252, -0.2430068403482437, 0.33404892683029175, 0.1070217415690422, -0.0895175114274025, 0.22830969095230103, 0.1763148158788681, 0.1530235856771469, -0.12092157453298569, -0.07167027145624161, -0.37228161096572876, 0.05255052074790001, -0.11499913781881332, 0.5207247138023376, -0.18281960487365723, -0.08289873600006104, 0.020670641213655472, 0.15133847296237946, 0.006955757271498442, -0.17051197588443756, 0.08508619666099548, 0.1506686806678772, -0.015546095557510853, 0.2252303659915924, 0.19633892178535461, -0.28876441717147827, 0.11822732537984848, 0.07766390591859818, -0.08091627061367035, -0.24083684384822845, 0.007966236211359501, 0.39398637413978577, -0.24645449221134186, -0.33901235461235046, 0.012743396684527397, 0.3498702943325043, -0.16218018531799316, -0.4694829285144806, 0.2874184846878052, 0.14707423746585846, -0.14105162024497986, -0.2786695659160614, 0.064712293446064, -0.05185331776738167, 0.08925904333591461, 0.018552200868725777, -0.04173380136489868, -0.05269813537597656, 0.02636644057929516, -0.12902185320854187, -0.035212669521570206, -0.06840356439352036, -0.029134631156921387, 0.16658850014209747, 0.042348556220531464, -0.1643051654100418, -0.021497009322047234, 0.15125511586666107, -0.11684657633304596, 0.05446992442011833, 0.07910475134849548, -0.07047931849956512, 0.27551186084747314, 0.22803190350532532, -0.06981895118951797, -0.010554440319538116, -0.03465364873409271, -0.07295501232147217, 0.1459340900182724, 0.17222747206687927, 0.10495434701442719, -0.18474772572517395, -0.3120151162147522, 0.27274295687675476, 0.03878379240632057, 0.2619819939136505, -0.04613478481769562, -0.06120031327009201, 0.12282072007656097, -0.16506792604923248, 0.031302522867918015, 0.04341794177889824, 0.1777639538049698, 0.013461340218782425, -0.18407461047172546, -0.07995452731847763, 0.1056789755821228, 0.15715235471725464, -0.10163690149784088, 0.11627048999071121, 0.08818439394235611, -0.17363044619560242, 0.1846214383840561, 0.020438674837350845, -0.028456687927246094, 0.11159714311361313, 0.01596083492040634, -0.11595474928617477, -0.08530095219612122, -0.07623684406280518, 0.18806064128875732, 0.028335027396678925, -0.1047384962439537, 0.16472579538822174, 0.08062472194433212, -0.09169164299964905, 0.04967525601387024, 0.2606106996536255, 0.21888171136379242, 0.11614346504211426, 0.025064362213015556, 0.0041291178204119205, 0.18143709003925323, -0.06445660442113876, -0.038050055503845215, 0.0961613655090332, 0.04261704534292221, -0.1430109590291977, 0.15836383402347565, -0.0070399753749370575, -0.22121143341064453, 0.10487885028123856, 0.05156170576810837, -0.03315958008170128, -0.1488116979598999, -0.05630446597933769, -0.09828682243824005, 0.1293225884437561, 0.09941554814577103, 0.10364236682653427, -0.08310095965862274, 0.05085207521915436, -0.018467728048563004, -0.159446120262146, -0.10775312781333923, -0.07089872658252716, -0.07570452988147736, 0.025917917490005493, 0.008147258311510086, -0.13327611982822418, -0.10020564496517181, -0.11312784999608994, -0.10731977969408035, 0.03288257494568825, 0.07286228984594345, -0.0012408498441800475, 0.04490883648395538, 0.12434592843055725, -0.13620483875274658, 0.17554467916488647, -0.009232978336513042, -0.13506044447422028, -0.13827823102474213, 0.015842517837882042, -0.0033253750298172235, -0.00591211998835206, -0.011042396537959576, -0.09740687161684036, -0.07525082677602768, -0.11693158000707626, 0.17090271413326263, -0.020111577585339546, 0.07964462786912918, -0.05219999700784683, 0.07649698853492737, -0.1475730538368225, -0.030488228425383568, 0.041071776300668716, 0.027102984488010406, 0.04207783192396164, -0.09226679056882858, -0.07076157629489899, 0.0236810315400362, 0.03858589753508568, 0.19296257197856903, 0.07952294498682022, -0.07772687822580338, 0.12557831406593323, -0.3731204569339752, -0.30132195353507996, -0.40956464409828186, 0.18681742250919342, 0.09930568933486938, 0.03904951363801956, -0.0008449778542853892, -0.031780995428562164, 0.10972753167152405, 0.007386430632323027, -0.1456737071275711, 0.04201775789260864, -0.13297604024410248, -0.15979674458503723, 0.14816294610500336, 0.08246488869190216, 0.028825635090470314, -0.021364696323871613, -0.13747142255306244, 0.02279801480472088, 0.1762574464082718, -0.18858300149440765, -0.06972023844718933, 0.06781956553459167, 0.04895659536123276, 0.267749160528183, 0.38202404975891113, -0.3600230813026428, -0.1252674013376236, 0.09363997727632523, 0.0932844951748848, 0.023626964539289474, 0.018609723076224327, -0.03489624708890915, -0.04429280757904053, 0.075251005589962, 0.1131117194890976, -0.1915440857410431, -0.14611788094043732, -0.06499826908111572, -0.07852533459663391, -0.07198674231767654, -0.1033548042178154, -0.05249156802892685, -0.11604160070419312, -0.05280429869890213, 0.13945844769477844, 0.20182693004608154, 0.2059144675731659, 0.12415240705013275, 0.052043139934539795, -0.14846040308475494, 0.07406158745288849, 0.1480349749326706, -0.0361122265458107, 0.038980405777692795, 0.001168393180705607, 0.04208087548613548, 0.22078494727611542, 0.32112768292427063, -0.016427291557192802, 0.1732017695903778, 0.16110441088676453, 0.020294615998864174, -0.15686938166618347, -0.27228212356567383, -0.01448578666895628, 0.02336529642343521, -0.1395181119441986, 0.17449195683002472, 0.13174991309642792, 0.0921376496553421, 0.021791627630591393, -0.10836673527956009, 0.1920822262763977, -0.0522533543407917, -0.1138141006231308, -0.06998688727617264, 0.1229109913110733, -0.03686695173382759, 0.06006370484828949, 0.11205769330263138, 0.0758909061551094, -0.10514618456363678, 0.024704648181796074, -0.04603356868028641, 0.020426157861948013, 0.11385294049978256, 0.07051482796669006, -0.14718510210514069, -0.34288355708122253, 0.06809722632169724, -0.19426380097866058, 0.14234265685081482, 0.1810431331396103, -0.17358240485191345, 0.005234261509031057, 0.05951094627380371, -0.06980008631944656, -0.16683262586593628, 0.08789529651403427, 0.13506978750228882, 0.09327667951583862, -0.08566465973854065, 0.07002884894609451, -0.0128958560526371, -0.08135291934013367, 0.1918710172176361, -0.04563279449939728, -0.11087680608034134, 0.03564714267849922, 0.1380913406610489, -0.13080233335494995, 0.023732930421829224, -0.15509872138500214, 0.1890411525964737, -0.0932692363858223, -0.028551548719406128, 0.022290753200650215, 0.03930719196796417, 0.22617441415786743, 0.03153369575738907, -0.04003418982028961, 0.08647797256708145, -0.16068200767040253, -0.20473653078079224, 0.23118925094604492, 0.2298656702041626, 0.03149973601102829, -0.16093869507312775, 0.24252761900424957, 0.016071783378720284, -0.21390919387340546, 0.34041523933410645, -0.038827184587717056, 0.18431918323040009, -0.24208396673202515, 0.08180554956197739, -0.09557318687438965, -0.12571825087070465, 0.2333216667175293, 0.08763183653354645, -0.21778029203414917, -0.12617836892604828, 0.06597302854061127, -0.025904610753059387, 0.3481678366661072, -0.24075838923454285, 0.31568241119384766, 0.04289918392896652, -0.015422413125634193, -0.2315903604030609, 0.23249521851539612, -0.037946369498968124, -0.10038548707962036, 0.000607414054684341, -0.15675784647464752, -0.23192329704761505, 0.04470011591911316, -0.07256592065095901, -0.13815851509571075, 0.14718517661094666, 0.11288948357105255, 0.1060064360499382, -0.0695694163441658, -0.12791916728019714, -0.04793327674269676, 0.06424681097269058, -0.028051981702446938, -0.3593539297580719, 0.11226285994052887, 0.09552741795778275, 0.3119712173938751, 0.038935448974370956, 0.02702374942600727, 0.11502451449632645, -0.19993841648101807, 0.0740322694182396, 0.09266425669193268, -0.050102729350328445, 0.030534332618117332, -0.011705152690410614, -0.18216882646083832, 0.02613687701523304, 0.2567403316497803, -0.11794314533472061, 0.0931096076965332, 0.04712015017867088, 0.11742875725030899, 0.24640800058841705, 0.19484657049179077, -0.1546405702829361, -0.0806838721036911, -0.2857610285282135, 0.29516544938087463, 0.11874838918447495, -0.056454095989465714, -0.13037113845348358, -0.13187220692634583, -0.1544005274772644, 0.13428500294685364, 0.1853528618812561, 0.1169896200299263, -0.14412273466587067, 0.08035360276699066, -0.0016848432132974267, 0.1623544543981552, 0.05631681904196739, 0.06653919816017151, -0.29816457629203796, 0.048161499202251434, 0.10792966187000275, -0.11609039455652237, -0.05386402830481529, -0.12332688271999359, -0.028335824608802795, 0.1943741887807846, 0.17243802547454834, -0.15904925763607025, 0.011149282567203045, 0.023416562005877495, 0.150822252035141, 0.2019331157207489, 0.13110892474651337, -0.09343969076871872, 0.027118463069200516, -0.2263193130493164, 0.1004534587264061, 0.1030852422118187, 0.13218900561332703, -0.08476490527391434, 0.10468942672014236, 0.28001731634140015, 0.1163180023431778, -0.265034556388855, 0.19323617219924927, 0.007328642997890711, -0.2234877198934555, 0.10947958379983902, -0.10541269183158875, -0.31238043308258057, 0.2978770434856415, 0.5582539439201355, -0.24784161150455475, -0.12016744911670685, 0.01184823364019394, -0.06420116126537323, 0.07885323464870453, 0.07651477307081223, 0.2093132883310318, -0.22163355350494385, -0.09310493618249893, -0.011577428318560123, -0.11500035971403122, -0.23357944190502167, 0.23322030901908875, -0.3951866626739502, -0.1735885739326477, -0.19769397377967834, 0.03385738655924797, 0.07731641829013824, -0.32804200053215027, 0.08976669609546661, 0.3828182816505432, 0.7323712110519409, -0.4384905993938446, -0.2075350135564804, -0.582305908203125, 0.059219952672719955, 0.4122437536716461, 0.06668230891227722, -0.012038862332701683, 0.16792316734790802, -0.5370746850967407, 0.5404048562049866, 0.32261359691619873, -0.03804554045200348, 0.04770035669207573, -0.02112821489572525, 0.33238449692726135, -0.07489735633134842, 0.039456091821193695, 0.15805281698703766, -0.15617015957832336, 0.006590059492737055, -0.12062692642211914, -0.3662148118019104, 0.09912994503974915, 0.03305675461888313, -0.25277888774871826, 0.11148636043071747, 0.10949497669935226, -0.08765098452568054, -0.27255409955978394, 0.0466163344681263, 0.08410868048667908, -0.0871327668428421, 0.09386048465967178, -0.29415321350097656, -0.13433586061000824, 0.11528244614601135, -0.13003264367580414, -0.026054145768284798, -0.16288109123706818, -0.1432785838842392, -0.36449843645095825, 0.06549572944641113, 0.035166963934898376, 0.16130642592906952, -0.03692356497049332, -0.06959252804517746, 0.055523790419101715, 0.05751563981175423, 0.29645583033561707, 0.19075967371463776, 0.09206937253475189, -0.2642728388309479, 0.06580480188131332, 0.16496801376342773, 0.08261292427778244, 0.01743413880467415, -0.09856651723384857, -0.27729925513267517, 0.05892867594957352, 0.09921523183584213, -0.06218390539288521, -0.1773536503314972, 0.15486307442188263, -0.13602957129478455, 0.2484230250120163, 0.09515814483165741, 0.22922252118587494, 0.11265984922647476, -0.12439828366041183, -0.0661274865269661, 0.10062694549560547, -0.02808896265923977, -0.08430547267198563, -0.29367804527282715, -0.2206224799156189, 0.0751681998372078, 0.15329234302043915, -0.05512072890996933, 0.07108276337385178, 0.013260993175208569, -0.07806337624788284, 0.32107722759246826, 0.07988692075014114, -0.0077912588603794575, 0.18330807983875275, 0.023888925090432167, -0.08856287598609924, -0.2378842979669571, 0.12773025035858154, -0.05545312538743019, 0.025900568813085556, 0.058634962886571884, -0.08232206106185913, -0.1713617593050003, -0.14685913920402527, -0.23662729561328888, -0.16718007624149323, 0.27682772278785706, 0.1232534795999527, -0.004112587310373783, 0.01834680885076523, 0.05288293957710266, -0.034322310239076614, -0.16944901645183563, -0.05382441356778145, -0.09259916096925735, -0.07421011477708817, 0.10124937444925308, 0.12145067006349564, -0.0920482948422432, -0.3560144901275635, -0.19899879395961761, -0.2479497641324997, 0.05812721326947212, -0.10570751875638962, 0.051719143986701965, 0.016116192564368248, -0.03211532533168793, -0.12872539460659027, -0.35888123512268066, 0.07089029997587204, 0.04339274764060974, 0.43895649909973145, -0.13890208303928375, -0.23443922400474548, -0.1004665344953537, 0.03142065182328224, -0.14372475445270538, 0.3071174621582031, -0.06334955245256424, -0.015366513282060623, 0.0427064411342144, 0.02413112111389637, 0.10525115579366684, 0.8956307768821716, -0.73688143491745, -0.3450905382633209, 0.03341641277074814, 0.00584923243150115, 0.022852487862110138, 0.19067902863025665, -0.04663596674799919, -0.21371670067310333, 0.15994738042354584, 0.010742433369159698, 0.10829540342092514, -0.16110098361968994, 0.044517289847135544, -0.06354203820228577, -0.14668181538581848, 0.04555477574467659, -0.08089421689510345, -0.03385981544852257, -0.026651602238416672, -0.08019115030765533, 0.17942392826080322, 0.02368774823844433, -0.07331328839063644, 0.4045026898384094, -0.038764964789152145, 0.02355954796075821, 0.024576133117079735, -0.10065114498138428, -0.06672275066375732, -0.23425111174583435, 0.02879198268055916, -0.10065106302499771, 1.4321964979171753, -0.1209992840886116, 0.40491488575935364, 0.07299136370420456, -0.007152845151722431, -0.03214689716696739, -0.07815458625555038, 0.06020210310816765, 0.06597196310758591, 0.08536015450954437, 0.2052210122346878, 0.09402122348546982, 0.0068693459033966064, -0.11678154766559601, 0.02649315632879734, -0.045083627104759216, 0.07206844538450241, -0.006143650505691767, -0.11973219364881516, -0.0032724812626838684, -0.029665162786841393, 0.12568704783916473, 0.0006845650495961308, -0.14536960422992706, 0.08184130489826202, 0.008264724165201187, -0.07384243607521057, 0.18759483098983765, 0.18188075721263885, 0.02198176272213459, -0.22126644849777222, 0.06883127242326736, 0.08637290447950363, -0.06305798143148422, 0.33759942650794983, 0.1771470159292221, -0.029469579458236694, 0.0010272159706801176, 0.052572622895240784, 0.029897624626755714, 0.24873754382133484, 0.2418462038040161, 0.3923199772834778, -0.6302891969680786, 0.07126729190349579, 0.6833773851394653, -0.13167424499988556, -0.8723217248916626, 0.7134239077568054, -0.2885666787624359, -0.3101121485233307, 0.531627893447876, -0.01083474699407816, -0.558201789855957, -0.3234737515449524, -0.5191549062728882, -0.08963320404291153, -0.3990142345428467, -0.6644287705421448, 0.664667010307312, 0.3049924075603485, 0.060206495225429535, 0.16965734958648682, -0.0816778615117073, 0.09244631230831146, 0.026363985612988472, 0.12212920188903809, -0.01179045531898737, 0.022977396845817566, -0.17858147621154785, 0.22138260304927826, 0.0162227563560009, -0.29542550444602966, -0.020891927182674408, -0.015111955814063549, 0.14098772406578064, -0.3474111258983612, 0.1601700633764267, 0.21632899343967438, -0.01629878394305706, 0.026175791397690773, -0.1724037528038025, -0.17258483171463013, -0.10148639976978302, -0.19847603142261505, 0.03469499945640564, -0.012678205035626888, 0.244303360581398, 0.21389083564281464, 0.04750841110944748, 0.1079842820763588, -0.14457561075687408, 0.35738101601600647, -0.19431449472904205, -0.27770039439201355, 0.19275297224521637, 0.32744285464286804, 0.007095451932400465, -0.2662476599216461, 0.013636309653520584, -0.4387432634830475, 0.16997087001800537, 0.20957916975021362, -0.3383561074733734, 0.2140524536371231, 0.08097659051418304, 0.529502272605896, -0.05714478716254234, 0.2232685685157776, 0.02161838673055172, -0.04508785903453827, 0.08912438899278641, 0.1829046756029129, 0.16645756363868713, 0.18578645586967468, -0.13033634424209595, 0.07416559755802155, -0.17321449518203735, -0.14084561169147491, 0.19033542275428772, 0.22327247262001038, -0.047331664711236954, -0.15180817246437073, -0.1823219209909439, -0.010641511529684067, -0.06042373552918434, -0.06257658451795578, -0.1278960108757019, 0.04232305660843849, -0.03372573107481003, 0.2540335953235626, 0.04091612249612808, 0.01847965456545353, -0.009451672434806824, -0.030255775898694992, 0.01919931173324585, 0.1776607185602188, -0.08919225633144379, -0.03577539324760437, -0.2683076858520508, -0.19466014206409454, -0.1710623800754547, 0.008020461536943913, 0.3013937175273895, 0.005491720512509346, 0.13676433265209198, 0.07598017156124115, -0.14738549292087555, -0.35673925280570984, 0.15640144050121307, 0.15088142454624176, -0.2334056943655014, 0.06180192530155182, -0.19640997052192688, 0.11695387214422226, 0.09129355847835541, 0.03753507137298584, -0.08276201039552689, 0.2558053433895111, -0.051549240946769714, 0.21035444736480713, 0.012335202656686306, -0.13598807156085968, -0.17000775039196014, -0.2824329435825348, 0.04479053243994713, -0.027452224865555763, -0.21334809064865112, 0.029572680592536926, -0.052917953580617905, -0.050380755215883255, 0.12157003581523895, 0.1947498768568039, 0.1608511209487915, -0.07995537668466568, -0.14958031475543976, 0.15903246402740479, -0.11646157503128052, 0.0518631748855114, -0.09435471147298813, 0.0003294275957159698, -0.06656704843044281, 0.16197672486305237, -0.1631757915019989, 0.09174888581037521, 0.11399747431278229, 0.12250547111034393, 0.06960368901491165, -0.10995011031627655, -0.074057936668396, -0.1735272854566574, -0.033179786056280136, 0.034686215221881866, -0.05752955377101898, -0.15559448301792145, -0.03342316299676895, -0.22303521633148193, -0.18420304358005524, 0.22972474992275238, -0.2645939886569977, -0.11959525942802429, 0.21826224029064178, 0.054914262145757675, 0.18437813222408295, -0.002434783149510622, 0.030410489067435265, 0.04280824959278107, 0.14344558119773865, 0.1380540132522583, -0.013683505356311798, -0.03289590775966644, -0.013040595687925816, -0.025061797350645065, 0.10829073190689087, -0.16025425493717194, -0.07759854197502136, -0.07174470275640488, 0.07982473820447922, 0.025382012128829956, -0.19182038307189941, 0.013750666752457619, 0.051973674446344376, 0.18133799731731415, -0.11650550365447998, 0.1262599378824234, 0.04674446955323219, -0.1636604368686676, -0.0010497173061594367, 0.18670187890529633, 0.0639229491353035, 0.04898272082209587, -0.07831767946481705, -0.08139285445213318, 0.02570492960512638, -0.21551737189292908, 0.09287478774785995, -0.011782358400523663, 0.13796351850032806, 0.001774273463524878, -0.2078000158071518, 0.04653836041688919, 0.0011796775506809354, -0.0042329151183366776, -0.13502919673919678, 0.21453964710235596, -0.18344487249851227, -0.22023536264896393, 0.021837173029780388, -0.09814588725566864, 0.1792498081922531, -0.014087952673435211, 0.18110692501068115, 0.06231916323304176, -0.006710817106068134, -0.026264335960149765, 0.21763581037521362, -0.039218612015247345, -0.03712496906518936, 0.26345136761665344, 0.4027882218360901, -0.19947786629199982, -0.024389654397964478, -0.48269736766815186, 0.0511280819773674, -0.024143515154719353, 0.06414280831813812, -0.2040097713470459, -0.1168004721403122, 0.03324514999985695, 0.2424810379743576, -0.14631657302379608, 0.2186231017112732, -0.030617492273449898, -0.1336626559495926, -0.22600941359996796, -0.07843336462974548, -0.35556110739707947, -0.2912214398384094, 0.15536978840827942, -0.1339152306318283, -0.07243537157773972, 0.04513490945100784, -0.06422916799783707, -0.15433526039123535, -0.2872338593006134, -0.02552483230829239, -0.061325885355472565, -0.10558336228132248, -0.19725051522254944, 0.01988789439201355, 0.1894020438194275, 0.26621243357658386, 0.19860348105430603, -0.08269085735082626, -0.17889226973056793, 0.05089391767978668, -0.31064876914024353, 0.17003613710403442, -0.09915543347597122, -0.2682466208934784, -0.07562807947397232, -0.08954480290412903, 0.0019096425967290998, 0.03189997375011444, 0.08101627975702286, 0.014547770842909813, -0.05394557863473892, -0.2183632254600525, -0.4288392663002014, -0.05628658086061478, -0.3190150260925293, 0.08881313353776932, 0.05423292890191078, -0.0778801217675209, 0.01504936907440424, -0.3608303964138031, -0.16397833824157715, 0.07223649322986603, 0.2894608676433563, 0.036444831639528275, -0.14017774164676666, 0.4047795832157135, -0.21863271296024323, -0.07566432654857635, 0.051627106964588165, 0.10716935992240906, 0.11479350924491882, 0.11498541384935379, -0.016858667135238647, 0.22345386445522308, -0.0400153286755085, 0.10508754849433899, 0.2529909610748291, -0.15040579438209534, 0.007015442010015249, -0.041597142815589905, -0.08931780606508255, -0.07861658930778503, 0.1471569687128067, -0.18537159264087677, -0.14209283888339996, 0.09131775051355362, 0.16532015800476074, -0.0507175475358963, 0.06363639235496521, -0.08266521245241165, 4.706598701886833e-05, 0.20416833460330963, 0.1108023151755333, 0.11046190559864044, 0.025658922269940376, -0.12063475698232651, 0.20089291036128998, -0.023502277210354805, -0.15999171137809753, -0.07919465750455856, 0.16459457576274872, -0.01920323073863983, -0.18685314059257507, 0.19623006880283356, 0.07143176347017288, 0.13795991241931915, -0.3023969531059265, -0.1926726996898651, -0.12814408540725708, 0.050534024834632874, 0.2084052860736847, 0.0002144589670933783, -0.04643428698182106, 0.037514541298151016, -0.16700471937656403, 0.1442432403564453, -0.00021906445908825845, -0.0915917381644249, -0.41060832142829895, 0.19347268342971802, -0.2226203978061676, 0.12530231475830078, -0.14447516202926636, 0.05695624276995659, -0.054176848381757736, 0.07349271327257156, -0.06066754087805748, -0.08572737872600555, 0.27761110663414, 0.03998087719082832, 0.018148066475987434, 0.07845797389745712, 0.08218418806791306, 0.14341838657855988, -0.05342145636677742, 0.04058003053069115, -0.1718614548444748, 0.20679929852485657, 0.113484226167202, 0.06069677323102951, 0.10715066641569138, 0.12440064549446106, 0.1231922060251236, 0.05064927786588669, -0.055277418345212936, 0.050998300313949585, 0.17732112109661102, 0.11821521818637848, 0.09158364683389664, 0.16469471156597137, -0.07638827711343765, -0.06140873208642006, 0.21367056667804718, 0.06652586162090302, -0.053426679223775864, 0.1639653593301773, 0.09004073590040207, -0.15864527225494385, 0.16064228117465973, -0.06294456869363785, 0.08891937136650085, -0.11717254668474197, -0.30312708020210266, -0.2507302463054657, 0.029844116419553757, -0.02364472486078739, -0.07783309370279312, -0.11371386051177979, -0.04505191370844841, -0.17751091718673706, -0.07738173007965088, 0.1792500764131546, -0.07094501703977585, 0.10566410422325134, 0.14428319036960602, -0.05701291933655739, 0.03370299190282822, -0.1687777191400528, -0.07250455021858215, 0.2176651954650879, -0.029581600800156593, 0.18906152248382568, -0.0809105709195137, 0.05361371114850044, -0.0840485692024231, 0.05282185599207878, -0.19641169905662537, -0.2220534384250641, -0.15940441191196442, 0.07591351866722107, -0.1169556975364685, -0.135238915681839, 0.1448337286710739, -0.009830266237258911, -0.33416345715522766, -0.15307345986366272, -0.22530224919319153, 0.11634158343076706, 0.1911667287349701, 0.005406993441283703, -0.27645260095596313, 0.09924782067537308, -0.009540623985230923, 0.2684248983860016, -0.04863783344626427, 0.12475653737783432, -0.1104673519730568, -0.0630120262503624, -0.21392321586608887, 0.15646488964557648, 0.14212007820606232, 0.20527887344360352, -0.12633728981018066, -0.02703792229294777, 0.02100568264722824, -0.0746791884303093, -0.15165723860263824, -0.013623759150505066, 0.09145306795835495, 0.0658491775393486, 0.04645068570971489, 0.21182534098625183, 0.008352531120181084, 